tree
version=v4
num_class=1
num_tree_per_iteration=1
label_index=0
max_feature_idx=194
objective=binary sigmoid:1
feature_names=start protein_len relative_pos closest_distance Degree Closeness Betweenness Hub_Score gene_age g_start ponp3_score aaindex_ANDN920101 aaindex_ARGP820101 aaindex_ARGP820102 aaindex_BEGF750101 aaindex_BEGF750102 aaindex_BHAR880101 aaindex_BIGC670101 aaindex_BUNA790101 aaindex_BUNA790103 aaindex_BURA740101 aaindex_BURA740102 aaindex_CHAM810101 aaindex_CHAM820102 aaindex_CHAM830102 aaindex_CHAM830103 aaindex_CHAM830104 aaindex_CHAM830105 aaindex_CHAM830107 aaindex_CHAM830108 aaindex_CHOP780204 aaindex_CHOP780205 aaindex_CHOP780206 aaindex_CHOP780207 aaindex_CHOP780213 aaindex_CHOP780214 aaindex_CHOP780215 aaindex_DAYM780101 aaindex_DAYM780201 aaindex_EISD860102 aaindex_FASG760102 aaindex_FASG760103 aaindex_FASG760104 aaindex_FASG760105 aaindex_FAUJ880101 aaindex_FAUJ880105 aaindex_FAUJ880107 aaindex_FAUJ880108 aaindex_FAUJ880111 aaindex_FAUJ880112 aaindex_FAUJ880113 aaindex_FINA910101 aaindex_FINA910102 aaindex_FINA910103 aaindex_FINA910104 aaindex_GEIM800102 aaindex_GEIM800103 aaindex_HUTJ700101 aaindex_ISOY800106 aaindex_ISOY800107 aaindex_ISOY800108 aaindex_KARP850103 aaindex_KHAG800101 aaindex_KLEP840101 aaindex_LEVM760103 aaindex_MAXF760103 aaindex_MAXF760105 aaindex_MAXF760106 aaindex_NAKH900103 aaindex_NAKH900104 aaindex_NAKH900109 aaindex_NAKH900113 aaindex_NAKH920103 aaindex_OOBM850102 aaindex_OOBM850103 aaindex_OOBM850105 aaindex_PALJ810111 aaindex_PALJ810113 aaindex_PRAM820101 aaindex_QIAN880101 aaindex_QIAN880102 aaindex_QIAN880103 aaindex_QIAN880114 aaindex_QIAN880115 aaindex_QIAN880117 aaindex_QIAN880123 aaindex_QIAN880124 aaindex_QIAN880125 aaindex_QIAN880127 aaindex_QIAN880128 aaindex_QIAN880129 aaindex_QIAN880137 aaindex_QIAN880138 aaindex_QIAN880139 aaindex_RACS820101 aaindex_RACS820102 aaindex_RACS820103 aaindex_RACS820105 aaindex_RACS820106 aaindex_RACS820107 aaindex_RACS820109 aaindex_RACS820110 aaindex_RACS820112 aaindex_RACS820113 aaindex_RACS820114 aaindex_RICJ880101 aaindex_RICJ880104 aaindex_RICJ880105 aaindex_RICJ880106 aaindex_RICJ880108 aaindex_RICJ880109 aaindex_RICJ880110 aaindex_RICJ880113 aaindex_RICJ880114 aaindex_RICJ880115 aaindex_RICJ880116 aaindex_RICJ880117 aaindex_ROBB760107 aaindex_ROBB760109 aaindex_ROBB760111 aaindex_ROSM880103 aaindex_SNEP660101 aaindex_SNEP660103 aaindex_SNEP660104 aaindex_SUEM840102 aaindex_TANS770102 aaindex_TANS770106 aaindex_TANS770108 aaindex_VASM830101 aaindex_VASM830102 aaindex_VASM830103 aaindex_VELV850101 aaindex_WERD780102 aaindex_WERD780103 aaindex_WOLS870103 aaindex_YUTK870102 aaindex_YUTK870103 aaindex_AURR980101 aaindex_AURR980102 aaindex_AURR980103 aaindex_AURR980104 aaindex_AURR980106 aaindex_AURR980107 aaindex_AURR980116 aaindex_AURR980117 aaindex_AURR980118 aaindex_AURR980119 aaindex_AURR980120 aaindex_KUMS000101 aaindex_NADH010107 aaindex_FUKS010101 aaindex_MITS020101 aaindex_WILM950103 aaindex_WILM950104 aaindex_SUYM030101 aaindex_GEOR030101 aaindex_GEOR030103 aaindex_GEOR030104 aaindex_GEOR030105 aaindex_DIGM050101 aaindex_KARS160118 aaindex_KARS160119 aaindex_KARS160120 aaindex_KARS160122 W_U Alphahelix Beta-sheet B_Beta T/C G_helix vlow_conf Conservation Accessibility p_idr p_tmp p_repeat p_domain p_swissport_CARBOHYD p_swissport_MOD_RES p_swissport_DISULFID p_swissport_BINDING p_swissport_ACT_SITE p_swissport_SIGNAL p_swissport_CROSSLNK p_swissport_INTRAMEM p_palindrome g_exon Housekeeping Essential Haploinsufficient Redundancy Pseudogene Duplicate up5seq_bitScore down5seq_bitScore
feature_infos=[1:4694] [79:4967] [0.0002399232245681:1] [0:2477] [2:608] [0.125:1] [0:9520239.1380000003] [0:0.86599999999999999] [3:4290] [48872:247896053] [0.154076923076923:0.49003764581124098] [3.9500000000000002:4.7599999999999998] [0:2.6499999999999999] [0.050000000000000003:3.23] [0.059999999999999998:1] [0.55000000000000004:0.97999999999999998] [0.29499999999999998:0.54400000000000004] [36.299999999999997:135.40000000000001] [0:8.7469999999999999] [0:9.4000000000000004] [0.12:0.53800000000000003] [0.20000000000000001:0.53300000000000003] [0:1.02] [-2.2400000000000002:4.9100000000000001] [-0.25800000000000001:0.51300000000000001] [0:2] [0:2] [0:1.5] [0:1] [0:1] [0.44:2.4399999999999999] [0:1.8300000000000001] [0.34000000000000002:1.55] [0.16:1.8600000000000001] [0.012999999999999999:0.30099999999999999] [0.012999999999999999:0.191] [0.052999999999999999:0.16700000000000001] [1.3:8.5999999999999996] [18:134] [0:10] [178:344] [-86.200000000000003:14.6] [8.3499999999999996:10.640000000000001] [1.8200000000000001:2.4300000000000002] [0:4.1900000000000004] [1:1.8999999999999999] [0:17.800000000000001] [-0.01:0.14999999999999999] [0:1] [0:1] [0:5.6900000000000004] [0.59999999999999998:3.2000000000000002] [0.69999999999999996:13] [0.69999999999999996:1.7] [0.10000000000000001:1.7] [0.81999999999999995:1.3200000000000001] [0.20000000000000001:1.8600000000000001] [23.710000000000001:69.319999999999993] [0.27000000000000002:1.78] [0:2.7799999999999998] [0.39000000000000001:3.0299999999999998] [0.80300000000000005:1.0569999999999999] [-3.6000000000000001:133] [-1:1] [0:122] [0.32000000000000001:3.1400000000000001] [0:3.8399999999999999] [0.35999999999999999:1.95] [1.03:15.359999999999999] [-1.3600000000000001:2.04] [1.0700000000000001:10.94] [0.37:3.1200000000000001] [1.6000000000000001:8.1099999999999994] [-4.6500000000000004:3.3199999999999998] [-2.21:3.2799999999999998] [-0.78000000000000003:10.68] [0.54000000000000004:1.6699999999999999] [0:2.6400000000000001] [0.19500000000000001:0.39100000000000001] [-0.25:0.26000000000000001] [-0.37:0.26000000000000001] [-0.42999999999999999:0.64000000000000001] [-0.41999999999999998:0.40999999999999998] [-0.56999999999999995:0.44] [-0.64000000000000001:0.46000000000000002] [-0.57999999999999996:0.46999999999999997] [-0.46999999999999997:0.45000000000000001] [-0.47999999999999998:0.40999999999999998] [-0.41999999999999998:0.33000000000000002] [-0.38:0.45000000000000001] [-0.42999999999999999:0.33000000000000002] [-0.44:0.77000000000000002] [-0.35999999999999999:0.78000000000000003] [-0.45000000000000001:0.47999999999999998] [0.67000000000000004:2.02] [0.66000000000000003:1.5800000000000001] [0:2.8599999999999999] [0.69999999999999996:1.96] [0.29999999999999999:3.0899999999999999] [0:2.98] [0:6.4900000000000002] [0.40000000000000002:2.73] [0:2.3199999999999998] [10.890000000000001:38.140000000000001] [13.59:52.630000000000003] [0.29999999999999999:1.8999999999999999] [0.29999999999999999:2.6000000000000001] [0.29999999999999999:2.6000000000000001] [0.40000000000000002:3.2999999999999998] [0.20000000000000001:1.8999999999999999] [0.29999999999999999:1.8] [0:2.7000000000000002] [0.20000000000000001:2.1000000000000001] [0:3.3999999999999999] [0:3.8999999999999999] [0.10000000000000001:1.8999999999999999] [0:2.7000000000000002] [-3.7000000000000002:7.4000000000000004] [-4.2999999999999998:6.5] [-6:6.5] [0:1.3] [0.16:0.28100000000000003] [-0.28499999999999998:0.49299999999999999] [-0.371:0.46999999999999997] [0.10000000000000001:77] [0:2.1680000000000001] [0.17799999999999999:1.7250000000000001] [0:3.379] [0.01:0.29599999999999999] [0.059999999999999998:0.78500000000000003] [0.049000000000000002:0.73699999999999999] [0:0.1263] [-0.79000000000000004:1.03] [-0.37:1.1799999999999999] [-3.4399999999999999:4.1299999999999999] [0:12.199999999999999] [0:18.620000000000001] [0.59999999999999998:1.4099999999999999] [0.40999999999999998:1.3100000000000001] [0.59999999999999998:1.4299999999999999] [0.57999999999999996:1.72] [0.26000000000000001:2.2999999999999998] [0.52000000000000002:2.0699999999999998] [0.10000000000000001:1.55] [0.44:2.7400000000000002] [0.67000000000000004:1.3999999999999999] [0.26000000000000001:2.0099999999999998] [0.085999999999999993:1.7] [0.59999999999999998:9.4000000000000004] [-132:329] [0.28999999999999998:16.559999999999999] [0:6.9299999999999997] [-3.2799999999999998:9.3000000000000007] [-3:7.2599999999999998] [-0.47799999999999998:0.56399999999999995] [0.77800000000000002:1.2989999999999999] [0.68559999999999999:1.266] [0.5:1.3320000000000001] [0.47799999999999998:1.369] [0.53100000000000003:1.361] [3.5:9.3300000000000001] [7:31.344000000000001] [-4.2270000000000003:0.21099999999999999] [0:12] [0:23] [0:1] [0:1] [0:1] [0:1] [0:1] [0:1] [0:4.2599999999999998] [0:100] [0:1] [0:1] [0:1] [0:1] none [0:1] [0:1] [0:1] none [0:1] none none [0:1] [0:1] [0:1] [0:1] [0:1] [0:1] [0:1] [0:1] [0.0021028582569326999:0.0133190685756532] [0.0030288402859689001:0.010659124554832301]
tree_sizes=1177 1209 1210 1201 1203 1205 1213 1208 1204 1208 1198 1199 1202 1195 1215 1205 1206 1208 1211 1221 1210 1210 1211 1210 1210 1215 1208 1216 1205 1199 1213 1216 1204 1207 1207 1206 1200 1205 1201 1216 1207 1224 1209 1212 1206 1217 1201 1201 1201 1205 1216 1201 1204 1217 1211 1219 1213 1213 1200 1208 1200 1211 1207 1211 1218 1207 1201 1203 1213 1205 1210 1209 1217 1214 1217 1218 1210 1203 1209 1208 1220 1221 1212 1211 1213 1218 1219 1214 1214 1223 1220 1212 1211 1217 1221 1222 1206 1216 1213 1217 1215 1219 1211 1210 1217 1214 1211 1213 1219 1222 1211 1220 1213 1218 1217 1210 1210 1219 1225 1221 1219 1211 1215 1196 1214 1214 1197 1211 1202 1222 1203 1212 1217 1209 1214 1213 1203 1211 1228 1214 1214 1212 1215 1220 1216 1219 1222 1210 1216 1216 1217 1205 1210 1221 1208 1212 1205 1212 1208 1211 1214 1211 1216 1223 1205 1205 1205 1204 1213 1205 1230 1204 1215 1212 1213 1216 1214 1210 1221 1214 1205 1212 1205 1213 1204 1206 1213 1209 1204 1206 1191 1197 1209 1220 1200 1198 1216 1200 1208 1210 1204 1211 1210 1199 1208 1216 1207 1210 1211 1210 1216 1208 1205 1213 1204 1207 1205 1191 1203 1206 1204 1211 1211 1207 1207 1218 1200 1205 1216 1204 1213 1210 1208 1216 1212 1210 1197 1198 1202 1207 1202 1210 1207 1205 1208 1208 1213 1208 1202 1209 1211 1190 1210 1217 1223 1200 1216 1212 1206 1197 1195 1217 1211 1214 1209 1218 1202 1203 1211 1210 1210 1206 1205 1210 1205 1213 1204 1211 1201 1209 1213 1195 1214 1207 1217 1210 1205 1208 1211 1210 1202 1210 1211 1205 1205 1206 1217 1204 1213 1203 1200 1208 1209 1213 1210 1206 1204 1206 1210 1193 1200 1207 1207 1205 1209 1198 1197 1193 1197 1203 1207 1200 1204 1206 1203 1194 1203 1200 1208 1208 1211 1212 1208 1219 1217 1206 1207 1202 1220 1205 1205 1209 1210 1202 1203 1208 1208 1202 1197 1199 1189 1194 1206 1189 1197 1195 1189 1208 1202 1202 1195 1215 1206 1200 1214 1200 1210 1203 1201 1225 1202 1206 1214 1205 1218 1212 1203 1199 1204 1202 1203 1199 1212 1208 1201 1206 1215 1200 1209 1199 1212 1204 1212 1197 1216 1204 1204 1206 1208 1210 1203 1201 1207 1207 1208 1210 1208 1203 1214 1201 1208 1201 1206 1211 1207 1218 1204 1202 1208 1209 1207 1204 1206 1202 1202 1200 1216 1214 1215 1203 1208 1190 1213 1217 1213 1212 1212 1206 1208 1211 1206 1217 1218 1220 1218 1203 1203 1209 1200 1200 1207 1205 1200 1197 1190 1212 1219 1202 1219 1204 1202 1193 1199 1198 1194 1203 1200 1209 1188 1198 1200 1204 1200 1199 1202 1190 1212 1205 1193 1195 1213 1209 1205 1209 1206 1206 1200 1205 1205 1207 1204 1217 1215 1214 1202 1208 1207 1200 1210 1207 1196 1205 1198 1212 1203 1209 1210 1209 1211 1202 1211 1207 1207 1202 1213 1205 1202 1207 1207 1186 1207 1202 1196 1210 1201 1219 1198 1210 1206 1208 1203 1199 1194 1198 1203 1217 1209 1217 1213 1205 1204 1211 1210 1205 1207 1198 1199 1202 1197 1207 1207 1206 1207 1204 1214 1186 1193 1185 1202 1193 1201 1206 1202 1201 1206 1212 1207 1207 1208 1217 1199 1209 1205 1206 1205 1200 1208 1202 1211 1201 1210 1212 1203 1216 1213 1197 1207 1216 1205 1195 1212 1205 1211 1199 1209 1202 1212 1210 1206 1203 1189 1208 1192 1213 1209 1204 1213 1209 1207 1207 1207 1217 1195 1206 1206 1190 1218 1191 1213 1212 1206 1209 1201 1200 1206 1200 1200 1200 1210 1199 1216 1219 1221 1212 1208 1222 1188 1193 1190 1187 1211 1200 1199 1203 1206 1212 1210 1201 1214 1204 1199 1203 1205 1215 1191 1204 1207 1213 1213 1212 1193 1189 1197 1197 1200 1196 1199 1214 1208 1207 1194 1202 1193 1202 1193 1198 1205 1203 1187 1200 1193 1201 1203 1200 1212 1209 1202 1194 1198 1206 1209 1202 1201 1198 1205 1210 1200 1206 1215 1193 1209 1202 1201 1196 1201 1206 1203 1192 1205 1199 1197 1208 1192 1205 1194 1206 1206 1217 1206 1214 1185 1203 1196 1208 1203 1215 1208 1211 1202 1207 1200 1193 1195 1199 1198 1180 1197 1169 1215 1186 1199 1206 1210 1204 1224 1205 1203 1203 1201 1210

Tree=0
num_leaves=10
num_cat=0
split_feature=170 189 175 151 41 156 25 171 171
split_gain=387.255 180.637 97.1019 45.5592 54.4352 24.3051 21.2889 18.9817 13.7329
threshold=1.0000000180025095e-35 1.0000000180025095e-35 1.0000000180025095e-35 1.0000000180025095e-35 10.013333333333351 1.0317916666666653 0.95000000000000007 0.46100000000000008 0.85775000000000012
decision_type=2 2 2 2 2 2 2 2 2
left_child=1 3 7 6 5 8 -1 -3 -5
right_child=-2 2 -4 4 -6 -7 -8 -9 -10
leaf_value=0.26414898637152306 0.25198749260058523 0.2743024429355686 0.25335101726164644 0.25243875247745445 0.27712356428500268 0.26825450800724637 0.27583661591140629 0.2849825803410454 0.26143594078110222
leaf_weight=20.132610321044922 101.39961051940918 18.905012130737305 11.293903350830076 32.408592224121094 24.30644416809082 27.743719100952148 68.991018295288086 138.96411514282227 35.600347518920898
leaf_count=82 413 77 46 132 99 113 281 566 145
internal_value=0.269359 0.273994 0.281677 0.26778 0.263759 0.260366 0.273196 0.283704 0.257148
internal_weight=0 378.346 169.163 209.183 120.059 95.7527 89.1236 157.869 68.0089
internal_count=1954 1541 689 852 489 390 363 643 277
is_linear=0
shrinkage=1


Tree=1
num_leaves=10
num_cat=0
split_feature=170 189 175 15 89 7 171 171 96
split_gain=378.923 177.42 95.3108 44.1537 68.5433 25.9372 22.625 18.6946 15.6503
threshold=1.0000000180025095e-35 1.0000000180025095e-35 1.0000000180025095e-35 0.82708333333333361 -0.19416666666666646 0.011500000000000002 1.5722222222222204 0.46100000000000008 1.7774444444444453
decision_type=2 2 2 2 2 2 2 2 2
left_child=1 3 7 4 -1 6 -6 -3 -7
right_child=-2 2 -4 -5 5 8 -8 -9 -10
leaf_value=0.0089900828376869441 -0.017158719866695583 0.0048974944227594538 -0.015814606327417779 0.0063730807128994102 -0.0068223846566524441 -0.016171081888226819 0.0062818133232553867 0.015501024971427125 -0.00086648356950718472
leaf_weight=31.398677438497543 101.62815828621387 18.892391994595528 11.317419201135634 52.512584954500198 62.416405409574509 38.091600850224495 16.700901105999947 138.6654651761055 8.1028850674629194
leaf_count=128 413 77 46 214 254 155 68 566 33
internal_value=0 0.00459146 0.0122161 -0.00156281 -0.00422208 -0.00753257 -0.00405621 0.0142296 -0.0134865
internal_weight=0 378.098 168.875 209.223 156.71 125.312 79.1173 157.558 46.1945
internal_count=1954 1541 689 852 638 510 322 643 188
is_linear=0
shrinkage=0.01


Tree=2
num_leaves=10
num_cat=0
split_feature=170 189 171 185 15 89 7 171 96
split_gain=370.826 174.279 67.5275 46.2367 43.2798 67.1579 25.34 22.1617 15.2796
threshold=1.0000000180025095e-35 1.0000000180025095e-35 0.44888888888888906 1.0000000180025095e-35 0.82708333333333361 -0.19416666666666646 0.011500000000000002 1.5722222222222204 1.7774444444444453
decision_type=2 2 2 2 2 2 2 2 2
left_child=1 4 3 -3 5 -1 7 -7 -8
right_child=-2 2 -4 -5 -6 6 8 -9 -10
leaf_value=0.0089113886672616029 -0.016951689859372607 0.0076995262135180487 0.014820727848753323 -0.019782011625965486 0.006314904864184641 -0.0067481941300576807 -0.015976534660689809 0.0062242648663380648 -0.00085771931221777817
leaf_weight=31.359388336539268 101.83956050872803 16.187840461730957 142.53877609968185 9.8457824289798754 52.46662425994873 62.471315488219261 38.169490367174149 16.686832636594772 8.1038205623626691
leaf_count=128 413 66 583 40 214 254 155 68 33
internal_value=0 0.00454888 0.0121158 -0.00269385 -0.00154687 -0.00417765 -0.00745006 -0.00401355 -0.0133288
internal_weight=0 377.83 168.572 26.0336 209.257 156.791 125.431 79.1581 46.2733
internal_count=1954 1541 689 106 852 638 510 322 188
is_linear=0
shrinkage=0.01


Tree=3
num_leaves=10
num_cat=0
split_feature=171 172 172 188 17 123 89 15 38
split_gain=238.822 95.4021 63.7788 45.7055 38.8604 31.4819 21.4211 21.2503 22.2717
threshold=0.62200000000000011 58.965000000000011 87.878750000000011 1.0000000180025095e-35 93.322500000000005 -0.17460714285714296 -0.19874999999999998 0.82708333333333361 101.82857142857152
decision_type=2 2 2 2 2 2 2 2 2
left_child=1 -1 3 7 6 -3 -4 8 -2
right_child=2 5 4 -5 -6 -7 -8 -9 -10
leaf_value=0.0060912741898288105 -0.0018273847400204636 -0.0038853219376012871 0.0039659459871363972 0.011584709556378759 0.0074850394687455421 -0.015196550436365863 -0.015354724068467019 0.0097746182448797455 0.011493551555785584
leaf_weight=33.097468852996826 72.906473830342293 31.460743516683578 7.35257863998413 129.63034498691559 16.905294954776764 112.93266442418098 26.140086784958839 33.987725660204887 15.161193236708639
leaf_count=135 297 128 30 530 69 458 106 139 62
internal_value=0 -0.00922197 0.00539353 0.00744967 -0.00487474 -0.012732 -0.0111133 0.003058 0.000465867
internal_weight=0 177.491 302.084 251.686 50.398 144.393 33.4927 122.055 88.0677
internal_count=1954 721 1233 1028 205 586 136 498 359
is_linear=0
shrinkage=0.01


Tree=4
num_leaves=10
num_cat=0
split_feature=189 171 172 62 101 149 53 123 172
split_gain=271.507 116.982 101.014 41.4289 46.7865 33.4813 31.9053 28.8515 22.8547
threshold=1.0000000180025095e-35 0.46100000000000008 87.878750000000011 17.526785714285705 0.88083333333333369 5.6500000000000012 1.3416666666666652 -0.078928571428571445 93.658214285714323
decision_type=2 2 2 2 2 2 2 2 2
left_child=2 5 3 -1 -5 -2 -6 -4 -3
right_child=1 8 7 4 6 -7 -8 -9 -10
leaf_value=0.006203652161414293 -0.013932308318351167 0.014659984698973947 -0.0073905032492123978 0.0061026560377229269 -0.0095685259611621772 0.0038645339817218322 0.0093847750672082612 -0.018262387657151338 0.001634279046129156
leaf_weight=48.51680763065815 22.221658155322075 134.51429921388626 39.639391094446182 31.587025016546249 94.55073019862175 20.162440747022629 9.8024452179670316 63.531717821955681 14.969179615378378
leaf_count=198 90 552 161 129 384 82 40 257 61
internal_value=0 0.00919781 -0.00616131 -0.00172924 -0.00456048 -0.00546621 -0.00778814 -0.0140853 0.0133556
internal_weight=0 191.868 287.628 184.457 135.94 42.3841 104.353 103.171 149.483
internal_count=1954 785 1169 751 553 172 424 418 613
is_linear=0
shrinkage=0.01


Tree=5
num_leaves=10
num_cat=0
split_feature=170 189 175 7 80 72 108 17 43
split_gain=350.835 144.444 86.5487 41.2945 31.2315 23.3689 22.3461 19.7248 21.9124
threshold=1.0000000180025095e-35 1.0000000180025095e-35 1.0000000180025095e-35 0.028000000000000004 0.071714285714285717 6.9516666666666653 0.52916666666666667 101.9466666666665 2.0578888888888902
decision_type=2 2 2 2 2 2 2 2 2
left_child=1 3 -3 5 6 7 -5 8 -1
right_child=-2 2 -4 4 -6 -7 -8 -9 -10
leaf_value=0.0079790618165546476 -0.01615170206277048 0.013625973480783685 -0.014689771344374833 0.0057583613256343884 0.0063098634899033893 0.01058279070395556 -0.012632066106847337 0.0084493353594073829 -0.004528979834663719
leaf_weight=17.661386430263519 103.25929738581181 154.01821450889111 11.608125001192091 7.6018509566783896 14.217203006148337 27.646333947777748 50.497546389698982 23.253306999802589 67.669993311166763
leaf_count=72 417 633 47 31 58 113 205 95 275
internal_value=0 0.00466953 0.0116414 -0.000867475 -0.00697496 0.00237461 -0.0102258 0.000284757 -0.00194014
internal_weight=0 374.174 165.626 208.548 72.3166 136.231 58.0994 108.585 85.3314
internal_count=1946 1529 680 849 294 555 236 442 347
is_linear=0
shrinkage=0.01


Tree=6
num_leaves=10
num_cat=0
split_feature=170 189 175 7 80 144 72 133 151
split_gain=343.525 141.942 84.9846 40.4488 30.5712 24.5404 22.9489 20.1936 24.0542
threshold=1.0000000180025095e-35 1.0000000180025095e-35 1.0000000180025095e-35 0.028000000000000004 0.071714285714285717 0.68083333333333362 6.9516666666666653 -0.069444444444444434 1.0000000180025095e-35
decision_type=2 2 2 2 2 2 2 2 2
left_child=1 3 -3 6 5 -5 7 -1 -9
right_child=-2 2 -4 4 -6 -7 -8 8 -10
leaf_value=0.0085360691288900239 -0.015965993175003218 0.01352049159896186 -0.014520365645381145 0.0015723540559521895 0.0062523304237046152 -0.013722421244365478 0.010493517487307201 0.0040913953948602784 -0.0066231311135985654
leaf_weight=23.283563882112503 103.41495893895626 153.6693531870842 11.626027524471281 13.732505887746809 14.204610899090765 44.435339376330376 27.602936252951622 37.02972400188446 48.261081337928772
leaf_count=95 417 633 47 56 58 180 113 151 196
internal_value=0 0.004627 0.0115482 -0.000858742 -0.00689981 -0.0101116 0.00235183 0.000281962 -0.00197133
internal_weight=0 373.845 165.295 208.55 72.3725 58.1678 136.177 108.574 85.2908
internal_count=1946 1529 680 849 294 236 555 442 347
is_linear=0
shrinkage=0.01


Tree=7
num_leaves=10
num_cat=0
split_feature=170 189 175 7 80 171 72 108 124
split_gain=336.41 139.495 83.4558 39.6233 29.9281 25.8785 23.0261 21.6134 17.6538
threshold=1.0000000180025095e-35 1.0000000180025095e-35 1.0000000180025095e-35 0.028000000000000004 0.071714285714285717 0.44142857142857156 6.9516666666666653 0.52916666666666667 6.0214285714285714
decision_type=2 2 2 2 2 2 2 2 2
left_child=1 3 -3 5 7 6 -1 -5 -7
right_child=-2 2 -4 4 -6 8 -8 -9 -10
leaf_value=-0.013571345421424684 -0.015784710780312298 0.013416790354045999 -0.014354681910109066 0.0057275213188859551 0.0061953910720936659 0.010312692837139018 0.0091589837923842891 -0.012359675205959446 0.0016993432482048244
leaf_weight=16.515954241156582 103.55589434504509 153.31032359600067 11.642529889941214 7.598033979535102 14.191871941089628 33.950626000761986 6.1036669611930838 50.632377117872238 79.552096202969551
leaf_count=67 417 633 47 31 58 139 25 205 324
internal_value=0 0.00458509 0.0114567 -0.000850126 -0.00682604 0.00232929 -0.00743781 -0.00999962 0.00427574
internal_weight=0 373.497 164.953 208.545 72.4223 136.122 22.6196 58.2304 113.503
internal_count=1946 1529 680 849 294 555 92 236 463
is_linear=0
shrinkage=0.01


Tree=8
num_leaves=10
num_cat=0
split_feature=170 171 1 185 6 15 13 92 60
split_gain=329.481 79.1601 41.2802 29.071 26.5548 19.8616 18.7313 20.2583 16.1653
threshold=1.0000000180025095e-35 0.42900000000000005 344.50000000000006 1.0000000180025095e-35 40556.146000000008 0.82900000000000007 0.29638888888888903 -0.21416666666666648 0.64071428571428568
decision_type=2 2 2 2 2 2 2 2 2
left_child=1 3 8 -1 -4 6 -6 -8 -3
right_child=-2 2 4 -5 5 -7 7 -9 -10
leaf_value=-0.0018403993140872509 -0.015607682380776292 0.0064713979816018652 0.010755066987160469 -0.01775696156681118 0.010593837356845387 0.010767536479464974 0.015684210618055503 -0.0028873730061051541 -0.0058435027004457929
leaf_weight=39.993156418204308 103.68251498043537 15.611513033509253 153.02593566477299 16.092731475830078 18.232465133070946 34.279325127601624 6.5655385553836814 55.733717292547226 33.601327955722809
leaf_count=163 417 64 630 65 75 141 27 227 137
internal_value=0 0.00454373 0.00648097 -0.00640734 0.00802769 0.00439249 0.00167888 -0.000930167 -0.00193692
internal_weight=0 373.136 317.05 56.0859 267.837 114.811 80.5317 62.2993 49.2128
internal_count=1946 1529 1301 228 1100 470 329 254 201
is_linear=0
shrinkage=0.01


Tree=9
num_leaves=10
num_cat=0
split_feature=170 189 175 29 17 171 93 42 171
split_gain=322.72 136.736 81.0823 38.0299 37.9002 24.4809 20.8814 20.0064 17.0911
threshold=1.0000000180025095e-35 1.0000000180025095e-35 1.0000000180025095e-35 1.0000000180025095e-35 104.25000000000001 2.2820000000000005 -0.024499999999999997 9.6892857142857167 0.40777777777777807
decision_type=2 2 2 2 2 2 2 2 2
left_child=1 3 8 7 5 6 -5 -1 -3
right_child=-2 2 -4 4 -6 -7 -8 -9 -10
leaf_value=0.0079121382288477229 -0.015434740579388062 0.0024899056451908271 -0.014091364212635224 0.00067753889429771714 0.0070909184141325519 0.013890305404313354 -0.009909667390152933 -0.0048561850077656551 0.014300796056164614
leaf_weight=55.14557920396328 103.79522113502026 13.433491498231886 11.664548143744467 24.070236802101135 25.3769760876894 5.6244097203016272 82.415476188063622 15.784082397818564 139.29870116710663
leaf_count=226 417 55 47 98 104 23 334 64 578
internal_value=0 0.00450225 0.0113212 -0.000876425 -0.00394459 -0.00644256 -0.00751651 0.00507078 0.013262
internal_weight=0 372.814 164.397 208.417 137.487 112.11 106.486 70.9297 152.732
internal_count=1946 1529 680 849 559 455 432 290 633
is_linear=0
shrinkage=0.01


Tree=10
num_leaves=10
num_cat=0
split_feature=170 171 1 172 6 30 4 60 115
split_gain=313.61 79.907 38.6723 29.8011 28.0804 26.149 20.6724 20.5177 16.4757
threshold=1.0000000180025095e-35 0.44888888888888906 344.50000000000006 57.994166666666651 40556.146000000008 0.75900000000000012 75.000000000000014 0.64071428571428568 0.95857142857142852
decision_type=2 2 2 2 2 2 2 2 2
left_child=1 3 7 -1 -4 -6 -7 -3 -5
right_child=-2 2 4 8 5 6 -8 -9 -10
leaf_value=0.0059182887329794634 -0.01513038364102318 0.0077683892988515994 0.010555137215114285 -0.0018665429308517703 0.0095767042166587553 -0.0025032014447098939 0.013852969174307124 -0.0059227927443114515 -0.014227014712874969
leaf_weight=15.639766067266462 108.12914806604385 15.812906891107557 152.98012262582779 16.422484457492828 47.567379057407379 55.104877918958664 8.9876442402601224 35.562036201357841 31.407847344875336
leaf_count=64 434 65 632 67 196 225 37 145 127
internal_value=0 0.00417438 0.00623086 -0.00606479 0.00777219 0.0039594 -0.000209588 -0.00170873 -0.00998306
internal_weight=0 379.485 316.015 63.4701 264.64 111.66 64.0925 51.3749 47.8303
internal_count=1992 1558 1300 258 1090 458 262 210 194
is_linear=0
shrinkage=0.01


Tree=11
num_leaves=10
num_cat=0
split_feature=170 171 1 172 6 30 153 4 60
split_gain=307.226 78.3864 37.9834 29.1794 27.631 25.6863 21.5214 20.2997 20.1121
threshold=1.0000000180025095e-35 0.44888888888888906 344.50000000000006 57.994166666666651 40556.146000000008 0.75900000000000012 1.0843750000000003 75.000000000000014 0.64071428571428568
decision_type=2 2 2 2 2 2 2 2 2
left_child=1 3 8 -1 -4 -6 -5 -7 -3
right_child=-2 2 4 6 5 7 -8 -9 -10
leaf_value=0.005864319483413958 -0.014966713859057264 0.0077004404466679182 0.010469332536182046 -0.015523522081916897 0.0094964441569152496 -0.0024773291798031055 -0.0019173545134050006 0.01374652044672391 -0.0058590286026419707
leaf_weight=15.625930950045584 108.21802966296673 15.79301595687866 152.69302271306515 27.996073588728905 47.490093290805817 55.123474419116974 19.880265578627586 8.9667740315198881 35.589430093765259
leaf_count=64 434 65 632 113 196 225 81 37 145
internal_value=0 0.00413626 0.00617564 -0.00600104 0.00770522 0.00392264 -0.00987367 -0.000207474 -0.00169136
internal_weight=0 379.158 315.656 63.5023 264.273 111.58 47.8763 64.0902 51.3824
internal_count=1992 1558 1300 258 1090 458 194 262 210
is_linear=0
shrinkage=0.01


Tree=12
num_leaves=10
num_cat=0
split_feature=170 171 1 172 6 73 153 60 149
split_gain=301.003 76.8976 37.3081 28.5735 27.1905 21.8249 21.0463 19.7149 18.8681
threshold=1.0000000180025095e-35 0.44888888888888906 344.50000000000006 57.994166666666651 40556.146000000008 0.9804166666666666 1.0843750000000003 0.64071428571428568 108.10000000000001
decision_type=2 2 2 2 2 2 2 2 2
left_child=1 3 7 -1 -4 -6 -5 -3 -7
right_child=-2 2 4 6 5 8 -8 -9 -10
leaf_value=0.0058108939758634076 -0.014806618238143618 0.0076332230396969911 0.010384619947304073 -0.015348232236763936 0.009784451548398989 -0.0028424140596694054 -0.0018977039862757071 -0.0057960976984947222 0.0083223600828589029
leaf_weight=15.611971050500868 108.29385730624199 15.772868216037748 152.40070128440857 28.032467365264893 40.1472098082304 49.558654427528381 19.885238021612167 35.615948021411896 21.792648836970329
leaf_count=64 434 65 632 113 166 202 81 145 90
internal_value=0 0.00409865 0.00612109 -0.00593842 0.00763906 0.00388632 -0.00976643 -0.00167421 0.000567615
internal_weight=0 378.818 315.288 63.5297 263.899 111.499 47.9177 51.3888 71.3513
internal_count=1992 1558 1300 258 1090 458 194 210 292
is_linear=0
shrinkage=0.01


Tree=13
num_leaves=10
num_cat=0
split_feature=170 171 1 172 6 73 4 153 60
split_gain=294.936 75.4397 36.6462 27.9824 26.7587 21.4446 21.6644 20.5866 19.326
threshold=1.0000000180025095e-35 0.44888888888888906 344.50000000000006 57.994166666666651 40556.146000000008 0.9804166666666666 75.000000000000014 1.0843750000000003 0.64071428571428568
decision_type=2 2 2 2 2 2 2 2 2
left_child=1 3 8 -1 -4 -6 -7 -5 -3
right_child=-2 2 4 7 5 6 -8 -9 -10
leaf_value=0.0057580034561034877 -0.014649964529341239 0.00756672317891432 0.01030097189830406 -0.015176933945556423 0.0097037018819764072 -0.0016841201520878491 0.014082268583389892 -0.0018782629610240012 -0.0057339841767633706
leaf_weight=15.59789255261421 108.35700939595699 15.752475336194037 152.10336464643478 28.065206348896027 40.076836556196213 61.174179270863533 10.163228079676626 19.890125334262848 35.641611233353615
leaf_count=64 434 65 632 113 166 250 42 81 145
internal_value=0 0.00406151 0.00606719 -0.00587681 0.0075737 0.00385041 0.00056207 -0.00966113 -0.00165727
internal_weight=0 378.465 314.912 63.5532 263.518 111.414 71.3374 47.9553 51.3941
internal_count=1992 1558 1300 258 1090 458 292 194 210
is_linear=0
shrinkage=0.01


Tree=14
num_leaves=10
num_cat=0
split_feature=170 189 175 96 146 189 172 122 171
split_gain=289.02 152.234 85.4209 42.4202 51.5206 20.0728 19.3741 20.1956 16.6766
threshold=1.0000000180025095e-35 1.0000000180025095e-35 1.0000000180025095e-35 2.0680000000000001 0.87472222222222207 1.0000000180025095e-35 41.490000000000002 -0.026527777777777796 0.44888888888888906
decision_type=2 2 2 2 2 2 2 2 2
left_child=1 3 8 4 -1 -2 7 -6 -3
right_child=5 2 -4 -5 6 -7 -8 -9 -10
leaf_value=0.0037711222375266984 -0.016911753878888748 0.0041650423379829757 -0.013559438102526722 0.0060260153568404721 0.0068155718355873453 -0.0068299652632284784 -0.010956757294738158 -0.010363843246040895 0.014383543594259663
leaf_weight=52.781255766749382 82.438381865620613 18.082364708185196 12.934802830219267 53.705947741866112 14.724736943840982 25.969466865062714 76.308620542287827 12.783741787075995 136.78244951367378
leaf_count=217 330 74 52 221 60 104 309 52 573
internal_value=0 0.0040248 0.0111284 -0.00164309 -0.00427324 -0.0144966 -0.00836304 -0.00116805 0.0131904
internal_weight=0 378.104 167.8 210.304 156.598 108.408 103.817 27.5085 154.865
internal_count=1992 1558 699 859 638 434 421 112 647
is_linear=0
shrinkage=0.01


Tree=15
num_leaves=10
num_cat=0
split_feature=170 189 175 17 51 7 0 125 53
split_gain=273.725 134.629 74.816 49.6933 43.1728 27.4206 16.8468 16.5851 15.7785
threshold=1.0000000180025095e-35 1.0000000180025095e-35 1.0000000180025095e-35 101.9466666666665 1.6763888888888903 0.013000000000000003 690.50000000000011 0.58516666666666661 1.2354166666666653
decision_type=2 2 2 2 2 2 2 2 2
left_child=1 3 -3 4 5 6 7 -1 -9
right_child=-2 2 -4 -5 -6 -7 -8 8 -10
leaf_value=0.006670415290260163 -0.014173775600514651 0.012766351521520924 -0.013482324568985404 0.0084066107433971859 0.0062445903013872211 -0.012072758826330569 0.0086564620405763602 -0.0083094194451677657 0.0083128572286242878
leaf_weight=11.221129968762396 105.44658689200878 151.56550852954388 11.696741446852682 42.878087446093559 34.93814916908741 50.274816364049911 11.257985457777975 54.342937529087067 6.3812123239040366
leaf_count=46 422 635 47 177 144 203 46 221 26
internal_value=0 0.00406536 0.0108858 -0.00120462 -0.0036516 -0.00624195 -0.00271874 -0.00449873 -0.00656266
internal_weight=0 374.557 163.262 211.294 168.416 133.478 83.2033 71.9453 60.7241
internal_count=1967 1545 682 863 686 542 339 293 247
is_linear=0
shrinkage=0.01


Tree=16
num_leaves=10
num_cat=0
split_feature=170 189 175 17 38 7 27 172 38
split_gain=268.298 132.355 73.5037 48.7432 42.0507 30.9175 17.4095 15.9463 16.0966
threshold=1.0000000180025095e-35 1.0000000180025095e-35 1.0000000180025095e-35 101.9466666666665 96.30952380952381 0.011500000000000002 0.10555555555555551 44.112767857142863 70.550000000000011
decision_type=2 2 2 2 2 2 2 2 2
left_child=1 3 -3 4 5 6 -1 8 -7
right_child=-2 2 -4 -5 -6 7 -8 -9 -10
leaf_value=0.0054998552126254022 -0.014028523251552058 0.012673407358199532 -0.013338373562464092 0.0083349641126947635 0.0057362455831697244 -0.016083135357399456 -0.0051763957493059587 -0.017207555819362667 0.0024981721533556662
leaf_weight=20.245013266801834 105.47286674380302 151.1523649096489 11.704704493284224 42.814516514539719 37.413675427436829 8.1636991053819674 62.202450945973396 29.560340508818626 10.869242504239081
leaf_count=83 422 635 47 177 154 33 253 119 44
internal_value=0 0.00402944 0.0108039 -0.00119267 -0.00361422 -0.00628389 -0.00255484 -0.0126109 -0.00547181
internal_weight=0 374.126 162.857 211.269 168.454 131.041 82.4475 48.5933 19.0329
internal_count=1967 1545 682 863 686 532 336 196 77
is_linear=0
shrinkage=0.01


Tree=17
num_leaves=10
num_cat=0
split_feature=170 189 185 158 69 7 154 0 120
split_gain=263.003 130.127 53.9226 34.9062 45.6615 32.5642 23.796 16.5193 16.3063
threshold=1.0000000180025095e-35 1.0000000180025095e-35 1.0000000180025095e-35 0.83712500000000012 1.2416666666666651 0.013000000000000003 -0.055687499999999994 690.50000000000011 0.4612500000000001
decision_type=2 2 2 2 2 2 2 2 2
left_child=1 3 -3 -1 5 7 -4 -5 -7
right_child=-2 2 6 4 -6 8 -8 -9 -10
leaf_value=0.0071725514953851436 -0.013886173810230719 0.012868147491692418 -0.015198514337821458 -0.0035492903093593217 0.0087625945972587566 -0.0019471777377253502 0.0067684920666454809 0.0084662006260005414 -0.01483466799236584
leaf_weight=40.445334509015083 105.48845367133617 142.67063309252262 10.370661795139315 77.55099293589592 27.040799260139465 13.039629355072973 9.402047246694563 13.422606870532034 39.737054109573364
leaf_count=167 422 601 42 316 112 53 39 55 160
internal_value=0 0.00399401 0.0107233 -0.00118088 -0.00315907 -0.00540165 -0.00475306 -0.00177648 -0.0116505
internal_weight=0 373.68 162.443 211.236 170.791 143.75 19.7727 90.9736 52.7767
internal_count=1967 1545 682 863 696 584 81 371 213
is_linear=0
shrinkage=0.01


Tree=18
num_leaves=10
num_cat=0
split_feature=189 175 171 94 172 176 72 31 5
split_gain=204.889 107.381 88.926 43.8718 39.3371 32.4573 28.8042 22.9545 19.4202
threshold=1.0000000180025095e-35 1.0000000180025095e-35 0.44888888888888906 0.90500000000000014 82.854375000000019 1.0000000180025095e-35 6.3645555555555555 0.96683333333333354 0.18650000000000003
decision_type=2 2 2 2 2 2 2 2 2
left_child=2 4 8 -4 -2 6 -5 -6 -1
right_child=1 -3 3 5 7 -7 -8 -9 -10
leaf_value=-0.00038448125939239525 0.013220662910799768 -0.013583162361059869 0.0078998273453463712 -0.010765196592738439 -0.0084950338260199702 0.0015528139996049306 0.00044902918662916897 0.0082897704435660833 -0.016070227293371514
leaf_weight=8.9016690552234632 134.57304282486439 20.212839275598526 37.979580700397491 75.019100412726402 14.292928025126455 66.171658024191856 32.97072346508503 18.950385257601738 69.658486172556877
leaf_count=36 569 81 157 303 58 270 135 78 280
internal_value=0 0.00819163 -0.00520416 -0.00183843 0.0108143 -0.00396206 -0.00734134 0.00107316 -0.0142929
internal_weight=0 188.029 290.701 212.141 167.816 174.161 107.99 33.2433 78.5602
internal_count=1967 786 1181 865 705 708 438 136 316
is_linear=0
shrinkage=0.01


Tree=19
num_leaves=10
num_cat=0
split_feature=170 189 185 17 51 176 149 23 189
split_gain=254.293 125.512 52.4028 46.6393 40.7006 23.27 23.2422 18.4136 15.0687
threshold=1.0000000180025095e-35 1.0000000180025095e-35 1.0000000180025095e-35 101.9466666666665 1.6763888888888903 1.0000000180025095e-35 -1.0000000180025095e-35 0.42307142857142854 1.0000000180025095e-35
decision_type=2 2 2 2 2 2 2 2 2
left_child=1 3 -3 4 5 -1 -4 -7 -2
right_child=8 2 6 -5 -6 7 -8 -9 -10
leaf_value=-0.0096824103992753235 -0.015812441384351446 0.01269334574888506 -0.015209116302737247 0.0081980682493724196 0.0061212206442034164 0.0050384923947411134 0.0064937064529831546 -0.0062745705530989557 -0.0070419017840516584
leaf_weight=75.384363114833832 79.490342333912849 141.85489495098591 10.180855765938761 42.680085256695747 34.846921756863594 25.800156086683273 9.575723394751547 32.524097427725792 25.995971769094467
leaf_count=305 318 601 41 177 144 105 40 132 104
internal_value=0 0.00393504 0.0105683 -0.00113988 -0.00350435 -0.00601295 -0.00469008 -0.00127016 -0.013651
internal_weight=0 372.847 161.611 211.236 168.556 133.709 19.7566 58.3243 105.486
internal_count=1967 1545 682 863 686 542 81 237 422
is_linear=0
shrinkage=0.01


Tree=20
num_leaves=10
num_cat=0
split_feature=170 189 185 151 158 171 8 156 171
split_gain=270.1 126.013 50.5163 39.7936 43.6156 30.2022 19.5882 19.5243 16.1869
threshold=1.0000000180025095e-35 1.0000000180025095e-35 1.0000000180025095e-35 1.0000000180025095e-35 0.74020000000000008 0.93925733622748553 288.00000000000006 1.0317916666666653 0.93925733622748553
decision_type=2 2 2 2 2 2 2 2 2
left_child=1 3 -3 6 -5 -4 -1 8 -6
right_child=-2 2 5 4 7 -7 -8 -9 -10
leaf_value=-0.015082941211779326 -0.014338947496164597 0.01264590174403081 -0.012312116405589357 0.0073706383047586104 -0.015568372168278036 0.014625618201822572 0.0049870186134995456 -0.0014604107643702287 -0.0057098524465166323
leaf_weight=5.1596250534057608 104.97160764038563 140.04882608354092 14.078694820404055 23.340594947338104 35.263741865754128 5.9090450406074515 84.582457810640335 32.475348070263863 31.56065559387207
leaf_count=21 420 595 57 97 142 25 348 132 128
internal_value=0 0.00382237 0.0105234 -0.00122706 -0.00492985 -0.00434842 0.00383312 -0.0078211 -0.0109123
internal_weight=0 372.419 160.037 212.382 122.64 19.9877 89.7421 99.2997 66.8244
internal_count=1965 1545 677 868 499 82 369 402 270
is_linear=0
shrinkage=0.01


Tree=21
num_leaves=10
num_cat=0
split_feature=189 175 172 172 36 71 165 140 61
split_gain=206.152 97.2967 75.9397 37.2162 33.0558 35.6962 29.1906 23.2231 20.4186
threshold=1.0000000180025095e-35 1.0000000180025095e-35 87.878750000000011 82.854375000000019 0.071562500000000015 0.75166666666666659 1.0000000180025095e-35 0.97562500000000008 0.91294444444444467
decision_type=2 2 2 2 2 2 2 2 2
left_child=2 3 4 -2 -1 -6 -4 -5 -8
right_child=1 -3 6 7 5 -7 8 -9 -10
leaf_value=0.0041579309822169959 0.013013524144372306 -0.012985253265113374 -0.014820291229912425 0.010848091381813923 0.0045362028654050016 -0.0078888368325655163 -0.01411075817631355 -0.0063405144903445386 0.0050807314087031276
leaf_weight=66.393960997462273 131.76068991422653 19.468555927276611 83.904834687709808 13.730618163943289 31.309839442372322 88.418433234095573 8.9446002244949359 18.385085493326187 14.581171363592146
leaf_count=273 562 78 337 57 129 358 36 75 60
internal_value=0 0.00814992 -0.00536549 0.0106608 -0.00150132 -0.0046396 -0.0120601 0.00100823 -0.00221596
internal_weight=0 183.345 293.553 163.876 186.122 119.728 107.431 32.1157 23.5258
internal_count=1965 772 1193 694 760 487 433 132 96
is_linear=0
shrinkage=0.01


Tree=22
num_leaves=10
num_cat=0
split_feature=189 175 172 172 7 165 171 151 27
split_gain=202.345 95.5666 74.4358 36.6951 36.4772 28.5987 27.6164 24.1126 23.4387
threshold=1.0000000180025095e-35 1.0000000180025095e-35 87.878750000000011 82.854375000000019 0.028000000000000004 1.0000000180025095e-35 0.31125000000000008 0.14305555555555552 0.90178571428571463
decision_type=2 2 2 2 2 2 2 2 2
left_child=2 3 4 -2 6 -4 -1 -8 -9
right_child=1 -3 5 -5 -6 -7 7 8 -10
leaf_value=-0.014322392519600853 0.012925601257853596 -0.012854753398401329 -0.014671910908609392 0.0009986581075474496 -0.0076673257885641775 -0.0021944729362584942 0.0078541404996479419 -0.0044906604254946426 0.011547096467761126
leaf_weight=9.9101091772317869 131.33253245055676 19.469529777765274 83.905836746096611 32.100972905755043 63.10521411895752 23.518260329961777 54.745916098356247 47.058478459715843 11.301120966672896
leaf_count=40 562 78 337 132 256 96 226 191 47
internal_value=0 0.00808808 -0.00531196 0.010583 -0.0014863 -0.0119402 0.00168448 0.00308697 -0.00138501
internal_weight=0 182.903 293.545 163.434 186.121 107.424 123.016 113.106 58.3596
internal_count=1965 772 1193 694 760 433 504 464 238
is_linear=0
shrinkage=0.01


Tree=23
num_leaves=10
num_cat=0
split_feature=170 171 1 114 188 7 185 172 158
split_gain=257.108 63.8413 40.067 25.6434 21.5348 19.8494 19.374 18.9813 25.2609
threshold=1.0000000180025095e-35 0.44888888888888906 344.50000000000006 0.81339285714285714 1.0000000180025095e-35 0.028000000000000004 1.0000000180025095e-35 33.629285714285707 0.86083333333333367
decision_type=2 2 2 2 2 2 2 2 2
left_child=1 3 5 6 7 -3 -1 -4 -9
right_child=-2 2 4 -5 -6 -7 -8 8 -10
leaf_value=0.0029493161687351435 -0.01399140917807545 0.0027552681263641422 0.0093643719602378127 -0.014172313961679082 0.009901600389289748 -0.010119317208837233 -0.014589980230756631 0.010741726334303875 -0.0020128435245824771
leaf_weight=30.392295107245445 104.87745527923107 28.123466029763222 45.054657950997353 22.296200633049011 135.22149777412415 20.855664521455765 7.944077640771865 20.912600859999657 60.307881325483322
leaf_count=125 420 116 189 90 571 85 32 88 249
internal_value=0 0.00374082 0.00557373 -0.00564476 0.00712845 -0.00272682 -0.000685183 0.00415882 0.0012712
internal_weight=0 371.108 310.476 60.6326 261.497 48.9791 38.3364 126.275 81.2205
internal_count=1965 1545 1298 247 1097 201 157 526 337
is_linear=0
shrinkage=0.01


Tree=24
num_leaves=10
num_cat=0
split_feature=172 171 17 188 172 96 81 171 171
split_gain=163.379 66.4637 40.7001 30.4463 26.8659 21.4111 21.3583 15.9881 15.9408
threshold=82.854375000000019 0.32937500000000003 93.322500000000005 1.0000000180025095e-35 33.629285714285707 1.8975000000000002 0.23583333333333353 0.90916666666666657 0.72888888888888903
decision_type=2 2 2 2 2 2 2 2 2
left_child=1 -1 6 4 -3 -6 -2 -5 -4
right_child=2 3 8 7 5 -7 -8 -9 -10
leaf_value=-0.010767200106798602 -0.013977971110268673 0.0077684552358290348 -0.0049922236296222186 0.0043939986736180161 -0.0039257280283822747 0.0068411759311317348 -0.0044168243687645325 0.011361471734700012 0.0078884274153728107
leaf_weight=27.892771795392036 86.575186893343925 55.408880963921547 23.378915667533875 52.808976590633392 68.349766597151756 25.308425217866898 31.999810099601746 87.508832201361656 16.311649888753891
leaf_count=113 348 232 95 221 281 106 130 371 68
internal_value=0 0.00397508 -0.00846376 0.00539603 0.00224904 -0.00101628 -0.0113977 0.00873924 0.000301343
internal_weight=0 317.278 158.266 289.385 149.067 93.6582 118.575 140.318 39.6906
internal_count=1965 1324 641 1211 619 387 478 592 163
is_linear=0
shrinkage=0.01


Tree=25
num_leaves=10
num_cat=0
split_feature=189 175 172 19 172 175 28 51 172
split_gain=195.741 100.507 67.2095 46.8968 35.0668 19.8883 20.5746 27.2299 21.7639
threshold=1.0000000180025095e-35 1.0000000180025095e-35 41.779722222222212 6.495000000000001 82.854375000000019 1.0000000180025095e-35 1.0000000180025095e-35 1.6763888888888903 96.063888888888911
decision_type=2 2 2 2 2 2 2 2 2
left_child=2 4 -1 -4 -2 6 8 -8 -5
right_child=1 -3 3 5 -6 -7 7 -9 -10
leaf_value=0.0035896713555360693 0.013162040018307371 -0.012212802251407941 -0.012901746023805755 0.0061089493938286422 0.0012572750714194114 -0.017078322913442242 -0.013171796495144937 0.00086429100764378697 -0.0057256412228011578
leaf_weight=71.404531240463257 132.2251461148262 21.203929454088211 94.706429436802864 38.424442410469055 30.439137816429138 10.186689943075178 31.233227491378784 24.793004766106606 26.090638279914856
leaf_count=294 570 85 381 158 125 41 126 102 106
internal_value=0 0.00826496 -0.00486511 -0.00754309 0.0109343 -0.00366099 -0.00252712 -0.00696048 0.00132291
internal_weight=0 183.868 296.839 225.434 162.664 130.728 120.541 56.0262 64.5151
internal_count=1988 780 1208 914 695 533 492 228 264
is_linear=0
shrinkage=0.01


Tree=26
num_leaves=10
num_cat=0
split_feature=189 175 19 69 70 163 25 176 109
split_gain=192.177 98.7497 58.0096 28.3719 23.7413 23.0229 17.5202 13.4992 15.3897
threshold=1.0000000180025095e-35 1.0000000180025095e-35 6.495000000000001 1.2416666666666651 4.879444444444446 4.2475333333333358 0.30952380952380953 1.0000000180025095e-35 0.78166666666666662
decision_type=2 2 2 2 2 2 2 2 2
left_child=2 6 7 4 -4 -6 -2 -1 -9
right_child=1 -3 3 -5 5 -7 -8 8 -10
leaf_value=-0.012692920975772055 -0.0015142636215915994 -0.012093242703203591 0.0015158371475612628 0.0080533890719761188 -0.009672627367220233 0.0011513740547765218 0.011729816968061283 0.0060075504091681824 -0.0095007727041786279
leaf_weight=80.319403827190399 10.693398848176001 21.199447050690651 66.892933860421181 27.109973207116127 63.36895264685154 28.483986541628838 151.49939341843128 9.1057817786932009 21.524569481611252
leaf_count=323 45 85 275 113 256 117 650 37 87
internal_value=0 0.00820371 -0.00481698 -0.00140121 -0.00301582 -0.00631606 0.0108566 -0.0105389 -0.00489046
internal_weight=0 183.392 296.806 185.856 158.746 91.8529 162.193 110.95 30.6304
internal_count=1988 780 1208 761 648 373 695 447 124
is_linear=0
shrinkage=0.01


Tree=27
num_leaves=10
num_cat=0
split_feature=170 189 175 17 122 93 151 35 2
split_gain=245.159 120.368 73.1457 36.6952 40.8113 17.6662 15.3185 13.7845 13.3764
threshold=1.0000000180025095e-35 1.0000000180025095e-35 1.0000000180025095e-35 101.9466666666665 -0.15037499999999995 -0.024499999999999997 0.21000000000000005 0.081267857142857156 0.030352540500736404
decision_type=2 2 2 2 2 2 2 2 2
left_child=1 3 -3 4 -1 7 -7 -6 -2
right_child=8 2 -4 -5 5 6 -8 -9 -10
leaf_value=0.0058836569503921956 -0.0044007938572371685 0.012511712803628035 -0.013204748305266028 0.0067375151134147493 0.014513684892681074 -0.0028082765665985348 -0.010769150191284816 -0.0024764044481468904 -0.014841038580132023
leaf_weight=38.835735738277435 14.210072770714758 146.01119536161423 11.966769948601721 48.754880845546722 6.1319347172975567 39.189302533864975 63.072862878441811 21.584073469042778 89.98409429192543
leaf_count=161 57 632 48 203 25 159 254 88 361
internal_value=0 0.00391979 0.0105637 -0.000904388 -0.00311143 -0.00579905 -0.00771835 0.00128251 -0.0134172
internal_weight=0 375.547 157.978 217.569 168.814 129.978 102.262 27.716 104.194
internal_count=1988 1570 680 890 687 526 413 113 418
is_linear=0
shrinkage=0.01


Tree=28
num_leaves=10
num_cat=0
split_feature=189 175 171 19 172 28 96 172 172
split_gain=185.627 95.3035 73.7142 37.8805 34.2081 28.703 26.9883 21.9545 21.1688
threshold=1.0000000180025095e-35 1.0000000180025095e-35 0.44142857142857156 6.2472222222222209 82.854375000000019 1.0000000180025095e-35 1.7953571428571451 58.598333333333308 33.629285714285707
decision_type=2 2 2 2 2 2 2 2 2
left_child=2 4 7 8 -2 -5 -7 -1 -4
right_child=1 -3 3 5 -6 6 -8 -9 -10
leaf_value=0.0023511857710792855 0.012928255029946443 -0.011849752675426768 0.005728252396110755 0.0053076106624884304 0.0011453230281809243 -0.010114156703067638 0.0024623750458341123 -0.014594004131534758 -0.010134688668591843
leaf_weight=8.5396317243576032 130.8999532610178 21.185255259275436 9.8379747271537763 78.781688019633293 30.352015778422356 32.676972523331642 35.709145590662956 73.059647053480148 58.061792969703674
leaf_count=35 570 85 40 326 125 132 147 294 234
internal_value=0 0.00809062 -0.00472809 -0.00165767 0.0107104 0.001193 -0.00354708 -0.0128206 -0.00783631
internal_weight=0 182.437 296.667 215.068 161.252 147.168 68.3861 81.5993 67.8998
internal_count=1988 780 1208 879 695 605 279 329 274
is_linear=0
shrinkage=0.01


Tree=29
num_leaves=10
num_cat=0
split_feature=170 171 1 21 64 15 2 161 13
split_gain=237.533 66.668 31.2677 23.9438 22.6576 16.2049 13.1336 13.2783 13.0991
threshold=1.0000000180025095e-35 0.45083333333333359 344.50000000000006 0.38265000000000005 108.97750000000001 0.82900000000000007 0.030352540500736404 23.531142857142854 0.23166666666666655
decision_type=2 2 2 2 2 2 2 2 2
left_child=1 3 5 -1 -4 8 7 -2 -3
right_child=6 2 4 -5 -6 -7 -8 -9 -10
leaf_value=-0.0090358934201827338 0.0031043336428770978 0.0076309286472646589 0.0017330862719720683 0.0055578866278681062 0.0087449793692983644 0.010319350071412959 -0.01462610676506146 -0.01694648618764133 -0.0068506847316961751
leaf_weight=47.526077643036842 8.9722474664449674 7.6761584728956214 59.723664924502373 14.725745886564253 201.77391816675663 9.5259880274534208 89.854931727051735 5.2268009632825843 33.526894181966782
leaf_count=193 36 32 250 61 857 40 361 21 137
internal_value=0 0.00386568 0.00574971 -0.00558372 0.00714353 -0.00143515 -0.0132138 -0.00427656 -0.00415275
internal_weight=0 374.478 312.227 62.2518 261.498 50.729 104.054 14.199 41.2031
internal_count=1988 1570 1316 254 1107 209 418 57 169
is_linear=0
shrinkage=0.01


Tree=30
num_leaves=10
num_cat=0
split_feature=170 171 188 7 185 114 171 30 151
split_gain=224.429 65.9235 29.7254 26.5292 24.339 20.3171 15.0398 14.3586 13.0733
threshold=1.0000000180025095e-35 0.45083333333333359 1.0000000180025095e-35 0.028000000000000004 1.0000000180025095e-35 0.8944444444444446 0.91812500000000008 0.74583333333333368 0.15750000000000003
decision_type=2 2 2 2 2 2 2 2 2
left_child=1 4 3 8 5 -1 7 -4 -3
right_child=-2 2 6 -5 -6 -7 -8 -9 -10
leaf_value=0.0017940947199887221 -0.013061820200059159 0.0095048324794279049 0.010127973754016036 -0.0028630912534776715 -0.016611639322996745 -0.012987385580736706 0.01084649595500097 -0.00012007282683603762 0.0021914317035846642
leaf_weight=33.725463911890984 105.44880218803883 44.841332525014877 24.159794390201569 61.218513309955597 15.899068072438238 12.838622376322745 97.291756689548492 31.49439848959446 53.73045814037323
leaf_count=139 424 190 104 254 64 52 417 132 224
internal_value=0 0.00345022 0.00532354 0.00230729 -0.00592898 -0.00228145 0.00847478 0.00432866 0.00551837
internal_weight=0 375.199 312.736 159.79 62.4632 46.5641 152.946 55.6542 98.5718
internal_count=2000 1576 1321 668 255 191 653 236 414
is_linear=0
shrinkage=0.01


Tree=31
num_leaves=10
num_cat=0
split_feature=170 189 175 96 146 36 189 171 76
split_gain=220.176 126.081 76.4319 33.7688 39.2063 19.5069 15.5873 15.1466 14.9194
threshold=1.0000000180025095e-35 1.0000000180025095e-35 1.0000000180025095e-35 1.7953571428571451 0.8836666666666666 0.06536666666666667 1.0000000180025095e-35 0.55928571428571472 0.98055555555555562
decision_type=2 2 2 2 2 2 2 2 2
left_child=1 3 -3 4 -1 7 -2 -6 -7
right_child=6 2 -4 -5 5 8 -8 -9 -10
leaf_value=0.0027026278246314608 -0.015098919898161388 0.012056871853196285 -0.013274009537137333 0.0043328943772006443 -0.0090195459240723849 -0.0058513306409535585 -0.0060799217233931183 0.013170052100176046 -0.014352066881579306
leaf_weight=51.618414983153343 80.170251905918121 149.75031654536724 12.941093251109121 65.139869406819344 5.4444759339094144 43.605336621403694 25.181541219353676 7.0720357447862625 39.212053671479225
leaf_count=214 323 655 52 270 22 176 101 29 158
internal_value=0 0.00341957 0.010042 -0.00166032 -0.00431695 -0.00811769 -0.0129432 0.00351794 -0.00987623
internal_weight=0 374.784 162.691 212.092 146.952 95.3339 105.352 12.5165 82.8174
internal_count=2000 1576 707 869 599 385 424 51 334
is_linear=0
shrinkage=0.01


Tree=32
num_leaves=10
num_cat=0
split_feature=189 175 172 172 7 171 123 171 72
split_gain=196.49 92.0903 62.0225 30.9469 30.445 27.1936 23.8088 17.0749 20.7661
threshold=1.0000000180025095e-35 1.0000000180025095e-35 87.878750000000011 82.854375000000019 0.028000000000000004 0.29250000000000004 -0.16724999999999998 1.7729166666666651 6.5607142857142859
decision_type=2 2 2 2 2 2 2 2 2
left_child=2 3 4 -2 5 -1 -4 8 -7
right_child=1 -3 6 -5 -6 7 -8 -9 -10
leaf_value=-0.014102370360637322 0.01248813889677821 -0.011332173156695213 -0.0027136044665990178 0.0014588213286414989 -0.0075931188684427399 -0.0022750026307816647 -0.014022211335818165 0.010651386100620875 0.0082888484692530372
leaf_weight=10.890641450881956 133.79152332246304 22.12908524274826 24.154146403074265 31.413398966193199 61.549933433532715 67.97243657708168 81.218367248773575 20.710456848144531 25.623117089271545
leaf_count=44 589 89 99 130 250 278 328 86 107
internal_value=0 0.00782486 -0.00529579 0.0103909 -0.00183455 0.000996511 -0.01143 0.00243508 0.000617002
internal_weight=0 187.334 292.119 165.205 186.747 125.197 105.373 114.306 93.5956
internal_count=2000 808 1192 719 765 515 427 471 385
is_linear=0
shrinkage=0.01


Tree=33
num_leaves=10
num_cat=0
split_feature=170 189 175 7 171 36 124 1 36
split_gain=213.125 121.845 74.0268 34.4112 20.1829 17.5318 17.0303 21.943 17.2101
threshold=1.0000000180025095e-35 1.0000000180025095e-35 1.0000000180025095e-35 0.028000000000000004 0.32937500000000003 0.065928571428571461 3.1550000000000002 1929.0000000000002 0.06536666666666667
decision_type=2 2 2 2 2 2 2 2 2
left_child=1 3 -3 4 -1 -5 -6 8 -8
right_child=-2 2 -4 5 6 -7 7 -9 -10
leaf_value=-0.011076160884584406 -0.012745243315630119 0.011906559290724025 -0.013040112419731218 0.0028262694293203568 0.0090525335431154916 -0.0097168446208709923 0.0065776243089316058 0.012924796317902273 -0.0038549066095412443
leaf_weight=12.139935001730917 105.14128732681274 148.71447305381298 12.929127737879751 13.82966437935829 29.707591310143471 57.367583468556404 20.802441954612732 12.290326371788977 65.922489881515503
leaf_count=49 424 655 52 57 124 232 87 51 269
internal_value=0 0.003371 0.00991119 -0.00161428 0.00124959 -0.00728042 0.00241204 0.000419689 -0.00135249
internal_weight=0 373.704 161.644 212.06 140.863 71.1972 128.723 99.0153 86.7249
internal_count=2000 1576 707 869 580 289 531 407 356
is_linear=0
shrinkage=0.01


Tree=34
num_leaves=10
num_cat=0
split_feature=170 171 3 188 7 185 29 171 140
split_gain=209.141 62.8113 29.8822 26.6702 24.4979 23.1038 17.2622 13.3565 12.2569
threshold=1.0000000180025095e-35 0.45083333333333359 3.5000000000000004 1.0000000180025095e-35 0.028000000000000004 1.0000000180025095e-35 0.21111111111111103 0.91812500000000008 0.90071428571428569
decision_type=2 2 2 2 2 2 2 2 2
left_child=1 5 -3 4 -4 6 -1 8 -5
right_child=-2 2 3 7 -6 -7 -8 -9 -10
leaf_value=0.0030138578459908221 -0.012632008262115109 -0.018747911075442544 0.0058027237149817189 0.011678289162990943 -0.0023503085404091031 -0.016245019629016585 -0.0093034827477496869 0.01085875791019819 0.0014355911345898858
leaf_weight=26.554082632064819 105.02353689074516 5.1330790221691123 96.58522854745388 17.011105611920357 59.594092831015587 15.852020129561422 19.90808530151844 95.1795594394207 37.299583926796913
leaf_count=110 424 21 408 74 248 64 81 412 158
internal_value=0 0.00334264 0.00517981 0.00558162 0.00269173 -0.00582052 -0.00226387 0.00860082 0.00464379
internal_weight=0 373.117 310.803 305.67 156.179 62.3142 46.4622 149.49 54.3107
internal_count=2000 1576 1321 1300 656 255 191 644 232
is_linear=0
shrinkage=0.01


Tree=35
num_leaves=10
num_cat=0
split_feature=170 189 175 96 69 7 43 72 171
split_gain=219.358 118.291 59.2623 36.8036 40.9403 26.5176 19.4789 17.8815 16.1299
threshold=1.0000000180025095e-35 1.0000000180025095e-35 1.0000000180025095e-35 1.9870833333333351 1.2416666666666651 0.013000000000000003 2.0360714285714305 6.3645555555555555 0.44888888888888906
decision_type=2 2 2 2 2 2 2 2 2
left_child=1 3 8 4 5 6 -1 -8 -3
right_child=-2 2 -4 -5 -6 -7 7 -9 -10
leaf_value=0.013219404243874387 -0.012595456431418101 0.0027138249266134128 -0.011912999883797293 0.0055830474666982875 0.0090056122088762007 -0.011682928138963475 -0.0071583608055652741 0.0036851278349314034 0.013175141956838552
leaf_weight=7.2894670516252509 106.14075404405594 16.633598238229752 11.172148153185843 57.782004237174988 21.411279559135437 49.403115630149841 51.039273530244827 21.662263333797455 129.37362688779831
leaf_count=30 429 70 45 241 90 199 207 89 576
internal_value=0 0.00373365 0.0102848 -0.00120294 -0.00380304 -0.00592253 -0.00236485 -0.00392742 0.0119834
internal_weight=0 365.767 157.179 208.587 150.805 129.394 79.991 72.7015 146.007
internal_count=1976 1547 691 856 615 525 326 296 646
is_linear=0
shrinkage=0.01


Tree=36
num_leaves=10
num_cat=0
split_feature=170 189 185 96 69 7 21 43 72
split_gain=215.293 116.44 49.2016 36.0908 40.1473 25.9697 24.8092 19.115 17.5132
threshold=1.0000000180025095e-35 1.0000000180025095e-35 1.0000000180025095e-35 1.9870833333333351 1.2416666666666651 0.013000000000000003 0.35469047619047656 2.0360714285714305 6.3645555555555555
decision_type=2 2 2 2 2 2 2 2 2
left_child=1 3 -3 4 5 7 -4 -1 -9
right_child=-2 2 6 -5 -6 -7 -8 8 -10
leaf_value=0.013115039592875539 -0.012485294132003546 0.012252032704064221 -0.013392476158146878 0.0055332044326082642 0.0089331148743160178 -0.011560803563714124 0.011459254119496236 -0.0070819588860551036 0.0036502489819164531
leaf_weight=7.274076282978057 106.00716732442379 138.40339377522469 12.232852458953859 57.719791397452354 21.369404435157776 49.425627380609512 5.9810121655464163 51.07382345199585 21.650616690516472
leaf_count=30 429 615 50 241 90 199 26 207 89
internal_value=0 0.00370287 0.0102188 -0.0011913 -0.00376526 -0.00586191 -0.00523174 -0.00234095 -0.0038869
internal_weight=0 365.131 156.617 208.513 150.794 129.424 18.2139 79.9985 72.7244
internal_count=1976 1547 691 856 615 525 76 326 296
is_linear=0
shrinkage=0.01


Tree=37
num_leaves=10
num_cat=0
split_feature=170 189 175 96 69 7 43 72 140
split_gain=211.313 114.603 57.6688 35.3927 39.3711 25.436 18.7587 17.1532 12.4398
threshold=1.0000000180025095e-35 1.0000000180025095e-35 1.0000000180025095e-35 1.9870833333333351 1.2416666666666651 0.013000000000000003 2.0360714285714305 6.3645555555555555 0.92944444444444463
decision_type=2 2 2 2 2 2 2 2 2
left_child=1 3 -3 4 5 6 -1 8 -8
right_child=-2 2 -4 -5 -6 -7 7 -9 -10
leaf_value=0.01301236879478518 -0.012376918966417358 0.011838712322684837 -0.011756205600668717 0.005483834031600218 0.0088613984417648169 -0.011440769960079039 -0.00088896792126303889 0.0036157052132730649 -0.010985389701052936
leaf_weight=7.2582352161407462 105.86673791706562 144.91571670770645 11.15612246096134 57.657357022166252 21.327138677239418 49.444647282361984 20.140128493309021 21.638946801424026 30.966638281941414
leaf_count=30 429 646 45 241 90 199 82 89 125
internal_value=0 0.00367224 0.0101521 -0.00117981 -0.00372801 -0.00580217 -0.00231736 -0.00384689 -0.0070066
internal_weight=0 364.505 156.072 208.433 150.776 129.449 80.0039 72.7457 51.1068
internal_count=1976 1547 691 856 615 525 326 296 207
is_linear=0
shrinkage=0.01


Tree=38
num_leaves=10
num_cat=0
split_feature=170 171 6 4 168 172 153 182 9
split_gain=207.42 63.5369 27.1486 26.0306 26.5551 21.284 16.7601 16.11 14.9661
threshold=1.0000000180025095e-35 0.44888888888888906 17442.547000000002 54.000000000000007 1.0000000180025095e-35 57.994166666666651 1.0843750000000003 1.0000000180025095e-35 87959511.000000015
decision_type=2 2 2 2 2 2 2 2 2
left_child=1 5 -3 4 8 -1 -7 -2 -4
right_child=7 2 3 -5 -6 6 -8 -9 -10
leaf_value=0.0041369534287999431 -0.013157368392013489 0.0086787958755698592 0.0007896987972766127 0.011816828583843808 -0.0049041494784492542 -0.014586306350207636 -0.0018609085228239643 0.0049076434195113689 0.0091793881526453774
leaf_weight=15.572123304009436 100.52828155457973 141.68806117773056 51.44429287314415 26.272935956716537 49.499371007084846 25.90348719060421 17.236877262592316 5.191415697336196 36.24183914065361
leaf_count=65 408 615 218 114 205 105 71 21 154
internal_value=0 0.00364208 0.00547506 0.00269802 0.000951639 -0.00588446 -0.00950183 -0.0122703 0.00425727
internal_weight=0 363.859 305.147 163.458 137.186 58.7125 43.1404 105.72 87.6861
internal_count=1976 1547 1306 691 577 241 176 429 372
is_linear=0
shrinkage=0.01


Tree=39
num_leaves=10
num_cat=0
split_feature=170 189 185 96 69 7 21 182 176
split_gain=203.586 112.767 47.5808 34.5879 38.5087 24.5861 23.9436 15.8276 12.8044
threshold=1.0000000180025095e-35 1.0000000180025095e-35 1.0000000180025095e-35 1.9870833333333351 1.2416666666666651 0.013000000000000003 0.35469047619047656 1.0000000180025095e-35 1.0000000180025095e-35
decision_type=2 2 2 2 2 2 2 2 2
left_child=1 3 -3 4 5 8 -4 -2 -1
right_child=7 2 6 -5 -6 -7 -8 -9 -10
leaf_value=-0.0059348863493193307 -0.013046375058398958 0.012075675794478777 -0.013167281969021991 0.0053961652209436588 0.008753775666876764 -0.011310712197854242 0.011318969562869713 0.0048562102284185841 0.0021157268889547723
leaf_weight=44.240367442369461 100.37048956751823 137.07923845946789 12.207615956664087 57.528997331857681 21.260620608925819 49.448310628533363 5.9348671585321418 5.1939225494861594 35.697096705436707
leaf_count=180 408 615 50 241 90 199 26 21 146
internal_value=0 0.00361031 0.0100615 -0.00119988 -0.00371878 -0.00576827 -0.00515721 -0.0121655 -0.00233978
internal_weight=0 363.397 155.222 208.175 150.646 129.386 18.1425 105.564 79.9375
internal_count=1976 1547 691 856 615 525 76 429 326
is_linear=0
shrinkage=0.01


Tree=40
num_leaves=10
num_cat=0
split_feature=170 171 1 6 115 182 5 30 62
split_gain=186.855 66.5024 32.5857 23.9691 22.2582 20.1327 17.9403 16.6896 17.3815
threshold=1.0000000180025095e-35 0.45083333333333359 365.00000000000006 40556.146000000008 0.84642857142857164 1.0000000180025095e-35 0.23850000000000002 0.75900000000000012 1.0000000180025095e-35
decision_type=2 2 2 2 2 2 2 2 2
left_child=1 4 6 -4 -1 -2 -3 -5 -9
right_child=5 2 3 7 -6 -7 -8 8 -10
leaf_value=0.003932679128107971 -0.01270975502765803 -0.0048376978636935474 0.0093866993644520277 0.0077595707825216355 -0.0095593043128802107 0.0079426817761484719 0.0096464633965787482 0.011901171898101326 -0.002504620107514819
leaf_weight=16.555952250957489 101.44348102807999 42.225086405873299 144.53560744225979 45.55862420797348 46.769638851284981 4.9505281597375861 10.723192140460013 9.9688128829002363 52.405188694596291
leaf_count=69 413 175 634 197 191 20 45 43 218
internal_value=0 0.00329446 0.00522821 0.00672407 -0.00603194 -0.0117488 -0.00190434 0.00315846 -0.00020224
internal_weight=0 368.742 305.417 252.468 63.3256 106.394 52.9483 107.933 62.374
internal_count=2005 1572 1312 1092 260 433 220 458 261
is_linear=0
shrinkage=0.01


Tree=41
num_leaves=10
num_cat=0
split_feature=170 189 175 62 158 176 182 89 189
split_gain=183.416 106.135 69.3279 32.2625 42.4697 23.3047 19.7739 15.7474 14.433
threshold=1.0000000180025095e-35 1.0000000180025095e-35 1.0000000180025095e-35 3.0600000000000005 1.0969444444444452 1.0000000180025095e-35 1.0000000180025095e-35 0.0099999999999999516 1.0000000180025095e-35
decision_type=2 2 2 2 2 2 2 2 2
left_child=1 3 -3 -1 5 -5 8 -7 -2
right_child=6 2 -4 4 -6 7 -8 -9 -10
leaf_value=0.0076406417781789554 -0.014721613572047921 0.01132191131721458 -0.013116122819128819 -0.011248297463889145 0.0031638960296411314 0.0052456432896811856 0.0078575413140891028 -0.0063205165581318523 -0.0058744363944489833
leaf_weight=32.96677727997303 77.031535968184471 147.25755667686462 12.601916238665579 58.872681185603142 66.397353500127792 18.860661372542381 4.9541096389293662 31.317943975329399 24.242454692721367
leaf_count=139 315 664 51 238 276 77 20 127 98
internal_value=0 0.00326572 0.00939543 -0.00143591 -0.00314139 -0.00698045 -0.0116496 -0.00197314 -0.0126038
internal_weight=0 368.275 159.859 208.415 175.449 109.051 106.228 50.1786 101.274
internal_count=2005 1572 715 857 718 442 433 204 413
is_linear=0
shrinkage=0.01


Tree=42
num_leaves=10
num_cat=0
split_feature=170 189 175 96 158 171 171 189 0
split_gain=180.078 104.455 68.1785 35.9476 43.4217 19.971 18.7305 18.6459 14.606
threshold=1.0000000180025095e-35 1.0000000180025095e-35 1.0000000180025095e-35 1.7953571428571451 1.0969444444444452 0.46100000000000008 0.90916666666666657 1.0000000180025095e-35 73.500000000000014
decision_type=2 2 2 2 2 2 2 2 2
left_child=1 3 5 4 -1 -3 -5 -2 -9
right_child=7 2 -4 6 -6 -7 -8 8 -10
leaf_value=-0.0085169751859397874 -0.01397113112672173 0.0014224802425740596 -0.012998636013821212 -0.00051703496384836059 0.00267422005100736 0.012636298540882383 0.010415555486424255 0.0078794940965423131 -0.0088195982798745919
leaf_weight=88.783622086048126 79.579044476151466 18.119548082351685 12.58872467279434 31.570528283715248 56.882700994610786 128.5836393982172 31.117567002773285 7.1919764131307629 19.276372313499451
leaf_count=359 326 77 51 131 236 587 131 29 78
internal_value=0 0.00323869 0.00933481 -0.00142194 -0.00414681 0.0112513 0.00490976 -0.0115529 -0.00428212
internal_weight=0 367.646 159.292 208.354 145.666 146.703 62.6881 106.047 26.4683
internal_count=2005 1572 715 857 595 664 262 433 107
is_linear=0
shrinkage=0.01


Tree=43
num_leaves=10
num_cat=0
split_feature=170 189 175 96 158 182 7 99 194
split_gain=176.81 102.822 67.0596 35.2455 42.5354 19.3145 15.09 16.98 14.7859
threshold=1.0000000180025095e-35 1.0000000180025095e-35 1.0000000180025095e-35 1.7953571428571451 1.0969444444444452 1.0000000180025095e-35 0.011500000000000002 1.8145000000000002 0.0061756760620828507
decision_type=2 2 2 2 2 2 2 2 2
left_child=1 3 -3 4 6 -2 7 -1 -8
right_child=5 2 -4 -5 -6 -7 8 -9 -10
leaf_value=-0.0076025417585918386 -0.012404016761416486 0.011183110455405867 -0.012883153083862347 0.0048659419282014961 0.0026486596947252151 0.0078195663865817978 -0.00098037634055069402 0.0073815679466088411 -0.016532960121859331
leaf_weight=42.531057417392731 100.90698979794979 146.124476775527 12.574623242020605 62.620862007141113 56.857448145747185 4.9543123245239249 7.7194419354200354 9.1982651650905591 29.371037214994431
leaf_count=172 413 664 51 262 236 20 31 38 118
internal_value=0 0.00321208 0.0092762 -0.00140807 -0.00410502 -0.0114576 -0.00842835 -0.00493814 -0.0132961
internal_weight=0 366.997 158.699 208.298 145.677 105.861 88.8198 51.7293 37.0905
internal_count=2005 1572 715 857 595 433 359 210 149
is_linear=0
shrinkage=0.01


Tree=44
num_leaves=10
num_cat=0
split_feature=170 171 1 6 172 182 30 158 172
split_gain=173.6 63.5389 31.4117 23.1478 21.3759 18.9741 15.8995 16.8826 15.9834
threshold=1.0000000180025095e-35 0.45083333333333359 365.00000000000006 40556.146000000008 57.994166666666651 1.0000000180025095e-35 0.75900000000000012 0.86083333333333367 35.494166666666707
decision_type=2 2 2 2 2 2 2 2 2
left_child=1 4 -3 -4 -1 -2 -5 -8 -9
right_child=5 2 3 6 -6 -7 7 8 -10
leaf_value=0.0049111275857178305 -0.012302905893167394 -0.0019243108270737088 0.0091969667587203426 0.0075660658573912503 -0.0090588721975482407 0.0077361855277969377 0.0091932742092541413 0.0064231436455259444 -0.0066388128630358659
leaf_weight=14.101925283670424 100.7198641449213 52.781897723674774 143.10771782696247 45.185836091637611 49.05009138584137 4.9576161652803412 14.555306255817412 12.829206228256224 34.724515497684479
leaf_count=59 413 220 634 197 201 20 63 54 144
internal_value=0 0.00318579 0.00508651 0.00656431 -0.00593935 -0.0113628 0.00305293 -0.000230479 -0.00311491
internal_weight=0 366.336 303.184 250.403 63.152 105.677 107.295 62.109 47.5537
internal_count=2005 1572 1312 1092 260 433 458 261 198
is_linear=0
shrinkage=0.01


Tree=45
num_leaves=10
num_cat=0
split_feature=170 189 96 151 185 154 31 189 33
split_gain=183.133 95.4943 32.3741 34.9245 29.7981 17.3293 15.5898 15.0379 14.682
threshold=1.0000000180025095e-35 1.0000000180025095e-35 2.0000000000000004 1.0000000180025095e-35 1.0000000180025095e-35 -0.055687499999999994 0.9505555555555556 1.0000000180025095e-35 1.2758333333333352
decision_type=2 2 2 2 2 2 2 2 2
left_child=1 2 3 6 -3 -6 -1 -2 -5
right_child=7 4 -4 8 5 -7 -8 -9 -10
leaf_value=-0.0052750162117512671 -0.013831286375205419 0.011045673227594923 0.0054734754037986067 -0.008827760677142308 -0.011439986517558976 0.0076560224055585773 0.0049261310241410982 -0.004825503307970349 0.0064281483323020182
leaf_weight=21.43453523516655 79.585845991969109 133.15941427648067 56.939156219363213 79.211866453289986 9.9574785828590411 9.0908264815807325 49.757860794663429 24.173156946897507 6.8540813922882071
leaf_count=87 328 609 240 320 41 40 208 98 28
internal_value=0 0.00331605 -0.000987421 -0.00332674 0.0093722 -0.00232639 0.00185478 -0.0117332 -0.00761282
internal_weight=0 366.405 214.198 157.258 152.208 19.0483 71.1924 103.759 86.0659
internal_count=1999 1573 883 643 690 81 295 426 348
is_linear=0
shrinkage=0.01


Tree=46
num_leaves=10
num_cat=0
split_feature=189 175 171 19 7 74 171 137 171
split_gain=153.143 62.7736 61.8993 32.8146 18.4622 18.5158 14.5329 15.6843 14.3787
threshold=1.0000000180025095e-35 1.0000000180025095e-35 0.44142857142857156 6.495000000000001 0.028000000000000004 0.42875000000000002 1.0608333333333353 1.1022500000000004 2.0675000000000003
decision_type=2 2 2 2 2 2 2 2 2
left_child=2 6 -1 -4 8 -6 7 -2 -5
right_child=1 -3 3 4 5 -7 -8 -9 -10
leaf_value=-0.011980308455111111 0.0088393893465900306 -0.0093636179988063374 -0.0070027930445496437 0.0024330704292312775 -0.0086670953610565437 0.004602093302417877 0.013072794618405 -0.0020650321815447997 0.01529931892186479
leaf_weight=79.20354537665844 73.937313437461853 19.872726261615753 74.357683703303337 84.264311552047729 29.726218536496162 16.272808060050011 65.974938064813614 16.054607674479485 9.6841425746679288
leaf_count=325 331 81 303 353 121 68 306 70 41
internal_value=0 0.00737492 -0.00442632 -0.00163449 0.00121782 -0.00397293 0.00950769 0.00689403 0.00375931
internal_weight=0 175.84 293.509 214.305 139.947 45.999 155.967 89.9919 93.9485
internal_count=1999 788 1211 886 583 189 707 401 394
is_linear=0
shrinkage=0.01


Tree=47
num_leaves=10
num_cat=0
split_feature=170 171 6 94 172 4 73 90 75
split_gain=178.032 51.5884 22.7585 21.3983 18.6959 15.8064 13.4988 15.4389 12.1232
threshold=1.0000000180025095e-35 0.44142857142857156 40556.146000000008 1.1027500000000001 57.994166666666651 75.000000000000014 0.96607142857142858 -0.16055555555555548 3.6935000000000007
decision_type=2 2 2 2 2 2 2 2 2
left_child=1 4 -3 -4 -1 6 -5 -8 -6
right_child=-2 2 3 5 8 -7 7 -9 -10
leaf_value=0.0048777022831313415 -0.011587444208222454 0.0074207412729398623 0.0076431586432809777 0.0053924495546034948 0.005243161358387015 0.0097373942732136773 0.0028067038375943678 -0.0078296390817107816 -0.010254836127880907
leaf_weight=14.06183587014675 103.42190466821194 167.21861101686954 44.513723328709602 17.505820125341415 5.7746518254280081 12.398879721760748 19.804967641830444 43.888822451233864 40.076525330543518
leaf_count=59 426 739 193 75 24 54 84 181 164
internal_value=0 0.00327476 0.00493955 0.00193546 -0.00520941 -0.000779018 -0.00238484 -0.00452237 -0.00830297
internal_weight=0 365.244 305.331 138.112 59.913 93.5985 81.1996 63.6938 45.8512
internal_count=1999 1573 1326 587 247 394 340 265 188
is_linear=0
shrinkage=0.01


Tree=48
num_leaves=10
num_cat=0
split_feature=170 171 1 172 52 7 69 114 5
split_gain=174.809 50.6279 30.1428 18.326 17.8067 16.5756 13.0515 11.6602 10.9611
threshold=1.0000000180025095e-35 0.44142857142857156 351.50000000000006 57.994166666666651 1.0050000000000001 0.028000000000000004 0.17062500000000005 0.78660714285714317 0.22650000000000003
decision_type=2 2 2 2 2 2 2 2 2
left_child=1 3 5 -1 -4 8 -6 -5 -3
right_child=-2 2 4 7 6 -7 -8 -9 -10
leaf_value=0.0048333901901757171 -0.01149395707989866 -0.002183049233250594 0.0088237835966501459 -0.0025795677905977765 0.0054565056045897285 -0.0087937577232166803 -0.0021240793376831905 -0.012729443771043823 0.010035585068820629
leaf_weight=14.048911482095717 103.22146916389465 18.447995841503147 133.96672888100147 20.363543882966042 88.304557129740715 21.374549746513367 30.576113343238831 25.481439054012299 12.195378184318541
leaf_count=59 426 77 594 84 384 88 131 104 52
internal_value=0 0.00324637 0.00489768 -0.00515895 0.0063239 -0.00203483 0.00350678 -0.00822105 0.00267969
internal_weight=0 364.759 304.865 59.8939 252.847 52.0179 118.881 45.845 30.6434
internal_count=1999 1573 1326 247 1109 217 515 188 129
is_linear=0
shrinkage=0.01


Tree=49
num_leaves=10
num_cat=0
split_feature=189 175 171 19 172 172 172 34 7
split_gain=149.378 60.4247 58.5522 31.3786 23.5723 22.5636 21.0618 17.9033 17.7442
threshold=1.0000000180025095e-35 1.0000000180025095e-35 0.44142857142857156 6.495000000000001 41.490000000000002 59.914835768102023 82.854375000000019 0.12044444444444451 0.028000000000000004
decision_type=2 2 2 2 2 2 2 2 2
left_child=2 6 5 4 -4 -1 -2 -8 -5
right_child=1 -3 3 8 -6 -7 7 -9 -10
leaf_value=0.0019106766387870539 0.011272686256441646 -0.0091383890374686968 0.0044301048390824396 0.0036361163537697396 -0.0097110199538453755 -0.013832382390672623 0.0055283319956164305 -0.014537305431197181 -0.0039536766934754417
leaf_weight=10.502161413431166 123.54082883894444 19.797413229942322 14.699828535318373 93.61094731092453 59.505748137831688 68.382370948791504 25.99529325962067 5.3641533106565467 45.910327285528183
leaf_count=43 574 81 60 394 243 282 111 22 189
internal_value=0 0.00731235 -0.00437337 -0.00165573 -0.00690972 -0.0117365 0.00941488 0.00209603 0.00113865
internal_weight=0 174.698 292.611 213.727 74.2056 78.8845 154.9 31.3594 139.521
internal_count=1999 788 1211 886 303 325 707 133 583
is_linear=0
shrinkage=0.01


Tree=50
num_leaves=10
num_cat=0
split_feature=170 189 175 7 80 101 142 65 109
split_gain=168.469 92.6677 47.6785 28.2607 18.8972 17.1738 15.932 14.5683 15.7823
threshold=1.0000000180025095e-35 1.0000000180025095e-35 1.0000000180025095e-35 0.011500000000000002 0.071714285714285717 0.85550000000000004 0.82050000000000012 0.76612500000000006 0.75857142857142856
decision_type=2 2 2 2 2 2 2 2 2
left_child=1 3 -3 5 -5 -1 -7 -8 -9
right_child=-2 2 -4 4 -6 6 7 8 -10
leaf_value=0.0094577125236686432 -0.011119461045029755 0.011111182547510635 -0.010090737513369299 -0.0084592723406886981 0.0037023352799618972 0.0058763707651719316 0.0030550633790491773 0.0075398625256091825 -0.0088188391651572925
leaf_weight=24.469445616006851 102.36591430008411 136.8622991591692 11.49752654135227 58.538339287042618 16.343862473964691 33.255906492471695 28.491942539811134 7.0450747758150092 36.208054259419441
leaf_count=105 424 635 47 238 68 140 118 29 147
internal_value=0 0.00345239 0.00946809 -0.000914995 -0.00580487 0.00191318 0.000154995 -0.00249703 -0.00615433
internal_weight=0 352.712 148.36 204.353 74.8822 129.47 105.001 71.7451 43.2531
internal_count=1951 1527 682 845 306 539 434 294 176
is_linear=0
shrinkage=0.01


Tree=51
num_leaves=10
num_cat=0
split_feature=170 189 175 7 1 80 69 85 17
split_gain=165.45 91.2536 46.918 27.7011 20.838 18.6477 15.7323 14.7592 14.6574
threshold=1.0000000180025095e-35 1.0000000180025095e-35 1.0000000180025095e-35 0.013000000000000003 1929.0000000000002 0.071714285714285717 1.3900000000000001 0.082916666666666666 101.9466666666665
decision_type=2 2 2 2 2 2 2 2 2
left_child=1 3 -3 4 7 6 -5 8 -1
right_child=-2 2 -4 5 -6 -7 -8 -9 -10
leaf_value=-0.0032360291301480222 -0.011030700317436097 0.011045224259880771 -0.010002459511051632 -0.010221699504748773 0.012984124716203761 0.0036676776772895472 0.0066723008180885092 0.010069506206762103 0.0053117019965636079
leaf_weight=73.323067933320999 102.15876580774784 136.30559462308884 11.483081907033919 51.894103422760963 14.956523254513739 16.33337290585041 6.1673386394977561 13.969800278544424 27.617102459073067
leaf_count=301 424 635 47 210 63 68 26 59 118
internal_value=0 0.0034244 0.00940983 -0.000906219 0.00188104 -0.00577177 -0.0084272 0.000435882 -0.000897381
internal_weight=0 352.05 147.789 204.261 129.866 74.3948 58.0614 114.91 100.94
internal_count=1951 1527 682 845 541 304 236 478 419
is_linear=0
shrinkage=0.01


Tree=52
num_leaves=10
num_cat=0
split_feature=189 175 172 13 7 172 67 15 30
split_gain=139.289 62.8337 46.4449 27.4036 23.8091 21.2803 19.0319 17.7328 17.265
threshold=1.0000000180025095e-35 1.0000000180025095e-35 78.652500000000018 0.11166666666666651 0.028000000000000004 82.854375000000019 1.3130555555555552 0.57678571428571457 0.61875000000000013
decision_type=2 2 2 2 2 2 2 2 2
left_child=2 5 4 -4 7 -2 -7 -1 -5
right_child=1 -3 3 8 -6 6 -8 -9 -10
leaf_value=0.012962478615581956 0.011367159792953581 -0.0094105690729224655 0.0028311169071653683 -0.0002139388047728226 -0.0058879253059005519 0.006321603851043669 -0.012426312727821782 0.00057221425961730013 -0.012476327515506981
leaf_weight=13.192529127001761 120.73047381639481 19.936428710818291 17.011239930987358 13.196855232119558 57.269979059696198 23.796783193945888 7.0097316354513159 92.82460530102253 88.361068651080132
leaf_count=57 568 82 72 55 234 102 29 385 367
internal_value=0 0.00727855 -0.00415163 -0.00891534 -0.00069251 0.0094742 0.00205569 0.00211403 -0.0108829
internal_weight=0 171.473 281.856 118.569 163.287 151.537 30.8065 106.017 101.558
internal_count=1951 781 1170 494 676 699 131 442 422
is_linear=0
shrinkage=0.01


Tree=53
num_leaves=10
num_cat=0
split_feature=170 189 175 96 158 171 7 194 1
split_gain=160.379 88.4155 45.4842 26.854 28.3643 16.6977 16.2693 14.3205 13.2235
threshold=1.0000000180025095e-35 1.0000000180025095e-35 1.0000000180025095e-35 1.8975000000000002 1.0969444444444452 0.90916666666666657 0.011500000000000002 0.0060223081813148014 724.00000000000011
decision_type=2 2 2 2 2 2 2 2 2
left_child=1 3 -3 4 6 -5 -1 -8 -6
right_child=-2 2 -4 5 8 -7 7 -9 -10
leaf_value=-0.003099112875590396 -0.010881912349258385 0.010920913255725148 -0.0098336829422202583 -0.00023192862803521298 -0.0013032817607757648 0.010390147850614165 0.00081659277044522334 -0.014897033188869573 0.0087355733917470375
leaf_weight=50.627076759934425 101.76643078029156 135.20246811211109 11.453761741518973 31.337353706359863 36.817828014492989 28.042090013623238 7.2067434489727011 29.704958617687225 20.386863246560097
leaf_count=206 424 635 47 131 153 120 29 120 86
internal_value=0 0.00337697 0.00929999 -0.000878537 -0.00320168 0.00478437 -0.00678019 -0.0118291 0.00227441
internal_weight=0 350.779 146.656 204.123 144.743 59.3794 87.5388 36.9117 57.2047
internal_count=1951 1527 682 845 594 251 355 149 239
is_linear=0
shrinkage=0.01


Tree=54
num_leaves=10
num_cat=0
split_feature=170 189 175 7 1 36 93 86 51
split_gain=157.522 87.0731 44.7629 26.321 19.7836 17.9163 16.0356 13.8656 24.2112
threshold=1.0000000180025095e-35 1.0000000180025095e-35 1.0000000180025095e-35 0.011500000000000002 1929.0000000000002 0.07186607142857146 -0.15249999999999997 -0.077888888888888883 1.0354166666666653
decision_type=2 2 2 2 2 2 2 2 2
left_child=1 3 -3 4 7 -5 -7 8 -1
right_child=-2 2 -4 5 -6 6 -8 -9 -10
leaf_value=0.0015282439191393188 -0.010796273111259271 0.010856953587463509 -0.0097487035963294884 0.0019449963924834722 0.012802608626371703 0.0048264043472091636 -0.011010123199226389 0.0040867911465085963 -0.012098924788431107
leaf_weight=40.325874865055084 101.54902748763561 134.64178907871246 11.438146188855169 22.192446559667587 14.656050413846968 7.4481435269117346 45.171940669417381 54.945615753531456 19.267055094242096
leaf_count=169 424 635 47 92 62 31 183 230 78
internal_value=0 0.00334991 0.00924352 -0.000870227 0.00186311 -0.00559046 -0.00876853 0.000463323 -0.00287757
internal_weight=0 350.087 146.08 204.007 129.195 74.8125 52.6201 114.539 59.5929
internal_count=1951 1527 682 845 539 306 214 477 247
is_linear=0
shrinkage=0.01


Tree=55
num_leaves=10
num_cat=0
split_feature=170 189 171 96 146 171 185 172 105
split_gain=148.375 78.9762 45.7172 32.0602 34.8996 20.3702 19.8416 18.0086 13.3714
threshold=1.0000000180025095e-35 1.0000000180025095e-35 0.44888888888888906 1.8218750000000001 0.88535714285714306 0.98100000000000009 1.0000000180025095e-35 41.779722222222212 1.1894444444444452
decision_type=2 2 2 2 2 2 2 2 2
left_child=1 3 6 4 8 -5 -3 -6 -1
right_child=-2 2 -4 5 7 -7 -8 -9 -10
leaf_value=-0.00086408009693836633 -0.010631430042724906 0.0031840306897833043 0.011152863508823765 -0.00024224076015849847 -0.00020690785057885137 0.011245598017011797 -0.015878646873415891 -0.010064351746651377 0.0096182891526159359
leaf_weight=33.666591450572014 103.67197912931442 14.012135177850723 120.49501855671406 33.608209952712059 25.801131352782249 28.545726925134659 8.9463893473148346 65.793426528573036 19.057687148451805
leaf_count=140 434 61 574 141 105 122 37 266 81
internal_value=0 0.0029892 0.00868869 -0.000970697 -0.00355667 0.00503383 -0.00424424 -0.00728762 0.00292487
internal_weight=0 349.926 143.454 206.473 144.319 62.1539 22.9585 91.5946 52.7243
internal_count=1961 1527 672 855 592 263 98 371 221
is_linear=0
shrinkage=0.01


Tree=56
num_leaves=10
num_cat=0
split_feature=170 189 175 96 146 171 171 172 31
split_gain=145.74 77.7616 48.3641 31.4452 34.2039 20.0516 17.7292 17.6508 14.0672
threshold=1.0000000180025095e-35 1.0000000180025095e-35 1.0000000180025095e-35 1.8218750000000001 0.88535714285714306 0.93925733622748553 0.44888888888888906 41.779722222222212 0.99761904761904818
decision_type=2 2 2 2 2 2 2 2 2
left_child=1 3 6 4 -1 -5 8 -6 -3
right_child=-2 2 -4 5 7 -7 -8 -9 -10
leaf_value=0.0028976649988301691 -0.010548556108076932 -0.01081044944582138 -0.010865200087712827 -0.00040192915542832216 -0.00020483472369431325 0.010980696097155979 0.011703208828812196 -0.0099637888246041119 0.0085925632643791446
leaf_weight=52.687803119421005 103.44275644421577 6.5671630948781958 11.678831264376639 32.672630593180656 25.801635295152664 29.404351398348808 115.98401632905006 65.792894259095192 8.6689465939998609
leaf_count=221 434 28 48 137 105 126 558 266 38
internal_value=0 0.00296507 0.00863538 -0.000961487 -0.00352198 0.00498974 0.010371 -0.00721475 0.000229356
internal_weight=0 349.258 142.899 206.359 144.282 62.077 131.22 91.5945 15.2361
internal_count=1961 1527 672 855 592 263 624 371 66
is_linear=0
shrinkage=0.01


Tree=57
num_leaves=10
num_cat=0
split_feature=170 189 171 96 146 171 185 172 7
split_gain=143.158 76.5852 44.4542 30.842 33.5235 19.7336 19.2685 17.3015 13.3303
threshold=1.0000000180025095e-35 1.0000000180025095e-35 0.44888888888888906 1.8218750000000001 0.88535714285714306 0.98100000000000009 1.0000000180025095e-35 41.779722222222212 0.013000000000000003
decision_type=2 2 2 2 2 2 2 2 2
left_child=1 3 6 4 8 -5 -3 -6 -1
right_child=-2 2 -4 5 7 -7 -8 -9 -10
leaf_value=0.0065330168217217453 -0.010466704615474566 0.0031451043703112271 0.011032005098815882 -0.00023895852452005231 -0.00020278241907836333 0.011084703005485487 -0.015665506988661811 -0.0098647089806397272 -0.0040410338820025
leaf_weight=34.41837003827095 103.21034674346447 13.990905806422234 119.41136388480663 33.609587028622627 25.80213375389576 28.389249324798584 8.9157243072986603 65.789188340306282 18.240501627326012
leaf_count=146 434 61 574 141 105 122 37 266 75
internal_value=0 0.00294135 0.00858416 -0.000952358 -0.00348754 0.00494614 -0.00417637 -0.00714285 0.00287027
internal_weight=0 348.567 142.318 206.249 144.25 61.9988 22.9066 91.5913 52.6589
internal_count=1961 1527 672 855 592 263 98 371 221
is_linear=0
shrinkage=0.01


Tree=58
num_leaves=10
num_cat=0
split_feature=171 189 19 172 7 172 172 83 139
split_gain=119.82 99.3144 30.4931 28.3298 23.3926 21.8041 15.4373 14.024 12.48
threshold=0.44888888888888906 1.0000000180025095e-35 6.1298611111111105 57.994166666666651 0.028000000000000004 88.882500000000007 41.779722222222212 -0.14899999999999997 0.97183333333333366
decision_type=2 2 2 2 2 2 2 2 2
left_child=3 2 6 -1 8 -3 -2 -5 -4
right_child=1 5 4 7 -6 -7 -8 -9 -10
leaf_value=0.0044534254564746276 0.0033453080543651439 0.011469746727897353 0.0074004069063219428 0.0021752462952846887 -0.0044541432378290176 -0.00094418000843238465 -0.0094575377990399941 -0.011687846476227032 0.00010592543857776181
leaf_weight=14.166089057922362 11.512907415628431 110.99473823606968 51.826136544346809 7.9018141627311698 48.281746760010719 16.215901210904121 51.7574782371521 95.357608005404472 42.843871980905533
leaf_count=60 47 537 222 33 199 71 213 400 179
internal_value=0 0.00293854 -0.00134789 -0.0088077 0.00121033 0.00988731 -0.00712789 -0.010627 0.00409922
internal_weight=0 333.433 206.222 117.426 142.952 127.211 63.2704 103.259 94.67
internal_count=1961 1468 860 493 600 608 260 433 401
is_linear=0
shrinkage=0.01


Tree=59
num_leaves=10
num_cat=0
split_feature=170 189 175 96 146 171 171 129 172
split_gain=138.708 74.3003 46.7226 30.115 32.4755 19.355 17.0136 16.8466 17.4821
threshold=1.0000000180025095e-35 1.0000000180025095e-35 1.0000000180025095e-35 1.8218750000000001 0.88535714285714306 0.98100000000000009 0.44888888888888906 0.38321428571428556 41.779722222222212
decision_type=2 2 2 2 2 2 2 2 2
left_child=1 3 6 4 -1 -5 -3 -6 -9
right_child=-2 2 -4 5 7 -7 -8 8 -10
leaf_value=0.0028286775882579601 -0.010324716099207813 0.00028228844233312239 -0.010718540797297862 -0.00022689260154833471 -0.014981719929767323 0.010998226024265896 0.011531507722256792 0.003102199700650299 -0.007870290390354695
leaf_weight=52.582092434167862 102.77558597922325 15.235513955354689 11.62462757527828 33.600796028971672 20.645691454410553 28.296667397022247 114.38492630422115 20.375390768051147 50.532923504710197
leaf_count=221 434 66 48 141 84 122 558 83 204
internal_value=0 0.00290041 0.0084869 -0.000929368 -0.00343474 0.00490471 0.0102093 -0.007032 -0.00471736
internal_weight=0 347.279 141.245 206.034 144.136 61.8975 129.62 91.554 70.9083
internal_count=1961 1527 672 855 592 263 624 371 287
is_linear=0
shrinkage=0.01


Tree=60
num_leaves=10
num_cat=0
split_feature=170 189 171 6 90 0 185 189 0
split_gain=145.217 85.1086 33.9373 22.9081 22.0644 21.4956 17.7505 15.4299 17.457
threshold=1.0000000180025095e-35 1.0000000180025095e-35 0.44888888888888906 3210.9845 0.24750000000000003 301.50000000000006 1.0000000180025095e-35 1.0000000180025095e-35 73.500000000000014
decision_type=2 2 2 2 2 2 2 2 2
left_child=1 3 6 -1 5 -5 -3 -2 -9
right_child=7 2 -4 4 -6 -7 -8 8 -10
leaf_value=0.004285374688505047 -0.012471219344207732 0.0049724015305272189 0.01126421637175498 -0.008244357243976274 0.0075153559986804609 -5.7944418423048494e-05 -0.012475981531278579 0.010177913636291865 -0.0086069018103361351
leaf_weight=59.880568891763687 78.339864805340767 15.563074290752411 120.33839793503284 69.753776222467422 17.400605410337448 59.378558963537216 9.3231829553842545 6.8395266979932812 17.880250439047813
leaf_count=251 334 68 588 285 75 246 39 28 74
internal_value=0 0.0032006 0.00906587 -0.000925973 -0.00305559 -0.00448002 -0.00156432 -0.0102977 -0.00340947
internal_weight=0 351.638 145.225 206.414 146.533 129.132 24.8863 103.06 24.7198
internal_count=1988 1552 695 857 606 531 107 436 102
is_linear=0
shrinkage=0.01


Tree=61
num_leaves=10
num_cat=0
split_feature=170 189 175 151 96 189 0 171 8
split_gain=142.672 83.8419 37.9267 26.3206 22.3327 15.2251 17.118 13.8081 12.7447
threshold=1.0000000180025095e-35 1.0000000180025095e-35 1.0000000180025095e-35 1.0000000180025095e-35 1.8185000000000002 1.0000000180025095e-35 73.500000000000014 0.90916666666666657 288.00000000000006
decision_type=2 2 2 2 2 2 2 2 2
left_child=1 3 -3 8 -5 -2 -7 -6 -1
right_child=5 2 -4 4 7 6 -8 -9 -10
leaf_value=-0.011395090248514721 -0.012385241950317183 0.010469657072712015 -0.0089905003132981012 -0.00724129058422946 -0.0037094478758956657 0.010062058840123896 -0.0085341220871158179 0.0079785164009863567 0.0041295720239410295
leaf_weight=5.6426755338907233 78.096080332994461 133.79412622749805 10.825357317924498 76.129743099212646 20.867193564772606 6.8490460067987469 17.852546453475952 19.603424668312073 84.114549353718758
leaf_count=23 334 650 45 309 87 28 74 84 354
internal_value=0 0.00317466 0.00901299 -0.000916946 -0.00405039 -0.0102208 -0.00337793 0.00195205 0.0031536
internal_weight=0 350.977 144.619 206.358 116.6 102.798 24.7016 40.4706 89.7572
internal_count=1988 1552 695 857 480 436 102 171 377
is_linear=0
shrinkage=0.01


Tree=62
num_leaves=10
num_cat=0
split_feature=170 189 175 72 90 1 6 189 0
split_gain=140.178 82.586 37.3347 24.3294 25.196 17.4247 27.1205 15.0242 16.7863
threshold=1.0000000180025095e-35 1.0000000180025095e-35 1.0000000180025095e-35 6.9344444444444457 0.18875000000000003 742.50000000000011 608.64600000000007 1.0000000180025095e-35 73.500000000000014
decision_type=2 2 2 2 2 2 2 2 2
left_child=1 3 -3 4 5 6 -1 -2 -9
right_child=7 2 -4 -5 -6 -7 -8 8 -10
leaf_value=0.0038183984568064635 -0.012300480468514802 0.01041020661868826 -0.0089140315538301634 0.0059412592299628751 0.0054673940698265382 0.00036554219860033779 -0.010038281211794632 0.0099481760809487941 -0.0084621457530175467
leaf_weight=17.783934444189072 77.849130049347878 133.21552047133446 10.80912174284458 41.441040620207787 31.162037134170532 47.244390800595284 68.64582996070385 6.8581304103136089 17.824491798877716
leaf_count=73 334 650 45 176 134 195 279 28 74
internal_value=0 0.00314907 0.00895991 -0.000908113 -0.0026301 -0.00451778 -0.00718711 -0.010145 -0.00334679
internal_weight=0 350.302 144.025 206.277 164.836 133.674 86.4298 102.532 24.6826
internal_count=1988 1552 695 857 681 547 352 436 102
is_linear=0
shrinkage=0.01


Tree=63
num_leaves=10
num_cat=0
split_feature=189 175 172 92 96 36 172 104 7
split_gain=130.253 49.4303 46.3992 22.4735 21.1899 23.4848 19.5499 16.5214 13.8253
threshold=1.0000000180025095e-35 1.0000000180025095e-35 87.878750000000011 -0.23416666666666697 1.7682638888888902 0.06536666666666667 82.854375000000019 28.287500000000005 0.028000000000000004
decision_type=2 2 2 2 2 2 2 2 2
left_child=2 6 3 -1 5 -5 -2 -8 -7
right_child=1 -3 -4 4 -6 8 7 -9 -10
leaf_value=0.0090278709604960858 0.01090184115269365 -0.0082485227009936029 -0.0094629689553576354 0.0034420964970416439 0.0033912762674297436 -0.0039622088665503827 0.0053060568733931859 -0.013982136321428725 -0.012127333486641257
leaf_weight=19.906480953097343 117.83717760443687 18.624108761548996 100.30364580452442 28.013371363282204 47.617425441741943 54.45471116900444 26.287543281912807 5.3435321003198615 33.491115853190422
leaf_count=85 582 78 427 118 202 223 115 22 136
internal_value=0 0.00711389 -0.00399408 -0.00100444 -0.00222532 -0.00453172 0.00902808 0.00204764 -0.00707161
internal_weight=0 168.092 283.787 183.483 163.577 115.959 149.468 31.6311 87.9458
internal_count=1988 797 1191 764 679 477 719 137 359
is_linear=0
shrinkage=0.01


Tree=64
num_leaves=10
num_cat=0
split_feature=170 189 185 72 90 176 95 88 189
split_gain=136.114 79.9377 25.7576 23.5888 24.604 19.1238 15.5797 17.9223 14.6825
threshold=1.0000000180025095e-35 1.0000000180025095e-35 1.0000000180025095e-35 6.9344444444444457 0.18875000000000003 1.0000000180025095e-35 1.3264583333333351 -0.052428571428571442 1.0000000180025095e-35
decision_type=2 2 2 2 2 2 2 2 2
left_child=1 3 -3 4 5 -1 7 -4 -2
right_child=8 2 6 -5 -6 -7 -8 -9 -10
leaf_value=-0.0077993339605172138 -0.012160530323699627 0.010484240414422738 -0.0091961776563338916 0.0058758394158609671 0.0054362865971929741 -0.00018122363864227933 -0.014663037827868033 0.015630918229613284 -0.0032985089476457912
leaf_weight=74.639899209141731 77.423699513077736 124.5567325502634 5.2223835140466699 41.357949271798134 31.123392939567566 58.998475655913353 6.4951417297124854 6.5600820928812036 24.646788507699966
leaf_count=305 334 614 23 176 134 242 27 31 102
internal_value=0 0.00310795 0.00885752 -0.000876311 -0.00257121 -0.0044361 -0.0022281 0.00462672 -0.0100206
internal_weight=0 348.954 142.834 206.12 164.762 133.638 18.2776 11.7825 102.07
internal_count=1988 1552 695 857 681 547 81 54 436
is_linear=0
shrinkage=0.01


Tree=65
num_leaves=10
num_cat=0
split_feature=189 170 171 124 158 171 121 171 171
split_gain=127.446 60.5602 53.4305 25.8479 34.2546 15.655 19.2657 15.0275 14.1526
threshold=1.0000000180025095e-35 1.0000000180025095e-35 0.21900000000000003 6.1270833333333359 1.1393125000000002 1.0608333333333353 0.23270833333333354 0.49875000000000008 1.2941666666666651
decision_type=2 2 2 2 2 2 2 2 2
left_child=1 3 -2 7 8 6 -4 -1 -5
right_child=2 -3 5 4 -6 -7 -8 -9 -10
leaf_value=-0.0052078426738445746 -0.010217322976612611 -0.01190622643446395 0.001807899212268409 -0.0089777120754562286 0.0043545910073275176 0.012619652135538569 0.011281884105792608 0.0065046732078866496 -0.0011588923105054049
leaf_weight=14.143852338194845 16.632622882723808 76.452058538794518 48.706454202532768 76.996480703353882 38.28196132183075 60.053803443908691 38.376579150557518 48.57643124461174 33.103239372372627
leaf_count=58 71 331 226 313 163 301 185 208 136
internal_value=0 -0.00428043 0.00677131 -0.00151869 -0.00379368 0.00869174 0.00598298 0.00386342 -0.00662686
internal_weight=0 287.554 163.769 211.102 148.382 147.137 87.083 62.7203 110.1
internal_count=1992 1209 783 878 612 712 411 266 449
is_linear=0
shrinkage=0.01


Tree=66
num_leaves=10
num_cat=0
split_feature=189 170 171 72 90 43 171 52 172
split_gain=125.211 59.6473 52.5234 28.3962 28.8878 20.5771 15.5601 22.4369 14.3415
threshold=1.0000000180025095e-35 1.0000000180025095e-35 0.21900000000000003 6.9344444444444457 0.24750000000000003 2.030833333333335 1.0316666666666652 1.1354166666666652 41.031777777777812
decision_type=2 2 2 2 2 2 2 2 2
left_child=1 3 -2 4 5 -1 7 -4 -7
right_child=2 -3 6 -5 -6 8 -8 -9 -10
leaf_value=0.0035759523076484157 -0.010123200746212679 -0.01182632385832709 0.0096718994140705481 0.0060277414923374855 0.0061573445296021091 -0.0014832697405617649 0.012275679659048704 -0.0012512393707063308 -0.0090084264273476468
leaf_weight=23.030791506171227 16.619460746645927 76.20017321407795 51.979143172502518 40.457178130745888 27.198798418045044 36.24465323984623 65.189475432038307 29.464153826236725 84.068310528993607
leaf_count=97 71 331 251 173 118 148 328 133 342
internal_value=0 -0.00424289 0.00672501 -0.00150422 -0.00329099 -0.00508377 0.0086346 0.00572018 -0.00674145
internal_weight=0 287.2 163.252 211 170.543 143.344 146.633 81.4433 120.313
internal_count=1992 1209 783 878 705 587 712 384 490
is_linear=0
shrinkage=0.01


Tree=67
num_leaves=10
num_cat=0
split_feature=170 171 30 176 83 62 172 9 19
split_gain=119.376 43.9295 33.0417 21.4638 19.3099 18.3951 14.7376 13.6083 11.2965
threshold=1.0000000180025095e-35 0.32563492063492105 0.68583333333333363 1.0000000180025095e-35 0.13612500000000002 16.116666666666656 33.629285714285707 48786826.000000007 6.8291666666666666
decision_type=2 2 2 2 2 2 2 2 2
left_child=1 -1 -3 5 7 -4 8 -5 -7
right_child=-2 2 3 4 -6 6 -8 -9 -10
leaf_value=-0.0081721934148708091 -0.010048824697116638 0.0083479749767239875 0.005587262848189568 0.0072621000452981078 0.012644877047122655 0.0079296180047827153 -0.0061654569492052618 -0.0012496880881262423 -0.0076879039958511301
leaf_weight=35.063942089676857 97.638098388910294 100.90654449164867 27.580876663327217 32.53730471432209 23.860698893666267 15.53819313645363 65.395368829369545 44.432278856635094 6.5982346236705771
leaf_count=147 421 468 125 151 111 70 279 192 28
internal_value=0 0.00244858 0.00362392 0.00141645 0.00478505 -0.0015342 -0.00377814 0.00234849 0.00327448
internal_weight=0 351.913 316.85 215.943 100.83 115.113 87.5318 76.9696 22.1364
internal_count=1992 1571 1424 956 454 502 377 343 98
is_linear=0
shrinkage=0.01


Tree=68
num_leaves=10
num_cat=0
split_feature=189 170 171 72 17 171 93 171 121
split_gain=122.503 57.6542 51.0719 27.7044 23.8081 16.6445 17.794 15.3559 18.7912
threshold=1.0000000180025095e-35 1.0000000180025095e-35 0.21900000000000003 6.9344444444444457 101.9466666666665 2.2820000000000005 1.0000000180025095e-35 1.0608333333333353 0.23270833333333354
decision_type=2 2 2 2 2 2 2 2 2
left_child=1 3 -2 4 5 6 -1 8 -4
right_child=2 -3 7 -5 -6 -7 -8 -9 -10
leaf_value=2.8652429601343336e-06 -0.0099491317315997512 -0.011680829238629191 0.0017586317654428151 0.0059428133613024167 0.0042806220260871702 0.0090394473564804102 -0.0082863349917966598 0.012489441750168043 0.011148518561422703
leaf_weight=35.870528444647789 16.591011449694633 75.726692125201225 48.536497876048088 40.352813646197319 33.522253856062889 7.8242979645729056 93.138680636882782 59.252992004156113 37.997149094939232
leaf_count=148 71 331 226 173 145 33 379 301 185
internal_value=0 -0.00419709 0.00667543 -0.0015075 -0.00327228 -0.00512264 -0.00598155 0.00856736 0.00588176
internal_weight=0 286.435 162.378 210.709 170.356 136.834 129.009 145.787 86.5336
internal_count=1992 1209 783 878 705 560 527 712 411
is_linear=0
shrinkage=0.01


Tree=69
num_leaves=10
num_cat=0
split_feature=189 170 171 72 96 36 171 171 52
split_gain=120.359 56.7962 50.2079 27.1752 24.068 25.4337 19.5147 15.2631 21.7674
threshold=1.0000000180025095e-35 1.0000000180025095e-35 0.21900000000000003 6.9344444444444457 1.7953571428571451 0.06536666666666667 1.8458035714285701 1.0316666666666652 1.1354166666666652
decision_type=2 2 2 2 2 2 2 2 2
left_child=1 3 -2 4 5 -1 -7 8 -4
right_child=2 -3 7 -5 -6 6 -8 -9 -10
leaf_value=0.0037083714182480931 -0.0098584627666500821 -0.011603813453638151 0.009540853171499249 0.0058916369781926497 0.002672523431717901 -0.009558488798026829 0.0039854285220313323 0.012146818298630995 -0.0012400281779594822
leaf_weight=23.510040000081062 16.576238229870796 75.468303382396698 51.515936657786369 40.296579331159592 49.023800030350685 85.629656717181206 12.14749528467655 64.340199515223503 29.425843060016632
leaf_count=99 71 331 251 173 208 348 50 328 133
internal_value=0 -0.00416038 0.00663006 -0.00149312 -0.0032404 -0.00563038 -0.00787584 0.00851135 0.00562154
internal_weight=0 286.076 161.858 210.608 170.311 121.287 97.7772 145.282 80.9418
internal_count=1992 1209 783 878 705 497 398 712 384
is_linear=0
shrinkage=0.01


Tree=70
num_leaves=10
num_cat=0
split_feature=170 189 175 7 57 122 189 0 65
split_gain=116.005 70.843 41.9046 25.1187 18.1835 22.161 14.265 13.0157 12.3009
threshold=1.0000000180025095e-35 1.0000000180025095e-35 1.0000000180025095e-35 0.028000000000000004 48.028000000000013 -0.12651666666666647 1.0000000180025095e-35 73.500000000000014 0.72550000000000014
decision_type=2 2 2 2 2 2 2 2 2
left_child=1 3 -3 4 5 -1 -2 -8 -7
right_child=6 2 -4 -5 -6 8 7 -9 -10
leaf_value=0.0063928747977994417 -0.011834708468858644 0.009753167447482532 -0.010616640297611222 -0.005987642976671541 0.0081850252194551384 0.002387259926242823 0.0087022164616828556 -0.0075727231039847244 -0.0062645797393932855
leaf_weight=32.453010857105255 73.370494976639748 129.89340822398663 10.950626671314238 68.307734549045563 30.888375639915466 24.192165091633797 6.836302354931834 17.474680036306381 51.237857237458229
leaf_count=140 323 654 46 281 134 99 28 73 210
internal_value=0 0.00269792 0.00816941 -0.00102349 0.00142003 -0.00051688 -0.00963497 -0.00299617 -0.00348973
internal_weight=0 347.923 140.844 207.079 138.771 107.883 97.6815 24.311 75.43
internal_count=1988 1564 700 864 583 449 424 101 309
is_linear=0
shrinkage=0.01


Tree=71
num_leaves=10
num_cat=0
split_feature=170 175 1 171 5 188 69 114 86
split_gain=114.006 35.3947 25.7237 18.0748 15.54 14.972 15.3342 14.5607 13.0333
threshold=1.0000000180025095e-35 1.0000000180025095e-35 351.50000000000006 0.32937500000000003 0.23782979334098739 1.0000000180025095e-35 1.0632142857142852 0.50500000000000012 0.050714285714285705
decision_type=2 2 2 2 2 2 2 2 2
left_child=1 2 4 -4 7 6 8 -1 -5
right_child=-2 -3 3 5 -6 -7 -8 -9 -10
leaf_value=0.0058633084035038608 -0.0095663671465469682 -0.011523843741793381 -0.0045695886577519617 -0.0011479250183136273 0.0078657360618606884 0.0076955867125810332 0.011016538400256754 -0.0081148156912922917 0.0065895499032929926
leaf_weight=9.3532592654228193 97.399947851896286 16.70869006216526 19.64925517141819 69.511947363615036 11.189692676067351 133.24630899727345 19.230087697505951 36.665461614727974 31.696710705757141
leaf_count=41 424 70 82 303 49 629 91 155 144
internal_value=0 0.0026762 0.00339401 0.00467026 -0.00270375 0.00538593 0.00283066 -0.00527378 0.00127531
internal_weight=0 347.251 330.543 273.334 57.2084 253.685 120.439 46.0187 101.209
internal_count=1988 1564 1494 1249 245 1167 538 196 447
is_linear=0
shrinkage=0.01


Tree=72
num_leaves=10
num_cat=0
split_feature=170 189 175 7 57 122 1 189 1
split_gain=112.008 69.7302 40.6716 24.5064 17.7868 21.6055 14.5099 14.1543 13.4271
threshold=1.0000000180025095e-35 1.0000000180025095e-35 1.0000000180025095e-35 0.028000000000000004 48.028000000000013 -0.12651666666666647 1752.0000000000002 1.0000000180025095e-35 351.50000000000006
decision_type=2 2 2 2 2 2 2 2 2
left_child=1 3 -3 4 5 -1 -7 -2 -5
right_child=7 2 -4 8 -6 6 -8 -9 -10
leaf_value=0.0063019379032867185 -0.011697707776490457 0.0096725554301344812 -0.010439882827868901 -0.013815871258004221 0.0080862200805213152 -0.0050439791548242885 0.0087282717606248783 -0.0028780061154235802 -0.0034421174165602765
