tree
version=v4
num_class=1
num_tree_per_iteration=1
label_index=0
max_feature_idx=194
objective=binary sigmoid:1
feature_names=start protein_len relative_pos closest_distance Degree Closeness Betweenness Hub_Score gene_age g_start ponp3_score aaindex_ANDN920101 aaindex_ARGP820101 aaindex_ARGP820102 aaindex_BEGF750101 aaindex_BEGF750102 aaindex_BHAR880101 aaindex_BIGC670101 aaindex_BUNA790101 aaindex_BUNA790103 aaindex_BURA740101 aaindex_BURA740102 aaindex_CHAM810101 aaindex_CHAM820102 aaindex_CHAM830102 aaindex_CHAM830103 aaindex_CHAM830104 aaindex_CHAM830105 aaindex_CHAM830107 aaindex_CHAM830108 aaindex_CHOP780204 aaindex_CHOP780205 aaindex_CHOP780206 aaindex_CHOP780207 aaindex_CHOP780213 aaindex_CHOP780214 aaindex_CHOP780215 aaindex_DAYM780101 aaindex_DAYM780201 aaindex_EISD860102 aaindex_FASG760102 aaindex_FASG760103 aaindex_FASG760104 aaindex_FASG760105 aaindex_FAUJ880101 aaindex_FAUJ880105 aaindex_FAUJ880107 aaindex_FAUJ880108 aaindex_FAUJ880111 aaindex_FAUJ880112 aaindex_FAUJ880113 aaindex_FINA910101 aaindex_FINA910102 aaindex_FINA910103 aaindex_FINA910104 aaindex_GEIM800102 aaindex_GEIM800103 aaindex_HUTJ700101 aaindex_ISOY800106 aaindex_ISOY800107 aaindex_ISOY800108 aaindex_KARP850103 aaindex_KHAG800101 aaindex_KLEP840101 aaindex_LEVM760103 aaindex_MAXF760103 aaindex_MAXF760105 aaindex_MAXF760106 aaindex_NAKH900103 aaindex_NAKH900104 aaindex_NAKH900109 aaindex_NAKH900113 aaindex_NAKH920103 aaindex_OOBM850102 aaindex_OOBM850103 aaindex_OOBM850105 aaindex_PALJ810111 aaindex_PALJ810113 aaindex_PRAM820101 aaindex_QIAN880101 aaindex_QIAN880102 aaindex_QIAN880103 aaindex_QIAN880114 aaindex_QIAN880115 aaindex_QIAN880117 aaindex_QIAN880123 aaindex_QIAN880124 aaindex_QIAN880125 aaindex_QIAN880127 aaindex_QIAN880128 aaindex_QIAN880129 aaindex_QIAN880137 aaindex_QIAN880138 aaindex_QIAN880139 aaindex_RACS820101 aaindex_RACS820102 aaindex_RACS820103 aaindex_RACS820105 aaindex_RACS820106 aaindex_RACS820107 aaindex_RACS820109 aaindex_RACS820110 aaindex_RACS820112 aaindex_RACS820113 aaindex_RACS820114 aaindex_RICJ880101 aaindex_RICJ880104 aaindex_RICJ880105 aaindex_RICJ880106 aaindex_RICJ880108 aaindex_RICJ880109 aaindex_RICJ880110 aaindex_RICJ880113 aaindex_RICJ880114 aaindex_RICJ880115 aaindex_RICJ880116 aaindex_RICJ880117 aaindex_ROBB760107 aaindex_ROBB760109 aaindex_ROBB760111 aaindex_ROSM880103 aaindex_SNEP660101 aaindex_SNEP660103 aaindex_SNEP660104 aaindex_SUEM840102 aaindex_TANS770102 aaindex_TANS770106 aaindex_TANS770108 aaindex_VASM830101 aaindex_VASM830102 aaindex_VASM830103 aaindex_VELV850101 aaindex_WERD780102 aaindex_WERD780103 aaindex_WOLS870103 aaindex_YUTK870102 aaindex_YUTK870103 aaindex_AURR980101 aaindex_AURR980102 aaindex_AURR980103 aaindex_AURR980104 aaindex_AURR980106 aaindex_AURR980107 aaindex_AURR980116 aaindex_AURR980117 aaindex_AURR980118 aaindex_AURR980119 aaindex_AURR980120 aaindex_KUMS000101 aaindex_NADH010107 aaindex_FUKS010101 aaindex_MITS020101 aaindex_WILM950103 aaindex_WILM950104 aaindex_SUYM030101 aaindex_GEOR030101 aaindex_GEOR030103 aaindex_GEOR030104 aaindex_GEOR030105 aaindex_DIGM050101 aaindex_KARS160118 aaindex_KARS160119 aaindex_KARS160120 aaindex_KARS160122 W_U Alphahelix Beta-sheet B_Beta T/C G_helix vlow_conf Conservation Accessibility p_idr p_tmp p_repeat p_domain p_swissport_CARBOHYD p_swissport_MOD_RES p_swissport_DISULFID p_swissport_BINDING p_swissport_ACT_SITE p_swissport_SIGNAL p_swissport_CROSSLNK p_swissport_INTRAMEM p_palindrome g_exon Housekeeping Essential Haploinsufficient Redundancy Pseudogene Duplicate up5seq_bitScore down5seq_bitScore
feature_infos=[1:4694] [52:4967] [0.0002399232245681:1] [0:2477] [2:608] [0.125:1] [0:9520239.1380000003] [0:0.86599999999999999] [3:4290] [48872:247896053] [0.154076923076923:0.49003764581124098] [3.9500000000000002:4.7599999999999998] [0:2.6499999999999999] [0.050000000000000003:3.23] [0.059999999999999998:1] [0.55000000000000004:0.97999999999999998] [0.29499999999999998:0.54400000000000004] [36.299999999999997:135.40000000000001] [0:8.7469999999999999] [0:9.4000000000000004] [0.12:0.53800000000000003] [0.20000000000000001:0.53300000000000003] [0:1.02] [-2.2400000000000002:4.9100000000000001] [-0.25800000000000001:0.51300000000000001] [0:2] [0:2] [0:1.5] [0:1] [0:1] [0.44:2.4399999999999999] [0:1.8300000000000001] [0.34000000000000002:1.55] [0.16:1.8600000000000001] [0.012999999999999999:0.30099999999999999] [0.012999999999999999:0.191] [0.052999999999999999:0.16700000000000001] [1.3:8.5999999999999996] [18:134] [0:10] [178:344] [-86.200000000000003:14.6] [8.3499999999999996:10.640000000000001] [1.8200000000000001:2.4300000000000002] [0:4.1900000000000004] [1:1.8999999999999999] [0:17.800000000000001] [-0.01:0.14999999999999999] [0:1] [0:1] [0:5.6900000000000004] [0.59999999999999998:3.2000000000000002] [0.69999999999999996:13] [0.69999999999999996:1.7] [0.10000000000000001:1.7] [0.81999999999999995:1.3200000000000001] [0.20000000000000001:1.8600000000000001] [23.710000000000001:69.319999999999993] [0.27000000000000002:1.78] [0:2.7799999999999998] [0.39000000000000001:3.0299999999999998] [0.80300000000000005:1.0569999999999999] [-3.6000000000000001:133] [-1:1] [0:122] [0.32000000000000001:3.1400000000000001] [0:3.8399999999999999] [0.35999999999999999:1.95] [1.03:15.359999999999999] [-1.3600000000000001:2.04] [1.0700000000000001:10.94] [0.37:3.1200000000000001] [1.6000000000000001:8.1099999999999994] [-4.6500000000000004:3.3199999999999998] [-2.21:3.2799999999999998] [-0.78000000000000003:10.68] [0.54000000000000004:1.6699999999999999] [0:2.6400000000000001] [0.19500000000000001:0.39100000000000001] [-0.25:0.26000000000000001] [-0.37:0.26000000000000001] [-0.42999999999999999:0.64000000000000001] [-0.41999999999999998:0.40999999999999998] [-0.56999999999999995:0.44] [-0.64000000000000001:0.46000000000000002] [-0.57999999999999996:0.46999999999999997] [-0.46999999999999997:0.45000000000000001] [-0.47999999999999998:0.40999999999999998] [-0.41999999999999998:0.33000000000000002] [-0.38:0.45000000000000001] [-0.42999999999999999:0.33000000000000002] [-0.44:0.77000000000000002] [-0.35999999999999999:0.78000000000000003] [-0.45000000000000001:0.47999999999999998] [0.67000000000000004:2.02] [0.66000000000000003:1.5800000000000001] [0:2.8599999999999999] [0.69999999999999996:1.96] [0.29999999999999999:3.0899999999999999] [0:2.98] [0:6.4900000000000002] [0.40000000000000002:2.73] [0:2.3199999999999998] [10.890000000000001:38.140000000000001] [13.59:52.630000000000003] [0.29999999999999999:1.8999999999999999] [0.29999999999999999:2.6000000000000001] [0.29999999999999999:2.6000000000000001] [0.40000000000000002:3.2999999999999998] [0.20000000000000001:1.8999999999999999] [0.29999999999999999:1.8] [0:2.7000000000000002] [0.20000000000000001:2.1000000000000001] [0:3.3999999999999999] [0:3.8999999999999999] [0.10000000000000001:1.8999999999999999] [0:2.7000000000000002] [-3.7000000000000002:7.4000000000000004] [-4.2999999999999998:6.5] [-6:6.5] [0:1.3] [0.16:0.28100000000000003] [-0.28499999999999998:0.49299999999999999] [-0.371:0.46999999999999997] [0.10000000000000001:77] [0:2.1680000000000001] [0.17799999999999999:1.7250000000000001] [0:3.379] [0.01:0.29599999999999999] [0.059999999999999998:0.78500000000000003] [0.049000000000000002:0.73699999999999999] [0:0.1263] [-0.79000000000000004:1.03] [-0.37:1.1799999999999999] [-3.4399999999999999:4.1299999999999999] [0:12.199999999999999] [0:18.620000000000001] [0.59999999999999998:1.4099999999999999] [0.40999999999999998:1.3100000000000001] [0.59999999999999998:1.4299999999999999] [0.57999999999999996:1.72] [0.26000000000000001:2.2999999999999998] [0.52000000000000002:2.0699999999999998] [0.10000000000000001:1.55] [0.44:2.7400000000000002] [0.67000000000000004:1.3999999999999999] [0.26000000000000001:2.0099999999999998] [0.085999999999999993:1.7] [0.59999999999999998:9.4000000000000004] [-132:329] [0.28999999999999998:16.559999999999999] [0:6.9299999999999997] [-3.2799999999999998:9.3000000000000007] [-3:7.2599999999999998] [-0.47799999999999998:0.56399999999999995] [0.77800000000000002:1.2989999999999999] [0.68559999999999999:1.266] [0.5:1.3320000000000001] [0.47799999999999998:1.369] [0.53100000000000003:1.361] [3.5:9.3300000000000001] [7:31.344000000000001] [-4.2270000000000003:0.21099999999999999] [0:12] [0:23.5] [0:1] [0:1] [0:1] [0:1] [0:1] [0:1] [0:4.2599999999999998] [0:100] [0:1] [0:1] [0:1] [0:1] none [0:1] [0:1] [0:1] none [0:1] none none [0:1] [0:1] [0:1] [0:1] [0:1] [0:1] [0:1] [0:1] [0.0021028582569326999:0.0133190685756532] [0.0030288402859689001:0.010659124554832301]
tree_sizes=1161 1194 1203 1215 1202 1200 1201 1209 1206 1198 1194 1201 1199 1198 1196 1195 1213 1215 1210 1205 1210 1213 1205 1203 1207 1204 1216 1218 1208 1201 1208 1200 1210 1213 1210 1209 1219 1210 1197 1212 1209 1210 1214 1211 1203 1220 1194 1212 1209 1199 1212 1214 1205 1214 1218 1218 1206 1212 1206 1210 1207 1202 1199 1207 1209 1212 1211 1208 1212 1211 1218 1208 1207 1213 1217 1214 1213 1215 1221 1198 1223 1216 1212 1221 1208 1207 1215 1200 1204 1200 1206 1214 1215 1211 1222 1197 1204 1214 1209 1224 1213 1219 1218 1219 1223 1219 1217 1224 1215 1217 1220 1215 1220 1212 1221 1222 1210 1219 1212 1217 1220 1215 1223 1214 1209 1221 1221 1200 1209 1217 1208 1206 1210 1211 1203 1220 1214 1216 1216 1214 1211 1223 1220 1209 1215 1218 1224 1207 1211 1222 1205 1208 1208 1222 1225 1216 1205 1213 1207 1215 1206 1204 1216 1208 1220 1208 1194 1214 1211 1214 1210 1220 1219 1222 1220 1215 1217 1203 1220 1217 1203 1215 1207 1214 1201 1207 1198 1205 1212 1214 1216 1210 1220 1209 1206 1212 1207 1210 1208 1208 1201 1213 1206 1207 1210 1215 1205 1212 1205 1205 1210 1208 1207 1216 1214 1214 1202 1215 1213 1202 1207 1214 1214 1209 1212 1219 1209 1228 1208 1212 1194 1204 1186 1207 1216 1191 1205 1207 1216 1193 1205 1195 1204 1203 1193 1202 1221 1210 1213 1212 1213 1214 1205 1209 1206 1206 1210 1211 1210 1208 1198 1204 1210 1203 1206 1213 1208 1222 1214 1220 1201 1211 1212 1195 1201 1211 1201 1206 1199 1195 1209 1206 1213 1202 1200 1206 1208 1215 1204 1201 1209 1205 1215 1206 1214 1199 1201 1205 1203 1210 1215 1222 1203 1220 1205 1222 1210 1206 1213 1220 1211 1206 1211 1215 1204 1209 1196 1199 1191 1209 1218 1216 1217 1203 1217 1198 1204 1208 1206 1200 1208 1208 1216 1213 1208 1206 1207 1204 1201 1200 1204 1210 1218 1196 1195 1207 1198 1218 1188 1198 1200 1214 1198 1211 1205 1204 1195 1200 1194 1205 1209 1209 1208 1199 1203 1203 1199 1200 1196 1209 1210 1210 1208 1204 1212 1208 1206 1211 1217 1195 1205 1201 1208 1210 1207 1216 1213 1212 1213 1209 1206 1211 1197 1213 1198 1228 1211 1222 1224 1221 1211 1193 1212 1215 1199 1208 1207 1208 1210 1202 1198 1215 1208 1210 1215 1215 1199 1214 1207 1210 1200 1201 1200 1205 1195 1198 1188 1210 1212 1208 1210 1205 1218 1212 1200 1209 1198 1196 1199 1193 1206 1197 1209 1214 1216 1195 1210 1201 1211 1204 1212 1199 1200 1203 1193 1217 1198 1221 1218 1209 1209 1212 1200 1206 1210 1225 1218 1214 1214 1214 1204 1202 1198 1198 1207 1208 1210 1205 1220 1214 1192 1197 1186 1186 1194 1208 1204 1203 1196 1199 1217 1203 1211 1214 1202 1222 1219 1213 1218 1221 1211 1205 1209 1211 1209 1212 1192 1202 1199 1204 1215 1202 1207 1214 1200 1205 1207 1211 1212 1220 1216 1221 1207 1212 1212 1214 1211 1204 1204 1205 1205 1216 1216 1211 1203 1217 1203 1213 1202 1201 1193 1199 1198 1204 1202 1206 1202 1206 1204 1197 1218 1217 1213 1205 1210 1205 1204 1192 1205 1214 1219 1225 1211 1216 1212 1193 1196 1195 1199 1190 1201 1206 1206 1210 1209 1199 1207 1202 1209 1194 1199 1204 1196 1200 1195 1199 1182 1200 1205 1204 1200 1210 1200 1194 1199 1196 1201 1204 1197 1193 1220 1210 1213 1211 1213 1203 1201 1202 1204 1218 1212 1198 1200 1224 1207 1204 1205 1204 1199 1208 1212 1201 1193 1225 1200 1212 1200 1202 1211 1202 1204 1214 1204 1196 1196 1198 1191 1208 1211 1206 1204 1207 1202 1208 1200 1197 1205 1211 1206 1216 1220 1206 1206 1207 1217 1201 1189 1204 1181 1192 1200 1200 1198 1203 1199 1185 1206 1205 1204 1211 1225 1216 1209 1195 1224 1206 1203 1205 1205 1202 1210 1209 1210 1192 1208 1202 1203 1189 1189 1204 1201 1202 1197 1200 1202 1186 1189 1193 1200 1205 1203 1207 1210 1212 1203 1202 1204 1209 1184 1202 1200 1198 1184 1205 1194 1202 1214 1204 1219 1214 1199 1204 1186 1196 1188 1203 1196 1205 1211 1195 1210 1192 1211 1212 1195 1210 1193 1203 1214 1194 1187 1215 1211 1210 1207 1215 1219 1209 1199 1212 1205 1195 1196 1197 1195 1199 1203 1209 1198 1207 1204 1201 1207 1203 1205 1204 1209 1213 1216 1207 1198 1213 1206 1204 1204 1198 1204 1202 1203 1207 1208 1208 1203 1205 1196 1207 1201 1195 1209 1211 1205 1195 1191 1199 1206 1210 1207 1213 1211 1205 1208 1199 1204 1204 1220 1202 1220 1202 1214 1215 1209 1206 1210 1201 1197 1202 1196 1203 1197 1205 1209 1213 1211 1210 1205 1196 1210 1201 1201 1204 1200 1199 1205 1207 1194 1201 1198 1202 1204 1195 1199 1204 1209 1206 1205 1205 1204 1209 1203 1204 1192 1212 1189 1198 1207 1199 1198 1205 1207 1198 1207 1209 1207 1207 1204 1205 1199 1194 1200 1212 1194 1188 1198 1197 1200 1194 1197 1196 1201 1199 1199 1217 1219 1210 1205 1198 1203 1200 1198 1194 1194 1197 1212 1216 1199 1206 1190 1207 1195 1207 1197 1208 1205 1200 1213 1206 1196 1208 1200 1206 1201 1206 1180 1203 1178 1195 1192 1197 1202 1203 1204 1200 1198 1203 1202 1198 1208 1206 1200 1199 1198 1199 1203 1209 1209 1209 1202 1209 1207 1192 1206 1207 1191 1210 1209 1191 1204 1192 1195 1196 1214 1211 1207 1195 1209 1212 1203 1205 1206 1187 1207 1201 1212 1205 1197 1202 1198 1202 1199 1208 1208 1212 1208 1205 1205 1200 1189 1198 1187 1202 1202 1212 1201 1197 1212 1201 1193 1196 1196 1187 1195 1202 1198 1204 1192 1212 1215 1200 1212 1207

Tree=0
num_leaves=10
num_cat=0
split_feature=170 189 175 17 38 7 97 90 171
split_gain=522.667 219.025 119.644 70.0154 61.9475 31.6823 23.6958 22.8174 19.9784
threshold=1.0000000180025095e-35 1.0000000180025095e-35 1.0000000180025095e-35 101.98 100.10000000000001 0.011500000000000002 1.5583333333333351 -0.087083333333333332 0.44888888888888906
decision_type=2 2 2 2 2 2 2 2 2
left_child=1 3 8 4 5 6 7 -1 -3
right_child=-2 2 -4 -5 -6 -7 -8 -9 -10
leaf_value=0.26976241355512898 0.2507676673846892 0.27434204363831349 0.25276421631999069 0.27698720494125006 0.27699362359575269 0.25646912082899215 0.2824043422881205 0.25996200294489047 0.28420211042615634
leaf_weight=41.005380406975746 130.1368360221386 23.326414003968239 13.995848402380942 57.70218200981617 33.148062005639076 63.595170810818672 7.6117772012948981 56.474476009607315 172.61546362936497
leaf_count=167 530 95 57 235 135 259 31 230 703
internal_value=0.268702 0.273416 0.281011 0.267273 0.264496 0.26204 0.265411 0.264085 0.283028
internal_weight=0 469.475 209.938 259.537 201.835 168.687 105.092 97.4799 195.942
internal_count=2442 1912 855 1057 822 687 428 397 798
is_linear=0
shrinkage=1


Tree=1
num_leaves=10
num_cat=0
split_feature=170 189 175 17 122 161 7 171 22
split_gain=511.379 215.13 117.437 68.6476 64.1263 23.9419 21.7203 19.6775 21.4005
threshold=1.0000000180025095e-35 1.0000000180025095e-35 1.0000000180025095e-35 101.98 -0.12631428571428546 27.898750000000003 0.011500000000000002 0.44888888888888906 0.52928571428571469
decision_type=2 2 2 2 2 2 2 2 2
left_child=1 3 7 4 -1 6 -6 8 -3
right_child=-2 2 -4 -5 5 -7 -8 -9 -10
leaf_value=0.0045428624670615127 -0.01771359688018145 -0.012967305612428823 -0.015745566645514356 0.0082117255152523213 -0.0054764985567448419 0.012362690794679596 -0.01366220793765701 0.015378084309531491 0.010536109602228245
leaf_weight=59.641379535198212 130.43859601020813 4.9070882797241238 14.024794802069662 57.637399211525917 83.780244275927544 5.6500601172447196 52.872387245297432 172.2483596354723 18.401581048965454
leaf_count=243 530 20 57 235 341 23 215 703 75
internal_value=0 0.00467042 0.0122065 -0.00141413 -0.00416147 -0.00780959 -0.00864364 0.0142112 0.00558802
internal_weight=0 469.163 209.582 259.581 201.944 142.303 136.653 195.557 23.3087
internal_count=2442 1912 855 1057 822 579 556 798 95
is_linear=0
shrinkage=0.01


Tree=2
num_leaves=10
num_cat=0
split_feature=170 189 185 17 122 149 161 176 62
split_gain=500.417 211.328 91.9597 67.3084 62.791 44.6325 23.4539 24.0024 17.3926
threshold=1.0000000180025095e-35 1.0000000180025095e-35 1.0000000180025095e-35 101.98 -0.12631428571428546 -0.94999999999999984 27.898750000000003 1.0000000180025095e-35 48.985714285714302
decision_type=2 2 2 2 2 2 2 2 2
left_child=1 3 -3 4 -1 -4 7 -6 -9
right_child=-2 2 5 -5 6 -7 -8 8 -10
leaf_value=0.0045002302954110706 -0.017498920714880541 0.014510663975171074 -0.017298148913526191 0.0081389814266707525 -0.011949641926535215 0.010327039579715041 0.012259574758159761 -0.0062494132334270152 0.0077978517818044135
leaf_weight=59.604506030678749 130.71700274944305 184.89078837633133 14.525872543454172 57.571352273225784 82.431627497076988 9.7902267575263959 5.6406545042991629 43.303919479250908 11.066664755344389
leaf_count=243 530 756 59 235 335 40 23 176 45
internal_value=0 0.00462714 0.0121063 -0.00139974 -0.0041177 -0.00617561 -0.00772383 -0.00854779 -0.00339021
internal_weight=0 468.826 209.207 259.619 202.047 24.3161 142.443 136.802 54.3706
internal_count=2442 1912 855 1057 822 99 579 556 221
is_linear=0
shrinkage=0.01


Tree=3
num_leaves=10
num_cat=0
split_feature=172 175 101 188 171 171 15 13 22
split_gain=312.816 107.563 86.7325 49.7689 36.203 35.3611 31.6915 32.141 26.3478
threshold=75.770000000000024 1.0000000180025095e-35 1.0005555555555552 1.0000000180025095e-35 0.74071428571428555 0.79708333333333359 0.82611111111111113 0.60083333333333366 0.68775000000000008
decision_type=2 2 2 2 2 2 2 2 2
left_child=1 3 4 6 -2 -5 7 -1 -4
right_child=2 -3 8 5 -6 -7 -8 -9 -10
leaf_value=0.0078365911964898075 -0.0065242548730110317 -0.018703705510889311 -0.016738375863029481 0.0040162309967035686 0.0083009457615107474 0.013150098862188549 0.0089494418121938441 -0.0032982585708869446 -0.0065771230127396035
leaf_weight=36.233671709895134 42.329468876123428 18.008797615766525 110.05871848762035 65.152542740106583 26.964899763464928 121.29386726021767 55.072660729289055 91.102532669901848 33.220761582255363
leaf_count=148 172 73 446 266 110 496 225 371 135
internal_value=0 0.00515995 -0.00994024 0.00632506 -0.000755243 0.00995833 0.00261138 -0.000129824 -0.0143824
internal_weight=0 386.864 212.574 368.855 69.2944 186.446 182.409 127.336 143.279
internal_count=2442 1579 863 1506 282 762 744 519 581
is_linear=0
shrinkage=0.01


Tree=4
num_leaves=10
num_cat=0
split_feature=189 172 171 13 30 96 69 172 22
split_gain=340.04 131.867 124.451 74.9183 37.9809 37.1577 39.7414 33.3962 33.1404
threshold=1.0000000180025095e-35 64.335833333333355 0.40071428571428558 0.27166666666666656 0.62937500000000013 2.0680000000000001 1.3129166666666652 91.016666666666723 0.69707142857142856
decision_type=2 2 2 2 2 2 2 2 2
left_child=1 5 8 -3 -5 6 -1 -4 -2
right_child=2 3 7 4 -6 -7 -8 -9 -10
leaf_value=-0.0046378562420586076 -0.010926760480637324 0.0010802885794658219 0.014032211803859497 0.00070418708217783572 -0.016868462279526066 0.0090110586234221288 0.010498015797759091 0.00097333841243177723 0.0084289219814679423
leaf_weight=119.75621382892132 33.556052938103676 34.372148424386978 171.65617434680462 13.516565218567846 136.60952365398407 35.484191805124283 20.285611525177956 22.105121940374374 12.012567922472952
leaf_count=487 136 140 704 55 553 145 83 90 49
internal_value=0 -0.00633415 0.00904536 -0.0122372 -0.0152863 -0.000129344 -0.00244537 0.0125424 -0.00582431
internal_weight=0 360.024 239.33 184.498 150.126 175.526 140.042 193.761 45.5686
internal_count=2442 1463 979 748 608 715 570 794 185
is_linear=0
shrinkage=0.01


Tree=5
num_leaves=10
num_cat=0
split_feature=170 189 175 17 38 7 124 1 189
split_gain=459.198 209.923 137.905 55.9711 52.1299 33.4284 20.8018 21.0812 17.1271
threshold=1.0000000180025095e-35 1.0000000180025095e-35 1.0000000180025095e-35 101.98 100.10000000000001 0.013000000000000003 3.1550000000000002 1752.0000000000002 1.0000000180025095e-35
decision_type=2 2 2 2 2 2 2 2 2
left_child=1 3 -3 4 5 6 -1 -8 -2
right_child=8 2 -4 -5 -6 -7 7 -9 -10
leaf_value=0.0071197749713255588 -0.018598093188030147 0.014029936802671289 -0.017116480934218914 0.007440350053272966 0.0066758253707110728 -0.012132918388324032 -0.0067834447123400841 0.0082908540487798294 -0.010061289162084642
leaf_weight=17.171928346157074 103.06549443304539 195.64424006640911 15.329345822334288 53.269398093223572 36.971725612878799 63.873112261295319 75.592952847480774 10.575162366032599 30.443157866597176
leaf_count=70 416 804 62 218 151 259 307 43 123
internal_value=0 0.00437173 0.0117668 -0.00168826 -0.00406981 -0.00644573 -0.00293055 -0.00493342 -0.0166515
internal_weight=0 468.428 210.974 257.454 204.185 167.213 103.34 86.1681 133.509
internal_count=2453 1914 866 1048 830 679 420 350 539
is_linear=0
shrinkage=0.01


Tree=6
num_leaves=10
num_cat=0
split_feature=170 189 175 17 38 7 131 53 189
split_gain=449.585 206.257 135.383 54.8768 51.1161 30.8358 20.1992 17.3753 16.7213
threshold=1.0000000180025095e-35 1.0000000180025095e-35 1.0000000180025095e-35 101.98 96.928571428571459 0.011500000000000002 0.024157500000000002 1.2354166666666653 1.0000000180025095e-35
decision_type=2 2 2 2 2 2 2 2 2
left_child=1 3 -3 4 5 6 -1 -8 -2
right_child=8 2 -4 -5 -6 -7 7 -9 -10
leaf_value=0.0047219895012169171 -0.018381157819576506 0.013922255130516082 -0.016916126174418736 0.0073743206454333424 0.004938420107453192 -0.012345963290363072 -0.0075521514028164659 0.009155131585771567 -0.0099508928999300587
leaf_weight=23.842960819602013 103.23817183077335 195.18815855681896 15.355662375688551 53.209208160638809 48.492984548211098 61.244461849331856 63.79207880795002 6.8978048563003531 30.472935438156128
leaf_count=97 416 804 62 218 198 248 259 28 123
internal_value=0 0.00433185 0.0116731 -0.00167117 -0.00402738 -0.00681841 -0.0032373 -0.00592188 -0.0164599
internal_weight=0 468.023 210.544 257.479 204.27 155.777 94.5328 70.6899 133.711
internal_count=2453 1914 866 1048 830 632 384 287 539
is_linear=0
shrinkage=0.01


Tree=7
num_leaves=10
num_cat=0
split_feature=170 189 175 19 7 188 172 171 6
split_gain=440.234 202.674 132.92 48.9198 25.1075 24.6976 22.4472 22.2392 17.4829
threshold=1.0000000180025095e-35 1.0000000180025095e-35 1.0000000180025095e-35 6.495000000000001 0.020500000000000001 1.0000000180025095e-35 41.585000000000008 0.45083333333333359 6666.0455000000011
decision_type=2 2 2 2 2 2 2 2 2
left_child=1 3 -3 6 7 -6 -1 -5 -8
right_child=-2 2 -4 4 5 -7 8 -9 -10
leaf_value=0.0014828992994329344 -0.016273086185913735 0.013816462473423455 -0.016720850156282427 -0.0056757881299855806 -0.0088077689306211623 0.0046692500882781545 -0.0023649387801042893 0.0057264225955806344 -0.014681711603376359
leaf_weight=17.730524763464928 133.89258806407452 194.71824041008949 15.37952248752117 20.606409654021263 39.103626176714897 20.846996560692787 15.778894945979117 100.69168391823769 42.741917178034782
leaf_count=72 539 804 62 84 159 85 64 411 173
internal_value=0 0.00429254 0.0115811 -0.00165428 0.00117281 -0.00412132 -0.00837425 0.00378939 -0.0113608
internal_weight=0 467.598 210.098 257.5 181.249 59.9506 76.2513 121.298 58.5208
internal_count=2453 1914 866 1048 739 244 309 495 237
is_linear=0
shrinkage=0.01


Tree=8
num_leaves=10
num_cat=0
split_feature=170 171 188 153 4 4 40 176 151
split_gain=431.126 103.734 53.0317 44.0616 35.5775 36.6697 35.1069 18.8567 14.1878
threshold=1.0000000180025095e-35 0.45083333333333359 1.0000000180025095e-35 1.0893750000000002 21.000000000000004 49.000000000000007 282.40178571428555 1.0000000180025095e-35 0.42166666666666658
decision_type=2 2 2 2 2 2 2 2 2
left_child=1 3 4 7 -3 6 -6 -1 -9
right_child=-2 2 -4 -5 5 -7 -8 8 -10
leaf_value=-0.017755272280354818 -0.016090525702132964 0.0075352406478274127 0.010145769412070522 0.0017055933862759529 -0.0081067310539774257 0.011020303009243693 0.0051127245103406204 0.0087010745446228152 -0.012696074380143377
leaf_weight=28.933689221739769 134.05674423277378 87.362557411193848 190.04955691099167 36.891201704740524 60.671947196125984 20.701854631304741 30.033970430493355 5.6350439935922605 6.885233536362648
leaf_count=117 539 358 782 151 247 85 123 23 28
internal_value=0 0.00425364 0.00636887 -0.00624402 0.00275767 -0.000988755 -0.00372959 -0.0133186 -0.00306579
internal_weight=0 467.165 388.82 78.3452 198.77 111.408 90.7059 41.454 12.5203
internal_count=2453 1914 1595 319 813 455 370 168 51
is_linear=0
shrinkage=0.01


Tree=9
num_leaves=10
num_cat=0
split_feature=170 189 175 17 38 171 118 171 171
split_gain=422.244 198.729 129.219 53.1276 49.5878 28.0636 24.6305 18.9122 17.1262
threshold=1.0000000180025095e-35 1.0000000180025095e-35 1.0000000180025095e-35 101.98 100.10000000000001 0.41100000000000003 -1.0937499999999998 1.5430000000000004 0.44888888888888906
decision_type=2 2 2 2 2 2 2 2 2
left_child=1 3 8 4 5 -1 -7 -8 -3
right_child=-2 2 -4 -5 -6 6 7 -9 -10
leaf_value=-0.015801248568121568 -0.015912305371792657 0.0056308684302391046 -0.016421827669403012 0.0072426269430670258 0.006512266243719647 0.0018232988588027482 -0.0097026850026715496 0.00062663847452035985 0.014762065629425171
leaf_weight=26.210448831319809 134.20187337696552 23.35124272108078 15.411211743950842 53.082287356257439 36.87091276049614 42.568531215190887 75.497741386294365 23.164032265543938 170.63291673362255
leaf_count=106 539 96 62 218 151 173 306 94 708
internal_value=0 0.00421456 0.0114487 -0.00167055 -0.00398629 -0.0062981 -0.00453444 -0.00727754 0.0136629
internal_weight=0 466.789 209.395 257.394 204.312 167.441 141.23 98.6618 193.984
internal_count=2453 1914 866 1048 830 679 573 400 804
is_linear=0
shrinkage=0.01


Tree=10
num_leaves=10
num_cat=0
split_feature=170 171 1 64 171 6 30 41 172
split_gain=431.591 96.7519 73.0409 56.4325 26.8268 24.9757 22.76 20.6314 19.9165
threshold=1.0000000180025095e-35 0.29250000000000004 344.50000000000006 109.57083333333351 0.6380555555555556 41565.913492630127 0.83354166666666663 11.875000000000002 17.125625000000003
decision_type=2 2 2 2 2 2 2 2 2
left_child=1 -1 7 4 -4 -6 -5 -3 -7
right_child=-2 2 3 6 5 8 -8 -9 -10
leaf_value=-0.010891499392067521 -0.015745437491666174 -0.0062449861590442284 -0.012575710573426603 0.012052665035687488 0.0076071446566804667 0.010937711243555344 0.0064457369022149482 0.010263878463600492 -0.00926189985584089
leaf_weight=37.968931928277016 136.32133401930332 56.395105600357056 13.777654737234114 159.67694938182831 41.549729868769646 6.3251627683639553 132.45007035136223 8.7436189502477628 21.381902977824211
leaf_count=154 547 230 56 659 171 26 544 36 87
internal_value=0 0.0044248 0.00574559 0.00744274 0.000168084 0.00270328 0.00951049 -0.00402899 -0.00465059
internal_weight=0 478.269 440.3 375.161 83.0345 69.2568 292.127 65.1387 27.7071
internal_count=2510 1963 1809 1543 340 284 1203 266 113
is_linear=0
shrinkage=0.01


Tree=11
num_leaves=10
num_cat=0
split_feature=170 171 1 64 171 6 30 7 172
split_gain=422.815 94.8452 71.7011 55.462 26.2647 24.5025 22.4253 20.421 19.5163
threshold=1.0000000180025095e-35 0.29250000000000004 344.50000000000006 109.57083333333351 0.6380555555555556 41565.913492630127 0.83354166666666663 0.028000000000000004 17.125625000000003
decision_type=2 2 2 2 2 2 2 2 2
left_child=1 -1 7 4 -4 -6 -5 -3 -7
right_child=-2 2 3 6 5 8 -8 -9 -10
leaf_value=-0.010770156469387004 -0.015575297594630869 0.0008428044149589092 -0.012431832897936229 0.011957571715295613 0.0075405094507402992 0.010847679040647878 0.0063878063546023538 -0.010474982919662684 -0.0091591229845278763
leaf_weight=38.012522578239441 136.43178896605968 37.359892383217812 13.797634974122046 159.33901561796665 41.497992068529129 6.3139393031597164 132.31541329622269 27.809462621808052 21.405496209859848
leaf_count=154 547 153 56 659 171 26 544 113 87
internal_value=0 0.00438445 0.00569417 0.00737806 0.000166501 0.00267782 0.00943073 -0.00398679 -0.00460197
internal_weight=0 477.851 439.839 374.669 83.0151 69.2174 291.654 65.1694 27.7194
internal_count=2510 1963 1809 1543 340 284 1203 266 113
is_linear=0
shrinkage=0.01


Tree=12
num_leaves=10
num_cat=0
split_feature=170 175 1 19 171 7 6 5 172
split_gain=414.263 97.4331 66.0316 46.8093 36.4686 25.842 22.8553 21.0382 17.0669
threshold=1.0000000180025095e-35 1.0000000180025095e-35 351.50000000000006 6.4775000000000009 0.44888888888888906 0.028000000000000004 40556.146000000008 0.23150000000000004 17.125625000000003
decision_type=2 2 2 2 2 2 2 2 2
left_child=1 2 5 4 -4 7 -5 -1 -6
right_child=-2 -3 3 6 8 -7 -8 -9 -10
leaf_value=-0.0034360673456484514 -0.015409016120410653 -0.01435194392876305 -0.013723779433818946 0.01165906703395566 0.013563015140551428 -0.010606225513494898 0.0057809912702788489 0.011232238455670856 0.0017976402546722465
leaf_weight=28.621045529842377 136.52452446520329 26.335372537374496 13.823878705501555 163.21314649283886 14.733724668622015 29.055037081241608 111.22629611194134 14.851859435439108 75.55646738409996
leaf_count=117 547 106 56 676 61 118 458 61 310
internal_value=0 0.00434463 0.00543619 0.00711089 0.00140174 -0.00330477 0.00927677 0.00157514 0.00371754
internal_weight=0 477.417 451.081 378.554 104.114 72.5279 274.439 43.4729 90.2902
internal_count=2510 1963 1857 1561 427 296 1134 178 371
is_linear=0
shrinkage=0.01


Tree=13
num_leaves=10
num_cat=0
split_feature=170 175 1 19 171 6 6 36 39
split_gain=405.928 95.4968 64.8241 46.0201 35.7138 22.5187 20.7933 23.0381 16.9155
threshold=1.0000000180025095e-35 1.0000000180025095e-35 351.50000000000006 6.4775000000000009 0.44888888888888906 40556.146000000008 46596.93250000001 0.065828571428571472 5.0150000000000015
decision_type=2 2 2 2 2 2 2 2 2
left_child=1 2 6 4 -4 -5 7 -1 -9
right_child=-2 -3 3 5 -6 -7 -8 8 -10
leaf_value=0.0062288071658352017 -0.01524644655046584 -0.014194521190701548 -0.013567357481542135 0.011567532896624263 0.0036827217664318446 0.0057286892575867726 0.0078483195265146456 -0.011373232379079055 0.0068458233186877793
leaf_weight=12.454809203743933 136.6000585258007 26.361035227775574 13.843326449394224 162.86137275397778 90.233036503195763 111.11989262700081 13.65349370241165 40.614282861351967 5.827213689684867
leaf_count=51 547 106 56 676 371 458 56 165 24
internal_value=0 0.0043053 0.00538756 0.00704909 0.00138827 0.00919945 -0.00327069 -0.00584833 -0.00908721
internal_weight=0 476.968 450.607 378.058 104.076 273.981 72.5498 58.8963 46.4415
internal_count=2510 1963 1857 1561 427 1134 296 240 189
is_linear=0
shrinkage=0.01


Tree=14
num_leaves=10
num_cat=0
split_feature=170 189 175 17 124 171 189 1 3
split_gain=397.8 188.522 119.451 59.8586 60.2602 33.4804 22.6943 20.0121 18.8131
threshold=1.0000000180025095e-35 1.0000000180025095e-35 1.0000000180025095e-35 101.98 6.0125000000000011 1.7016666666666651 1.0000000180025095e-35 983.50000000000011 94.500000000000014
decision_type=2 2 2 2 2 2 2 2 2
left_child=1 3 -3 4 -1 7 -2 -6 -8
right_child=6 2 -4 -5 5 -7 8 -9 -10
leaf_value=0.0048746239919543735 -0.017361875811506122 0.013472733715422666 -0.01477626353120765 0.0077679324294815336 -0.01111181304257532 0.0038736051742382354 0.0011046821173119439 -0.0011089406362860342 -0.014305171470288831
leaf_weight=57.57349619269371 104.20008262991905 195.28199779987335 16.211350932717323 56.593031868338585 102.71926547586918 23.293159931898117 13.731700733304022 24.836617037653923 18.727104678750038
leaf_count=236 417 816 65 234 416 95 55 101 75
internal_value=0 0.00426642 0.0113074 -0.00135257 -0.00382906 -0.00715093 -0.0150875 -0.00916414 -0.00778603
internal_weight=0 476.509 211.493 265.016 208.423 150.849 136.659 127.556 32.4588
internal_count=2510 1963 881 1082 848 612 547 517 130
is_linear=0
shrinkage=0.01


Tree=15
num_leaves=10
num_cat=0
split_feature=170 189 175 96 69 72 171 7 189
split_gain=367.376 167.989 109.854 53.1979 56.4492 31.6057 25.43 22.7749 20.3049
threshold=1.0000000180025095e-35 1.0000000180025095e-35 1.0000000180025095e-35 1.889 1.1166666666666651 6.9475000000000007 0.40844444444444455 0.011500000000000002 1.0000000180025095e-35
decision_type=2 2 2 2 2 2 2 2 2
left_child=1 3 6 4 5 7 -3 -1 -2
right_child=8 2 -4 -5 -6 -7 -8 -9 -10
leaf_value=-0.004389712209170676 -0.016483148324277795 0.0019680264809550031 -0.014330395109317794 0.0061117145981901735 0.0092669602931855308 0.005791090724004605 0.01453918264842244 -0.012708677543810415 -0.0073893738230625186
leaf_weight=81.923540249466896 100.7307745218277 17.737153366208076 15.472262814640997 79.466234639286995 28.537071049213409 19.780905321240425 173.43496824800968 55.005352184176445 32.46758995950222
leaf_count=333 403 73 62 327 118 81 728 222 130
internal_value=0 0.00454178 0.0112986 -0.000732817 -0.00366895 -0.00602459 0.0133728 -0.0077315 -0.0142665
internal_weight=0 471.357 206.644 264.713 185.247 156.71 191.172 136.929 133.198
internal_count=2477 1944 863 1081 754 636 801 555 533
is_linear=0
shrinkage=0.01


Tree=16
num_leaves=10
num_cat=0
split_feature=170 189 175 19 29 29 171 171 171
split_gain=360.147 165.223 107.945 56.2831 25.7128 45.1199 25.0925 23.5668 20.5617
threshold=1.0000000180025095e-35 1.0000000180025095e-35 1.0000000180025095e-35 6.495000000000001 0.11805555555555551 0.88194444444444453 0.40844444444444455 1.6575000000000004 0.44142857142857156
decision_type=2 2 2 2 2 2 2 2 2
left_child=1 3 6 8 -5 7 -3 -6 -1
right_child=-2 2 -4 4 5 -7 -8 -9 -10
leaf_value=-0.018996268664267103 -0.014121607373259387 0.0019489812827293668 -0.014180101149197075 0.0068221568367873879 -0.0082813529162267668 0.0074958441467438868 0.014440133985080426 0.0079949647051126334 -0.0054436489958537273
leaf_weight=13.446203380823134 133.21932743489742 17.73140175640583 15.479849830269812 75.105566531419754 57.635207980871201 41.108721256256104 172.8811342716217 10.519550427794455 66.856093436479568
leaf_count=54 533 73 62 309 234 170 728 43 271
internal_value=0 0.00450214 0.0112157 -0.000725565 0.00231781 -0.000778389 0.0132782 -0.00576914 -0.00771296
internal_weight=0 470.764 206.092 264.671 184.369 109.263 190.613 68.1548 80.3023
internal_count=2477 1944 863 1081 756 447 801 277 325
is_linear=0
shrinkage=0.01


Tree=17
num_leaves=10
num_cat=0
split_feature=170 189 185 19 149 29 29 189 0
split_gain=353.081 162.517 81.8636 55.1373 36.0449 25.2345 44.2387 19.9163 20.6692
threshold=1.0000000180025095e-35 1.0000000180025095e-35 1.0000000180025095e-35 6.495000000000001 -0.94999999999999984 0.11805555555555551 0.88194444444444453 1.0000000180025095e-35 68.500000000000014
decision_type=2 2 2 2 2 2 2 2 2
left_child=1 3 -3 -1 -4 -5 -7 -2 -9
right_child=7 2 4 5 -6 6 -8 8 -10
leaf_value=-0.0076307877244218862 -0.016174622173605911 0.013644844852365142 -0.014485621212533467 0.0067615736854670736 0.0084290509519281704 -0.0057078256246451391 0.0074309674840396149 0.0080566871965143637 -0.011348831502751679
leaf_weight=80.355101466178894 100.7459886521101 177.44833485782146 16.126243084669117 75.021145895123482 11.952599659562109 68.197483479976654 41.053227081894875 6.9949409961700431 25.490296885371208
leaf_count=325 403 748 65 309 50 277 170 28 102
internal_value=0 0.004463 0.0111343 -0.000718392 -0.00473131 0.00229588 -0.000770651 -0.0139791 -0.0071703
internal_weight=0 470.154 205.527 264.627 28.0788 184.272 109.251 133.231 32.4852
internal_count=2477 1944 863 1081 115 756 447 533 130
is_linear=0
shrinkage=0.01


Tree=18
num_leaves=10
num_cat=0
split_feature=189 171 172 123 185 96 13 175 171
split_gain=262.316 141.039 106.879 48.6689 38.1474 35.3417 35.9415 30.644 23.1597
threshold=1.0000000180025095e-35 0.40844444444444455 76.241250000000022 -0.078928571428571445 1.0000000180025095e-35 1.7663888888888901 1.9487500000000002 1.0000000180025095e-35 0.6586607142857146
decision_type=2 2 2 2 2 2 2 2 2
left_child=2 4 5 8 -2 6 -1 -3 -4
right_child=1 7 3 -5 -6 -7 -8 -9 -10
leaf_value=-0.0050964094085904866 0.0022713886822624493 0.013142767286549888 -0.0092254671298337542 -0.015787021283740377 -0.015618398308952411 0.0062515441272157184 0.0078135427683410467 -0.01032161826253848 0.0032853610242923941
leaf_weight=124.23581950366497 23.495352610945702 184.03128899633884 38.136574268341064 93.211869195103645 24.192417979240417 59.46894958615303 26.094306424260139 5.739376187324523 24.177027985453606
leaf_count=504 96 777 154 374 97 245 108 23 99
internal_value=0 0.00856976 -0.00493104 -0.0112132 -0.00680425 -0.000274047 -0.0028555 0.0124331 -0.0043714
internal_weight=0 237.458 365.325 155.525 47.6878 209.799 150.33 189.771 62.3136
internal_count=2477 993 1484 627 193 857 612 800 253
is_linear=0
shrinkage=0.01


Tree=19
num_leaves=10
num_cat=0
split_feature=170 189 185 19 149 1 189 0 172
split_gain=341.587 157.163 79.482 53.419 34.7046 25.2001 18.9919 20.2386 18.7171
threshold=1.0000000180025095e-35 1.0000000180025095e-35 1.0000000180025095e-35 6.495000000000001 -0.94999999999999984 282.50000000000006 1.0000000180025095e-35 68.500000000000014 41.585000000000008
decision_type=2 2 2 2 2 2 2 2 2
left_child=1 3 -3 8 -4 -5 -2 -8 -1
right_child=6 2 4 5 -6 -7 7 -9 -10
leaf_value=0.00077623289159544924 -0.015893029346170599 0.0134692777276516 -0.014207422024273842 -0.0068827725765756957 0.0082988463491676708 0.0037725909151184039 0.007970878435083692 -0.011233743515146069 -0.010303927397485049
leaf_weight=20.43837483227253 100.71493515372276 176.38788741827011 16.141242787241939 25.813927322626114 11.904475033283232 158.34529255330563 6.9926409125328055 25.492393910884857 60.007036939263344
leaf_count=83 403 748 65 105 50 651 28 102 242
internal_value=0 0.00439739 0.010983 -0.000690625 -0.00465426 0.00227901 -0.0137485 -0.00709981 -0.00748884
internal_weight=0 469.038 204.434 264.605 28.0457 184.159 133.2 32.485 80.4454
internal_count=2477 1944 863 1081 115 756 533 130 325
is_linear=0
shrinkage=0.01


Tree=20
num_leaves=10
num_cat=0
split_feature=170 189 185 69 124 171 171 189 0
split_gain=320.265 165.288 62.8736 40.4633 53.2693 39.626 30.4345 17.1431 17.5264
threshold=1.0000000180025095e-35 1.0000000180025095e-35 1.0000000180025095e-35 1.2416666666666651 6.0125000000000011 0.87888888888888916 1.7016666666666651 1.0000000180025095e-35 82.500000000000014
decision_type=2 2 2 2 2 2 2 2 2
left_child=1 3 -3 4 -1 -4 -6 -2 -9
right_child=7 2 5 -5 6 -7 -8 8 -10
leaf_value=0.0042914217071080823 -0.015628763931182049 0.012935392162678978 -0.013398736092977311 0.0090368589398345227 -0.0079106735776693464 0.013241050178705678 0.0045554126553895499 0.0056001250770095932 -0.011477540123201204
leaf_weight=73.571916595101357 100.18313460052013 176.96276371181011 16.039759412407879 33.656037777662277 131.20626826584339 8.5653730481863004 23.020291835069656 7.9898248165845862 24.245449796319008
leaf_count=303 401 753 65 140 531 36 94 32 97
internal_value=0 0.00404817 0.0108528 -0.00119788 -0.00271 -0.00412507 -0.00604995 -0.0135878 -0.00724468
internal_weight=0 463.022 201.568 261.455 227.798 24.6051 154.227 132.418 32.2353
internal_count=2452 1922 854 1068 928 101 625 530 129
is_linear=0
shrinkage=0.01


Tree=21
num_leaves=10
num_cat=0
split_feature=189 175 171 172 74 176 172 22 134
split_gain=256.068 123.398 92.5686 44.8999 44.6521 40.3348 29.2529 24.3581 22.9806
threshold=1.0000000180025095e-35 1.0000000180025095e-35 0.48125000000000001 74.240000000000023 0.42875000000000002 1.0000000180025095e-35 60.190000000000005 0.49928571428571455 -1.2883333333333347
decision_type=2 2 2 2 2 2 2 2 2
left_child=2 3 6 -2 5 -4 -1 -5 -7
right_child=1 -3 4 7 -6 8 -8 -9 -10
leaf_value=7.9320432775689193e-05 0.013236712975927486 -0.013067237639325702 -0.0086163022391300814 -0.015196795286068845 0.0041509389088231676 0.014527647012230803 -0.014865819418611153 0.0051202581873176457 -0.0012797754007237683
leaf_weight=15.197966814041136 162.90949088335037 24.231982871890068 104.05582043528557 6.9485616236925116 83.994018644094467 11.153346866369246 94.737663090229034 39.139357179403305 52.42841449379921
leaf_count=62 696 97 421 28 346 46 381 162 213
internal_value=0 0.00829462 -0.00514464 0.0107714 -0.0018002 -0.00478199 -0.0127997 0.00205711 0.00149312
internal_weight=0 233.229 361.567 208.997 251.632 167.638 109.936 46.0879 63.5818
internal_count=2452 983 1469 886 1026 680 443 190 259
is_linear=0
shrinkage=0.01


Tree=22
num_leaves=10
num_cat=0
split_feature=189 175 171 172 74 176 172 22 134
split_gain=251.364 121.21 90.709 44.2985 43.7628 39.4971 28.6642 23.8714 22.5796
threshold=1.0000000180025095e-35 1.0000000180025095e-35 0.48125000000000001 74.240000000000023 0.42875000000000002 1.0000000180025095e-35 60.190000000000005 0.49928571428571455 -1.2883333333333347
decision_type=2 2 2 2 2 2 2 2 2
left_child=2 3 6 -2 5 -4 -1 -5 -7
right_child=1 -3 4 7 -6 8 -8 -9 -10
leaf_value=7.852792848793415e-05 0.013148673009506191 -0.012936546505692557 -0.0085250402951418877 -0.01503679348060202 0.0041121194574681944 0.014417659165125628 -0.014715406664931019 0.0050728580586108943 -0.0012667921230791041
leaf_weight=15.19781683385372 162.36302855610847 24.232016250491142 104.11773911118507 6.9522548615932456 83.93934890627861 11.126183852553366 94.74889150261879 39.11016634106636 52.436056047677994
leaf_count=62 696 97 421 28 346 46 381 162 213
internal_value=0 0.00823202 -0.0050932 0.0106931 -0.00178226 -0.00473294 -0.0126705 0.00203768 0.00147868
internal_weight=0 232.657 361.566 208.425 251.619 167.68 109.947 46.0624 63.5622
internal_count=2452 983 1469 886 1026 680 443 190 259
is_linear=0
shrinkage=0.01


Tree=23
num_leaves=10
num_cat=0
split_feature=170 171 1 172 6 7 64 5 186
split_gain=305.731 75.8608 42.2624 33.8977 29.3709 28.4568 23.4894 19.7934 18.2741
threshold=1.0000000180025095e-35 0.44888888888888906 351.50000000000006 57.994166666666651 40556.146000000008 0.028000000000000004 109.00000000000001 0.22650000000000003 1.0000000180025095e-35
decision_type=2 2 2 2 2 2 2 2 2
left_child=1 3 5 -1 -4 7 -6 8 -3
right_child=-2 2 4 -5 6 -7 -8 -9 -10
leaf_value=0.0054498373138275923 -0.013279623746562197 -0.008053874686814096 0.0097340127728196453 -0.0096534597226558133 -0.0042971160737438011 -0.0098771345958613265 0.0058208389952182551 0.012499257159319679 0.011526364709820644
leaf_weight=20.736348062753677 132.27509197592735 15.895638301968576 189.10220649838448 52.441163465380669 29.277687281370163 25.58923551440239 106.07989597320557 15.418788105249403 6.8079650253057471
leaf_count=86 530 65 799 213 120 104 443 64 28
internal_value=0 0.00396573 0.00572637 -0.00537363 0.00718853 -0.00171986 0.00363234 0.00375561 -0.00218249
internal_weight=0 461.349 388.171 73.1775 324.46 63.7116 135.358 38.1224 22.7036
internal_count=2452 1922 1623 299 1362 261 563 157 93
is_linear=0
shrinkage=0.01


Tree=24
num_leaves=10
num_cat=0
split_feature=171 172 172 188 104 123 4 5 33
split_gain=201.693 94.4069 49.5454 43.0257 28.0947 25.9944 25.619 19.1871 16.522
threshold=0.61083333333333367 57.994166666666651 87.912083333333371 1.0000000180025095e-35 21.102000000000004 -0.17474999999999996 23.000000000000004 0.25850000000000006 1.0405555555555552
decision_type=2 2 2 2 2 2 2 2 2
left_child=1 -1 3 6 -4 -3 -2 8 -8
right_child=2 5 4 -5 -6 -7 7 -9 -10
leaf_value=0.0061523809029444656 0.0067814834484123407 -0.0034801081271378432 0.0016823611600110767 0.0099529384870235913 -0.012315630447776537 -0.012614355020243643 0.00092123457873454265 0.014946075141837495 -0.0087329064520583356
leaf_weight=41.527106925845146 73.780891433358192 40.101868107914925 37.804062753915787 155.60832384228706 23.099063605070114 139.65262107551098 46.027120023965836 6.6349028199911109 28.831100940704346
leaf_count=173 308 164 156 658 93 563 191 28 118
internal_value=0 -0.00743711 0.00462098 0.00623674 -0.00362673 -0.0105766 0.00251254 -0.00135241 -0.00279699
internal_weight=0 221.282 371.785 310.882 60.9031 179.754 155.274 81.4931 74.8582
internal_count=2452 900 1552 1303 249 727 645 337 309
is_linear=0
shrinkage=0.01


Tree=25
num_leaves=10
num_cat=0
split_feature=189 175 172 96 172 100 11 78 140
split_gain=242.019 129.551 94.5628 56.417 43.4484 34.5365 29.9659 28.4815 27.4932
threshold=1.0000000180025095e-35 1.0000000180025095e-35 60.190000000000005 1.9414285714285702 83.251250000000013 0.19833333333333353 4.6241666666666665 0.26220000000000004 1.1395000000000002
decision_type=2 2 2 2 2 2 2 2 2
left_child=2 4 5 7 -2 -1 -7 -4 -6
right_child=1 -3 3 -5 8 6 -8 -9 -10
leaf_value=0.0077698926537595001 0.013042287942031912 -0.01235803829074333 0.00021570969300085455 -0.0006429722799822067 0.0066105478337402795 -0.0051380093647760052 0.011742987890317578 -0.01340506399123126 -0.011684048683659099
leaf_weight=54.268197014927864 165.63359168171883 27.461973831057549 17.126572549343109 59.574591338634491 29.698617711663246 68.414281934499741 12.425359487533568 148.14306779205799 11.355276107788084
leaf_count=224 714 110 70 244 123 278 52 596 46
internal_value=0 0.00804834 -0.00501295 -0.00898612 0.0107597 0.00159914 -0.00254334 -0.0119936 0.00155037
internal_weight=0 234.149 359.952 224.844 206.687 135.108 80.8396 165.27 41.0539
internal_count=2457 993 1464 910 883 554 330 666 169
is_linear=0
shrinkage=0.01


Tree=26
num_leaves=10
num_cat=0
split_feature=189 175 19 25 25 176 36 40 132
split_gain=237.61 127.283 87.5892 26.3488 20.6332 19.0054 21.1442 16.3798 16.212
threshold=1.0000000180025095e-35 1.0000000180025095e-35 6.495000000000001 0.95000000000000007 0.30952380952380953 1.0000000180025095e-35 0.070062500000000014 270.68333333333356 -0.12055555555555549
decision_type=2 2 2 2 2 2 2 2 2
left_child=2 4 7 -4 -2 6 -5 -1 -8
right_child=1 -3 3 5 -6 -7 8 -9 -10
leaf_value=-0.013900884319820709 -0.0013257793106609577 -0.012237861410584826 -0.0090485546674044914 0.0032663268629960548 0.011516983269846784 0.0044037497117562123 -0.01028858991719549 -0.006722641621694999 -0.00073184424788287476
leaf_weight=86.540969654917717 13.378212109208105 27.454373061656952 35.142747074365616 44.586034998297691 192.70898348093033 72.372803524136543 35.575696855783463 50.244853392243385 35.427741646766663
leaf_count=348 56 110 142 184 827 298 144 203 145
internal_value=0 0.00798876 -0.00496365 -0.00110082 0.0106833 0.000385146 -0.00213098 -0.0112641 -0.00552017
internal_weight=0 233.542 359.891 223.105 206.087 187.962 115.589 136.786 71.0034
internal_count=2457 993 1464 913 883 771 473 551 289
is_linear=0
shrinkage=0.01


Tree=27
num_leaves=10
num_cat=0
split_feature=170 189 175 96 146 172 107 7 189
split_gain=285.53 142.535 99.5404 47.7068 52.052 23.2202 21.411 20.2719 17.0462
threshold=1.0000000180025095e-35 1.0000000180025095e-35 1.0000000180025095e-35 2.0475000000000003 0.87366666666666659 41.585000000000008 0.77321428571428563 0.0065000000000000014 1.0000000180025095e-35
decision_type=2 2 2 2 2 2 2 2 2
left_child=1 3 -3 4 -1 6 -6 -7 -2
right_child=8 2 -4 -5 5 7 -8 -9 -10
leaf_value=0.0040205052161966896 -0.014754356699697267 0.012312015367727629 -0.013002195893709352 0.0062493740333766984 -0.016368374853118005 -0.0058525069382025039 0.0031079981293343885 -0.015310023573769498 -0.0063556836691089124
leaf_weight=61.331006735563278 101.54614223539829 184.30764655768871 16.963214546442032 66.543600171804428 6.9266174733638755 53.954224050045013 30.492891043424606 39.080361902713776 31.713155552744865
leaf_count=253 408 798 68 276 28 218 124 157 127
internal_value=0 0.00386942 0.0101785 -0.00104617 -0.00357751 -0.0071496 -0.000497217 -0.00982526 -0.0127556
internal_weight=0 459.6 201.271 258.329 191.785 130.454 37.4195 93.0346 133.259
internal_count=2457 1922 866 1056 780 527 152 375 535
is_linear=0
shrinkage=0.01


Tree=28
num_leaves=10
num_cat=0
split_feature=189 175 172 96 172 100 171 34 140
split_gain=229.035 123.062 90.8512 53.5754 42.6181 33.4132 31.6085 27.3389 26.7788
threshold=1.0000000180025095e-35 1.0000000180025095e-35 60.190000000000005 1.9414285714285702 83.251250000000013 0.19833333333333353 1.7741666666666653 0.048071428571428557 1.1395000000000002
decision_type=2 2 2 2 2 2 2 2 2
left_child=2 4 5 7 -2 -1 -7 -4 -6
right_child=1 -3 3 -5 8 6 -8 -9 -10
leaf_value=0.0076933086964299678 0.012810996162770611 -0.012019253833721868 -0.00082746573060294402 -0.0006292435659687837 0.0064142605757176122 -0.0056185216364637936 0.0099021235320487216 -0.013218436406306846 -0.011656849907948488
leaf_weight=54.16376306116581 163.99974270164967 27.435337975621223 20.30189573764801 59.51828408241272 29.569676131010056 64.39292299747467 16.479636296629906 144.84758999943733 11.346768602728842
leaf_count=224 714 110 83 244 123 262 68 583 46
internal_value=0 0.00787018 -0.00486739 -0.00876365 0.0105331 0.00161504 -0.00245583 -0.0116952 0.00140286
internal_weight=0 232.352 359.704 224.668 204.916 135.036 80.8726 165.149 40.9164
internal_count=2457 993 1464 910 883 554 330 666 169
is_linear=0
shrinkage=0.01


Tree=29
num_leaves=10
num_cat=0
split_feature=170 171 188 19 6 94 4 171 5
split_gain=276.548 82.8253 37.1887 31.5675 30.4481 22.804 22.5016 19.4101 17.3795
threshold=1.0000000180025095e-35 0.44888888888888906 1.0000000180025095e-35 6.495000000000001 17687.715000000004 1.0495000000000003 69.000000000000014 0.83125000000000016 0.20850000000000002
decision_type=2 2 2 2 2 2 2 2 2
left_child=1 3 4 -1 -3 -6 8 -4 -7
right_child=-2 2 7 -5 5 6 -8 -9 -10
leaf_value=-0.014533138196001551 -0.012560862132815891 0.0076074470518531943 0.0041329060863102094 -0.0010305251885454625 0.0064999640402694002 0.0083414773492646171 0.012003042792974697 0.011115639515032052 -0.006639257169310922
leaf_weight=26.318230673670769 133.06172576546669 76.60943415760994 57.879649952054024 50.609177023172379 33.685537233948708 8.7361119091510755 8.7298048138618451 127.50179550051689 68.198477938771248
leaf_count=106 535 322 244 209 142 36 37 546 280
internal_value=0 0.00381537 0.0057248 -0.00565001 0.00268742 -0.000470684 -0.00321173 0.0089355 -0.00493816
internal_weight=0 458.268 381.341 76.9274 195.959 119.35 85.6644 185.381 76.9346
internal_count=2457 1922 1607 315 817 495 353 790 316
is_linear=0
shrinkage=0.01


Tree=30
num_leaves=10
num_cat=0
split_feature=170 171 188 185 69 96 34 14 171
split_gain=289.835 78.4067 40.2856 32.886 27.9348 27.998 20.464 19.0911 13.774
threshold=1.0000000180025095e-35 0.44888888888888906 1.0000000180025095e-35 1.0000000180025095e-35 1.3650000000000002 1.7918750000000003 0.05056250000000001 0.80416666666666703 0.79708333333333359
decision_type=2 2 2 2 2 2 2 2 2
left_child=1 3 4 6 5 7 -1 -3 -4
right_child=-2 2 8 -5 -6 -7 -8 -9 -10
leaf_value=0.0088910065660374078 -0.012893869792915487 -0.0034045197164711176 0.0045326118727335961 -0.015838598629376505 0.01206631359698679 0.0069093342389273515 -0.0049998400665173474 0.008620043701195422 0.01054804733094653
leaf_weight=14.299164503812788 137.68485637009144 102.21927420794964 53.291070774197578 22.111452549695969 25.645875349640846 52.929484784603119 41.057195082306862 15.162045285105703 133.22633031010628
leaf_count=60 554 421 225 89 110 223 168 64 571
internal_value=0 0.00364462 0.00550279 -0.00552952 0.00233648 0.000871333 -0.00141168 -0.00185132 0.00882934
internal_weight=0 459.942 382.474 77.4678 195.957 170.311 55.3564 117.381 186.517
internal_count=2485 1931 1614 317 818 708 228 485 796
is_linear=0
shrinkage=0.01


Tree=31
num_leaves=10
num_cat=0
split_feature=170 189 175 17 122 119 171 1 189
split_gain=284.344 140.236 94.8766 45.1096 43.7432 18.7895 18.4743 16.9657 16.7622
threshold=1.0000000180025095e-35 1.0000000180025095e-35 1.0000000180025095e-35 101.98 -0.12631428571428546 -0.80833333333333346 0.44888888888888906 735.00000000000011 1.0000000180025095e-35
decision_type=2 2 2 2 2 2 2 2 2
left_child=1 3 6 4 -1 7 -3 -6 -2
right_child=8 2 -4 -5 5 -7 -8 -9 -10
leaf_value=0.0033832112576871582 -0.014783839017540603 0.003630203971005348 -0.01262613672737934 0.0067712042022482072 -0.0059584766221485209 -0.0096545864459836803 0.013344401796560908 0.0053527388127077328 -0.0067061870307718301
leaf_weight=66.066099345684052 103.37599676847458 22.3612340092659 16.933371603488922 56.282978430390358 40.624480590224266 80.189803421497345 157.25501580536366 19.686075478792191 34.185070380568504
leaf_count=273 417 94 68 236 164 324 692 80 137
internal_value=0 0.0036125 0.0100018 -0.00116518 -0.00332759 -0.00648315 0.012135 -0.00226636 -0.0127765
internal_weight=0 459.399 196.55 262.849 206.566 140.5 179.616 60.3106 137.561
internal_count=2485 1931 854 1077 841 568 786 244 554
is_linear=0
shrinkage=0.01


Tree=32
num_leaves=10
num_cat=0
split_feature=189 175 171 172 18 172 171 104 36
split_gain=218.443 125.724 86.2133 43.6376 37.6481 34.5334 24.9712 26.0322 33.0034
threshold=1.0000000180025095e-35 1.0000000180025095e-35 0.48125000000000001 82.74666666666667 8.1295000000000019 60.190000000000005 1.6575000000000004 15.297000000000002 0.065828571428571472
decision_type=2 2 2 2 2 2 2 2 2
left_child=2 3 5 -2 -4 -1 7 -6 -9
right_child=1 -3 4 -5 6 -7 -8 8 -10
leaf_value=0.0010613470003880347 0.012566490438898856 -0.012236328476260468 -0.0099612205153308958 0.00092329169454322569 0.0081031121183318348 -0.014446950512640918 0.007488146946500877 0.0042635281435257954 -0.006208140298250492
leaf_weight=16.838531866669655 161.48806208372116 28.373421356081963 45.166638419032097 40.2035121768713 24.088597148656845 97.491917014122009 37.598186150193214 42.664086863398552 102.17977911233902
leaf_count=69 711 114 182 166 101 394 156 177 415
internal_value=0 0.00747298 -0.00496197 0.0102456 -0.00169103 -0.0121629 0.000117593 -0.00152282 -0.00312369
internal_weight=0 230.065 366.028 201.692 251.697 114.33 206.531 168.932 144.844
internal_count=2485 991 1494 877 1031 463 849 693 592
is_linear=0
shrinkage=0.01


Tree=33
num_leaves=10
num_cat=0
split_feature=170 189 175 17 122 176 125 171 189
split_gain=275.503 135.569 91.8113 43.7281 42.4293 18.7098 19.8259 18.2906 16.2343
threshold=1.0000000180025095e-35 1.0000000180025095e-35 1.0000000180025095e-35 101.98 -0.12631428571428546 1.0000000180025095e-35 0.83430952380952361 0.44888888888888906 1.0000000180025095e-35
decision_type=2 2 2 2 2 2 2 2 2
left_child=1 3 7 4 -1 6 -6 -3 -2
right_child=8 2 -4 -5 5 -7 -8 -9 -10
leaf_value=0.0033595291567433943 -0.014566516060971143 0.0035139025780250195 -0.012394211427847853 0.0066973695321564863 0.00057742926750110803 -0.0020992245642792789 -0.011913078855456749 0.013196513616693717 -0.0066132344511278555
leaf_weight=66.018004417419434 103.11543722450733 22.296941369771957 16.910774543881416 56.166000053286552 15.777027711272238 59.482270583510399 65.324833422899246 156.05135244131088 34.169625878334045
leaf_count=273 417 94 68 236 64 241 263 692 137
internal_value=0 0.00356325 0.00987451 -0.00112655 -0.00325353 -0.00635901 -0.00948326 0.011986 -0.012587
internal_weight=0 458.027 195.259 262.768 206.602 140.584 81.1019 178.348 137.285
internal_count=2485 1931 854 1077 841 568 327 786 554
is_linear=0
shrinkage=0.01


Tree=34
num_leaves=10
num_cat=0
split_feature=170 171 188 185 69 96 34 14 171
split_gain=270.378 74.3253 38.7083 31.2717 26.6793 26.7596 19.6364 18.1636 13.3781
threshold=1.0000000180025095e-35 0.44888888888888906 1.0000000180025095e-35 1.0000000180025095e-35 1.3650000000000002 1.7918750000000003 0.05056250000000001 0.80416666666666703 0.79708333333333359
decision_type=2 2 2 2 2 2 2 2 2
left_child=1 3 4 6 5 7 -1 -3 -4
right_child=-2 2 8 -5 -6 -7 -8 -9 -10
leaf_value=0.0087360160193803715 -0.012476210127662198 -0.0033610488703253658 0.0043848211845329129 -0.015468443371472167 0.011808335594162851 0.0067377716218569948 -0.0048958626536202126 0.0084077516998903278 0.010334673379071704
leaf_weight=14.232085853815077 137.11984625458717 102.01055578887463 52.958594381809235 22.061263099312782 25.374309122562408 52.617192581295967 41.032531887292862 15.04867400228977 131.94177590310574
leaf_count=60 554 421 225 89 110 223 168 64 571
internal_value=0 0.00353351 0.00535228 -0.00540325 0.00224462 0.000814407 -0.0013853 -0.0018481 0.00863054
internal_weight=0 457.277 379.951 77.3259 195.051 169.676 55.2646 117.059 184.9
internal_count=2485 1931 1614 317 818 708 228 485 796
is_linear=0
shrinkage=0.01


Tree=35
num_leaves=10
num_cat=0
split_feature=170 189 175 96 69 7 85 171 119
split_gain=251.72 145.571 80.7327 50.8855 42.9371 24.4713 27.5355 20.0935 17.1085
threshold=1.0000000180025095e-35 1.0000000180025095e-35 1.0000000180025095e-35 1.8218750000000001 1.1725000000000001 0.011500000000000002 0.026458333333333351 1.0207142857142852 -0.8267857142857139
decision_type=2 2 2 2 2 2 2 2 2
left_child=1 3 -3 4 5 6 8 -5 -1
right_child=-2 2 -4 7 -6 -7 -8 -9 -10
leaf_value=-0.0011690276360652196 -0.012124509776200821 0.012031794940523335 -0.011311938256005533 0.00093827919770007103 0.0077693458936180506 -0.011201281895322365 0.0071415133577707882 0.010964713992795446 -0.010975369286210354
leaf_weight=36.319310963153839 130.27149999141693 180.77858063578606 16.137785255908966 46.363142356276512 25.362172693014145 60.820366248488426 20.656188920140266 35.134776785969734 34.8736881762743
leaf_count=147 527 802 65 192 107 245 85 147 141
internal_value=0 0.00363542 0.0101187 -0.00128374 -0.00427964 -0.00628128 -0.00302336 0.0052608 -0.00597264
internal_weight=0 456.446 196.916 259.53 178.032 152.67 91.8492 81.4979 71.193
internal_count=2458 1931 867 1064 725 618 373 339 288
is_linear=0
shrinkage=0.01


Tree=36
num_leaves=10
num_cat=0
split_feature=170 189 185 96 69 149 7 111 189
split_gain=247.045 143.274 67.7551 49.8959 42.0927 27.7934 23.9629 20.8803 14.0416
threshold=1.0000000180025095e-35 1.0000000180025095e-35 1.0000000180025095e-35 1.8218750000000001 1.1725000000000001 -0.94999999999999984 0.011500000000000002 0.56904761904761914 1.0000000180025095e-35
decision_type=2 2 2 2 2 2 2 2 2
left_child=1 3 -3 4 6 -4 7 -1 -2
right_child=8 2 5 -5 -6 -7 -8 -9 -10
leaf_value=0.0063535021823010488 -0.013831710090048847 0.012401210280605621 -0.013209618386391696 0.0052137841120272555 0.0077049516315078658 0.0073672517098383773 -0.011083935331597355 -0.0054248163472597945 -0.0060682277874779126
leaf_weight=18.967698290944099 99.714365780353546 169.20461249351501 15.782657295465471 81.411360755562782 25.318615362048149 11.238463580608366 60.849483877420425 72.891920208930969 30.399738997220993
leaf_count=78 405 754 64 339 107 49 245 295 122
internal_value=0 0.00360535 0.010053 -0.0012713 -0.00423691 -0.00465141 -0.00621682 -0.00299276 -0.0120179
internal_weight=0 455.665 196.226 259.439 178.028 27.0211 152.709 91.8596 130.114
internal_count=2458 1931 867 1064 725 113 618 373 527
is_linear=0
shrinkage=0.01


Tree=37
num_leaves=10
num_cat=0
split_feature=170 189 175 96 69 7 85 137 37
split_gain=242.489 141.02 78.4541 48.9235 41.2649 23.4699 26.674 14.5028 14.8877
threshold=1.0000000180025095e-35 1.0000000180025095e-35 1.0000000180025095e-35 1.8218750000000001 1.1725000000000001 0.011500000000000002 0.026458333333333351 1.0652777777777802 6.4366666666666665
decision_type=2 2 2 2 2 2 2 2 2
left_child=1 3 -3 4 5 6 7 8 -1
right_child=-2 2 -4 -5 -6 -7 -8 -9 -10
leaf_value=-0.011806358131372503 -0.011914233836257445 0.011886102790070343 -0.011150952850894151 0.0051667644200893434 0.0076411968431868427 -0.010968542938103294 0.0070539307695650479 0.0020257214282449398 -0.00020011086660196164
leaf_weight=38.122783228754997 129.93431583046913 179.42098362743855 16.110347509384155 81.331119954586029 25.274784699082375 60.874612018465996 20.620341822504997 17.568074002861977 15.564213708043097
leaf_count=154 527 802 65 339 107 245 85 71 63
internal_value=0 0.0035755 0.00998802 -0.00125897 -0.00419458 -0.00615299 -0.00296231 -0.00586088 -0.00844163
internal_weight=0 454.887 195.531 259.356 178.025 152.75 91.8754 71.2551 53.687
internal_count=2458 1931 867 1064 725 618 373 288 217
is_linear=0
shrinkage=0.01


Tree=38
num_leaves=10
num_cat=0
split_feature=170 171 1 78 6 60 136 104 4
split_gain=238.009 68.0068 37.0183 30.7812 23.9278 22.2633 18.9133 18.0266 13.81
threshold=1.0000000180025095e-35 0.44888888888888906 351.50000000000006 0.29110000000000008 41565.913492630127 0.62633333333333363 18.084166666666654 26.518750000000001 53.000000000000007
decision_type=2 2 2 2 2 2 2 2 2
left_child=1 3 5 -1 -4 -3 -7 8 -6
right_child=-2 2 4 -5 7 6 -8 -9 -10
leaf_value=0.0026093499858541331 -0.011810851082002456 0.0093760706702522862 0.008959906134626449 -0.010472421122534856 0.0034426084187927936 -0.0097000731446467512 0.0038534346014140065 -0.0057137465245783291 0.013125113968523807
leaf_weight=30.21458426117897 129.76180317997932 13.473411902785299 184.31027753651142 44.444553807377815 99.183886796236038 31.156788662075996 15.377457946538923 18.629175871610641 17.299845293164253
leaf_count=126 527 57 803 181 420 128 64 77 75
internal_value=0 0.00354607 0.00526271 -0.00517822 0.00661653 -0.00194374 -0.00522125 0.00341989 0.00488063
internal_weight=0 454.09 379.431 74.6591 319.423 60.0077 46.5342 135.113 116.484
internal_count=2458 1931 1624 307 1375 249 192 572 495
is_linear=0
shrinkage=0.01


Tree=39
num_leaves=10
num_cat=0
split_feature=170 189 185 96 69 149 7 85 119
split_gain=233.592 138.55 65.7217 47.8187 40.2324 26.6951 22.7075 26.0634 16.5672
threshold=1.0000000180025095e-35 1.0000000180025095e-35 1.0000000180025095e-35 1.8218750000000001 1.1725000000000001 -0.94999999999999984 0.011500000000000002 0.026458333333333351 -0.8267857142857139
decision_type=2 2 2 2 2 2 2 2 2
left_child=1 3 -3 4 6 -4 7 8 -1
right_child=-2 2 5 -5 -6 -7 -8 -9 -10
leaf_value=-0.0011029058220039158 -0.011709038566259935 0.012224578776912574 -0.01299694911912065 0.0050868004252494717 0.007531929544069991 0.0072182507526904749 -0.010842745535401986 0.0069468400170003908 -0.010748831057337805
leaf_weight=36.333122417330742 129.58210647106171 167.54614229500294 15.74766479432583 81.172264203429222 25.19621779024601 11.163099601864813 60.883727416396141 20.575751960277557 34.918125703930855
leaf_count=147 527 754 64 339 107 49 245 85 141
internal_value=0 0.00351496 0.00989467 -0.00127346 -0.00417541 -0.0046113 -0.00610705 -0.00296715 -0.00583009
internal_weight=0 453.536 194.457 259.079 177.907 26.9108 152.711 91.827 71.2512
internal_count=2458 1931 867 1064 725 113 618 373 288
is_linear=0
shrinkage=0.01


Tree=40
num_leaves=10
num_cat=0
split_feature=170 171 153 1 64 60 36 4 176
split_gain=243.874 70.1377 39.7582 32.4871 27.9624 19.3828 17.5837 16.0661 15.5115
threshold=1.0000000180025095e-35 0.44888888888888906 1.0893750000000002 344.50000000000006 109.57083333333351 0.64416666666666667 0.075732142857142873 29.000000000000004 1.0000000180025095e-35
decision_type=2 2 2 2 2 2 2 2 2
left_child=1 2 8 5 7 -3 -4 -5 -1
right_child=-2 3 6 4 -6 -7 -8 -9 -10
leaf_value=-0.015825944564421372 -0.011952794577350066 0.0067885125417324679 0.0082552295703200787 0.0050521383178597423 0.0081132243205354927 -0.0055515049354106652 -0.0059742363448598299 -0.0043769556234131302 -0.0024787954004950631
leaf_weight=29.149220123887062 131.62184120714664 18.722962290048599 21.505775734782219 43.341115519404411 247.96577061712742 39.758088007569313 14.566283628344534 30.992492660880089 12.415944546461104
leaf_count=118 536 79 91 186 1077 164 60 129 51
internal_value=0 0.00349009 -0.00517249 0.00525631 0.00650052 -0.00160079 0.00250922 0.00112079 -0.011839
internal_weight=0 458.418 77.6372 380.78 322.299 58.4811 36.0721 74.3336 41.5652
internal_count=2491 1955 320 1635 1392 243 151 315 169
is_linear=0
shrinkage=0.01


Tree=41
num_leaves=10
num_cat=0
split_feature=170 189 175 72 90 62 1 189 0
split_gain=239.378 116.272 89.1218 41.9631 41.2609 32.0435 24.7827 16.6971 25.9577
threshold=1.0000000180025095e-35 1.0000000180025095e-35 1.0000000180025095e-35 6.9933333333333358 0.24750000000000003 7.0428571428571454 1037.5000000000002 1.0000000180025095e-35 68.500000000000014
decision_type=2 2 2 2 2 2 2 2 2
left_child=1 3 -3 4 5 -1 -7 -2 -9
right_child=7 2 -4 -5 -6 6 -8 8 -10
leaf_value=0.0062279978271745544 -0.013865359693432829 0.011257417867542677 -0.014260466871613683 0.0074424770684580919 0.0077963162174537358 -0.0082179715822656776 0.0016444096821449192 0.011893154275379765 -0.010224290506361066
leaf_weight=23.706367060542107 99.620312079787254 179.94912002980709 14.813232496380804 49.277515217661858 31.388069048523903 126.80838619172573 31.885937348008156 6.7311387658119228 25.068859353661537
leaf_count=99 408 813 60 207 133 513 130 27 101
internal_value=0 0.00345969 0.00931658 -0.000876482 -0.00279397 -0.00461638 -0.00623636 -0.0118515 -0.00554267
internal_weight=0 457.829 194.762 263.066 213.789 182.401 158.694 131.42 31.8
internal_count=2491 1955 873 1082 875 742 643 536 128
is_linear=0
shrinkage=0.01


Tree=42
num_leaves=10
num_cat=0
split_feature=170 189 175 96 158 171 185 171 69
split_gain=235.034 114.465 87.6407 42.8456 51.8998 17.93 25.7683 17.4829 16.7511
threshold=1.0000000180025095e-35 1.0000000180025095e-35 1.0000000180025095e-35 1.7918750000000003 1.0964722222222203 0.44888888888888906 1.0000000180025095e-35 0.90916666666666657 1.2416666666666651
decision_type=2 2 2 2 2 2 2 2 2
left_child=1 3 5 4 -1 6 -3 -5 -6
right_child=-2 2 -4 7 8 -7 -8 -9 -10
leaf_value=-0.0079632997626246996 -0.011753750403651262 0.0086007921573635054 -0.014137884760049376 0.00045697326177226701 -0.00038947560255599682 0.012412532861512934 -0.01672485980765832 0.0095530848611079747 0.0099971007881636265
leaf_weight=108.75124518573284 131.18952021002769 18.247655242681507 14.792357504367827 42.334501013159752 46.339817449450493 155.8717120885849 5.1518583595752707 42.186265021562576 23.352150052785873
leaf_count=439 536 79 60 176 189 713 21 178 100
internal_value=0 0.0034312 0.00925681 -0.000868022 -0.00364605 0.0111872 0.00302486 0.00499705 0.00309082
internal_weight=0 457.028 194.064 262.964 178.443 179.271 23.3995 84.5208 69.692
internal_count=2491 1955 873 1082 728 813 100 354 289
is_linear=0
shrinkage=0.01


Tree=43
num_leaves=10
num_cat=0
split_feature=170 189 175 96 158 189 0 18 59
split_gain=230.754 112.721 86.2041 42.0173 50.8447 16.5211 25.4737 15.58 18.3993
threshold=1.0000000180025095e-35 1.0000000180025095e-35 1.0000000180025095e-35 1.7918750000000003 1.0964722222222203 1.0000000180025095e-35 68.500000000000014 8.3799285714285734 0.49366666666666653
decision_type=2 2 2 2 2 2 2 2 2
left_child=1 3 -3 4 -1 -2 -7 8 -6
right_child=5 2 -4 -5 7 6 -8 -9 -10
leaf_value=-0.0078806336648889561 -0.013664690582647606 0.01112031972268891 -0.014017570887078981 0.0049525841528650881 0.0083244542946591792 0.011891698658710719 -0.010022717429437753 0.0082086068174634878 -0.0063578147955481628
leaf_weight=108.79288794100285 99.219250291585922 178.54995748400688 14.770238518714903 84.427727654576302 13.040593415498732 6.7311737388372448 25.023802533745766 31.889275178313255 24.704694464802742
leaf_count=439 408 813 60 354 55 27 101 134 100
internal_value=0 0.00340335 0.00919971 -0.000859663 -0.00360988 -0.0116554 -0.00537747 0.00306248 -0.00128525
internal_weight=0 456.175 193.32 262.855 178.427 130.974 31.755 69.6346 37.7453
internal_count=2491 1955 873 1082 728 536 128 289 155
is_linear=0
shrinkage=0.01


Tree=44
num_leaves=10
num_cat=0
split_feature=170 171 78 1 52 107 127 56 118
split_gain=226.59 67.2608 37.6452 31.2453 25.3634 18.5131 15.7097 15.0597 14.8124
threshold=1.0000000180025095e-35 0.44888888888888906 0.29110000000000008 344.50000000000006 1.0050000000000001 0.95277777777777806 0.65525000000000011 0.55125000000000013 -1.1899999999999997
decision_type=2 2 2 2 2 2 2 2 2
left_child=1 2 -1 7 -5 -6 -4 -3 -9
right_child=-2 3 6 4 5 -7 -8 8 -10
leaf_value=0.0032193793509293816 -0.011560717087299379 0.013236534039107016 -0.015692996801098216 0.0089777228483582713 -0.00101383047088001 0.0061848989973782445 -0.0036649938228179029 0.0038847815655502216 -0.0072774436425695433
leaf_weight=31.829999253153801 130.72829200327396 6.1084174066781989 27.587517157196999 170.40998163819313 59.169922217726707 90.160191640257835 17.90738944709301 18.320301920175552 33.862470865249634
leaf_count=134 536 26 112 751 251 390 74 77 140
internal_value=0 0.00337547 -0.00512239 0.00511368 0.0063412 0.00333251 -0.0109586 -0.00161959 -0.00335862
internal_weight=0 455.356 77.3249 378.031 319.74 149.33 45.4949 58.2912 52.1828
internal_count=2491 1955 320 1635 1392 641 186 243 217
is_linear=0
shrinkage=0.01


Tree=45
num_leaves=10
num_cat=0
split_feature=170 189 185 96 69 145 73 189 176
split_gain=225.421 121.493 60.8969 34.9433 39.7438 28.4849 26.612 17.6651 15.9621
threshold=1.0000000180025095e-35 1.0000000180025095e-35 1.0000000180025095e-35 2.0475000000000003 1.2416666666666651 0.8908333333333337 1.1952777777777801 1.0000000180025095e-35 1.0000000180025095e-35
decision_type=2 2 2 2 2 2 2 2 2
left_child=1 3 -3 4 5 -1 -4 -2 -7
right_child=7 2 6 -5 -6 8 -8 -9 -10
leaf_value=0.0047181866397130109 -0.013509177049000506 0.011796132509896161 0.013769588280641051 0.0053678904939000642 0.0080384352200371517 -0.0095538400017756049 -0.010215212820965703 -0.0051072122439841843 -0.0027140053498034473
leaf_weight=25.96496456861496 97.319212555885315 166.37848781049252 6.0199956148862865 66.081000939011574 27.689723148941994 81.348943471908569 19.977268174290657 33.685449808835983 58.76704677939415
leaf_count=107 402 764 27 279 119 328 83 136 238
internal_value=0 0.00354813 0.00957212 -0.000911611 -0.00305309 -0.00490232 -0.00466123 -0.0113488 -0.0066851
internal_weight=0 452.227 192.376 259.852 193.771 166.081 25.9973 131.005 140.116
internal_count=2483 1945 874 1071 792 673 110 538 566
is_linear=0
shrinkage=0.01


Tree=46
num_leaves=10
num_cat=0
split_feature=189 185 171 19 171 17 122 1 87
split_gain=187.126 88.2599 68.0588 41.7039 34.0844 21.458 42.1745 15.9015 15.1962
threshold=1.0000000180025095e-35 1.0000000180025095e-35 0.48125000000000001 6.495000000000001 0.87888888888888916 101.98 -0.13224999999999998 1540.5000000000002 -0.25749999999999995
decision_type=2 2 2 2 2 2 2 2 2
left_child=2 -2 8 -4 -3 6 -5 -8 -1
right_child=1 4 3 5 -6 -7 7 -9 -10
leaf_value=-0.00059082633351216919 0.010209856456809545 -0.010948761065262567 -0.0068726946938890655 0.0063150822988831861 0.01234995608973662 0.0078006579781023204 -0.0072690061137874462 0.01109160691616713 -0.012218537574475954
leaf_weight=12.716163367033003 186.06520976126194 31.407089695334435 89.060594841837883 50.68039245903492 7.8480222523212424 42.07468843460083 60.375108912587166 5.1167187839746466 96.789614096283913
leaf_count=53 846 129 362 213 35 181 245 21 398
internal_value=0 0.00733513 -0.004305 -0.00139882 -0.0062908 0.00168184 -0.000534237 -0.00583454 -0.0108683
internal_weight=0 225.32 356.813 247.308 39.2551 158.247 116.172 65.4918 109.506
internal_count=2483 1010 1473 1022 164 660 479 266 451
is_linear=0
shrinkage=0.01


Tree=47
num_leaves=10
num_cat=0
split_feature=170 171 3 153 188 15 13 176 37
split_gain=219.37 59.9859 34.9038 32.5187 30.2773 22.7341 28.8203 18.6911 17.4315
threshold=1.0000000180025095e-35 0.45083333333333359 3.5000000000000004 1.0893750000000002 1.0000000180025095e-35 0.82611111111111113 0.35458333333333353 1.0000000180025095e-35 5.8775000000000004
decision_type=2 2 2 2 2 2 2 2 2
left_child=1 3 -3 7 5 6 -4 -1 -8
right_child=-2 2 4 -5 -6 -7 8 -9 -10
leaf_value=-0.014628145809002529 -0.011213701229345145 -0.018187668111865788 0.0089479820222890961 0.0024610114974831791 0.0085032816523774833 0.0084994099091876812 -0.0053784757269195451 0.00030424584322769749 0.002912883241666794
leaf_weight=30.172551780939102 130.58829489350319 6.2865265756845465 31.897730708122253 36.282415151596069 179.89612646400928 50.270687088370323 60.696576908230782 11.607268348336218 43.548788085579872
leaf_count=123 538 26 139 153 799 221 253 48 183
internal_value=0 0.00350579 0.00517573 -0.00446497 0.00557669 0.00275242 0.00063035 -0.0104796 -0.00191474
internal_weight=0 450.659 372.596 78.0622 366.31 186.414 136.143 41.7798 104.245
internal_count=2483 1945 1621 324 1595 796 575 171 436
is_linear=0
shrinkage=0.01


Tree=48
num_leaves=10
num_cat=0
split_feature=170 171 1 153 188 60 172 176 64
split_gain=215.382 58.8815 35.4944 31.8926 25.876 23.3632 20.8072 18.3452 18.0938
threshold=1.0000000180025095e-35 0.45083333333333359 344.50000000000006 1.0893750000000002 1.0000000180025095e-35 0.62633333333333363 25.115000000000006 1.0000000180025095e-35 109.57083333333351
decision_type=2 2 2 2 2 2 2 2 2
left_child=1 3 5 7 6 -3 -4 -1 -8
right_child=-2 2 4 -5 -6 -7 8 -9 -10
leaf_value=-0.014494299795088421 -0.011122091568136807 0.0089036974358480819 0.0095890502101152707 0.0024375248976885732 0.0092352748590763187 -0.0058082453918753075 -0.0056155760506280804 0.0003012133911730874 0.0036164313533411188
leaf_weight=30.146792635321617 130.34847894310951 14.424475967884062 41.017596542835236 36.265776127576828 161.95166863501072 42.890115574002266 28.500136896967888 11.606892883777617 83.216162666678429
leaf_count=123 538 62 180 153 725 177 118 48 359
internal_value=0 0.00347572 0.00513227 -0.00442277 0.00645053 -0.00210566 0.00349772 -0.0103814 0.00126124
internal_weight=0 450.02 372 78.0195 314.686 57.3146 152.734 41.7537 111.716
internal_count=2483 1945 1621 324 1382 239 657 171 477
is_linear=0
shrinkage=0.01


Tree=49
num_leaves=10
num_cat=0
split_feature=189 185 171 19 171 172 172 17 122
split_gain=182.406 85.0109 64.4077 39.9719 32.7885 24.9422 21.8954 20.8696 41.0438
threshold=1.0000000180025095e-35 1.0000000180025095e-35 0.48125000000000001 6.495000000000001 0.87888888888888916 83.251250000000013 80.073333333333366 101.98 -0.13224999999999998
decision_type=2 2 2 2 2 2 2 2 2
left_child=2 5 -1 6 -3 -2 -4 8 -5
right_child=1 4 3 7 -6 -7 -8 -9 -10
leaf_value=-0.010653781515736571 0.011900780763725756 -0.010698115043848907 -0.003169150365533501 0.0061882386648600398 0.012227374624291368 0.0025850387998631124 -0.013594118054405031 0.0076527708689695653 -0.0058136299816757275
leaf_weight=109.0600433498621 149.07595524191856 31.297126218676567 58.051370546221733 50.470447182655334 7.7917113453149787 35.605390310287476 30.854843571782112 41.82469043135643 65.437179744243622
leaf_count=451 695 129 235 213 35 151 127 181 266
internal_value=0 0.00726913 -0.00425458 -0.00142495 -0.0061283 0.0101048 -0.00678713 0.00159746 -0.000587575
internal_weight=0 223.77 355.699 246.639 39.0888 184.681 88.9062 157.732 115.908
internal_count=2483 1010 1473 1022 164 846 362 660 479
is_linear=0
shrinkage=0.01


Tree=50
num_leaves=10
num_cat=0
split_feature=189 170 175 101 171 171 37 13 109
split_gain=190.25 94.3661 88.0771 29.0785 26.207 24.715 22.6637 18.6024 15.2197
threshold=1.0000000180025095e-35 1.0000000180025095e-35 1.0000000180025095e-35 0.84416666666666706 0.16111111111111101 1.2958333333333352 6.4183333333333357 0.39450000000000007 0.7527777777777781
decision_type=2 2 2 2 2 2 2 2 2
left_child=1 3 4 -1 -2 6 7 -5 -9
right_child=2 -3 -4 5 -6 -7 -8 8 -10
leaf_value=0.006276026086210619 -0.0098895624381455799 -0.01293213844370434 -0.010495307143539802 0.0026231742927059344 0.010555169872887009 0.0027300694996188215 -0.00013396234924606558 0.0017783973365193516 -0.011507306885385959
leaf_weight=43.05325536429882 6.4905758500099173 93.966045737266541 23.922523394227028 14.097662776708601 184.34199625253677 59.775351852178574 61.526031389832497 9.8530695885419828 69.042727753520012
leaf_count=183 27 392 98 59 849 247 255 40 279
internal_value=0 -0.00435514 0.00759236 -0.0012234 0.00985981 -0.00273009 -0.00484233 -0.00795747 -0.00984809
internal_weight=0 351.314 214.755 257.348 190.833 214.295 154.519 92.9935 78.8958
internal_count=2429 1455 974 1063 876 880 633 378 319
is_linear=0
shrinkage=0.01


Tree=51
num_leaves=10
num_cat=0
split_feature=189 170 175 96 146 171 171 1 170
split_gain=186.915 92.8404 86.5965 31.3736 33.6777 25.7767 20.1974 19.4823 12.944
threshold=1.0000000180025095e-35 1.0000000180025095e-35 1.0000000180025095e-35 1.8453571428571454 0.87366666666666659 0.16111111111111101 0.90916666666666657 1910.0000000000002 1.0000000180025095e-35
decision_type=2 2 2 2 2 2 2 2 2
left_child=1 3 5 4 -1 -2 -5 -6 -7
right_child=2 -3 -4 6 7 8 -8 -9 -10
leaf_value=0.002735416704833466 -0.0097848946231100173 -0.012836858848710591 -0.010405969964274087 -0.00079763412288543975 -0.007955825063424616 0.011304457161319999 0.0094152626906523762 0.0045883909082312432 0.0018689516815315202
leaf_weight=58.369727820158005 6.4943851083517066 93.718101918697357 23.886803179979324 40.354027271270752 107.32975018024445 167.77333563566208 37.2282924503088 13.995355442166327 15.918673694133757
leaf_count=245 27 392 98 169 433 785 159 57 64
internal_value=0 -0.00431554 0.00754053 -0.00121149 -0.00350603 0.00979455 0.00410308 -0.0065088 0.0104868
internal_weight=0 350.995 214.073 257.277 179.695 190.186 77.5823 121.325 183.692
internal_count=2429 1455 974 1063 735 876 328 490 849
is_linear=0
shrinkage=0.01


Tree=52
num_leaves=10
num_cat=0
split_feature=189 175 172 101 96 110 77 172 22
split_gain=183.681 85.1665 61.2332 29.0513 20.62 28.9793 19.35 18.5599 15.2948
threshold=1.0000000180025095e-35 1.0000000180025095e-35 60.190000000000005 0.96125000000000005 1.7590000000000001 1.1950000000000001 0.49266666666666653 78.006250000000009 0.49928571428571455
decision_type=2 2 2 2 2 2 2 2 2
left_child=2 7 4 -4 5 -1 -5 -2 -9
right_child=1 -3 3 6 -6 -7 -8 8 -10
leaf_value=-0.0055325033673959837 0.011370478275489988 -0.010317806816390589 -0.00140825507387809 0.00022503735783141682 0.0078276727167453635 0.0058314913080617248 -0.010844934965682281 -0.012765435480694141 0.0060251883151563939
leaf_weight=59.032325446605682 148.76013424992561 23.850184366106987 58.158682405948639 17.716658353805542 34.323276564478874 36.201538726687431 145.21677502989769 4.9282105714082709 35.789797469973564
leaf_count=239 702 98 243 74 146 153 600 20 154
internal_value=0 0.00749137 -0.00427663 -0.00747553 0.00118236 -0.00121267 -0.00964124 0.00973307 0.00375091
internal_weight=0 213.328 350.649 221.092 129.557 95.2339 162.933 189.478 40.718
internal_count=2429 974 1455 917 538 392 674 876 174
is_linear=0
shrinkage=0.01


Tree=53
num_leaves=10
num_cat=0
split_feature=189 170 175 96 146 171 171 1 170
split_gain=180.476 90.7081 83.7564 30.3868 32.6739 25.305 19.8269 19.1165 12.7495
threshold=1.0000000180025095e-35 1.0000000180025095e-35 1.0000000180025095e-35 1.8453571428571454 0.87366666666666659 0.16111111111111101 0.90916666666666657 1910.0000000000002 1.0000000180025095e-35
decision_type=2 2 2 2 2 2 2 2 2
left_child=1 3 5 4 -1 -2 -5 -6 -7
right_child=2 -3 -4 6 7 8 -8 -9 -10
leaf_value=0.0027208835909891659 -0.009733565960443568 -0.01268329873308799 -0.010230788118867533 -0.00078984844662670882 -0.0078197373475581266 0.011180253487446928 0.009336338844203259 0.0046075258210713519 0.0018133543777749651
leaf_weight=58.330757945775986 6.4892054647207251 93.290441185235977 23.812701642513275 40.349381566047668 107.3337040990591 166.37283764779568 37.127765208482742 13.991767063736914 15.921806320548056
leaf_count=245 27 392 98 169 433 785 159 57 64
internal_value=0 -0.0042366 0.00744216 -0.00117206 -0.00342957 0.00967137 0.00406271 -0.00638657 0.0103621
internal_weight=0 350.424 212.597 257.133 179.656 188.784 77.4771 121.325 182.295
internal_count=2429 1455 974 1063 735 876 328 490 849
is_linear=0
shrinkage=0.01


Tree=54
num_leaves=10
num_cat=0
split_feature=189 170 175 101 1 171 6 91 133
split_gain=177.363 89.2559 82.3778 27.788 25.3796 24.8994 23.4018 16.9811 17.3228
threshold=1.0000000180025095e-35 1.0000000180025095e-35 1.0000000180025095e-35 0.84416666666666706 282.50000000000006 0.16111111111111101 4233.2670000000007 -0.088999999999999982 -0.069444444444444434
decision_type=2 2 2 2 2 2 2 2 2
left_child=1 3 5 -1 -5 -2 -6 -8 -9
right_child=2 -3 -4 4 6 -7 7 8 -10
leaf_value=0.0061846365292874492 -0.0096313164091945055 -0.012591805278189965 -0.010144884891820341 -0.011580203028688285 0.0039590438504560699 0.010299138460673511 0.0009712479678134321 0.00065000373621262029 -0.0095498139852743108
leaf_weight=42.905167907476425 6.4924993664026251 93.029923990368843 23.774387702345848 27.612744212150574 58.086668133735657 181.57953074574471 48.586487710475922 23.664816215634346 56.177784979343414
leaf_count=183 27 392 98 112 241 849 201 99 227
internal_value=0 -0.00419858 0.007394 -0.00116077 -0.00263257 0.00961111 -0.00130792 -0.0036901 -0.00652666
internal_weight=0 350.064 211.846 257.034 214.129 188.072 186.516 128.429 79.8426
internal_count=2429 1455 974 1063 880 876 768 527 326
is_linear=0
shrinkage=0.01


Tree=55
num_leaves=10
num_cat=0
split_feature=170 189 185 7 171 96 171 72 152
split_gain=190.883 108.895 63.3614 37.3611 32.8877 20.5227 18.9487 21.8872 18.6664
threshold=1.0000000180025095e-35 1.0000000180025095e-35 1.0000000180025095e-35 0.013000000000000003 0.81166666666666665 2.3183333333333356 1.4807142857142852 6.9166666666666661 -0.84249999999999992
decision_type=2 2 2 2 2 2 2 2 2
left_child=1 3 -3 6 -4 -5 7 8 -1
right_child=-2 2 4 5 -6 -7 -8 -9 -10
leaf_value=0.0049352949869595607 -0.010876981894449547 0.011337450958580318 -0.013078277532624081 -0.0080480192366654095 0.010543604544959752 0.0038335885184383142 0.0078928082768724515 0.0074626165903858557 -0.0049981494795870857
leaf_weight=25.731335163116455 127.61620932817459 156.65294659137726 17.949714183807377 82.117746904492378 8.7753830105066282 17.664405420422554 39.028924942016602 29.533795416355133 71.436812087893486
leaf_count=108 534 746 75 335 40 75 164 126 291
internal_value=0 0.00298299 0.00890956 -0.00111023 -0.00532186 -0.00594462 0.00180043 -7.62478e-05 -0.00236765
internal_weight=0 448.891 183.378 265.513 26.7251 99.7822 165.731 126.702 97.1681
internal_count=2494 1960 861 1099 115 410 689 525 399
is_linear=0
shrinkage=0.01


Tree=56
num_leaves=10
num_cat=0
split_feature=170 189 175 7 96 171 72 171 22
split_gain=187.486 107.239 66.4984 36.6174 20.1044 18.6053 21.48 18.3469 24.964
threshold=1.0000000180025095e-35 1.0000000180025095e-35 1.0000000180025095e-35 0.013000000000000003 2.3183333333333356 1.4807142857142852 6.9166666666666661 0.44888888888888906 0.53775000000000006
decision_type=2 2 2 2 2 2 2 2 2
left_child=1 3 7 5 -5 6 -1 8 -3
right_child=-2 2 -4 4 -6 -7 -8 -9 -10
leaf_value=-0.0023437822687251276 -0.010791832040209384 -0.014345236361164512 -0.011317652554201923 -0.0079652866176780929 0.0037986464193790676 0.0078260237281227892 0.0074011189272065016 0.011917740883458662 0.0091991175234751553
leaf_weight=97.175531417131424 127.33829113841057 6.506245136260989 14.99727353453636 82.140849873423576 17.648703172802925 38.968667253851891 29.481669381260872 146.50521597266197 14.629246607422827
leaf_count=399 534 27 62 335 75 164 126 707 65
internal_value=0 0.00295879 0.00885643 -0.0010995 -0.00588473 0.00178359 -7.54868e-05 0.0106612 0.00195134
internal_weight=0 448.053 182.638 265.415 99.7896 165.626 126.657 167.641 21.1355
internal_count=2494 1960 861 1099 410 689 525 799 92
is_linear=0
shrinkage=0.01


Tree=57
num_leaves=10
num_cat=0
split_feature=170 189 185 7 171 96 171 72 152
split_gain=184.159 105.638 61.6707 35.889 31.9453 19.7115 18.269 21.0797 18.289
threshold=1.0000000180025095e-35 1.0000000180025095e-35 1.0000000180025095e-35 0.013000000000000003 0.81166666666666665 1.8933333333333351 1.4807142857142852 6.9166666666666661 -0.84249999999999992
decision_type=2 2 2 2 2 2 2 2 2
left_child=1 3 -3 6 -4 -5 7 8 -1
right_child=-2 2 4 5 -6 -7 -8 -9 -10
leaf_value=0.0049115253546522485 -0.01070775982884685 0.011217006982877397 -0.012901582369575454 -0.0083364792446935908 0.010442767881233106 0.0020410195918080416 0.0077599262395258717 0.0073402080623977085 -0.004921814001829213
leaf_weight=25.720124587416649 127.05612573027611 155.24071401357651 17.902144804596904 75.648559868335724 8.7159475237131101 24.145719334483147 38.907893911004066 29.429315268993378 71.478822737932205
leaf_count=108 534 746 75 308 40 102 164 126 291
internal_value=0 0.00293497 0.00880567 -0.00108884 -0.0052576 -0.00582559 0.00176674 -7.47316e-05 -0.00231978
internal_weight=0 447.189 181.859 265.33 26.6181 99.7943 165.536 126.628 97.1989
internal_count=2494 1960 861 1099 115 410 689 525 399
is_linear=0
shrinkage=0.01


Tree=58
num_leaves=10
num_cat=0
split_feature=189 185 171 19 171 7 172 172 171
split_gain=153.675 84.9933 66.2359 37.1483 31.7979 24.9061 22.8463 22.5467 21.4234
threshold=1.0000000180025095e-35 1.0000000180025095e-35 0.48125000000000001 6.495000000000001 0.81166666666666665 0.028000000000000004 74.240000000000023 54.685000000000009 1.7016666666666651
decision_type=2 2 2 2 2 2 2 2 2
left_child=2 6 7 8 -3 -5 -2 -1 -4
right_child=1 4 3 5 -6 -7 -8 -9 -10
leaf_value=0.0012293036010054413 0.011597347589549946 -0.011979387158643204 -0.008549971992175177 0.0044255801899544134 0.0095957171665703115 -0.0037167563538320525 0.002995058996502238 -0.012352507262650241 0.0053929711170018838
leaf_weight=14.041706711053846 134.26633338630199 28.999385058879852 74.907799273729324 106.5666422098875 8.9361484050750715 58.020618245005608 40.092599838972092 94.354093536734581 12.9207526743412
leaf_count=58 652 121 307 451 41 241 174 396 53
internal_value=0 0.00666794 -0.0040549 -0.00124718 -0.00689712 0.00155523 0.00961931 -0.0105931 -0.00649878
internal_weight=0 212.294 360.812 252.416 37.9355 164.587 174.359 108.396 87.8286
internal_count=2494 988 1506 1052 162 692 826 454 360
is_linear=0
shrinkage=0.01


Tree=59
num_leaves=10
num_cat=0
split_feature=170 189 175 7 96 171 22 171 29
split_gain=178.773 102.313 64.0139 34.6681 19.3363 17.9863 24.1188 17.7234 20.5728
threshold=1.0000000180025095e-35 1.0000000180025095e-35 1.0000000180025095e-35 0.013000000000000003 2.3183333333333356 0.44888888888888906 0.53775000000000006 1.4807142857142852 0.11805555555555551
decision_type=2 2 2 2 2 2 2 2 2
left_child=1 3 5 7 -5 6 -3 8 -1
right_child=-2 2 -4 4 -6 -7 -8 -9 -10
leaf_value=0.004987472978540128 -0.010572120345262328 -0.014152509002764579 -0.011132383763037297 -0.0077502002618414665 0.0037885422720829545 0.011751966263464912 0.0090236755900463522 0.0076646513685169277 -0.0032810854549211428
leaf_weight=49.293550357222557 126.52947895228863 6.503431215882304 14.919791951775549 82.153447657823563 17.641709104180336 144.47867830097675 14.505483672022818 38.813004598021507 77.243023604154587
leaf_count=208 534 27 62 335 75 707 65 164 317
internal_value=0 0.00289685 0.00870623 -0.00105592 -0.00571039 0.0104948 0.00184935 0.00175324 -5.99883e-05
internal_weight=0 445.552 180.407 265.145 99.7952 165.488 21.0089 165.35 126.537
internal_count=2494 1960 861 1099 410 799 92 689 525
is_linear=0
shrinkage=0.01


Tree=60
num_leaves=10
num_cat=0
split_feature=170 189 185 6 149 36 13 6 189
split_gain=158.751 100.836 50.7331 35.07 31.3173 28.1557 28.5753 17.7865 16.0435
threshold=1.0000000180025095e-35 1.0000000180025095e-35 1.0000000180025095e-35 3210.9845 -1.0000000180025095e-35 0.071732142857142869 0.39450000000000007 128337.06050000001 1.0000000180025095e-35
decision_type=2 2 2 2 2 2 2 2 2
left_child=1 3 -3 -1 -4 -5 -7 -8 -2
right_child=8 2 4 5 -6 6 7 -9 -10
leaf_value=0.0045039972173413932 -0.011775952973402067 0.010706041968732738 -0.012440251183653477 0.0018559012485007767 0.010310643255117755 0.0031092164626568101 -0.010428627648784425 0.0039394778394164663 -0.0036523933571587725
leaf_weight=75.565385296940804 97.915165483951569 154.9506047219038 16.921986639499668 62.018648013472557 9.4177373945713025 24.74366669356823 84.636184811592102 9.5921860188245756 32.341129869222641
leaf_count=316 419 754 71 261 44 105 343 39 132
internal_value=0 0.00281612 0.00852498 -0.00121794 -0.0043057 -0.00360691 -0.00645461 -0.00896599 -0.00975897
internal_weight=0 437.846 181.29 256.556 26.3397 180.991 118.972 94.2284 130.256
internal_count=2484 1933 869 1064 115 748 487 382 551
is_linear=0
shrinkage=0.01


Tree=61
num_leaves=10
num_cat=0
split_feature=170 189 175 6 36 13 6 189 0
split_gain=155.952 99.3034 61.0678 34.3865 27.5975 28.0001 17.4287 15.8393 20.4636
threshold=1.0000000180025095e-35 1.0000000180025095e-35 1.0000000180025095e-35 3210.9845 0.071732142857142869 0.39450000000000007 128337.06050000001 1.0000000180025095e-35 68.500000000000014
decision_type=2 2 2 2 2 2 2 2 2
left_child=1 3 -3 -1 -5 -6 -7 -2 -9
right_child=7 2 -4 4 5 6 -8 8 -10
leaf_value=0.0044623345083805261 -0.011693607845764325 0.01029132251476441 -0.010146216360852903 0.0018379297023778456 0.003080269930406354 -0.010323552718497773 0.0039014401196062884 0.010952261003819914 -0.007962319014783734
leaf_weight=75.508481159806252 97.620108798146248 164.49677000939846 16.046441987156868 61.998922541737556 24.726516753435135 84.642614275217056 9.5888665318489057 7.4256170094013205 24.900894522666931
leaf_count=316 419 802 67 261 105 343 39 30 102
internal_value=0 0.00279339 0.00847486 -0.00120618 -0.0035715 -0.00639081 -0.00887604 -0.00968454 -0.00361751
internal_weight=0 437.009 180.543 256.465 180.957 118.958 94.2315 129.947 32.3265
internal_count=2484 1933 869 1064 748 487 382 551 132
is_linear=0
shrinkage=0.01


Tree=62
num_leaves=10
num_cat=0
split_feature=170 189 175 6 36 13 6 189 0
split_gain=153.213 97.7883 60.1001 33.7169 27.0515 27.4382 17.0792 15.6332 20.0641
threshold=1.0000000180025095e-35 1.0000000180025095e-35 1.0000000180025095e-35 3210.9845 0.071732142857142869 0.39450000000000007 128337.06050000001 1.0000000180025095e-35 68.500000000000014
decision_type=2 2 2 2 2 2 2 2 2
left_child=1 3 -3 -1 -5 -6 -7 -2 -9
right_child=7 2 -4 4 5 6 -8 8 -10
leaf_value=0.0044210674377619446 -0.011612337324445674 0.010232463991272868 -0.010063795647384305 0.0018201294314900526 0.0030515867709677105 -0.010220073682747311 0.0038637852790028323 0.010834136712606504 -0.0078916249717177096
leaf_weight=75.451444685459137 97.321781069040298 163.7920881062746 16.016232445836067 61.979298144578934 24.709428831934929 84.644617155194283 9.585509389638899 7.4314827919006339 24.872860252857208
leaf_count=316 419 802 67 261 105 343 39 30 102
internal_value=0 0.0027708 0.0084246 -0.00119456 -0.00353653 -0.00632788 -0.0087874 -0.00961154 -0.00358384
internal_weight=0 436.179 179.808 256.37 180.919 118.94 94.2301 129.626 32.3043
internal_count=2484 1933 869 1064 748 487 382 551 132
is_linear=0
shrinkage=0.01


Tree=63
num_leaves=10
num_cat=0
split_feature=189 175 172 19 172 62 101 151 100
split_gain=147.984 67.1092 54.4667 31.474 26.178 24.4898 21.0843 15.8049 16.6666
threshold=1.0000000180025095e-35 1.0000000180025095e-35 60.190000000000005 6.495000000000001 82.74666666666667 19.152500000000003 1.3945000000000001 0.14000000000000004 0.18357142857142852
decision_type=2 2 2 2 2 2 2 2 2
left_child=2 4 5 -4 -2 -1 -6 -7 -9
right_child=1 -3 3 -5 6 7 -8 8 -10
leaf_value=0.0072692108339024236 0.010620881557330951 -0.0084022799176392358 -0.011398221360378729 -0.0037665637016414339 0.0061057954237052686 0.0023476901170269952 -0.010080468153528364 0.0038851869538501851 -0.0096365446351634864
leaf_weight=42.627296477556229 146.04215037822723 26.273709237575531 95.562843322753906 124.36960169672966 27.694462046027184 44.354719594120979 11.343958601355551 12.466792389750479 33.909998804330826
leaf_count=183 722 110 403 524 122 185 47 51 137
internal_value=0 0.00655336 -0.0040251 -0.0070826 0.00867644 0.00101724 0.00140232 -0.00192004 -0.0060017
internal_weight=0 211.354 353.291 219.932 185.081 133.359 39.0384 90.7315 46.3768
internal_count=2484 1001 1483 927 891 556 169 373 188
is_linear=0
shrinkage=0.01


Tree=64
num_leaves=10
num_cat=0
split_feature=170 189 185 6 149 94 161 105 189
split_gain=148.782 94.581 48.6051 33.024 29.9996 24.5333 24.0261 17.5815 15.2976
threshold=1.0000000180025095e-35 1.0000000180025095e-35 1.0000000180025095e-35 3210.9845 -1.0000000180025095e-35 1.1168333333333351 27.898750000000003 0.74722222222222212 1.0000000180025095e-35
decision_type=2 2 2 2 2 2 2 2 2
left_child=1 3 -3 -1 -4 -5 7 -7 -2
right_child=8 2 4 5 -6 6 -8 -9 -10
leaf_value=0.0044028575638196529 -0.011479597562457082 0.010487426510682366 -0.012258495101444783 0.001733996369265776 0.010142170942839097 0.0018774674089392276 0.0052523590052361872 -0.0095726164359597517 -0.0035282581097181606
leaf_weight=75.391723453998566 96.810008123517036 152.26690639555454 16.799950435757641 60.270370781421661 9.2814867794513685 15.803611904382704 16.195561766624451 88.550960704684258 32.258224159479141
leaf_count=316 419 754 71 255 44 65 69 359 132
internal_value=0 0.00273518 0.00832685 -0.00115717 -0.00428687 -0.00347538 -0.00607987 -0.0078386 -0.00949231
internal_weight=0 434.561 178.348 256.212 26.0814 180.821 120.55 104.355 129.068
internal_count=2484 1933 869 1064 115 748 493 424 551
is_linear=0
shrinkage=0.01


Tree=65
num_leaves=10
num_cat=0
split_feature=170 189 185 6 171 6 97 89 182
split_gain=146.817 92.1096 60.1388 37.0684 26.9476 22.4185 23.1129 27.0686 16.0624
threshold=1.0000000180025095e-35 1.0000000180025095e-35 1.0000000180025095e-35 3956.8610000000003 0.93875000000000008 125482.39500000002 1.3437500000000002 -0.16224999999999998 1.0000000180025095e-35
decision_type=2 2 2 2 2 2 2 2 2
left_child=1 3 -3 -1 -4 6 7 -5 -2
right_child=8 2 4 5 -6 -7 -8 -9 -10
leaf_value=0.0047602067009211418 -0.01031699550423556 0.01065971297569456 -0.011205169970898375 0.0025211776590011036 0.012991825660012479 0.0069893605100978459 0.0030184058024920386 -0.0087374387404939337 0.0084419770509906334
leaf_weight=77.511904984712601 118.38902474939823 153.44245707988739 20.300649255514148 26.70700415968895 5.9519587457180014 18.373977616429329 31.705624118447304 106.5587503015995 4.7475421726703635
leaf_count=325 507 764 87 113 29 77 133 435 20
internal_value=0 0.00275764 0.00826682 -0.00103743 -0.00571926 -0.00348847 -0.00465546 -0.00648117 -0.00959374
internal_weight=0 440.552 179.695 260.857 26.2526 183.345 164.971 133.266 123.137
internal_count=2490 1963 880 1083 116 758 681 548 527
is_linear=0
shrinkage=0.01


Tree=66
num_leaves=10
num_cat=0
split_feature=170 189 175 7 171 171 185 1 101
split_gain=144.229 90.729 66.2362 35.6603 23.6061 17.6639 22.3701 16.7519 16.6183
threshold=1.0000000180025095e-35 1.0000000180025095e-35 1.0000000180025095e-35 0.028000000000000004 0.5485000000000001 0.44888888888888906 1.0000000180025095e-35 1910.0000000000002 0.94550000000000012
decision_type=2 2 2 2 2 2 2 2 2
left_child=1 3 5 4 8 6 -3 -6 -1
right_child=-2 2 -4 -5 7 -7 -8 -9 -10
leaf_value=0.0050165043545561542 -0.0095205453826384661 0.0072080340050139618 -0.011958701794691018 -0.0060543511444233868 0.0022985929699227579 0.011308952889082497 -0.01716176300048677 0.012708641162225445 -0.0093760613533155675
leaf_weight=11.344754993915556 122.84409114718437 16.009904429316524 14.912590011954306 91.564642623066902 112.53273858129978 143.08648411929607 4.9255969971418372 17.919701561331749 27.395390748977661
leaf_count=47 527 74 63 376 472 723 20 76 112
internal_value=0 0.0027355 0.00821916 -0.00102744 0.00169305 0.0100537 0.00147443 0.00372858 -0.00516131
internal_weight=0 439.692 178.935 260.757 169.193 164.022 20.9355 130.452 38.7401
internal_count=2490 1963 880 1083 707 817 94 548 159
is_linear=0
shrinkage=0.01


Tree=67
num_leaves=10
num_cat=0
split_feature=170 171 6 3 24 188 6 30 182
split_gain=141.688 66.1716 35.9536 26.7957 22.6056 21.5888 28.8093 17.0023 15.8253
threshold=1.0000000180025095e-35 0.44888888888888906 17687.715000000004 3.5000000000000004 0.13812500000000003 1.0000000180025095e-35 124437.40450000002 0.61125000000000018 1.0000000180025095e-35
decision_type=2 2 2 2 2 2 2 2 2
left_child=1 4 -3 -4 -1 6 7 -5 -2
right_child=8 2 3 5 -6 -7 -8 -9 -10
leaf_value=-0.0091508243917186871 -0.010169085563495162 0.0079262684644870966 -0.020973782916365723 0.0077733615307383147 0.0033102966326817689 0.0060896601956121101 0.011483286145339406 -0.0044847556842590279 0.0084545615344451125
leaf_weight=55.002905696630478 117.80714611709118 164.96593636274338 5.1173835694789878 13.133253157138823 19.798143863677979 82.421863213181496 16.624300882220268 81.735697671771049 4.7465313374996176
leaf_count=231 507 766 21 60 86 374 73 352 20
internal_value=0 0.00271376 0.00447414 0.00161289 -0.00585265 0.00220894 -0.000659892 -0.00278779 -0.00944779
internal_weight=0 438.799 363.998 199.032 74.801 193.915 111.493 94.869 122.554
internal_count=2490 1963 1646 880 317 859 485 412 527
is_linear=0
shrinkage=0.01


Tree=68
num_leaves=10
num_cat=0
split_feature=170 189 175 6 36 6 151 27 171
split_gain=139.178 89.3436 64.7496 35.5351 22.1393 24.8575 18.3192 19.0688 17.2462
threshold=1.0000000180025095e-35 1.0000000180025095e-35 1.0000000180025095e-35 3956.8610000000003 0.065535714285714322 125482.39500000002 1.8575000000000002 1.0000000180025095e-35 0.44888888888888906
decision_type=2 2 2 2 2 2 2 2 2
left_child=1 3 8 -1 -5 6 7 -6 -3
right_child=-2 2 -4 4 5 -7 -8 -9 -10
leaf_value=0.004645964581273321 -0.0093762040533396721 0.0015005302314857511 -0.011831829089278743 0.0032025478590012872 -0.0024346824482100998 0.0074345755803056955 0.0027145209633196703 -0.011127540431136536 0.01122788628974695
leaf_weight=77.301065012812614 122.25612065196037 20.911070868372917 14.85204631090164 39.392751514911652 38.498067602515221 13.93187056481838 18.089952766895294 73.245353475213051 141.97299858927727
leaf_count=325 527 94 63 167 160 58 76 297 723
internal_value=0 0.00269039 0.00815652 -0.00103968 -0.00343928 -0.00525919 -0.0066213 -0.00813266 0.00997909
internal_weight=0 438.195 177.736 260.459 183.158 143.765 129.833 111.743 162.884
internal_count=2490 1963 880 1083 758 591 533 457 817
is_linear=0
shrinkage=0.01


Tree=69
num_leaves=10
num_cat=0
split_feature=170 189 175 89 69 171 1 72 171
split_gain=136.732 88.0198 63.734 29.0765 31.8629 23.4746 21.1746 19.6671 17.0881
threshold=1.0000000180025095e-35 1.0000000180025095e-35 1.0000000180025095e-35 -0.19874999999999998 1.1166666666666651 0.32619047619047653 1752.0000000000002 6.9475000000000007 0.44888888888888906
decision_type=2 2 2 2 2 2 2 2 2
left_child=1 3 8 -1 5 -5 7 -7 -3
right_child=-2 2 -4 4 -6 6 -8 -9 -10
leaf_value=0.0068820781728980117 -0.0093049731871629616 0.0014861647353437977 -0.011744127851798434 -0.014587727138053988 0.0070499514846919086 -0.005132676841483174 0.0075653841207220067 0.0071930034030849464 0.011173891639835745
leaf_weight=39.416724324226379 121.96156886219978 20.902112737298012 14.813520237803457 18.741849392652512 30.487554550170898 139.73860064148903 17.675423189997673 14.267214506864546 141.23615263402462
leaf_count=170 527 94 63 77 134 569 73 60 723
internal_value=0 0.00266915 0.00811096 -0.00102979 -0.0024415 -0.00396112 -0.00280105 -0.00399082 0.00992499
internal_weight=0 437.279 176.952 260.327 220.911 190.423 171.681 154.006 162.138
internal_count=2490 1963 880 1083 913 779 702 629 817
is_linear=0
shrinkage=0.01


Tree=70
num_leaves=10
num_cat=0
split_feature=170 189 175 96 158 171 185 85 7
split_gain=147.208 83.3604 55.6463 30.5817 38.3922 20.3159 19.781 19.4334 19.1562
threshold=1.0000000180025095e-35 1.0000000180025095e-35 1.0000000180025095e-35 1.7918750000000003 1.1399285714285703 0.44888888888888906 1.0000000180025095e-35 0.14875000000000002 0.011500000000000002
decision_type=2 2 2 2 2 2 2 2 2
left_child=1 3 5 4 7 6 -3 8 -1
right_child=-2 2 -4 -5 -6 -7 -8 -9 -10
leaf_value=-0.0037839387024814286 -0.0095115529380009091 0.0059293340408250773 -0.010464146681151911 0.0043200002375730776 0.0046114018848526827 0.011173345992993848 -0.016810337568010664 0.0083663393552254259 -0.011872354160729825
leaf_weight=75.636811271309853 125.55250915884972 17.095092400908474 14.83843296766281 79.762862265110016 47.305884674191475 139.97218884527683 4.9282381683588019 8.9235304892063123 47.775913685560226
leaf_count=307 544 79 63 341 202 721 20 37 194
internal_value=0 0.00277638 0.00807087 -0.000832822 -0.00312073 0.00976863 0.000840798 -0.00588471 -0.00691515
internal_weight=0 436.239 176.834 259.405 179.642 161.996 22.0233 132.336 123.413
internal_count=2508 1964 883 1081 740 820 99 538 501
is_linear=0
shrinkage=0.01


Tree=71
num_leaves=10
num_cat=0
split_feature=170 171 104 1 188 15 13 171 172
split_gain=144.64 47.5189 34.228 27.4502 22.7145 19.0942 18.2374 15.981 15.6408
threshold=1.0000000180025095e-35 0.90916666666666657 22.074166666666653 282.50000000000006 1.0000000180025095e-35 0.82611111111111113 0.44750000000000006 0.13607142857142854 59.287500000000009
decision_type=2 2 2 2 2 2 2 2 2
left_child=1 2 3 -1 5 6 -3 -5 -4
right_child=-2 4 8 7 -6 -7 -8 -9 -10
leaf_value=-0.0088400832463853499 -0.0094404571310735385 0.0083179494146798615 0.0014351694952338984 -0.012180185434828517 0.0092465870026291006 0.0097345932574277646 -0.0022142509717290736 0.0039789281764925858 -0.011237279332606978
