tree
version=v4
num_class=1
num_tree_per_iteration=1
label_index=0
max_feature_idx=194
objective=binary sigmoid:1
feature_names=start protein_len relative_pos closest_distance Degree Closeness Betweenness Hub_Score gene_age g_start ponp3_score aaindex_ANDN920101 aaindex_ARGP820101 aaindex_ARGP820102 aaindex_BEGF750101 aaindex_BEGF750102 aaindex_BHAR880101 aaindex_BIGC670101 aaindex_BUNA790101 aaindex_BUNA790103 aaindex_BURA740101 aaindex_BURA740102 aaindex_CHAM810101 aaindex_CHAM820102 aaindex_CHAM830102 aaindex_CHAM830103 aaindex_CHAM830104 aaindex_CHAM830105 aaindex_CHAM830107 aaindex_CHAM830108 aaindex_CHOP780204 aaindex_CHOP780205 aaindex_CHOP780206 aaindex_CHOP780207 aaindex_CHOP780213 aaindex_CHOP780214 aaindex_CHOP780215 aaindex_DAYM780101 aaindex_DAYM780201 aaindex_EISD860102 aaindex_FASG760102 aaindex_FASG760103 aaindex_FASG760104 aaindex_FASG760105 aaindex_FAUJ880101 aaindex_FAUJ880105 aaindex_FAUJ880107 aaindex_FAUJ880108 aaindex_FAUJ880111 aaindex_FAUJ880112 aaindex_FAUJ880113 aaindex_FINA910101 aaindex_FINA910102 aaindex_FINA910103 aaindex_FINA910104 aaindex_GEIM800102 aaindex_GEIM800103 aaindex_HUTJ700101 aaindex_ISOY800106 aaindex_ISOY800107 aaindex_ISOY800108 aaindex_KARP850103 aaindex_KHAG800101 aaindex_KLEP840101 aaindex_LEVM760103 aaindex_MAXF760103 aaindex_MAXF760105 aaindex_MAXF760106 aaindex_NAKH900103 aaindex_NAKH900104 aaindex_NAKH900109 aaindex_NAKH900113 aaindex_NAKH920103 aaindex_OOBM850102 aaindex_OOBM850103 aaindex_OOBM850105 aaindex_PALJ810111 aaindex_PALJ810113 aaindex_PRAM820101 aaindex_QIAN880101 aaindex_QIAN880102 aaindex_QIAN880103 aaindex_QIAN880114 aaindex_QIAN880115 aaindex_QIAN880117 aaindex_QIAN880123 aaindex_QIAN880124 aaindex_QIAN880125 aaindex_QIAN880127 aaindex_QIAN880128 aaindex_QIAN880129 aaindex_QIAN880137 aaindex_QIAN880138 aaindex_QIAN880139 aaindex_RACS820101 aaindex_RACS820102 aaindex_RACS820103 aaindex_RACS820105 aaindex_RACS820106 aaindex_RACS820107 aaindex_RACS820109 aaindex_RACS820110 aaindex_RACS820112 aaindex_RACS820113 aaindex_RACS820114 aaindex_RICJ880101 aaindex_RICJ880104 aaindex_RICJ880105 aaindex_RICJ880106 aaindex_RICJ880108 aaindex_RICJ880109 aaindex_RICJ880110 aaindex_RICJ880113 aaindex_RICJ880114 aaindex_RICJ880115 aaindex_RICJ880116 aaindex_RICJ880117 aaindex_ROBB760107 aaindex_ROBB760109 aaindex_ROBB760111 aaindex_ROSM880103 aaindex_SNEP660101 aaindex_SNEP660103 aaindex_SNEP660104 aaindex_SUEM840102 aaindex_TANS770102 aaindex_TANS770106 aaindex_TANS770108 aaindex_VASM830101 aaindex_VASM830102 aaindex_VASM830103 aaindex_VELV850101 aaindex_WERD780102 aaindex_WERD780103 aaindex_WOLS870103 aaindex_YUTK870102 aaindex_YUTK870103 aaindex_AURR980101 aaindex_AURR980102 aaindex_AURR980103 aaindex_AURR980104 aaindex_AURR980106 aaindex_AURR980107 aaindex_AURR980116 aaindex_AURR980117 aaindex_AURR980118 aaindex_AURR980119 aaindex_AURR980120 aaindex_KUMS000101 aaindex_NADH010107 aaindex_FUKS010101 aaindex_MITS020101 aaindex_WILM950103 aaindex_WILM950104 aaindex_SUYM030101 aaindex_GEOR030101 aaindex_GEOR030103 aaindex_GEOR030104 aaindex_GEOR030105 aaindex_DIGM050101 aaindex_KARS160118 aaindex_KARS160119 aaindex_KARS160120 aaindex_KARS160122 W_U Alphahelix Beta-sheet B_Beta T/C G_helix vlow_conf Conservation Accessibility p_idr p_tmp p_repeat p_domain p_swissport_CARBOHYD p_swissport_MOD_RES p_swissport_DISULFID p_swissport_BINDING p_swissport_ACT_SITE p_swissport_SIGNAL p_swissport_CROSSLNK p_swissport_INTRAMEM p_palindrome g_exon Housekeeping Essential Haploinsufficient Redundancy Pseudogene Duplicate up5seq_bitScore down5seq_bitScore
feature_infos=[1:4694] [52:4967] [0.0002399232245681:1] [0:2128] [2:608] [0.125:1] [0:9520239.1380000003] [0:0.86599999999999999] [3:4290] [48872:247896053] [0.154076923076923:0.49003764581124098] [3.9500000000000002:4.7599999999999998] [0:2.6499999999999999] [0.050000000000000003:3.23] [0.059999999999999998:1] [0.55000000000000004:0.97999999999999998] [0.29499999999999998:0.54400000000000004] [36.299999999999997:135.40000000000001] [0:8.7469999999999999] [0:9.4000000000000004] [0.12:0.53800000000000003] [0.20000000000000001:0.53300000000000003] [0:1.02] [-2.2400000000000002:4.9100000000000001] [-0.25800000000000001:0.51300000000000001] [0:2] [0:2] [0:1.5] [0:1] [0:1] [0.44:2.4399999999999999] [0:1.8300000000000001] [0.34000000000000002:1.55] [0.16:1.8600000000000001] [0.012999999999999999:0.30099999999999999] [0.012999999999999999:0.191] [0.052999999999999999:0.16700000000000001] [1.3:8.5999999999999996] [18:134] [0:10] [178:344] [-86.200000000000003:14.6] [8.3499999999999996:10.640000000000001] [1.8200000000000001:2.4300000000000002] [0:4.1900000000000004] [1:1.8999999999999999] [0:17.800000000000001] [-0.01:0.14999999999999999] [0:1] [0:1] [0:5.6900000000000004] [0.59999999999999998:3.2000000000000002] [0.69999999999999996:13] [0.69999999999999996:1.7] [0.10000000000000001:1.7] [0.81999999999999995:1.3200000000000001] [0.20000000000000001:1.8600000000000001] [23.710000000000001:69.319999999999993] [0.27000000000000002:1.78] [0:2.7799999999999998] [0.39000000000000001:3.0299999999999998] [0.80300000000000005:1.0569999999999999] [-3.6000000000000001:133] [-1:1] [0:122] [0.32000000000000001:3.1400000000000001] [0:3.8399999999999999] [0.35999999999999999:1.95] [1.03:15.359999999999999] [-1.3600000000000001:2.04] [1.0700000000000001:10.94] [0.37:3.1200000000000001] [1.6000000000000001:8.1099999999999994] [-4.6500000000000004:3.3199999999999998] [-2.21:3.2799999999999998] [-0.78000000000000003:10.68] [0.54000000000000004:1.6699999999999999] [0:2.6400000000000001] [0.19500000000000001:0.39100000000000001] [-0.25:0.26000000000000001] [-0.37:0.26000000000000001] [-0.42999999999999999:0.64000000000000001] [-0.41999999999999998:0.40999999999999998] [-0.56999999999999995:0.44] [-0.64000000000000001:0.46000000000000002] [-0.57999999999999996:0.46999999999999997] [-0.46999999999999997:0.45000000000000001] [-0.47999999999999998:0.40999999999999998] [-0.41999999999999998:0.33000000000000002] [-0.38:0.45000000000000001] [-0.42999999999999999:0.33000000000000002] [-0.44:0.77000000000000002] [-0.35999999999999999:0.78000000000000003] [-0.45000000000000001:0.47999999999999998] [0.67000000000000004:2.02] [0.66000000000000003:1.5800000000000001] [0:2.8599999999999999] [0.69999999999999996:1.96] [0.29999999999999999:3.0899999999999999] [0:2.98] [0:6.4900000000000002] [0.40000000000000002:2.73] [0:2.3199999999999998] [10.890000000000001:38.140000000000001] [13.59:52.630000000000003] [0.29999999999999999:1.8999999999999999] [0.29999999999999999:2.6000000000000001] [0.29999999999999999:2.6000000000000001] [0.40000000000000002:3.2999999999999998] [0.20000000000000001:1.8999999999999999] [0.29999999999999999:1.8] [0:2.7000000000000002] [0.20000000000000001:2.1000000000000001] [0:3.3999999999999999] [0:3.8999999999999999] [0.10000000000000001:1.8999999999999999] [0:2.7000000000000002] [-3.7000000000000002:7.4000000000000004] [-4.2999999999999998:6.5] [-6:6.5] [0:1.3] [0.16:0.28100000000000003] [-0.28499999999999998:0.49299999999999999] [-0.371:0.46999999999999997] [0.10000000000000001:77] [0:2.1680000000000001] [0.17799999999999999:1.7250000000000001] [0:3.379] [0.01:0.29599999999999999] [0.059999999999999998:0.78500000000000003] [0.049000000000000002:0.73699999999999999] [0:0.1263] [-0.79000000000000004:1.03] [-0.37:1.1799999999999999] [-3.4399999999999999:4.1299999999999999] [0:12.199999999999999] [0:18.620000000000001] [0.59999999999999998:1.4099999999999999] [0.40999999999999998:1.3100000000000001] [0.59999999999999998:1.4299999999999999] [0.57999999999999996:1.72] [0.26000000000000001:2.2999999999999998] [0.52000000000000002:2.0699999999999998] [0.10000000000000001:1.55] [0.44:2.7400000000000002] [0.67000000000000004:1.3999999999999999] [0.26000000000000001:2.0099999999999998] [0.085999999999999993:1.7] [0.59999999999999998:9.4000000000000004] [-132:329] [0.28999999999999998:16.559999999999999] [0:6.9299999999999997] [-3.2799999999999998:9.3000000000000007] [-3:7.2599999999999998] [-0.47799999999999998:0.56399999999999995] [0.77800000000000002:1.2989999999999999] [0.68559999999999999:1.266] [0.5:1.3320000000000001] [0.47799999999999998:1.369] [0.53100000000000003:1.361] [3.5:9.3300000000000001] [7:31.344000000000001] [-4.2270000000000003:0.21099999999999999] [0:12] [0:23.5] [0:1] [0:1] [0:1] [0:1] [0:1] [0:1] [0:4.2599999999999998] [0:100] [0:1] [0:1] [0:1] [0:1] none [0:1] [0:1] [0:1] none [0:1] none none [0:1] [0:1] [0:1] [0:1] [0:1] [0:1] [0:1] [0:1] [0.0021028582569326999:0.0133190685756532] [0.0030288402859689001:0.010659124554832301]
tree_sizes=1161 1194 1203 1194 1199 1214 1211 1213 1197 1215 1201 1204 1209 1201 1214 1214 1200 1211 1210 1218 1209 1202 1205 1204 1203 1208 1206 1208 1205 1200 1203 1209 1207 1206 1190 1184 1204 1203 1208 1198 1209 1212 1206 1205 1213 1207 1206 1204 1203 1204 1201 1197 1191 1211 1214 1213 1215 1215 1209 1206 1212 1212 1210 1211 1206 1223 1221 1202 1223 1215 1210 1208 1209 1206 1207 1197 1195 1200 1211 1206 1216 1223 1207 1224 1210 1210 1211 1212 1214 1207 1209 1208 1204 1215 1209 1213 1202 1208 1218 1215 1207 1212 1216 1209 1217 1199 1193 1208 1199 1190 1210 1218 1202 1213 1215 1213 1216 1213 1210 1210 1213 1206 1212 1206 1210 1198 1214 1214 1219 1223 1213 1221 1217 1206 1214 1217 1202 1212 1205 1212 1196 1203 1208 1210 1205 1207 1223 1205 1214 1212 1210 1214 1209 1215 1218 1213 1209 1208 1193 1209 1214 1215 1207 1206 1204 1212 1220 1215 1209 1213 1217 1208 1205 1207 1202 1208 1213 1209 1204 1219 1210 1210 1216 1207 1211 1209 1215 1211 1211 1208 1216 1207 1203 1212 1195 1211 1206 1201 1205 1217 1201 1206 1199 1208 1202 1216 1204 1214 1206 1208 1213 1204 1203 1206 1203 1211 1198 1212 1211 1197 1193 1213 1195 1206 1198 1213 1202 1209 1216 1203 1204 1208 1206 1209 1220 1200 1198 1206 1199 1200 1214 1196 1200 1204 1212 1205 1198 1209 1208 1208 1207 1205 1208 1200 1201 1206 1199 1197 1208 1198 1196 1205 1208 1210 1207 1202 1204 1197 1206 1195 1204 1208 1204 1207 1211 1214 1200 1214 1195 1203 1190 1187 1205 1194 1199 1199 1206 1205 1208 1201 1206 1211 1208 1200 1208 1204 1218 1202 1200 1212 1200 1202 1203 1203 1196 1205 1210 1205 1203 1204 1192 1214 1219 1200 1196 1214 1206 1210 1206 1195 1199 1209 1196 1200 1190 1201 1200 1203 1196 1212 1223 1205 1210 1217 1214 1208 1209 1206 1216 1201 1204 1199 1212 1215 1204 1221 1205 1210 1214 1212 1202 1212 1203 1210 1196 1208 1210 1206 1206 1212 1209 1205 1205 1202 1201 1193 1196 1204 1196 1203 1189 1190 1196 1198 1189 1198 1203 1204 1193 1200 1212 1208 1211 1211 1212 1201 1194 1199 1199 1202 1196 1214 1218 1201 1198 1213 1209 1207 1212 1211 1203 1202 1206 1193 1205 1206 1198 1210 1223 1212 1208 1208 1204 1192 1211 1203 1196 1202 1206 1204 1188 1194 1193 1204 1199 1208 1209 1193 1194 1203 1208 1209 1212 1199 1208 1213 1213 1216 1209 1216 1197 1198 1203 1201 1201 1202 1209 1208 1216 1202 1201 1205 1199 1206 1198 1199 1198 1202 1203 1191 1207 1203 1202 1210 1205 1210 1204 1212 1214 1207 1210 1206 1205 1206 1212 1191 1204 1201 1198 1197 1205 1212 1198 1200 1199 1210 1209 1214 1215 1210 1202 1208 1200 1200 1203 1204 1203 1209 1205 1200 1209 1208 1208 1201 1203 1195 1201 1204 1203 1208 1197 1196 1206 1208 1199 1180 1203 1208 1197 1209 1220 1210 1202 1208 1203 1203 1199 1195 1195 1196 1202 1205 1203 1205 1194 1207 1197 1198 1210 1201 1203 1211 1195 1204 1210 1187 1200 1201 1201 1199 1198 1206 1200 1205 1203 1212 1206 1220 1219 1207 1199 1209 1203 1201 1201 1193 1201 1198 1192 1191 1197 1203 1207 1194 1190 1203 1203 1206 1203 1206 1201 1209 1204 1190 1199 1194 1192 1208 1204 1201 1203 1202 1211 1204 1204 1193 1188 1203 1207 1210 1204 1205 1202 1204 1207 1205 1202 1201 1198 1204 1204 1208 1197 1210 1204 1195 1206 1198 1196 1200 1206 1200 1204 1201 1200 1206 1211 1196 1198 1205 1199 1210 1204 1190 1197 1212 1205 1213 1210 1211 1201 1208 1203 1208 1215 1191 1210 1199 1207 1201 1194 1202 1205 1198 1204 1199 1192 1218 1202 1200 1211 1195 1203 1202 1197 1187 1200 1201 1193 1189 1213 1204 1203 1199 1208 1199 1188 1208 1197 1200 1195 1193 1209 1199 1216 1208 1207 1201 1206 1197 1200 1203 1205 1227 1203 1194 1199 1202 1201 1190 1215 1209 1214 1196 1204 1212 1216 1212 1202 1218 1192 1204 1195 1192 1196 1210 1200 1210 1220 1211 1197 1199 1210 1208 1195 1200 1218 1204 1200 1204 1205 1199 1194 1198 1216 1198 1205 1202 1217 1209 1209 1209 1216 1209 1208 1203 1207 1201 1182 1203 1199 1217 1198 1196 1197 1215 1213 1208 1211 1211 1196 1200 1214 1214 1216 1204 1209 1207 1210 1204 1199 1197 1204 1204 1212 1206 1218 1212 1210 1209 1205 1204 1207 1207 1197 1212 1202 1208 1208 1207 1188 1188 1196 1194 1195 1188 1196 1192 1195 1200 1220 1202 1219 1213 1223 1208 1206 1201 1212 1207 1203 1213 1214 1205 1204 1196 1204 1201 1204 1203 1212 1212 1205 1214 1219 1197 1202 1208 1200 1205 1200 1197 1197 1199 1205 1197 1201 1202 1200 1203 1195 1180 1198 1201 1204 1204 1201 1201 1192 1205 1214 1208 1215 1202 1212 1207 1208 1204 1198 1214 1193 1198 1200 1202 1210 1200 1199 1192 1197 1201 1211 1198 1200 1205 1193 1208 1207 1197 1206 1206 1204 1210 1206 1202 1208 1203 1208 1207 1211 1205 1199 1206 1195 1199 1198 1200 1195 1198 1198 1198 1216 1206 1201 1203 1205 1205 1196 1208 1204 1207 1190 1191 1195 1199 1193 1199 1201 1191 1196 1192 1203 1203 1206 1207 1214 1202 1208 1201 1196 1204 1206 1210 1210 1207 1205 1211 1213 1203 1212 1202 1206 1198 1203 1195 1196 1209 1187 1206 1208 1210 1205 1199

Tree=0
num_leaves=10
num_cat=0
split_feature=170 189 175 17 124 171 171 22 189
split_gain=358.33 183.941 101.709 63.7766 58.1823 25.6435 22.3875 29.5397 22.0382
threshold=1.0000000180025095e-35 1.0000000180025095e-35 1.0000000180025095e-35 101.98 9.0416666666666661 1.7975000000000001 0.45083333333333359 0.52900000000000014 1.0000000180025095e-35
decision_type=2 2 2 2 2 2 2 2 2
left_child=1 3 6 4 -1 -6 7 -3 -2
right_child=8 2 -4 -5 5 -7 -8 -9 -10
leaf_value=0.27107981214659993 0.24851279306504856 0.25075502603690619 0.25019973950155583 0.27622199086405108 0.2565330075533892 0.27130062784486786 0.28334627618617875 0.27890423394797165 0.25910854217150642
leaf_weight=55.99074912071228 77.601213693618774 4.911469221115115 10.805232286453245 45.9222372174263 90.862180590629578 13.506540358066557 138.50343203544617 15.471128046512602 26.276360332965851
leaf_count=228 316 20 44 187 370 55 564 63 107
internal_value=0.267717 0.272175 0.279887 0.265831 0.262856 0.258444 0.281906 0.272121 0.251193
internal_weight=0 375.973 169.691 206.282 160.359 104.369 158.886 20.3826 103.878
internal_count=1954 1531 691 840 653 425 647 83 423
is_linear=0
shrinkage=1


Tree=1
num_leaves=10
num_cat=0
split_feature=170 189 175 17 124 6 171 22 189
split_gain=350.652 180.649 99.8082 62.5233 56.9439 26.2455 22.0444 28.9478 21.4773
threshold=1.0000000180025095e-35 1.0000000180025095e-35 1.0000000180025095e-35 101.98 9.0416666666666661 3956.8610000000003 0.45083333333333359 0.52900000000000014 1.0000000180025095e-35
decision_type=2 2 2 2 2 2 2 2 2
left_child=1 3 6 4 -1 -6 7 -3 -2
right_child=8 2 -4 -5 5 -7 -8 -9 -10
leaf_value=0.0033310462476229558 -0.01896477029844592 -0.016755139279397108 -0.017302463410305169 0.0084300299023875366 -0.00052846247637941795 -0.012075603428968866 0.015506648322338822 0.011092642538404607 -0.0085123686123285119
leaf_weight=55.965543329715729 77.792714536190033 4.9222189188003567 10.829630374908445 45.869477301836014 26.306115329265594 78.188643664121628 138.20739215612411 15.447639003396032 26.305995896458626
leaf_count=228 316 20 44 187 107 318 564 63 107
internal_value=0 0.0044171 0.0120694 -0.00186581 -0.004809 -0.00916866 0.0140753 0.00436344 -0.0163234
internal_weight=0 375.737 169.407 206.33 160.46 104.495 158.577 20.3699 104.099
internal_count=1954 1531 691 840 653 425 647 83 423
is_linear=0
shrinkage=0.01


Tree=2
num_leaves=10
num_cat=0
split_feature=170 189 185 17 124 149 171 189 71
split_gain=343.189 177.437 87.2615 61.2965 55.7354 44.9057 25.0137 20.9431 16.8499
threshold=1.0000000180025095e-35 1.0000000180025095e-35 1.0000000180025095e-35 101.98 9.0416666666666661 -1.0000000180025095e-35 1.7975000000000001 1.0000000180025095e-35 1.5005555555555552
decision_type=2 2 2 2 2 2 2 2 2
left_child=1 3 -3 4 8 -4 -6 -2 -1
right_child=7 2 5 -5 6 -7 -8 -9 -10
leaf_value=0.006356680592134018 -0.018732600698437522 0.014721031995937802 -0.018179026578995797 0.0083555852412841025 -0.01094984263030078 0.011439434008524907 0.0036289146722864531 -0.0084181113369160496 -0.0065525432566970413
leaf_weight=42.691266149282455 77.968398630619049 147.47795271873474 13.309922903776171 45.815641790628433 91.100227370858192 8.3179134428501111 13.514844983816145 26.334392592310905 13.249013632535933
leaf_count=174 316 603 54 187 370 34 55 107 54
internal_value=0 0.00437605 0.0119701 -0.00184673 -0.00475804 -0.00678798 -0.00906647 -0.0161284 0.00329923
internal_weight=0 375.477 169.106 206.371 160.555 21.6278 104.615 104.303 55.9403
internal_count=1954 1531 691 840 653 88 425 423 228
is_linear=0
shrinkage=0.01


Tree=3
num_leaves=10
num_cat=0
split_feature=172 175 96 6 13 171 4 40 40
split_gain=223.968 76.7074 68.3913 33.1748 32.999 28.2052 28.1189 24.4181 22.3459
threshold=69.123750000000015 1.0000000180025095e-35 1.8865000000000001 17607.051000000003 1.8966666666666652 0.76916666666666667 90.000000000000014 283.88888888888908 238.60714285714303
decision_type=2 2 2 2 2 2 2 2 2
left_child=1 3 4 -1 -2 -4 7 8 -5
right_child=2 -3 5 6 -6 -7 -8 -9 -10
leaf_value=0.010231983586901064 -0.014146490687389886 -0.019222422166896628 -0.0053787190453870939 0.0068518085827431073 0.0030663278693691468 0.0088043506614652427 0.014408508628233816 0.0073567878492746975 -0.0048176367554249129
leaf_weight=128.4670452028513 119.10187219083309 12.094917878508566 33.695435032248497 22.526944860816002 12.286700636148451 24.013934522867203 19.808275550603867 47.263396978378296 60.427893683314323
leaf_count=525 483 49 137 92 50 98 81 193 246
internal_value=0 0.00543148 -0.00855118 0.00650219 -0.0125368 0.000523118 0.00330838 0.00161988 -0.00164872
internal_weight=0 290.588 189.098 278.494 131.389 57.7094 150.027 130.218 82.9548
internal_count=1954 1186 768 1137 533 235 612 531 338
is_linear=0
shrinkage=0.01


Tree=4
num_leaves=10
num_cat=0
split_feature=189 171 172 96 34 149 171 7 154
split_gain=278.409 107.504 94.5854 57.1698 39.5706 33.6577 32.9018 26.1961 21.8033
threshold=1.0000000180025095e-35 0.40645833333333353 60.528890205754436 1.9136666666666653 0.048071428571428557 1.1000000000000003 0.71277777777777762 0.013000000000000003 -0.23959999999999995
decision_type=2 2 2 2 2 2 2 2 2
left_child=2 5 7 4 -4 -2 -5 -1 -3
right_child=1 8 3 6 -6 -7 -8 -9 -10
leaf_value=0.0044679739254526738 -0.013896787710561978 -0.0073602872493654537 0.0011255749625045284 -0.0098007273342010787 -0.016425868221404471 0.0047927131940116155 0.0068997667940642084 -0.0057800302866790818 0.013534238170760278
leaf_weight=71.418615445494652 21.961551368236542 5.165216088294982 14.490675345063208 23.88233844935894 113.13342589139938 17.168796747922897 23.311378747224808 38.330972999334335 150.75445194542408
leaf_count=291 89 21 59 97 458 70 95 156 618
internal_value=0 0.00912289 -0.00638753 -0.0109556 -0.014433 -0.0056966 -0.0015515 0.000888772 0.0128421
internal_weight=0 195.05 284.567 174.818 127.624 39.1303 47.1937 109.75 155.92
internal_count=1954 798 1156 709 517 159 192 447 639
is_linear=0
shrinkage=0.01


Tree=5
num_leaves=10
num_cat=0
split_feature=170 189 175 96 15 130 189 7 7
split_gain=342.936 169.948 73.2393 58.9597 54.8824 19.5513 16.5701 13.5366 13.2438
threshold=1.0000000180025095e-35 1.0000000180025095e-35 1.0000000180025095e-35 2.0680000000000001 0.82928571428571451 0.21622500000000003 1.0000000180025095e-35 0.0065000000000000014 0.028000000000000004
decision_type=2 2 2 2 2 2 2 2 2
left_child=1 3 -3 4 5 8 -2 -6 -1
right_child=6 2 -4 -5 7 -7 -8 -9 -10
leaf_value=0.00064256310309853185 -0.018168632646100327 0.013986725800431532 -0.014769281507760128 0.0076165356692359581 0.0096336749601948456 -0.011761583183393293 -0.0093428648485784135 -0.0023738255624015051 -0.009883026130420431
leaf_weight=30.985551193356514 77.324614435434341 152.11107906699181 9.4046172052621824 54.402042374014854 26.689511761069298 63.360435888171196 29.34575779736042 14.483615025877951 19.462989941239357
leaf_count=126 312 625 38 222 109 257 119 59 79
internal_value=0 0.00460519 0.0123123 -0.00133998 -0.00448391 -0.00806318 -0.0157406 0.00540975 -0.0034182
internal_weight=0 370.9 161.516 209.384 154.982 113.809 106.67 41.1731 50.4485
internal_count=1946 1515 663 852 630 462 431 168 205
is_linear=0
shrinkage=0.01


Tree=6
num_leaves=10
num_cat=0
split_feature=170 189 175 96 15 130 189 73 7
split_gain=335.801 167.005 71.926 57.8058 53.7469 19.1114 16.189 13.4117 13.2917
threshold=1.0000000180025095e-35 1.0000000180025095e-35 1.0000000180025095e-35 2.0680000000000001 0.82928571428571451 0.21622500000000003 1.0000000180025095e-35 1.3312500000000003 0.0065000000000000014
decision_type=2 2 2 2 2 2 2 2 2
left_child=1 3 -3 4 5 -1 -2 -8 -6
right_child=6 2 -4 -5 8 -7 7 -9 -10
leaf_value=-0.0033826476092837262 -0.017957944954801269 0.013879159597610227 -0.014600813029020424 0.0075485741081586953 0.0095507571887308105 -0.011628291315797276 0.0010271269944072165 -0.01368634731237898 -0.0023493424284449747
leaf_weight=50.468604490160942 77.448850706219673 151.75883607566357 9.4179308414459211 54.343213468790054 26.652198925614357 63.445416420698166 8.8785110414028185 20.498501539230347 14.488183230161665
leaf_count=205 312 625 38 222 109 257 36 83 59
internal_value=0 0.00456324 0.012215 -0.00132645 -0.00443695 -0.00797513 -0.0155604 -0.00923955 0.00535996
internal_weight=0 370.574 161.177 209.398 155.054 113.914 106.826 29.377 41.1404
internal_count=1946 1515 663 852 630 462 431 119 168
is_linear=0
shrinkage=0.01


Tree=7
num_leaves=10
num_cat=0
split_feature=170 189 175 96 15 130 189 171 171
split_gain=328.858 164.128 70.6425 56.6761 52.6371 18.6855 15.8239 15.3982 13.5545
threshold=1.0000000180025095e-35 1.0000000180025095e-35 1.0000000180025095e-35 2.0680000000000001 0.82928571428571451 0.21622500000000003 1.0000000180025095e-35 1.0473333333333352 0.62200000000000011
decision_type=2 2 2 2 2 2 2 2 2
left_child=1 3 -3 4 5 -1 -2 -6 -7
right_child=6 2 -4 -5 7 8 -8 -9 -10
leaf_value=-0.0033474349614044528 -0.017752905064539623 0.013773473111478198 -0.014436041956525859 0.0074813569237032395 -0.0002481018448035802 -0.019189527434608847 -0.0091381205033975524 0.01204938433844901 -0.0087235387495241696
leaf_weight=50.489396944642067 77.559354364871979 151.3958952575922 9.4301091581583005 54.283451989293098 22.52518093585968 16.836846455931664 29.405813902616501 18.581553071737289 46.688435107469559
leaf_count=205 312 625 38 222 92 68 119 76 189
internal_value=0 0.0045219 0.0121194 -0.00131309 -0.00439064 -0.00788837 -0.0153846 0.00531075 -0.0114975
internal_weight=0 370.231 160.826 209.405 155.121 114.015 106.965 41.1067 63.5253
internal_count=1946 1515 663 852 630 462 431 168 257
is_linear=0
shrinkage=0.01


Tree=8
num_leaves=10
num_cat=0
split_feature=170 171 19 8 188 172 123 104 124
split_gain=322.096 60.8819 63.8094 25.1754 23.5931 20.7027 16.967 15.952 16.6539
threshold=1.0000000180025095e-35 0.90125000000000011 6.3732142857142859 403.00000000000006 1.0000000180025095e-35 58.486000000000011 -0.18329999999999999 22.0088095238095 30.265277777777801
decision_type=2 2 2 2 2 2 2 2 2
left_child=1 2 5 -4 7 -1 -5 -3 -9
right_child=-2 4 3 6 -6 -7 -8 8 -10
leaf_value=0.0014847284978665798 -0.0152128479957396 0.0079110114054498845 -0.011247618974592859 0.00983971772635449 0.011771964060384138 -0.01347676370825894 0.0020295662344858283 -0.0047631871743897339 0.010051819134160795
leaf_weight=12.471261739730833 107.09049922227859 62.646391347050667 10.047146230936049 47.443362638354301 97.700869992375374 35.791298106312752 67.233656272292137 25.782646596431732 10.751974195241926
leaf_count=51 431 257 41 195 402 145 275 105 44
internal_value=0 0.00448116 0.000152865 0.0039309 0.00828414 -0.00961065 0.00526073 0.00484836 -0.000403198
internal_weight=0 369.869 172.987 124.724 196.882 48.2626 114.677 99.181 36.5346
internal_count=1946 1515 707 511 808 196 470 406 149
is_linear=0
shrinkage=0.01


Tree=9
num_leaves=10
num_cat=0
split_feature=170 189 175 101 27 17 4 188 189
split_gain=315.478 161.006 68.752 46.2876 32.8903 27.7884 18.5084 18.9252 15.486
threshold=1.0000000180025095e-35 1.0000000180025095e-35 1.0000000180025095e-35 0.98125000000000007 1.0000000180025095e-35 96.541666666666671 37.000000000000007 1.0000000180025095e-35 1.0000000180025095e-35
decision_type=2 2 2 2 2 2 2 2 2
left_child=1 3 -3 6 -5 -6 -1 -8 -2
right_child=8 2 -4 4 5 -7 7 -9 -10
leaf_value=0.009705859311768001 -0.017384584996125302 0.013621348108395524 -0.014189213449913272 0.0016135067072039042 -0.01102571370335332 0.004995998528497767 -0.0063675666103116006 0.0085257998858178658 -0.0088724486032469227
leaf_weight=39.287409752607346 77.730162426829338 150.83432380855083 9.4459572881460172 49.830099865794182 72.140519946813583 12.736701369285582 20.846370846033096 14.443572625517843 29.478252783417702
leaf_count=161 312 625 38 203 292 52 85 59 119
internal_value=0 0.00444006 0.0119824 -0.0013362 -0.00483542 -0.00862149 0.00498436 -0.000271965 -0.0150441
internal_weight=0 369.565 160.28 209.285 134.707 84.8772 74.5774 35.2899 107.208
internal_count=1946 1515 663 852 547 344 305 144 431
is_linear=0
shrinkage=0.01


Tree=10
num_leaves=10
num_cat=0
split_feature=170 171 185 6 30 56 1 4 112
split_gain=334.649 69.4602 41.082 37.5587 26.0587 22.9563 22.2886 20.7727 17.309
threshold=1.0000000180025095e-35 0.45083333333333359 1.0000000180025095e-35 41409.013852023127 0.69675000000000009 1.1536666666666651 305.50000000000006 79.000000000000014 0.98166666666666658
decision_type=2 2 2 2 2 2 2 2 2
left_child=1 2 8 6 -5 7 -3 -6 -1
right_child=-2 3 -4 4 5 -7 -8 -9 -10
leaf_value=0.0065364251995499601 -0.015091041448708757 -0.00048066350815018961 -0.017985426968441205 0.0093339919157053083 -0.0060503103535707002 0.0057124974576090361 0.010848194010090543 0.015109639337577224 -0.0059800418082794305
leaf_weight=21.423302128911018 111.56178723275661 19.529073297977448 17.590831264853477 40.812656328082085 52.809753462672234 39.284779369831085 156.82300686836243 5.0862581878900519 22.8150265365839
leaf_count=88 448 80 71 168 215 161 647 21 93
internal_value=0 0.00463022 -0.0050588 0.00653598 0.00262835 -0.000187791 0.00959365 -0.00419137 8.13096e-05
internal_weight=0 376.175 61.8292 314.346 137.993 97.1808 176.352 57.896 44.2383
internal_count=1992 1544 252 1292 565 397 727 236 181
is_linear=0
shrinkage=0.01


Tree=11
num_leaves=10
num_cat=0
split_feature=170 171 153 7 188 14 3 149 168
split_gain=327.852 68.1535 39.6515 37.7564 30.9956 18.8732 14.8791 14.6839 14.6796
threshold=1.0000000180025095e-35 0.45083333333333359 1.0893750000000002 0.028000000000000004 1.0000000180025095e-35 0.72291666666666665 36.500000000000007 -23.541666666666647 1.0000000180025095e-35
decision_type=2 2 2 2 2 2 2 2 2
left_child=1 2 7 8 5 -5 -6 -1 -3
right_child=-2 3 -4 4 6 -7 -8 -9 -10
leaf_value=-0.019683523176372151 -0.014927483615636519 0.011128083409385668 0.0036524089713521925 -0.0060735174110099167 -0.0070068507796888129 0.0061714828713512219 0.010376611479727165 -0.0063551229454868611 0.0056617014295961233
leaf_weight=15.147108927369116 111.6558190882206 125.37386345863342 28.50926598906517 46.604193821549416 5.6496096998453131 17.2447569668293 38.329106375575066 18.194633007049561 80.77888023853302
leaf_count=61 448 518 117 190 23 71 158 74 332
internal_value=0 0.00458818 -0.00500639 0.00647821 0.00168338 -0.0027663 0.00814349 -0.0124102 0.00898614
internal_weight=0 375.831 61.851 313.98 107.828 63.849 43.9787 33.3417 206.153
internal_count=1992 1544 252 1292 442 261 181 135 850
is_linear=0
shrinkage=0.01


Tree=12
num_leaves=10
num_cat=0
split_feature=170 171 185 7 188 14 112 89 139
split_gain=321.223 66.8716 39.5802 37.1106 30.4171 18.4926 16.8587 19.726 15.0284
threshold=1.0000000180025095e-35 0.45083333333333359 1.0000000180025095e-35 0.028000000000000004 1.0000000180025095e-35 0.72291666666666665 0.98166666666666658 -0.09645833333333334 0.95050000000000001
decision_type=2 2 2 2 2 2 2 2 2
left_child=1 2 6 8 5 -5 -1 -8 -3
right_child=-2 3 -4 4 -6 -7 7 -9 -10
leaf_value=0.0064731946221020147 -0.014767490543235886 0.012352688311267264 -0.017623187189062948 -0.0060081054499716248 0.008073592946778535 0.0061160656098916679 0.0041782940543058688 -0.014466598224408178 0.006789277650750312
leaf_weight=21.396761015057564 111.73643882572651 78.469276592135429 17.633334740996361 46.640288159251213 43.916323885321617 17.22708897292614 10.518407672643663 12.321457356214522 127.36271034181118
leaf_count=88 448 325 71 190 181 71 43 50 525
internal_value=0 0.00454654 -0.00495476 0.00642095 0.00166727 -0.00273783 9.5053e-05 -0.00588009 0.00891022
internal_weight=0 375.486 61.87 313.616 107.784 63.8674 44.2366 22.8399 205.832
internal_count=1992 1544 252 1292 442 261 181 93 850
is_linear=0
shrinkage=0.01


Tree=13
num_leaves=10
num_cat=0
split_feature=170 171 153 6 188 4 116 1 29
split_gain=314.759 65.6144 38.3115 36.0208 25.0307 23.7401 26.0884 21.9171 16.3383
threshold=1.0000000180025095e-35 0.45083333333333359 1.0893750000000002 41409.013852023127 1.0000000180025095e-35 49.000000000000007 0.77321428571428563 305.50000000000006 0.35416666666666657
decision_type=2 2 2 2 2 2 2 2 2
left_child=1 2 -1 7 5 6 -5 -3 -4
right_child=-2 3 8 4 -6 -7 -8 -9 -10
leaf_value=-0.012171049539734 -0.014610932444996021 -0.00063179546078610425 0.0091006243079042679 0.0063136463919787949 0.0078147246835163151 0.013835488493706111 -0.0067055118305759109 0.010617210314359424 -0.0068413357435811633
leaf_weight=33.396313771605492 111.80403096973896 19.483128517866135 18.684268116950992 21.896102607250214 54.378005489706993 9.658451318740843 51.812055483460426 156.02100069820881 9.800914138555525
leaf_count=135 448 80 77 90 224 40 211 647 40
internal_value=0 0.00450541 -0.00490423 0.00636425 0.00253655 -0.000906271 -0.00283798 0.00936843 0.00361546
internal_weight=0 375.13 61.8815 313.249 137.745 83.3666 73.7082 175.504 28.4852
internal_count=1992 1544 252 1292 565 341 301 727 117
is_linear=0
shrinkage=0.01


Tree=14
num_leaves=10
num_cat=0
split_feature=170 189 175 96 146 118 189 171 22
split_gain=308.455 139.402 86.6437 50.4144 48.8909 23.3918 18.3352 17.2926 22.9357
threshold=1.0000000180025095e-35 1.0000000180025095e-35 1.0000000180025095e-35 1.7971428571428603 0.88083333333333369 -1.1633333333333347 1.0000000180025095e-35 0.45083333333333359 0.52900000000000014
decision_type=2 2 2 2 2 2 2 2 2
left_child=1 3 7 4 -1 -6 -2 8 -3
right_child=6 2 -4 -5 5 -7 -8 -9 -10
leaf_value=0.0040465921036972182 -0.016749494776081179 -0.014271537179513603 -0.015606591927913758 0.0059844234113328055 -0.0011799001334777907 -0.011997755931157863 -0.0073055447962539479 0.014413256946860733 0.010678726599618589
leaf_weight=45.110244497656822 84.713559180498123 4.9412762671709087 11.218673467636107 68.583228319883347 29.009785711765289 64.277467265725136 27.145410314202309 137.13851535320282 14.484109699726103
leaf_count=185 339 20 45 282 118 260 109 574 60
internal_value=0 0.00446479 0.0112388 -0.00102638 -0.0045006 -0.0086337 -0.0144577 0.0131625 0.00433208
internal_weight=0 374.763 167.783 206.981 138.397 93.2873 111.859 156.564 19.4254
internal_count=1992 1544 699 845 563 378 448 654 80
is_linear=0
shrinkage=0.01


Tree=15
num_leaves=10
num_cat=0
split_feature=170 189 175 96 146 118 189 7 171
split_gain=283.177 145.238 84.4991 49.6026 46.1426 21.5997 19.0578 18.9176 18.3271
threshold=1.0000000180025095e-35 1.0000000180025095e-35 1.0000000180025095e-35 1.9958333333333351 0.87366666666666659 -1.1633333333333347 1.0000000180025095e-35 0.020500000000000001 0.40645833333333353
decision_type=2 2 2 2 2 2 2 2 2
left_child=1 3 8 4 7 -6 -2 -1 -3
right_child=6 2 -4 -5 5 -7 -8 -9 -10
leaf_value=0.0086350601793862593 -0.016596568833966908 0.0031337702244377537 -0.014192229160814232 0.006521735476782484 -0.00093075986447733658 -0.010886387676383844 -0.007025924417073684 -0.005086565356315925 0.014594530014301652
leaf_weight=30.588582694530487 79.73692287504673 15.557190433144568 11.968270510435103 59.467040091753006 30.982626110315323 73.47097735106945 28.151771649718285 14.962027996778486 135.31267607212067
leaf_count=126 319 64 48 245 126 297 113 61 568
internal_value=0 0.00429994 0.0113838 -0.00120691 -0.00427083 -0.00793339 -0.0140993 0.00412791 0.0134127
internal_weight=0 372.309 162.838 209.471 150.004 104.454 107.889 45.5506 150.87
internal_count=1967 1535 680 855 610 423 432 187 632
is_linear=0
shrinkage=0.01


Tree=16
num_leaves=10
num_cat=0
split_feature=170 189 175 17 124 161 6 189 171
split_gain=277.587 142.823 83.0327 47.9794 52.3414 21.7866 19.805 18.6875 18.0914
threshold=1.0000000180025095e-35 1.0000000180025095e-35 1.0000000180025095e-35 101.6375 9.0416666666666661 28.111500000000003 3956.8610000000003 1.0000000180025095e-35 0.40645833333333353
decision_type=2 2 2 2 2 2 2 2 2
left_child=1 3 8 4 -1 6 -6 -2 -3
right_child=7 2 -4 -5 5 -7 -8 -9 -10
leaf_value=0.0039789059220591535 -0.016428583954612136 0.0031039992909714632 -0.014042807351366411 0.0079233746304702007 -0.0012137588005991956 0.009072887522476359 -0.011595964017447174 -0.0069529015900876281 0.014495286839747268
leaf_weight=57.549148470163345 79.746665984392166 15.549376875162123 11.974628984928129 45.241952925920486 24.309053763747215 7.0976453125476828 75.251997157931328 28.162904933094978 134.87888798117638
leaf_count=236 319 64 48 187 99 29 304 113 568
internal_value=0 0.00426228 0.0113004 -0.00119493 -0.00370717 -0.00785429 -0.00906102 -0.0139556 0.0133178
internal_weight=0 371.853 162.403 209.45 164.208 106.659 99.5611 107.91 150.428
internal_count=1967 1535 680 855 668 432 403 432 632
is_linear=0
shrinkage=0.01


Tree=17
num_leaves=10
num_cat=0
split_feature=170 189 185 6 30 38 149 189 18
split_gain=272.132 140.46 78.8857 39.953 36.1249 36.9786 29.8968 18.3314 18.0536
threshold=1.0000000180025095e-35 1.0000000180025095e-35 1.0000000180025095e-35 3956.8610000000003 0.73071428571428554 96.708333333333357 -0.91666666666666641 1.0000000180025095e-35 8.3059166666666666
decision_type=2 2 2 2 2 2 2 2 2
left_child=1 3 -3 -1 8 -6 -4 -2 -5
right_child=7 2 6 4 5 -7 -8 -9 -10
leaf_value=0.0056814018141849113 -0.016264536841706933 0.013918601115224492 -0.015808851820197749 0.01262386350971954 -0.010988484447151288 0.0030458839195114436 0.0089523347516450927 -0.0068808335618505533 -0.00077586779522610899
leaf_weight=60.353100910782814 79.745494171977043 140.86987318098545 13.432182565331461 14.003615468740461 74.286432012915611 25.123885408043861 7.655222922563552 28.173244506120682 35.656880930066109
leaf_count=248 319 594 54 58 300 103 32 113 146
internal_value=0 0.00422512 0.0112184 -0.00118308 -0.00396225 -0.00744159 -0.00681996 -0.0138148 0.00300268
internal_weight=0 371.381 161.957 209.424 149.071 99.4103 21.0874 107.919 49.6605
internal_count=1967 1535 680 855 607 403 86 432 204
is_linear=0
shrinkage=0.01


Tree=18
num_leaves=10
num_cat=0
split_feature=189 185 19 171 83 172 143 46 123
split_gain=216.882 116.982 73.5079 38.4926 32.5327 32.1924 23.4022 26.3152 22.9644
threshold=1.0000000180025095e-35 1.0000000180025095e-35 6.495000000000001 0.48125000000000001 -0.010499999999999997 76.298750000000013 1.2691666666666652 13.635000000000002 -0.17853571428571446
decision_type=2 2 2 2 2 2 2 2 2
left_child=2 -2 5 8 -3 -1 7 -5 -4
right_child=1 4 3 6 -6 -7 -8 -9 -10
leaf_value=-0.0059495651744580647 0.012029496579838671 0.01459076209732091 0.00062348069568693074 -0.0054653818259475951 -0.013152556271043605 -0.016626094046447486 0.0076854013698424792 0.0062592603891719846 -0.01381148987463034
leaf_weight=53.635242834687233 157.3738349378109 5.0005391240119925 16.870162039995193 55.179242879152298 27.313818424940109 59.651543781161308 42.698983415961266 29.311788097023964 31.787127539515495
leaf_count=217 662 21 69 224 110 239 176 121 128
internal_value=0 0.00847097 -0.00528936 -0.00124231 -0.00885937 -0.0115713 0.00165149 -0.00139785 -0.00880668
internal_weight=0 189.688 289.134 175.847 32.3144 113.287 127.19 84.491 48.6573
internal_count=1967 793 1174 718 131 456 521 345 197
is_linear=0
shrinkage=0.01


Tree=19
num_leaves=10
num_cat=0
split_feature=170 189 185 96 146 149 118 189 13
split_gain=263.64 135.85 76.4261 46.7534 43.4293 28.8911 20.7332 17.4279 16.1039
threshold=1.0000000180025095e-35 1.0000000180025095e-35 1.0000000180025095e-35 1.9958333333333351 0.87366666666666659 -0.91666666666666641 -1.1633333333333347 1.0000000180025095e-35 0.48250000000000004
decision_type=2 2 2 2 2 2 2 2 2
left_child=1 3 -3 4 -1 -4 -6 -2 -8
right_child=7 2 5 -5 6 -7 8 -9 -10
leaf_value=0.0040475459989432402 -0.015985826200706137 0.013742105850222898 -0.015501974589865507 0.0063747993185174455 -0.00080083588514859565 0.0088566424337050663 0.0056449331589319219 -0.0068361617076365963 -0.011896991550624474
leaf_weight=45.459734976291656 79.715003073215485 140.0270839035511 13.446993544697763 59.279775410890579 31.024002268910408 7.6332502365112296 5.6697889715433112 28.175990328192711 67.982082843780518
leaf_count=187 319 594 54 245 126 32 23 113 274
internal_value=0 0.00416626 0.0110697 -0.00114473 -0.00411376 -0.00668161 -0.00765813 -0.0135964 -0.0105466
internal_weight=0 370.523 161.107 209.415 150.136 21.0802 104.676 107.891 73.6519
internal_count=1967 1535 680 855 610 86 423 432 297
is_linear=0
shrinkage=0.01


Tree=20
num_leaves=10
num_cat=0
split_feature=170 189 185 149 72 97 126 27 189
split_gain=255.413 145.433 65.4381 32.9624 32.3283 33.6825 28.6158 20.1783 11.9602
threshold=1.0000000180025095e-35 1.0000000180025095e-35 1.0000000180025095e-35 7.8750000000000009 7.0375000000000005 1.3590000000000002 1.1928571428571451 0.15476190476190502 1.0000000180025095e-35
decision_type=2 2 2 2 2 2 2 2 2
left_child=1 4 -3 -4 5 6 7 -1 -2
right_child=8 2 3 -5 -6 -7 -8 -9 -10
leaf_value=-0.001305498843421581 -0.015271983249426482 0.013670898926484916 -0.015136112294876299 0.011120203861238732 0.0075513201382416996 0.0055471938703610633 0.003236452816941997 -0.010669295460846169 -0.0076805841826328505
leaf_weight=33.238500252366066 80.687144353985786 140.9667574763298 12.946587905287744 7.581193432211875 33.664379239082336 35.393697038292885 30.099627867341042 74.809013277292252 27.940194621682167
leaf_count=135 323 600 52 32 139 146 124 302 112
internal_value=0 0.00412774 0.0112418 -0.00543929 -0.0014169 -0.00315661 -0.00538655 -0.00778872 -0.0133194
internal_weight=0 368.7 161.495 20.5278 207.205 173.541 138.147 108.048 108.627
internal_count=1965 1530 684 84 846 707 561 437 435
is_linear=0
shrinkage=0.01


Tree=21
num_leaves=10
num_cat=0
split_feature=189 175 171 19 171 172 172 6 29
split_gain=212.102 114.379 70.4951 37.0739 35.4151 32.6118 25.406 20.8888 19.22
threshold=1.0000000180025095e-35 1.0000000180025095e-35 0.48125000000000001 6.495000000000001 0.40645833333333353 60.348750000000003 80.312500000000014 4093.9150000000004 0.94444444444444453
decision_type=2 2 2 2 2 2 2 2 2
left_child=2 4 5 6 -2 -1 -4 -5 -9
right_child=1 -3 3 7 -6 -7 -8 8 -10
leaf_value=0.0016066771857667617 -0.00075750355375465539 -0.013343324314604353 -0.0032614754661144598 0.0070392141073857221 0.012945735783004191 -0.0152844469739863 -0.015703753310375296 -0.0042108533275302049 0.0068093333590263138
leaf_weight=13.497376143932341 21.661637127399445 21.468401148915291 45.47286993265152 41.927676945924759 145.82272650301456 74.636279612779617 25.678305715322495 65.778602093458176 20.84025964140892
leaf_count=55 89 86 184 173 621 300 103 268 86
internal_value=0 0.00838788 -0.00524814 -0.00196042 0.0111734 -0.0126976 -0.00775187 0.00124517 -0.00155943
internal_weight=0 188.953 287.831 199.698 167.484 88.1337 71.1512 128.547 86.6189
internal_count=1965 796 1169 814 710 355 287 527 354
is_linear=0
shrinkage=0.01


Tree=22
num_leaves=10
num_cat=0
split_feature=189 175 171 19 171 172 172 6 45
split_gain=208.205 112.345 69.0852 36.3294 34.9066 31.9564 24.9128 20.4957 20.3879
threshold=1.0000000180025095e-35 1.0000000180025095e-35 0.48125000000000001 6.495000000000001 0.40645833333333353 60.348750000000003 80.312500000000014 4093.9150000000004 1.5074444444444453
decision_type=2 2 2 2 2 2 2 2 2
left_child=2 4 5 6 -2 -1 -4 -5 -9
right_child=1 -3 3 7 -6 -7 -8 8 -10
leaf_value=0.0015909209155849696 -0.00074985113827454389 -0.01320782992321208 -0.0032278576307347442 0.0069768371981338189 0.012856815559193012 -0.01513093197863705 -0.015548538850471446 -0.016826746404473177 -3.7182539980975585e-06
leaf_weight=13.494756072759627 21.663866057991982 21.471732586622238 45.486930564045906 41.879749789834023 145.36524686217308 74.639563500881195 25.675308167934418 7.9296939671039572 78.698565259575844
leaf_count=55 89 86 184 173 621 300 103 32 322
internal_value=0 0.00832407 -0.00519613 -0.00194107 0.011092 -0.0125706 -0.00767315 0.00123311 -0.00154365
internal_weight=0 188.501 287.805 199.67 167.029 88.1343 71.1622 128.508 86.6283
internal_count=1965 796 1169 814 710 355 287 527 354
is_linear=0
shrinkage=0.01


Tree=23
num_leaves=10
num_cat=0
split_feature=170 171 6 153 4 17 90 137 29
split_gain=243.995 62.038 34.9695 34.5601 33.9475 25.7877 19.4269 16.1614 12.6345
threshold=1.0000000180025095e-35 0.45083333333333359 17607.051000000003 1.0893750000000002 53.000000000000007 96.772321428571459 -0.099444444444444433 0.92366666666666664 0.21111111111111103
decision_type=2 2 2 2 2 2 2 2 2
left_child=1 3 -3 -1 5 6 -4 -8 -5
right_child=-2 2 4 8 -6 -7 7 -9 -10
leaf_value=-0.011763805201722629 -0.013022335247299701 0.0095924124970318842 0.003419267443071995 0.0088789193905949321 0.012861486491124135 0.0077432047340073662 0.0045250947452692772 -0.0082469418972548302 -0.0049929326341945184
leaf_weight=34.418248578906059 108.50174297392368 139.13508161902428 40.754251584410667 16.329481944441799 27.908260032534599 38.37107627093792 12.564842179417608 46.842841848731041 10.981136158108709
leaf_count=139 435 587 169 68 118 161 52 191 45
internal_value=0 0.00404531 0.00589245 -0.00509858 0.00279951 0.000772463 -0.00189796 -0.00554563 0.00330128
internal_weight=0 367.305 305.576 61.7289 166.441 138.533 100.162 59.4077 27.3106
internal_count=1965 1530 1278 252 691 573 412 243 113
is_linear=0
shrinkage=0.01


Tree=24
num_leaves=10
num_cat=0
split_feature=171 172 172 96 188 96 158 7 22
split_gain=169.138 66.2408 35.9046 38.4201 29.0119 28.151 17.2423 16.9695 13.4627
threshold=0.62900000000000011 58.486000000000011 83.486250000000027 2.4594642857142852 1.0000000180025095e-35 1.8975000000000002 1.1356071428571453 0.028000000000000004 0.6930952380952381
decision_type=2 2 2 2 2 2 2 2 2
left_child=1 -1 4 8 7 6 -3 -2 -4
right_child=2 5 3 -5 -6 -7 -8 -9 -10
leaf_value=0.0048431879165066046 0.0061558954353297937 -0.014451070622052802 -0.012087640540357186 0.0096459125420440602 0.010252643633424175 -0.0021606133112815392 -0.0050001165014713564 -0.0016949231398930978 0.0010451023329063405
leaf_weight=36.587707325816154 72.78685836493969 92.667423740029335 25.844574451446533 18.130417466163635 115.34835374355316 34.127716735005379 24.383235946297646 44.281960114836693 11.183691889047621
leaf_count=152 304 373 104 76 488 140 99 183 46
internal_value=0 -0.00723026 0.00497195 -0.00228119 0.00669331 -0.0101522 -0.0124823 0.00318628 -0.00812114
internal_weight=0 187.766 287.576 55.1587 232.417 151.178 117.051 117.069 37.0283
internal_count=1965 764 1201 226 975 612 472 487 150
is_linear=0
shrinkage=0.01


Tree=25
num_leaves=10
num_cat=0
split_feature=189 175 172 62 172 134 145 124 101
split_gain=210.251 98.2541 62.5984 44.3447 38.194 26.4703 23.7174 29.0779 21.0133
threshold=1.0000000180025095e-35 1.0000000180025095e-35 69.123750000000015 16.116666666666656 82.74666666666667 1.0000000180025095e-35 1.1387500000000002 6.1708333333333361 1.0005555555555552
decision_type=2 2 2 2 2 2 2 2 2
left_child=2 4 6 -4 -2 -6 7 -1 -5
right_child=1 -3 3 8 5 -7 -8 -9 -10
leaf_value=0.0047531764302568202 0.013023321546119982 -0.013176109110908885 -4.734503642045365e-05 -0.0054266712362122747 0.0088005537261527725 -0.0086453032652746547 0.0072358280632609188 -0.0059229150575654298 -0.015930060607539997
leaf_weight=35.393976241350174 132.43771263957024 19.472333818674088 32.02182012796402 24.867347881197929 20.361070036888123 15.181985184550284 27.942483693361282 91.370732977986336 81.3857701420784
leaf_count=146 571 78 131 101 85 62 116 371 327
internal_value=0 0.00808813 -0.00547372 -0.010363 0.0105531 0.00134867 -0.00110376 -0.00294204 -0.0134719
internal_weight=0 187.453 292.982 138.275 167.981 35.5431 154.707 126.765 106.253
internal_count=1988 796 1192 559 718 147 633 517 428
is_linear=0
shrinkage=0.01


Tree=26
num_leaves=10
num_cat=0
split_feature=189 175 62 101 25 7 6 144 194
split_gain=206.397 96.5215 60.9434 39.3357 20.7056 18.0163 16.8301 14.8951 14.5349
threshold=1.0000000180025095e-35 1.0000000180025095e-35 16.116666666666656 1.0192857142857152 0.47222222222222204 0.013000000000000003 1983.3240000000003 0.68775000000000008 0.0077825325971198006
decision_type=2 2 2 2 2 2 2 2 2
left_child=2 4 -1 5 8 -4 -5 -8 -2
right_child=1 -3 3 6 -6 -7 7 -9 -10
leaf_value=0.0027047774855010203 0.0074951700816255906 -0.013046436867758518 0.0018096847000007212 -0.0052426616288311712 0.011505483557791376 -0.0084063920899709096 -0.0034991684511184152 -0.014351917324745406 -0.013737939463313491
leaf_weight=70.200258389115334 7.5673108398914319 19.469230383634567 46.194710895419121 38.489467412233353 154.31474055349827 27.56148424744606 14.566762566566466 95.923655822873116 5.6168839186429977
leaf_count=289 32 78 190 156 663 112 59 386 23
internal_value=0 0.00802819 -0.00541983 -0.00798049 0.0104778 -0.0020079 -0.0109374 -0.0129211 -0.00155081
internal_weight=0 186.968 292.936 222.736 167.499 73.7562 148.98 110.49 13.1842
internal_count=1988 796 1192 903 718 302 601 445 55
is_linear=0
shrinkage=0.01


Tree=27
num_leaves=10
num_cat=0
split_feature=170 189 175 17 122 11 38 7 97
split_gain=251.191 138.016 59.5388 39.5781 44.0221 16.1668 13.2163 12.2806 11.8829
threshold=1.0000000180025095e-35 1.0000000180025095e-35 1.0000000180025095e-35 97.492857142857176 -0.12534999999999999 4.3377500000000007 96.708333333333357 0.011500000000000002 1.3610000000000004
decision_type=2 2 2 2 2 2 2 2 2
left_child=1 3 -3 4 6 7 -1 -6 -7
right_child=-2 2 -4 -5 5 8 -8 -9 -10
leaf_value=-0.0023620593158219902 -0.013520147196869819 0.012374941084702964 -0.012578680180775979 0.0059280765002365622 0.00061755856027268419 -0.0126134640685423 0.0078633108594758586 -0.0099377618050042731 0.0029441423898586695
leaf_weight=22.010405048727989 109.03256011009216 149.09732945263386 10.216855049133299 52.955377981066704 29.307681620121002 54.0699622631073 29.691254779696465 17.666712805628777 5.3997684121131888
leaf_count=90 438 646 41 220 119 218 123 71 22
internal_value=0 0.00374817 0.0107747 -0.00155459 -0.00406017 -0.00773721 0.00351017 -0.00335222 -0.0112009
internal_weight=0 370.415 159.314 211.101 158.146 106.444 51.7017 46.9744 59.4697
internal_count=1988 1550 687 863 643 430 213 190 240
is_linear=0
shrinkage=0.01


Tree=28
num_leaves=10
num_cat=0
split_feature=189 175 171 172 62 96 15 42 172
split_gain=199.269 93.2065 64.6899 37.1763 36.1404 29.4393 29.5273 21.7879 21.1542
threshold=1.0000000180025095e-35 1.0000000180025095e-35 0.90916666666666657 82.74666666666667 18.912500000000005 1.8458333333333352 0.82527777777777767 9.6892857142857167 68.240625000000009
decision_type=2 2 2 2 2 2 2 2 2
left_child=2 3 4 -2 -1 6 -4 -5 -6
right_child=1 -3 5 7 8 -7 -8 -9 -10
leaf_value=-0.0015260119752681413 0.012792029238976389 -0.012793009601038357 -0.006148802251494479 0.0050381678043808324 -0.006292474240079911 0.0086367824502929947 0.0075408173870892313 -0.014975102144810671 -0.014710525554517791
leaf_weight=46.602417141199112 131.12560723721981 19.458226695656776 61.311084315180779 28.709874525666237 45.834432139992714 32.250926479697227 21.205192282795906 6.7113848626613608 85.610147729516029
leaf_count=191 571 78 248 120 186 134 88 27 345
internal_value=0 0.00791685 -0.00531886 0.0103365 -0.00909253 0.00053551 -0.00263082 0.00124619 -0.0117752
internal_weight=0 186.005 292.814 166.547 178.047 114.767 82.5163 35.4213 131.445
internal_count=1988 796 1192 718 722 470 336 147 531
is_linear=0
shrinkage=0.01


Tree=29
num_leaves=10
num_cat=0
split_feature=170 171 119 6 4 25 30 1 29
split_gain=243.233 53.7121 35.9026 32.3789 21.3481 19.8092 17.8625 15.4689 12.1012
threshold=1.0000000180025095e-35 0.62900000000000011 2.2312500000000006 17607.051000000003 103.00000000000001 0.95000000000000007 0.68100000000000016 345.50000000000006 0.15476190476190502
decision_type=2 2 2 2 2 2 2 2 2
left_child=1 2 5 -3 6 -1 -5 -8 -7
right_child=-2 3 -4 4 -6 8 7 -9 -10
leaf_value=-0.0082064910371444019 -0.013310949096979458 0.0097717976483262456 -0.018282082477672802 0.0071272622249008944 0.01283374934541638 0.0065615317100385815 -0.0096552885942986291 0.00090193869218810373 -0.0017186177196670549
leaf_weight=23.200763553380966 108.87918005883694 126.25245235860348 12.420957192778586 35.626240968704224 18.204326137900352 35.49606928229332 17.614962100982666 65.440908625721931 35.10722778737545
leaf_count=94 438 540 50 151 78 149 72 271 145
internal_value=0 0.00369636 -0.00230553 0.00611923 0.00275041 -0.000190015 0.00120375 -0.0013371 0.00244426
internal_weight=0 369.364 106.225 263.139 136.886 93.8041 118.682 83.0559 70.6033
internal_count=1988 1550 438 1112 572 388 494 343 294
is_linear=0
shrinkage=0.01


Tree=30
num_leaves=10
num_cat=0
split_feature=170 171 19 1 188 15 13 172 120
split_gain=242.763 48.6204 40.1926 25.1614 22.7457 20.2872 18.8354 18.5893 11.884
threshold=1.0000000180025095e-35 0.89166666666666661 6.3732142857142859 282.50000000000006 1.0000000180025095e-35 0.82527777777777767 0.48250000000000004 58.486000000000011 0.43541666666666656
decision_type=2 2 2 2 2 2 2 2 2
left_child=1 2 7 -4 5 6 -3 -1 -8
right_child=-2 4 3 -5 -6 -7 8 -9 -10
leaf_value=0.0038218694010664499 -0.013006404429239471 0.0095900408800717561 -0.0082755336501693488 0.0047373887709705482 0.010626469509090394 0.011717719191642002 0.0067471142794412256 -0.011113045970369091 -0.0043511917445124785
leaf_weight=10.69409368932247 112.50937724113464 19.723416447639465 17.264274924993515 106.64544020593166 97.01832403242588 24.421827867627144 12.513447165489195 37.764676541090012 42.138325959444046
leaf_count=45 453 84 71 448 416 104 52 153 174
internal_value=0 0.00377772 -9.54892e-05 0.00292431 0.00718716 0.00380977 0.00121312 -0.00781714 -0.00181005
internal_weight=0 368.184 172.368 123.91 195.815 98.797 74.3752 48.4588 54.6518
internal_count=2000 1547 717 519 830 414 310 198 226
is_linear=0
shrinkage=0.01


Tree=31
num_leaves=10
num_cat=0
split_feature=170 189 175 96 69 125 91 171 171
split_gain=238.155 123.353 71.4152 48.9005 35.4956 23.7676 16.391 18.5135 14.5297
threshold=1.0000000180025095e-35 1.0000000180025095e-35 1.0000000180025095e-35 2.2458333333333358 1.2416666666666651 0.58300000000000007 -0.11224999999999999 1.0110000000000003 0.45083333333333359
decision_type=2 2 2 2 2 2 2 2 2
left_child=1 3 8 4 5 -1 7 -7 -3
right_child=-2 2 -4 -5 -6 6 -8 -9 -10
leaf_value=0.0033370930151818156 -0.012887383798059721 0.0039777972474543668 -0.013233045405473676 0.0078928113212395675 0.008604089013991954 -0.0069369661230744587 -0.009544924354945401 0.010340139638836912 0.013380844397123837
leaf_weight=24.302560910582542 112.41344156861305 18.806491121649742 11.930007085204123 44.719071358442307 19.860062658786774 17.036429867148403 91.133504614233971 9.7527546435594541 130.21124485135078
leaf_count=100 453 79 48 187 83 69 368 40 573
internal_value=0 0.0037444 0.0103094 -0.00136487 -0.00391905 -0.00566776 -0.00752356 -0.000647138 0.0121942
internal_weight=0 367.752 160.948 206.804 162.085 142.225 117.923 26.7892 149.018
internal_count=2000 1547 700 847 660 577 477 109 652
is_linear=0
shrinkage=0.01


Tree=32
num_leaves=10
num_cat=0
split_feature=189 185 171 123 171 172 124 15 172
split_gain=190.355 90.373 63.5528 47.4875 29.4609 26.5814 25.7586 33.4638 23.9336
threshold=1.0000000180025095e-35 1.0000000180025095e-35 0.90916666666666657 -0.18329999999999999 0.89166666666666661 59.770000000000003 9.5725000000000016 0.82527777777777767 90.086666666666659
decision_type=2 2 2 2 2 2 2 2 2
left_child=2 8 3 -1 -3 -5 -4 -8 -2
right_child=1 4 6 5 -6 -7 7 -9 -10
leaf_value=0.00097937219684101208 0.01265681372919508 -0.012149725872262001 0.00726145432087458 -0.0032768916775630943 0.012768139539566101 -0.013981656017452961 -0.0063607546618606901 0.0093151476502980821 0.002443123400714153
leaf_weight=37.547367781400681 128.2107665091753 26.155414730310444 38.276056900620461 29.476127073168755 5.7963916063308707 108.88465116918087 59.493991836905479 17.66022515296936 27.942859470844269
leaf_count=155 564 106 159 120 25 440 241 74 116
internal_value=0 0.00769375 -0.00521107 -0.0089945 -0.00762936 -0.0117011 0.000554627 -0.00277262 0.0108291
internal_weight=0 188.105 291.338 175.908 31.9518 138.361 115.43 77.1542 156.154
internal_count=2000 811 1189 715 131 560 474 315 680
is_linear=0
shrinkage=0.01


Tree=33
num_leaves=10
num_cat=0
split_feature=170 189 175 96 146 118 42 171 31
split_gain=230.735 119.318 69.3592 47.5719 33.4114 17.7061 18.1175 14.2996 18.2283
threshold=1.0000000180025095e-35 1.0000000180025095e-35 1.0000000180025095e-35 2.2458333333333358 0.87366666666666659 -1.1472222222222197 9.0530000000000026 0.45083333333333359 0.95828571428571452
decision_type=2 2 2 2 2 2 2 2 2
left_child=1 3 7 4 -1 -6 -7 8 -3
right_child=-2 2 -4 -5 5 6 -8 -9 -10
leaf_value=0.0032552681136390933 -0.012694952438968381 -0.01275618268627364 -0.013033029656397134 0.0078187135146812713 -0.0003972926644480171 0.0091866360129893073 -0.010356736963003434 0.013233681138553449 0.0097280813413148336
leaf_weight=47.079734280705452 112.19771905243397 4.8702167570591 11.912238046526907 44.628383696079254 31.789731830358505 5.0499526858329764 78.168596163392067 129.2184926122427 13.886957213282583
leaf_count=195 453 20 48 187 129 21 315 573 59
internal_value=0 0.00369373 0.0101806 -0.00132363 -0.00384083 -0.00674568 -0.00917079 0.0120493 0.00389014
internal_weight=0 366.604 159.888 206.716 162.088 115.008 83.2185 147.976 18.7572
internal_count=2000 1547 700 847 660 465 336 652 79
is_linear=0
shrinkage=0.01


Tree=34
num_leaves=10
num_cat=0
split_feature=170 175 30 51 171 6 116 9 138
split_gain=226.42 48.8801 29.316 30.8015 27.8972 19.8481 12.058 11.9231 11.4998
threshold=1.0000000180025095e-35 1.0000000180025095e-35 0.68100000000000016 1.655 0.45083333333333359 18117.237500000007 0.75634920634920666 18786354.500000004 0.79200000000000015
decision_type=2 2 2 2 2 2 2 2 2
left_child=1 2 8 4 -4 7 -7 -6 -1
right_child=-2 -3 3 -5 5 6 -8 -9 -10
leaf_value=-0.0055728211093786636 -0.012581255117786426 -0.012252067525582742 -0.0096026760913118341 0.008683342811593709 0.014203614240629324 0.0060938107247182974 -0.0030210997789783711 0.0039082455185900011 0.0095583582694777122
leaf_weight=5.2803002148866645 112.08012309670448 18.330832123756409 23.899021074175835 61.002396240830421 14.328295335173605 18.347676619887352 69.451392218470573 52.337262541055679 102.98798412084579
leaf_count=22 453 74 97 261 63 77 287 222 444
internal_value=0 0.00366329 0.00450251 0.00254948 0.000451626 0.00200724 -0.00111633 0.00612101 0.0088204
internal_weight=0 365.965 347.634 239.366 178.364 154.465 87.7991 66.6656 108.268
internal_count=2000 1547 1473 1007 746 649 364 285 466
is_linear=0
shrinkage=0.01


Tree=35
num_leaves=10
num_cat=0
split_feature=170 189 175 17 124 171 33 37 6
split_gain=218.972 120.1 74.8155 38.1185 39.2718 28.3906 13.8341 13.5126 12.8036
threshold=1.0000000180025095e-35 1.0000000180025095e-35 1.0000000180025095e-35 101.98 8.5964285714285733 1.2925000000000002 1.1208333333333351 6.2950000000000008 107.02300000000001
decision_type=2 2 2 2 2 2 2 2 2
left_child=1 3 -3 4 8 7 -7 -6 -1
right_child=-2 2 -4 -5 5 6 -8 -9 -10
leaf_value=0.01212986496593553 -0.012382759947701445 0.012377269680928343 -0.015083222833105623 0.0068629686885262886 -0.012807600241675566 0.0043578885227147949 -0.0095848482624978359 -0.002429426654109322 0.00074861092504092995
leaf_weight=12.926535427570341 109.76234193146229 142.53502103686333 10.663714215159414 45.8523308634758 56.81649187207222 25.232482850551605 9.9117396622896177 16.101039811968803 42.00137647986412
leaf_count=54 444 632 43 193 229 103 40 65 173
internal_value=0 0.00374111 0.0104658 -0.0011919 -0.0034579 -0.00695752 0.000425613 -0.010516 0.00342703
internal_weight=0 362.041 153.199 208.842 162.99 108.062 35.1442 72.9175 54.9279
internal_count=1976 1532 675 857 664 437 143 294 227
is_linear=0
shrinkage=0.01


Tree=36
num_leaves=10
num_cat=0
split_feature=170 189 185 96 69 21 124 4 194
split_gain=214.897 118.228 60.9291 32.0672 39.8604 24.7368 22.1706 18.1274 12.7377
threshold=1.0000000180025095e-35 1.0000000180025095e-35 1.0000000180025095e-35 1.8458333333333352 1.2416666666666651 0.36119642857142858 8.5964285714285733 11.000000000000002 0.0059370873213392501
decision_type=2 2 2 2 2 2 2 2 2
left_child=1 3 -3 4 6 -4 8 -8 -1
right_child=-2 2 5 -5 -6 -7 7 -9 -10
leaf_value=0.01554074634635182 -0.012273151906593331 0.012860913124125 -0.013429127926977679 0.0048362454346116499 0.0088984125200349592 0.010334302431900833 -0.001432122427019933 -0.011058900424671312 -0.0014459419831745147
leaf_weight=5.3639710694551495 109.63580274581909 132.52245183289051 13.673165649175646 62.193490192294121 21.343334421515465 6.4454831480979911 27.564030990004539 67.362507611513138 24.936602830886841
leaf_count=22 444 591 56 260 90 28 112 271 102
internal_value=0 0.00371032 0.0103992 -0.00118039 -0.00373339 -0.00581595 -0.00588632 -0.00826355 0.00156113
internal_weight=0 361.405 152.641 208.764 146.57 20.1186 125.227 94.9265 30.3006
internal_count=1976 1532 675 857 597 84 507 383 124
is_linear=0
shrinkage=0.01


Tree=37
num_leaves=10
num_cat=0
split_feature=170 189 175 17 122 118 93 4 35
split_gain=210.909 116.389 72.783 36.8397 37.5737 15.5546 13.9573 13.6583 12.5887
threshold=1.0000000180025095e-35 1.0000000180025095e-35 1.0000000180025095e-35 101.98 -0.12534999999999999 -1.1633333333333347 0.0021111111111111005 5.0000000000000009 0.087275000000000005
decision_type=2 2 2 2 2 2 2 2 2
left_child=1 3 -3 4 7 -6 8 -1 -7
right_child=-2 2 -4 -5 5 6 -8 -9 -10
leaf_value=0.012667013442164192 -0.012165297429838755 0.012231000604477472 -0.01488605425833258 0.0067628416117191626 -0.00056604103472433949 0.0090778206801033542 -0.011721864341004935 0.00071798145192275694 -0.007032532031525175
leaf_weight=12.652701660990713 109.50239469110966 141.43905717134476 10.642729237675665 45.725085079669952 30.304244264960289 6.6371407359838512 56.134862899780273 39.212094560265541 18.016466185450554
leaf_count=53 444 632 43 193 123 27 226 162 73
internal_value=0 0.00367986 0.0103333 -0.00116901 -0.00339465 -0.00667559 -0.00896732 0.00363301 -0.00269537
internal_weight=0 360.764 152.082 208.683 162.958 111.093 80.7885 51.8648 24.6536
internal_count=1976 1532 675 857 664 449 326 215 100
is_linear=0
shrinkage=0.01


Tree=38
num_leaves=10
num_cat=0
split_feature=170 171 185 52 13 6 3 36 93
split_gain=207.007 50.0591 40.2114 26.2271 25.4256 19.7711 17.6772 13.5482 17.4514
threshold=1.0000000180025095e-35 0.6494444444444446 1.0000000180025095e-35 1.0436507936507902 0.49650000000000005 41409.013852023127 64.500000000000014 0.075816666666666657 -0.023666666666666645
decision_type=2 2 2 2 2 2 2 2 2
left_child=1 2 6 -3 -5 -6 -1 -8 -9
right_child=-2 3 -4 4 5 -7 7 8 -10
leaf_value=-0.0061299328305347133 -0.0120591445400638 0.0090610034776208055 -0.014268170155388456 0.010122528523734258 0.0043694185926501537 -0.0054632278982296983 0.0083144223350699979 0.0072845369020414176 -0.0079102663552812549
leaf_weight=24.912018164992332 109.3623471558094 136.89686360955238 21.462637960910797 32.012174621224403 42.264051586389542 39.620593801140785 32.485993430018425 13.915407434105875 16.546066209673882
leaf_count=103 444 594 87 138 181 164 138 59 68
internal_value=0 0.00364973 -0.00199736 0.00611132 0.00256598 -0.000388192 0.0010002 0.00382201 -0.000968978
internal_weight=0 360.116 109.322 250.794 113.897 81.8846 87.8595 62.9475 30.4615
internal_count=1976 1532 455 1077 483 345 368 265 127
is_linear=0
shrinkage=0.01


Tree=39
num_leaves=10
num_cat=0
split_feature=170 189 185 17 72 21 0 85 107
split_gain=203.163 114.569 58.7848 35.8462 33.1735 23.8637 22.2296 15.6447 18.9927
threshold=1.0000000180025095e-35 1.0000000180025095e-35 1.0000000180025095e-35 101.98 6.8302083333333359 0.36119642857142858 162.50000000000003 0.017321428571428554 0.91833333333333356
decision_type=2 2 2 2 2 2 2 2 2
left_child=1 3 -3 4 6 -4 -1 8 -8
right_child=-2 2 5 -5 -6 -7 7 -9 -10
leaf_value=-0.01136010048484999 -0.011954643001426863 0.012681171476729113 -0.013180059825075004 0.0066488353848530735 0.0054289892420513967 0.010223785933455812 -0.011545419740242278 0.0056849600219212064 -0.00057753796213438305
leaf_weight=45.073433622717857 109.21588706970215 131.18180748820305 13.642870858311655 45.580832213163376 33.836303725838661 6.4008219093084326 26.015095815062523 17.743804693222046 40.163647025823593
leaf_count=182 444 591 56 193 141 28 105 73 163
internal_value=0 0.00361809 0.0102441 -0.00118976 -0.00338397 -0.0057062 -0.00569566 -0.00265338 -0.00488905
internal_weight=0 359.639 151.226 208.413 162.832 20.0437 128.996 83.9225 66.1787
internal_count=1976 1532 675 857 664 84 523 341 268
is_linear=0
shrinkage=0.01


Tree=40
num_leaves=10
num_cat=0
split_feature=170 171 188 153 7 8 110 127 168
split_gain=185.864 48.9264 38.1818 31.1877 30.6124 15.7781 15.4585 13.5088 13.0576
threshold=1.0000000180025095e-35 0.45083333333333359 1.0000000180025095e-35 1.0893750000000002 0.028000000000000004 439.00000000000006 1.1950000000000001 1.4978000000000002 1.0000000180025095e-35
decision_type=2 2 2 2 2 2 2 2 2
left_child=1 3 4 -1 5 -3 7 -6 -7
right_child=-2 2 -4 -5 6 8 -8 -9 -10
leaf_value=-0.011092598853856932 -0.01153543708642139 -0.0079940700518975737 0.0087917395398047372 0.002973899079224534 -0.0091388997903348659 0.0095016413902367768 0.0039476396096495047 0.0063463704669172796 0.0015403337464210381
leaf_weight=34.164560377597809 108.09850493073463 8.2165772169828397 143.79837150871754 29.262258529663086 38.370602384209633 54.60503263771534 18.726472958922386 6.6029660105705252 33.082560464739799
leaf_count=139 440 34 628 123 158 236 80 28 139
internal_value=0 0.00338458 0.00505439 -0.00460295 0.00168715 0.00525641 -0.00368657 -0.00686537 0.00649802
internal_weight=0 366.829 303.403 63.4268 159.604 95.9042 63.7 44.9736 87.6876
internal_count=2005 1565 1303 262 675 409 266 186 375
is_linear=0
shrinkage=0.01


Tree=41
num_leaves=10
num_cat=0
split_feature=170 189 175 17 38 6 77 7 189
split_gain=182.42 115.835 63.0578 33.6227 44.7459 24.6369 19.7977 15.236 14.4915
threshold=1.0000000180025095e-35 1.0000000180025095e-35 1.0000000180025095e-35 97.492857142857176 96.708333333333357 3956.8610000000003 0.73062500000000008 0.011500000000000002 1.0000000180025095e-35
decision_type=2 2 2 2 2 2 2 2 2
left_child=1 3 -3 4 5 -1 7 -7 -2
right_child=8 2 -4 -5 -6 6 -8 -9 -10
leaf_value=0.00079755514886668875 -0.013611865591715984 0.011712129063688377 -0.012314265401000255 0.0054589703653163645 0.0056521707099512278 0.0050245661862257695 -0.01290413215442064 -0.0092653590197693952 -0.0052657750432174447
leaf_weight=31.58493484556675 79.807375758886337 144.03426805138588 11.819906413555143 52.399815171957016 38.133204057812691 13.407558739185335 58.158839777112007 16.823476165533066 28.139310657978058
leaf_count=129 327 651 48 221 159 55 234 68 113
internal_value=0 0.00335507 0.00988998 -0.00148319 -0.00378394 -0.00678315 -0.00949201 -0.00292773 -0.0114362
internal_weight=0 366.362 155.854 210.508 158.108 119.975 88.3899 30.231 107.947
internal_count=2005 1565 699 866 645 486 357 123 440
is_linear=0
shrinkage=0.01


Tree=42
num_leaves=10
num_cat=0
split_feature=170 189 175 17 38 6 59 171 127
split_gain=179.094 114.019 62.0312 32.9741 43.8596 24.1397 19.7339 14.4959 15.1926
threshold=1.0000000180025095e-35 1.0000000180025095e-35 1.0000000180025095e-35 97.492857142857176 96.708333333333357 3956.8610000000003 0.46166666666666656 0.45083333333333359 0.71793750000000012
decision_type=2 2 2 2 2 2 2 2 2
left_child=1 3 7 4 5 -1 -7 8 -3
right_child=-2 2 -4 -5 -6 6 -8 -9 -10
leaf_value=0.00078965731748511581 -0.01134042398190219 -0.0082904559112654472 -0.012206873674244461 0.0054107841351235513 0.0056016166778545652 0.0036951456577921228 -0.011100924979810849 0.012862256268093914 0.010428172820069446
leaf_weight=31.581841856241226 107.77102363109589 6.9613609015941647 11.804730385541914 52.338112309575081 38.092782199382782 10.188222378492354 78.214493483304977 125.01167315244675 11.496944308280943
leaf_count=129 440 29 48 221 159 42 315 572 50
internal_value=0 0.00332773 0.00982782 -0.00146898 -0.00374681 -0.00671476 -0.00939571 0.0116408 0.00336863
internal_weight=0 365.69 155.275 210.415 158.077 119.985 88.4027 143.47 18.4583
internal_count=2005 1565 699 866 645 486 357 651 79
is_linear=0
shrinkage=0.01


Tree=43
num_leaves=10
num_cat=0
split_feature=170 189 175 17 38 6 59 189 44
split_gain=175.816 112.262 61.0354 32.3378 42.99 23.6513 19.3297 14.3477 16.695
threshold=1.0000000180025095e-35 1.0000000180025095e-35 1.0000000180025095e-35 97.492857142857176 96.708333333333357 3956.8610000000003 0.46166666666666656 1.0000000180025095e-35 1.4985714285714302
decision_type=2 2 2 2 2 2 2 2 2
left_child=1 3 -3 4 5 -1 -7 -2 -9
right_child=7 2 -4 -5 -6 6 -8 8 -10
leaf_value=0.00078183719314233 -0.013415612254853363 0.011572829074979174 -0.012101169472639903 0.0053630416235564363 0.0055515452628806927 0.003660279309478051 -0.010986919690411039 -0.017139417309336276 -0.00017025634863783245
leaf_weight=31.578770279884338 79.493367820978165 142.87337273359299 11.788846254348753 52.276304647326469 38.052195459604263 10.182447522878645 78.235710799694061 8.174685016274454 19.940602123737335
leaf_count=129 327 651 48 221 159 42 315 33 80
internal_value=0 0.0033009 0.00976832 -0.00145489 -0.00370999 -0.00664692 -0.00930011 -0.011244 -0.00510414
internal_weight=0 364.988 154.662 210.325 158.049 119.997 88.4182 107.609 28.1153
internal_count=2005 1565 699 866 645 486 357 440 113
is_linear=0
shrinkage=0.01


Tree=44
num_leaves=10
num_cat=0
split_feature=170 171 188 153 7 69 124 153 22
split_gain=172.634 47.1896 36.6561 29.6123 29.4008 12.8357 13.6518 16.2783 12.383
threshold=1.0000000180025095e-35 0.45083333333333359 1.0000000180025095e-35 1.0893750000000002 0.028000000000000004 1.1075000000000002 9.0416666666666661 1.0000000180025095e-35 0.69900000000000007
decision_type=2 2 2 2 2 2 2 2 2
left_child=1 3 4 -1 5 6 -3 -8 -6
right_child=-2 2 -4 -5 8 -7 7 -9 -10
leaf_value=-0.010913896663471824 -0.011151578910764091 0.0086373529845582744 0.0086066442618439546 0.0028208299326453403 -0.0078035902101294252 0.01446042878113523 0.0098198166960671469 -0.0031408666510460226 0.0010498502536638551
leaf_weight=34.058044880628586 107.41707415878773 33.253549426794052 142.38175621628761 29.118354380130768 33.723463118076324 12.767876625061033 13.256638899445532 36.025617301464081 29.720926493406296
leaf_count=139 440 145 628 123 140 57 57 150 126
internal_value=0 0.00327411 0.00492261 -0.00458348 0.00161839 0.00512968 0.00368626 0.000345481 -0.00365614
internal_weight=0 364.306 301.13 63.1764 158.748 95.3037 82.5358 49.2823 63.4444
internal_count=2005 1565 1303 262 675 409 352 207 266
is_linear=0
shrinkage=0.01


Tree=45
num_leaves=10
num_cat=0
split_feature=170 189 185 72 90 4 149 125 153
split_gain=180.355 110.238 48.3809 32.2065 34.594 23.4681 19.3044 18.7316 16.5437
threshold=1.0000000180025095e-35 1.0000000180025095e-35 1.0000000180025095e-35 6.8302083333333359 0.23625000000000002 33.000000000000007 7.8750000000000009 0.58300000000000007 -0.21785714285714297
decision_type=2 2 2 2 2 2 2 2 2
left_child=1 3 -3 4 5 7 -4 -1 -9
right_child=-2 2 6 -5 -6 -7 -8 8 -10
leaf_value=0.011673099872907657 -0.01145938321234765 0.011946680116631376 -0.012602562682882536 0.0063862319192479148 0.0073274722958518211 -0.009285128784056098 0.0078331704254633074 0.0068056729676658411 -0.0060124804301927058
leaf_weight=9.8229893296956998 105.46269077062607 134.6374224871397 12.192868933081629 42.988094806671143 25.779540628194809 71.61357444524765 7.4449763894081107 12.853675693273543 46.475119739770889
leaf_count=41 433 619 50 181 110 290 33 53 189
internal_value=0 0.0033928 0.00980797 -0.00133057 -0.00332241 -0.00527281 -0.0048551 -0.00111766 -0.00323541
internal_weight=0 363.808 154.275 209.533 166.545 140.765 19.6378 69.1518 59.3288
internal_count=1999 1566 702 864 683 573 83 283 242
is_linear=0
shrinkage=0.01


Tree=46
num_leaves=10
num_cat=0
split_feature=189 175 171 131 171 17 18 22 9
split_gain=160.266 77.4911 60.8342 44.4953 25.3744 18.3443 16.5293 15.5991 12.4322
threshold=1.0000000180025095e-35 1.0000000180025095e-35 1.2405555555555552 0.006085000000000001 0.40645833333333353 103.61250000000001 8.1295000000000019 0.51071428571428557 76316319.500000015
decision_type=2 2 2 2 2 2 2 2 2
left_child=2 4 3 8 7 -5 -4 -2 -1
right_child=1 -3 6 5 -6 -7 -8 -9 -10
leaf_value=-0.0014796923968799581 -0.015706719407394886 -0.011261997724914803 -0.0086227482250075139 -0.010368613386270872 0.011412366745010529 -0.00035608652569244002 0.0056310384582210805 0.0043748484802390557 0.010376800864813185
leaf_weight=26.77732627093792 4.9499350339174297 19.634672179818153 9.4320615082979185 159.89690932631493 136.94631731510162 20.663120299577713 59.192676678299904 17.699828207492828 13.204874128103254
leaf_count=112 20 80 38 654 630 87 247 75 56
internal_value=0 0.00748445 -0.00455059 -0.00710914 0.00979077 -0.00922279 0.00367194 -1.38268e-05 0.00243614
internal_weight=0 179.231 289.167 220.542 159.596 180.56 68.6247 22.6498 39.9822
internal_count=1999 805 1194 909 725 741 285 95 168
is_linear=0
shrinkage=0.01


Tree=47
num_leaves=10
num_cat=0
split_feature=170 171 19 188 4 8 4 17 90
split_gain=175.362 48.5837 28.4846 26.2628 23.5123 20.0305 13.8414 14.544 11.6887
threshold=1.0000000180025095e-35 0.6494444444444446 6.3732142857142859 1.0000000180025095e-35 21.000000000000004 439.00000000000006 67.000000000000014 97.492857142857176 0.0070833333333333009
decision_type=2 2 2 2 2 2 2 2 2
left_child=1 2 -1 4 -3 -4 7 8 -6
right_child=-2 3 5 -5 6 -7 -8 -9 -10
leaf_value=-0.0098669670878464653 -0.011316403247093544 0.0071822684307472819 -0.014100533774388045 0.0091880570361466685 -0.0023742570405883125 0.0028204334370934146 0.0091782928801425155 0.0062785132181894321 -0.013213445587832683
leaf_weight=33.316581293940544 105.14055742323399 61.742940902709961 7.7578503042459479 119.67875973880291 30.908990636467934 71.226987153291702 10.622950121760367 12.591034710407255 14.671070024371145
leaf_count=137 433 268 32 534 130 303 47 55 60
internal_value=0 0.00335198 -0.00211246 0.00580452 0.00270243 0.00115846 -0.00131825 -0.00323508 -0.00586312
internal_weight=0 362.517 112.301 250.216 130.537 78.9848 68.794 58.1711 45.5801
internal_count=1999 1566 472 1094 560 335 292 245 190
is_linear=0
shrinkage=0.01


Tree=48
num_leaves=10
num_cat=0
split_feature=170 171 19 188 4 0 29 4 69
split_gain=172.171 47.7166 27.9217 25.8634 23.0902 18.3899 13.7993 13.5888 14.3256
threshold=1.0000000180025095e-35 0.6494444444444446 6.3732142857142859 1.0000000180025095e-35 21.000000000000004 70.500000000000014 1.0000000180025095e-35 67.000000000000014 1.3333333333333353
decision_type=2 2 2 2 2 2 2 2 2
left_child=1 2 -1 4 -3 -4 -7 8 -6
right_child=-2 3 5 -5 7 6 -8 -9 -10
leaf_value=-0.0097698088131814992 -0.011223814801030898 0.0071230587988976423 -0.010308937614177225 0.0091205587772042618 -0.004968513752753703 0.0072812477946043721 -0.0018375898639297935 0.0091102336241568292 0.010745596152583281
leaf_weight=33.311452105641365 104.94877438247204 61.634157985448837 11.900108873844145 119.36041839420795 51.632248237729073 36.900573536753654 30.157530307769775 10.595425590872763 6.5357415825128546
leaf_count=137 433 268 49 534 216 159 127 47 29
internal_value=0 0.00332301 -0.00209192 0.00575709 0.00267831 0.00114728 0.0031803 -0.00130561 -0.00320288
internal_weight=0 362.028 112.27 249.758 130.398 78.9582 67.0581 68.7634 58.168
internal_count=1999 1566 472 1094 560 335 286 292 245
is_linear=0
shrinkage=0.01


Tree=49
num_leaves=10
num_cat=0
split_feature=189 175 171 131 171 17 172 1 18
split_gain=156.063 74.7454 58.1519 42.9537 24.406 17.7405 19.0089 21.8342 16.016
threshold=1.0000000180025095e-35 1.0000000180025095e-35 1.2405555555555552 0.006085000000000001 0.40645833333333353 103.61250000000001 72.550000000000026 323.50000000000006 8.1295000000000019
decision_type=2 2 2 2 2 2 2 2 2
left_child=2 4 3 -1 -2 6 7 -5 -4
right_child=1 -3 8 5 -6 -7 -8 -9 -10
leaf_value=0.0023971855213693418 7.5898276241440744e-05 -0.011027562899830508 -0.008545181844358922 -0.01848417945499756 0.011295794035526415 -0.00034660714481506171 -0.013346398911740914 -0.003905890710043164 0.0054946481495327893
leaf_weight=39.85399903357029 22.616231754422188 19.556812822818756 9.4232663214206678 12.404222801327704 135.79505696892738 20.615522429347038 87.225965857505798 59.812429770827293 58.980744600296021
leaf_count=168 95 80 38 50 630 87 361 243 247
internal_value=0 0.00741687 -0.00449197 -0.00699672 0.00969394 -0.00907596 -0.0102046 -0.00640992 0.00356054
internal_weight=0 177.968 288.316 219.912 158.411 180.058 159.443 72.2167 68.404
internal_count=1999 805 1194 909 725 741 654 293 285
is_linear=0
shrinkage=0.01


Tree=50
num_leaves=10
num_cat=0
split_feature=189 175 170 17 13 170 145 193 171
split_gain=154.668 73.6797 60.6514 34.3842 30.3247 29.6472 23.5149 14.1758 11.7161
threshold=1.0000000180025095e-35 1.0000000180025095e-35 1.0000000180025095e-35 101.98 0.23333333333333353 1.0000000180025095e-35 0.8908333333333337 0.0085944480039550509 0.45083333333333359
decision_type=2 2 2 2 2 2 2 2 2
left_child=2 5 3 4 -1 8 -6 -7 -2
right_child=1 -3 -4 -5 6 7 -8 -9 -10
leaf_value=0.0073940874092767494 0.0039414473437863959 -0.011593492516098316 -0.012501686003500351 0.0059907300587929233 0.0032393773962558809 0.0064405294986196104 -0.0075106402816221066 -0.011224050112134121 0.012293400708146196
leaf_weight=20.244857832789421 19.611839979887009 18.54793144762516 74.532939091324806 42.891099274158478 24.531141594052315 8.9751804918050784 119.33268585801125 9.1995773911476117 116.98655070364475
leaf_count=86 85 76 311 184 102 36 483 37 551
internal_value=0 0.00724075 -0.00476657 -0.00198144 -0.00406503 0.00949784 -0.00567759 -0.00250081 0.0110943
internal_weight=0 173.321 281.533 207 164.109 154.773 143.864 18.1748 136.598
internal_count=1951 785 1166 855 671 709 585 73 636
is_linear=0
shrinkage=0.01


Tree=51
num_leaves=10
num_cat=0
split_feature=189 175 170 17 38 170 77 4 193
split_gain=151.972 72.4574 59.6814 33.7222 29.3671 29.2419 17.3167 14.3039 13.901
threshold=1.0000000180025095e-35 1.0000000180025095e-35 1.0000000180025095e-35 101.98 100.10000000000001 1.0000000180025095e-35 0.49366666666666653 33.000000000000007 0.0085944480039550509
decision_type=2 2 2 2 2 2 2 2 2
left_child=2 5 3 4 6 -2 7 -1 -7
right_child=1 -3 -4 -5 -6 8 -8 -9 -10
leaf_value=0.0071815511646042265 0.011030241647171724 -0.011497221666450867 -0.012408449877141963 0.0059398703457254187 0.0056121240127208847 0.0063744048394014461 -0.0076975992541844975 -0.0071181726818451479 -0.01112009253401759
leaf_weight=16.313279360532764 136.02073934674263 18.516366496682167 74.342996671795845 42.826095283031464 26.5130345672369 8.9775894433259982 109.02215757966042 12.246581420302389 9.1927589625120145
leaf_count=68 636 76 311 184 112 36 441 50 37
internal_value=0 0.007194 -0.00472344 -0.00196235 -0.0040247 0.00943857 -0.00588178 0.00104977 -0.00247643
internal_weight=0 172.707 281.264 206.921 164.095 154.191 137.582 28.5599 18.1703
internal_count=1951 785 1166 855 671 709 559 118 73
is_linear=0
shrinkage=0.01


Tree=52
num_leaves=10
num_cat=0
split_feature=189 175 17 13 172 172 85 22 0
split_gain=149.316 71.2506 48.444 35.8331 36.195 20.6064 19.3436 19.1524 14.3975
threshold=1.0000000180025095e-35 1.0000000180025095e-35 101.98 0.23333333333333353 81.043333333333365 82.74666666666667 0.035833333333333363 0.49928571428571455 95.500000000000014
decision_type=2 2 2 2 2 2 2 2 2
left_child=2 5 3 -1 6 -2 8 -7 -5
right_child=1 -3 -4 4 -6 7 -8 -9 -10
leaf_value=0.0047677503252700325 0.011343768980696705 -0.011402325059243735 0.0043447834769460352 -0.014639265268912072 -0.013213248952564392 -0.013797677144332186 0.0019554683462952049 0.0059638609530055101 -0.0049523099750658451
leaf_weight=24.802571952342987 119.28678186237812 18.483927890658379 49.080869048833847 19.312919571995735 80.14050480723381 5.9275344759225836 33.007518619298935 28.412046149373055 74.642867624759674
leaf_count=105 562 76 210 78 334 24 137 123 302
internal_value=0 0.00714694 -0.00468083 -0.00659102 -0.00795134 0.00937874 -0.00462997 0.00255272 -0.0069435
internal_weight=0 172.11 280.987 231.906 207.104 153.626 126.963 34.3396 93.9558
internal_count=1951 785 1166 956 851 709 517 147 380
is_linear=0
shrinkage=0.01


Tree=53
num_leaves=10
num_cat=0
split_feature=189 175 170 69 124 170 13 8 154
split_gain=146.696 70.0611 58.134 32.9344 39.6787 28.6274 23.902 13.7158 13.9874
threshold=1.0000000180025095e-35 1.0000000180025095e-35 1.0000000180025095e-35 1.2416666666666651 7.7350000000000003 1.0000000180025095e-35 0.48250000000000004 439.00000000000006 0.090347222222222259
decision_type=2 2 2 2 2 2 2 2 2
left_child=2 5 3 4 7 -2 -6 -1 -9
right_child=1 -3 -4 -5 6 -7 -8 8 -10
leaf_value=-0.012601325224461229 0.010905382124336909 -0.011308764856827072 -0.012245466316087377 0.0086179237962700547 0.0057719948237248252 -0.002467795874203526 -0.0083369013550220854 0.0066904636377595793 -0.007533794765899565
leaf_weight=5.0492842346429816 134.91160379350185 18.450648352503777 73.980857357382774 25.954242870211601 13.528682976961134 18.161973208189011 106.77742610871792 47.360485926270485 8.0947982817888242
leaf_count=21 636 76 311 112 56 73 432 201 33
internal_value=0 0.0070998 -0.00463805 -0.0019161 -0.00342819 0.00931867 -0.00675033 0.00317747 0.00461415
internal_weight=0 171.524 280.746 206.765 180.811 153.074 120.306 60.5046 55.4553
internal_count=1951 785 1166 855 743 709 488 255 234
is_linear=0
shrinkage=0.01


Tree=54
num_leaves=10
num_cat=0
split_feature=189 175 170 69 124 170 23 1 25
split_gain=144.141 68.8972 57.2134 32.3234 38.8849 28.2344 15.9083 13.9849 13.7032
threshold=1.0000000180025095e-35 1.0000000180025095e-35 1.0000000180025095e-35 1.2416666666666651 7.7350000000000003 1.0000000180025095e-35 1.8475000000000001 990.00000000000011 0.84523809523809512
decision_type=2 2 2 2 2 2 2 2 2
left_child=2 5 3 4 8 -2 7 -6 -1
right_child=1 -3 -4 -5 6 -7 -8 -9 -10
leaf_value=-0.008329150109093901 0.010841712230573942 -0.011216504654701505 -0.012155965291578082 0.0085510867229158603 -0.0099338579999241894 -0.0024434551104120066 0.0026442536645292286 -0.00079869076890655812 0.0051236245103333878
leaf_weight=8.8746565729379636 134.34967994689941 18.41655932366848 73.781303733587265 25.895829141139984 83.473704159259796 18.159478709101677 15.875755324959753 20.967607483267784 51.574919149279594
leaf_count=36 636 76 311 112 337 73 66 85 219
internal_value=0 0.00705359 -0.00459663 -0.00189785 -0.00339471 0.00925983 -0.0066822 -0.00809988 0.00314861
internal_weight=0 170.926 280.444 206.662 180.767 152.509 120.317 104.441 60.4496
internal_count=1951 785 1166 855 743 709 488 422 255
is_linear=0
shrinkage=0.01


Tree=55
num_leaves=10
num_cat=0
split_feature=189 171 170 6 17 122 185 170 6
split_gain=139.385 64.7687 55.2533 27.9313 23.6907 24.9378 17.5988 17.3044 11.7485
threshold=1.0000000180025095e-35 0.40645833333333353 1.0000000180025095e-35 2525.1850000000004 97.492857142857176 -0.081464285714285697 1.0000000180025095e-35 1.0000000180025095e-35 45201.350500000008
decision_type=2 2 2 2 2 2 2 2 2
left_child=2 6 3 -1 5 8 -2 -3 -5
right_child=1 7 -4 4 -6 -7 -8 -9 -10
leaf_value=0.0039782236760011209 0.0021048153453810097 0.011043445970047175 -0.011789489365504158 -0.0041816932766037184 0.0032403935448393202 -0.010757821855422412 -0.011628549289594999 -0.0028119004879306555 0.0066282192686790385
leaf_weight=58.096548721194267 18.437084078788757 124.78451131284237 77.84594264626503 37.501161456108093 32.825617805123329 60.689924120903015 18.892619058489799 9.7159300744533521 13.736772194504736
leaf_count=244 78 597 329 154 140 245 78 39 57
internal_value=0 0.00680814 -0.00462755 -0.00187908 -0.00422989 -0.00642074 -0.00484566 0.0100426 -0.00128358
internal_weight=0 171.83 280.696 202.85 144.753 111.928 37.3297 134.5 51.2379
internal_count=1961 792 1169 840 596 456 156 636 211
is_linear=0
shrinkage=0.01


Tree=56
num_leaves=10
num_cat=0
split_feature=189 175 170 170 7 17 122 11 96
split_gain=136.94 66.3607 54.3884 35.4037 27.5566 17.0464 21.2694 17.5386 15.7408
threshold=1.0000000180025095e-35 1.0000000180025095e-35 1.0000000180025095e-35 1.0000000180025095e-35 0.011500000000000002 96.541666666666671 -0.13224999999999998 4.322111111111111 1.8218750000000001
decision_type=2 2 2 2 2 2 2 2 2
left_child=2 3 4 -2 5 6 -1 -8 -6
right_child=1 -3 -4 -5 8 -7 7 -9 -10
leaf_value=0.0055749227369818336 0.010835675259232423 -0.01021676801937425 -0.011703679687842328 -0.0040536304784682588 -0.0093110788347474348 0.0072723301184394948 0.0016435616272808579 -0.0091105807407295576 0.00088783922989515074
leaf_weight=31.302358761429787 132.80686165392399 20.289659261703491 77.633597001433372 18.152649894356728 56.332140117883682 32.410310968756676 26.391327112913132 35.65052792429924 20.691203027963638
leaf_count=133 635 84 329 73 229 140 107 144 87
internal_value=0 0.00676309 -0.00458596 0.00904526 -0.00186094 0.0010241 -0.00114536 -0.00453599 -0.00657129
internal_weight=0 171.249 280.411 150.96 202.778 125.755 93.3442 62.0419 77.0233
internal_count=1961 792 1169 708 840 524 384 251 316
is_linear=0
shrinkage=0.01


Tree=57
num_leaves=10
num_cat=0
split_feature=189 171 170 6 17 122 185 170 6
split_gain=134.558 63.1175 53.5378 27.0712 22.9425 24.2097 17.0677 16.8204 11.445
threshold=1.0000000180025095e-35 0.40645833333333353 1.0000000180025095e-35 2525.1850000000004 97.492857142857176 -0.081464285714285697 1.0000000180025095e-35 1.0000000180025095e-35 45201.350500000008
decision_type=2 2 2 2 2 2 2 2 2
left_child=2 6 3 -1 5 8 -2 -3 -5
right_child=1 7 -4 4 -6 -7 -8 -9 -10
leaf_value=0.0039284988096204322 0.0020559533632921972 0.010927172496401268 -0.011619018604876767 -0.004109231109078325 0.0031997530090404052 -0.010587155718858042 -0.011487611746527869 -0.0027396197222033995 0.0065651432063763074
leaf_weight=58.008196890354156 18.396661937236786 123.70008164644241 77.418356463313103 37.513130754232407 32.783030569553375 60.665058955550194 18.8277587890625 9.7124425470828992 13.717678621411322
leaf_count=244 78 597 329 154 140 245 78 39 57
internal_value=0 0.00671965 -0.00454509 -0.00184313 -0.00415724 -0.00631267 -0.00479425 0.00993223 -0.00125104
internal_weight=0 170.637 280.105 202.687 144.679 111.896 37.2244 133.413 51.2308
internal_count=1961 792 1169 840 596 456 156 636 211
is_linear=0
shrinkage=0.01


Tree=58
num_leaves=10
num_cat=0
split_feature=189 185 171 96 79 171 172 7 125
split_gain=132.203 62.2325 41.306 30.2247 26.262 20.4428 17.7824 15.8421 17.9031
threshold=1.0000000180025095e-35 1.0000000180025095e-35 0.45083333333333359 1.8908333333333351 0.034222222222222209 0.89166666666666661 83.486250000000027 0.020500000000000001 0.61437500000000012
decision_type=2 2 2 2 2 2 2 2 2
left_child=2 6 -1 4 7 -3 -2 8 -4
right_child=1 5 3 -5 -6 -7 -8 -9 -10
leaf_value=-0.010816548698306066 0.011317331190556361 -0.010167854838593985 0.0052406424077833507 0.0038129152734926999 0.0045867011851699873 0.010644068134416507 0.002438409097491729 -0.011127910138469879 -0.0064578186604580777
leaf_weight=75.645210161805153 111.06232675909996 24.860308781266216 17.187379330396652 59.793559610843658 25.408841952681541 5.8257152289152137 28.305079445242882 47.007407575845718 54.766788750886917
leaf_count=318 538 104 72 255 107 27 123 192 225
internal_value=0 0.00667544 -0.00450444 -0.00216573 -0.0046419 -0.00621673 0.00951405 -0.00661302 -0.00366346
internal_weight=0 170.053 279.809 204.164 144.37 30.686 139.367 118.962 71.9542
internal_count=1961 792 1169 851 596 131 661 489 297
is_linear=0
shrinkage=0.01


Tree=59
num_leaves=10
num_cat=0
split_feature=189 175 170 170 96 69 144 7 1
split_gain=129.869 63.6552 52.4004 34.3508 26.3539 23.7323 18.7009 13.6426 11.101
threshold=1.0000000180025095e-35 1.0000000180025095e-35 1.0000000180025095e-35 1.0000000180025095e-35 1.7573333333333352 1.1075000000000002 0.68775000000000008 0.013000000000000003 1813.0000000000002
decision_type=2 2 2 2 2 2 2 2 2
left_child=2 3 4 -2 5 6 -1 -8 -5
right_child=1 -3 -4 8 -6 -7 7 -9 -10
leaf_value=0.0019333825167261742 0.010669339915267478 -0.010032226076766486 -0.0114820760547852 0.00078974124717637404 0.0033990605418407374 0.0062333848801767568 -0.0048180868687979538 -0.012574485883974975 -0.016755234598529761
leaf_weight=23.990345641970634 131.14424487948418 20.193411275744438 77.045661062002182 13.178833022713663 65.940265655517578 18.497727751731873 56.034621968865395 38.091737791895866 4.964829981327056
leaf_count=99 635 84 329 53 280 80 227 154 20
internal_value=0 0.00663117 -0.00446275 0.00888514 -0.00179281 -0.0042988 -0.00594819 -0.007957 -0.00401126
internal_weight=0 169.481 279.6 149.288 202.555 136.614 118.117 94.1264 18.1437
internal_count=1961 792 1169 708 840 560 480 381 73
is_linear=0
shrinkage=0.01


Tree=60
num_leaves=10
num_cat=0
split_feature=170 189 185 96 69 124 171 171 133
split_gain=140.311 79.8957 41.9918 35.5625 27.1581 21.1645 21.0852 11.6869 11.6181
threshold=1.0000000180025095e-35 1.0000000180025095e-35 1.0000000180025095e-35 1.9883333333333353 1.2416666666666651 12.055000000000001 0.63225000000000009 0.90916666666666657 0.012678571428571452
decision_type=2 2 2 2 2 2 2 2 2
left_child=1 3 -3 4 5 8 -4 -5 -1
right_child=-2 2 6 7 -6 -7 -8 -9 -10
leaf_value=0.0081415222656916857 -0.01005215503206212 0.010981194522520051 -0.012649785770979203 0.0016307219322887498 0.0073489544992946946 -0.0081407855066828877 0.0079744394973555281 0.0107555778293792 -0.0030450510763207149
leaf_weight=13.549718931317328 106.04647482931614 123.71918335556984 12.418233633041384 30.774103850126266 19.837043792009354 84.36737097799778 8.2503518611192685 25.806405544281006 29.491350144147873
leaf_count=56 448 604 52 130 86 342 38 112 120
internal_value=0 0.00308578 0.00877698 -0.000945785 -0.00353507 -0.00522967 -0.00441714 0.00579257 0.000476584
internal_weight=0 348.214 144.388 203.826 147.245 127.408 20.6686 56.5805 43.0411
internal_count=1988 1540 694 846 604 518 90 242 176
is_linear=0
shrinkage=0.01


Tree=61
num_leaves=10
num_cat=0
split_feature=170 189 185 96 72 171 172 91 137
split_gain=137.821 78.6977 41.3841 34.8888 25.9913 20.6934 19.8914 12.8593 12.8289
threshold=1.0000000180025095e-35 1.0000000180025095e-35 1.0000000180025095e-35 1.9883333333333353 6.9250000000000007 0.63225000000000009 39.872500000000009 -0.12224999999999998 1.0361250000000002
decision_type=2 2 2 2 2 2 2 2 2
left_child=1 3 -3 4 6 -4 -1 -8 -9
right_child=-2 2 5 -5 -6 -7 7 8 -10
leaf_value=0.00059850311652847633 -0.0099733944232568844 0.010921987910211808 -0.012537872553099223 0.0057434746231859379 0.0059925545227314568 0.007911938990760186 -0.00055251165483463324 -0.013656560500214014 -0.0046923305039726316
leaf_weight=38.49251052737236 105.81624820828438 123.1488144993782 12.403860077261927 56.49428291618824 24.114321276545525 8.2324604690074903 17.920476377010345 40.174614176154137 26.49241429567337
leaf_count=158 448 604 52 242 102 38 73 163 108
internal_value=0 0.00306154 0.00872584 -0.000936929 -0.00350092 -0.00437982 -0.00536092 -0.00807282 -0.0100943
internal_weight=0 347.474 143.785 203.689 147.194 20.6363 123.08 84.5875 66.667
internal_count=1988 1540 694 846 604 90 502 344 271
is_linear=0
shrinkage=0.01


Tree=62
num_leaves=10
num_cat=0
split_feature=170 189 185 96 69 124 77 172 99
split_gain=135.378 77.5207 40.7861 34.2257 26.3888 20.5365 17.8487 12.9821 12.1887
threshold=1.0000000180025095e-35 1.0000000180025095e-35 1.0000000180025095e-35 1.9883333333333353 1.2416666666666651 12.055000000000001 0.60375000000000012 39.872500000000009 0.93944444444444464
decision_type=2 2 2 2 2 2 2 2 2
left_child=1 3 -3 4 5 -1 -4 8 -7
right_child=-2 2 6 -5 -6 7 -8 -9 -10
leaf_value=0.00048621788244881026 -0.0098955445574927109 0.010863356974365886 0.011878294950323869 0.0056940141260296328 0.0072763417102714523 0.010517412427617953 -0.0096835096012374625 -0.010581397707992202 -0.0058525454094647857
leaf_weight=43.016604617238045 105.5834047794342 122.57819551229477 5.1031310856342342 56.415561899542809 19.787991121411324 5.9336674809455898 15.500184446573256 58.918713942170143 19.483306750655174
leaf_count=176 448 604 24 242 86 24 66 239 79
internal_value=0 0.00303746 0.00867522 -0.000928157 -0.00346719 -0.00513652 -0.00434298 -0.00800447 -0.00203093
internal_weight=0 346.737 143.182 203.556 147.14 127.352 20.6033 84.3357 25.417
internal_count=1988 1540 694 846 604 518 90 342 103
is_linear=0
shrinkage=0.01


Tree=63
num_leaves=10
num_cat=0
split_feature=189 185 19 172 123 176 130 77 172
split_gain=113.38 57.9034 47.6239 22.4212 22.3518 21.4818 17.98 17.3071 14.5489
threshold=1.0000000180025095e-35 1.0000000180025095e-35 6.495000000000001 44.911833333333355 -0.13458333333333347 1.0000000180025095e-35 0.38281250000000006 0.60375000000000012 90.086666666666659
decision_type=2 2 2 2 2 2 2 2 2
left_child=2 8 3 -1 -4 6 -6 -3 -2
right_child=1 7 4 -5 5 -7 -8 -9 -10
leaf_value=0.00055630281425807443 0.01075153909597559 0.010490619832072083 0.0037913619715989684 -0.01131088226094646 -0.0099023112875889392 0.0019982611494838579 0.0035339100449898048 -0.0093091906628085825 0.0026575972217935139
leaf_weight=19.463433995842934 112.718541264534 5.3263906389474895 68.250040978193283 87.469123125076294 50.525105327367783 41.741303563117981 12.404672697186468 25.792789161205292 27.656988352537155
leaf_count=79 558 25 292 368 210 174 53 109 120
internal_value=0 0.00642099 -0.00390502 -0.00915086 -0.000661039 -0.0035642 -0.00725377 -0.00592023 0.00915686
internal_weight=0 171.495 279.854 106.933 172.921 104.671 62.9298 31.1192 140.376
internal_count=1988 812 1176 447 729 437 263 134 678
is_linear=0
shrinkage=0.01


Tree=64
num_leaves=10
num_cat=0
split_feature=170 189 185 96 69 37 21 2 13
split_gain=131.621 75.0678 39.6501 33.2287 25.6551 18.8175 16.6676 12.1 11.5248
threshold=1.0000000180025095e-35 1.0000000180025095e-35 1.0000000180025095e-35 1.9883333333333353 1.2416666666666651 6.2950000000000008 0.36155000000000004 0.31187252463848208 0.48250000000000004
decision_type=2 2 2 2 2 2 2 2 2
left_child=1 3 -3 4 5 8 7 -4 -1
right_child=-2 2 6 -5 -6 -7 -8 -9 -10
leaf_value=0.0055353220349416057 -0.0097768756419192217 0.010752572750115119 -0.018699345642660802 0.0056366470217396863 0.0072110136255922929 0.00047744191746499964 0.01089925834274038 -0.00084996116393727867 -0.00873471879181178
leaf_weight=6.0926675498485556 105.16120406985283 121.47682209312916 7.4602298736572283 56.309754371643066 19.737338230013847 41.588429555296898 5.3583942651748648 7.7361903190612793 79.613732308149338
leaf_count=25 448 604 31 242 86 170 25 34 323
internal_value=0 0.00300085 0.00857917 -0.000895527 -0.00339719 -0.00504202 -0.00426539 -0.00961258 -0.00772029
internal_weight=0 345.374 142.032 203.342 147.032 127.295 20.5548 15.1964 85.7064
internal_count=1988 1540 694 846 604 518 90 65 348
is_linear=0
shrinkage=0.01


Tree=65
num_leaves=10
num_cat=0
split_feature=189 185 170 96 30 171 170 7 134
split_gain=120.599 56.1076 53.2084 35.1172 23.7351 22.3379 20.5559 20.4479 14.8288
threshold=1.0000000180025095e-35 1.0000000180025095e-35 1.0000000180025095e-35 1.8975000000000002 0.78416666666666657 0.89166666666666661 1.0000000180025095e-35 0.0065000000000000014 0.011000000000000001
decision_type=2 2 2 2 2 2 2 2 2
left_child=2 6 3 4 7 -3 -2 -1 -8
right_child=1 5 -4 -5 -6 -7 8 -9 -10
leaf_value=0.0050424789715411934 0.010867369137004042 -0.0096982035984225102 -0.011297601971889453 0.0047906112078858519 -0.0076431991301153437 0.012167084183549493 0.0086987622723363363 -0.0067454181575985405 -0.0095349354262753983
leaf_weight=38.260727554559708 118.53348365426064 24.947718828916553 75.369051232933998 62.33600278198719 83.935426995158195 5.7489983737468711 8.7056315690279025 23.912663325667381 9.1461326330900174
leaf_count=162 592 106 327 268 340 27 35 98 37
internal_value=0 0.00661153 -0.00409694 -0.00149334 -0.00417434 -0.00560319 0.00936075 0.000508706 -0.000643049
internal_weight=0 167.082 283.814 208.445 146.109 30.6967 136.385 62.1734 17.8518
internal_count=1992 797 1195 868 600 133 664 260 72
is_linear=0
shrinkage=0.01


Tree=66
num_leaves=10
num_cat=0
split_feature=189 185 170 96 144 111 171 170 134
split_gain=118.531 55.2344 52.3936 34.4402 25.4974 22.4132 21.9372 20.3156 14.538
threshold=1.0000000180025095e-35 1.0000000180025095e-35 1.0000000180025095e-35 1.8975000000000002 0.67585714285714316 1.8250000000000004 0.89166666666666661 1.0000000180025095e-35 0.011000000000000001
decision_type=2 2 2 2 2 2 2 2 2
left_child=2 7 3 4 -1 -6 -3 -2 -9
right_child=1 6 -4 -5 5 -7 -8 8 -10
leaf_value=0.0039002787989817467 0.010810883069542952 -0.0096122015987095254 -0.011220159752909274 0.0047483008227891524 -0.0077517823373873945 0.0071832556757180296 0.012092951499798789 0.0086073399870878961 -0.0094484652619723011
leaf_weight=31.092904299497604 117.96414324641228 24.919363394379619 75.131553202867508 62.262910574674606 103.84578685462475 11.124696746468542 5.7265115380287162 8.7100940346717852 9.1375803202390653
leaf_count=131 592 106 327 268 421 48 27 35 37
internal_value=0 0.00657015 -0.00406111 -0.00147924 -0.00413387 -0.00630665 -0.00555636 0.00930649 -0.000636798
internal_weight=0 166.458 283.458 208.326 146.063 114.97 30.6459 135.812 17.8477
internal_count=1992 797 1195 868 600 469 133 664 72
is_linear=0
shrinkage=0.01


Tree=67
num_leaves=10
num_cat=0
split_feature=170 171 19 188 1 52 172 131 164
split_gain=106.224 34.1099 28.8969 20.6591 18.2834 13.4411 13.327 11.9288 12.4883
threshold=1.0000000180025095e-35 0.90916666666666657 6.336666666666666 1.0000000180025095e-35 345.50000000000006 1.0133928571428552 58.486000000000011 0.029163500000000005 11.725000000000001
decision_type=2 2 2 2 2 2 2 2 2
left_child=1 2 6 5 -4 -3 -1 -7 -9
right_child=-2 3 4 -5 -6 7 -8 8 -10
leaf_value=0.00201790247305412 -0.0090565620109035391 0.0063076762448623855 -0.0066886623297637768 0.0091614972814276809 0.003715139018361065 0.0047370316938059919 -0.010162370052574641 -0.0086792591360766343 0.0074153826252107563
leaf_weight=11.87672236561775 102.72785097360611 44.631241098046303 20.362694010138512 84.412267997860909 99.095155000686646 19.692033737897873 36.867711126804352 23.168875157833103 6.0878049582242957
leaf_count=52 441 201 87 401 443 87 155 98 27
internal_value=0 0.00252302 -0.00070596 0.00557439 0.00194171 0.00233871 -0.00719461 -0.00128019 -0.00533024
internal_weight=0 346.195 168.202 177.992 119.458 93.58 48.7444 48.9487 29.2567
internal_count=1992 1551 737 814 530 413 207 212 125
is_linear=0
shrinkage=0.01


Tree=68
num_leaves=10
num_cat=0
split_feature=189 185 170 13 77 171 171 170 128
split_gain=116.147 53.9321 50.6261 27.5524 30.4725 21.3724 20.1723 19.6647 15.2136
threshold=1.0000000180025095e-35 1.0000000180025095e-35 1.0000000180025095e-35 0.25083333333333352 0.49366666666666653 0.89166666666666661 1.6983333333333352 1.0000000180025095e-35 0.13507142857142854
decision_type=2 2 2 2 2 2 2 2 2
left_child=2 7 3 -1 -5 -3 8 -2 -6
right_child=1 5 -4 4 6 -7 -8 -9 -10
leaf_value=0.0064773118033915889 0.010732498109373356 -0.0094761397795542351 -0.011082191605213175 0.0040532090964681957 -0.0014094520981537716 0.012002071201257637 0.0041256363492058416 -0.00054049949804592238 -0.0096015684935948208
leaf_weight=35.951304584741592 117.13094620406628 24.849709361791614 74.696214929223061 43.802823901176453 31.945438504219055 5.6946401894092551 18.263376295566559 17.829712748527527 78.070995554327965
leaf_count=157 592 106 327 186 132 27 76 72 317
internal_value=0 0.00652753 -0.00402033 -0.00148472 -0.00314814 -0.00547178 -0.00560713 0.00924322 -0.00722283
internal_weight=0 165.505 282.73 208.034 172.083 30.5443 128.28 134.961 110.016
internal_count=1992 797 1195 868 711 133 525 664 449
is_linear=0
shrinkage=0.01


Tree=69
num_leaves=10
num_cat=0
split_feature=189 185 170 96 72 111 171 170 171
split_gain=114.16 53.0939 49.8574 33.0878 23.0612 21.9099 20.9909 19.4405 14.3417
threshold=1.0000000180025095e-35 1.0000000180025095e-35 1.0000000180025095e-35 1.8975000000000002 6.8302083333333359 1.8250000000000004 0.89166666666666661 1.0000000180025095e-35 1.6983333333333352
decision_type=2 2 2 2 2 2 2 2 2
left_child=2 7 3 4 5 8 -3 -2 -1
right_child=1 6 -4 -5 -6 -7 -8 -9 -10
leaf_value=-0.0089475424622152029 0.010677253829795593 -0.009392868755984057 -0.011007324168458602 0.0046458825226236775 0.0042818873682902991 0.0072701061677702119 0.011929822452295383 -0.00053511892421065539 0.0010236060077003133
leaf_weight=90.440958097577095 116.56246866285801 24.819462195038799 74.453444987535477 62.045103937387466 26.937574252486229 11.317327857017515 5.6719504445791236 17.828903183341026 17.162118643522263
leaf_count=367 592 106 327 268 114 49 27 72 70
internal_value=0 0.00648683 -0.00398544 -0.00147079 -0.0040727 -0.00596516 -0.00542647 0.00918978 -0.0073572
internal_weight=0 164.883 282.357 207.903 145.858 118.92 30.4914 134.391 107.603
internal_count=1992 797 1195 868 600 486 133 664 437
is_linear=0
shrinkage=0.01


Tree=70
num_leaves=10
num_cat=0
split_feature=189 175 170 72 17 171 25 171 6
split_gain=131.526 58.3874 54.7621 22.4715 24.722 17.1317 16.3728 13.2074 12.0937
threshold=1.0000000180025095e-35 1.0000000180025095e-35 1.0000000180025095e-35 6.9933333333333358 97.492857142857176 1.2405555555555552 0.47222222222222204 0.62900000000000011 107.02300000000001
decision_type=2 2 2 2 2 2 2 2 2
left_child=2 6 3 4 5 8 7 -2 -1
right_child=1 -3 -4 -5 -6 -7 -8 -9 -10
leaf_value=0.00041251753680347422 -0.012782151672295404 -0.0098190203096350445 -0.011466507907361301 0.0054353953328885344 0.0035881765782539137 0.00034986889984127146 0.010120401275462794 0.0076646549550021996 -0.0094864804096643617
leaf_weight=14.903144434094427 5.8553027808666211 18.351503029465675 76.317406252026558 37.722918942570686 41.198379039764404 36.905192956328392 134.65125949680805 6.8606892973184586 71.807462081313133
leaf_count=61 24 78 336 163 178 151 671 34 292
internal_value=0 0.00700146 -0.00424726 -0.001527 -0.00312056 -0.00535644 0.00909609 -0.00175044 -0.00778512
internal_weight=0 165.719 278.855 202.537 164.814 123.616 147.367 12.716 86.7106
internal_count=1988 807 1181 845 682 504 729 58 353
is_linear=0
shrinkage=0.01


Tree=71
num_leaves=10
num_cat=0
split_feature=170 171 77 188 15 24 57 13 0
split_gain=105.462 38.6228 24.4569 21.4322 15.5984 15.4998 16.4778 13.5218 10.7775
threshold=1.0000000180025095e-35 0.89166666666666661 0.6462500000000001 1.0000000180025095e-35 0.82527777777777767 0.21325000000000002 47.888214285714305 0.48250000000000004 95.500000000000014
decision_type=2 2 2 2 2 2 2 2 2
left_child=1 2 8 4 7 6 -4 -3 -1
right_child=-2 3 5 -5 -6 -7 -8 -9 -10
leaf_value=-0.0043303220920070298 -0.0089432241878166664 0.0075336688387882215 -0.0073342594223178986 0.0094201571343231951 0.0097655674306328915 0.0072418004929082859 0.0034407617358350392 -0.0024614509546190821 0.0062433425884448994
leaf_weight=12.036943197250364 102.5915519297123 18.350272163748741 73.40955077111721 86.157416194677353 22.304183304309845 11.147749498486517 17.594158217310905 51.579798117280006 48.404270172119141
leaf_count=53 445 85 313 416 104 50 79 222 221
