tree
version=v4
num_class=1
num_tree_per_iteration=1
label_index=0
max_feature_idx=194
objective=binary sigmoid:1
feature_names=start protein_len relative_pos closest_distance Degree Closeness Betweenness Hub_Score gene_age g_start ponp3_score aaindex_ANDN920101 aaindex_ARGP820101 aaindex_ARGP820102 aaindex_BEGF750101 aaindex_BEGF750102 aaindex_BHAR880101 aaindex_BIGC670101 aaindex_BUNA790101 aaindex_BUNA790103 aaindex_BURA740101 aaindex_BURA740102 aaindex_CHAM810101 aaindex_CHAM820102 aaindex_CHAM830102 aaindex_CHAM830103 aaindex_CHAM830104 aaindex_CHAM830105 aaindex_CHAM830107 aaindex_CHAM830108 aaindex_CHOP780204 aaindex_CHOP780205 aaindex_CHOP780206 aaindex_CHOP780207 aaindex_CHOP780213 aaindex_CHOP780214 aaindex_CHOP780215 aaindex_DAYM780101 aaindex_DAYM780201 aaindex_EISD860102 aaindex_FASG760102 aaindex_FASG760103 aaindex_FASG760104 aaindex_FASG760105 aaindex_FAUJ880101 aaindex_FAUJ880105 aaindex_FAUJ880107 aaindex_FAUJ880108 aaindex_FAUJ880111 aaindex_FAUJ880112 aaindex_FAUJ880113 aaindex_FINA910101 aaindex_FINA910102 aaindex_FINA910103 aaindex_FINA910104 aaindex_GEIM800102 aaindex_GEIM800103 aaindex_HUTJ700101 aaindex_ISOY800106 aaindex_ISOY800107 aaindex_ISOY800108 aaindex_KARP850103 aaindex_KHAG800101 aaindex_KLEP840101 aaindex_LEVM760103 aaindex_MAXF760103 aaindex_MAXF760105 aaindex_MAXF760106 aaindex_NAKH900103 aaindex_NAKH900104 aaindex_NAKH900109 aaindex_NAKH900113 aaindex_NAKH920103 aaindex_OOBM850102 aaindex_OOBM850103 aaindex_OOBM850105 aaindex_PALJ810111 aaindex_PALJ810113 aaindex_PRAM820101 aaindex_QIAN880101 aaindex_QIAN880102 aaindex_QIAN880103 aaindex_QIAN880114 aaindex_QIAN880115 aaindex_QIAN880117 aaindex_QIAN880123 aaindex_QIAN880124 aaindex_QIAN880125 aaindex_QIAN880127 aaindex_QIAN880128 aaindex_QIAN880129 aaindex_QIAN880137 aaindex_QIAN880138 aaindex_QIAN880139 aaindex_RACS820101 aaindex_RACS820102 aaindex_RACS820103 aaindex_RACS820105 aaindex_RACS820106 aaindex_RACS820107 aaindex_RACS820109 aaindex_RACS820110 aaindex_RACS820112 aaindex_RACS820113 aaindex_RACS820114 aaindex_RICJ880101 aaindex_RICJ880104 aaindex_RICJ880105 aaindex_RICJ880106 aaindex_RICJ880108 aaindex_RICJ880109 aaindex_RICJ880110 aaindex_RICJ880113 aaindex_RICJ880114 aaindex_RICJ880115 aaindex_RICJ880116 aaindex_RICJ880117 aaindex_ROBB760107 aaindex_ROBB760109 aaindex_ROBB760111 aaindex_ROSM880103 aaindex_SNEP660101 aaindex_SNEP660103 aaindex_SNEP660104 aaindex_SUEM840102 aaindex_TANS770102 aaindex_TANS770106 aaindex_TANS770108 aaindex_VASM830101 aaindex_VASM830102 aaindex_VASM830103 aaindex_VELV850101 aaindex_WERD780102 aaindex_WERD780103 aaindex_WOLS870103 aaindex_YUTK870102 aaindex_YUTK870103 aaindex_AURR980101 aaindex_AURR980102 aaindex_AURR980103 aaindex_AURR980104 aaindex_AURR980106 aaindex_AURR980107 aaindex_AURR980116 aaindex_AURR980117 aaindex_AURR980118 aaindex_AURR980119 aaindex_AURR980120 aaindex_KUMS000101 aaindex_NADH010107 aaindex_FUKS010101 aaindex_MITS020101 aaindex_WILM950103 aaindex_WILM950104 aaindex_SUYM030101 aaindex_GEOR030101 aaindex_GEOR030103 aaindex_GEOR030104 aaindex_GEOR030105 aaindex_DIGM050101 aaindex_KARS160118 aaindex_KARS160119 aaindex_KARS160120 aaindex_KARS160122 W_U Alphahelix Beta-sheet B_Beta T/C G_helix vlow_conf Conservation Accessibility p_idr p_tmp p_repeat p_domain p_swissport_CARBOHYD p_swissport_MOD_RES p_swissport_DISULFID p_swissport_BINDING p_swissport_ACT_SITE p_swissport_SIGNAL p_swissport_CROSSLNK p_swissport_INTRAMEM p_palindrome g_exon Housekeeping Essential Haploinsufficient Redundancy Pseudogene Duplicate up5seq_bitScore down5seq_bitScore
feature_infos=[1:4494] [52:4967] [0.0002399232245681:1] [0:2477] [2:608] [0.125:1] [0:9520239.1380000003] [0:0.86599999999999999] [3:4290] [173003:247896053] [0.15574519230769199:0.486923933209647] [3.9500000000000002:4.7599999999999998] [0:2.6499999999999999] [0.050000000000000003:3.23] [0.059999999999999998:1] [0.55000000000000004:0.97999999999999998] [0.29499999999999998:0.54400000000000004] [36.299999999999997:135.40000000000001] [0:8.7469999999999999] [0:9.4000000000000004] [0.12:0.53800000000000003] [0.20000000000000001:0.53300000000000003] [0:1.02] [-2.2400000000000002:4.9100000000000001] [-0.25800000000000001:0.51300000000000001] [0:2] [0:2] [0:1.5] [0:1] [0:1] [0.44:2.4399999999999999] [0:1.8300000000000001] [0.34000000000000002:1.55] [0.16:1.8600000000000001] [0.012999999999999999:0.30099999999999999] [0.012999999999999999:0.191] [0.052999999999999999:0.16700000000000001] [1.3:8.5999999999999996] [18:134] [0:10] [178:344] [-86.200000000000003:14.6] [8.3499999999999996:10.640000000000001] [1.8200000000000001:2.4300000000000002] [0:4.1900000000000004] [1:1.8999999999999999] [0:17.800000000000001] [-0.01:0.14999999999999999] [0:1] [0:1] [0:5.6900000000000004] [0.59999999999999998:3.2000000000000002] [0.69999999999999996:13] [0.69999999999999996:1.7] [0.10000000000000001:1.7] [0.81999999999999995:1.3200000000000001] [0.20000000000000001:1.8600000000000001] [23.710000000000001:69.319999999999993] [0.27000000000000002:1.78] [0:2.7799999999999998] [0.39000000000000001:3.0299999999999998] [0.80300000000000005:1.0569999999999999] [-3.6000000000000001:133] [-1:1] [0:122] [0.32000000000000001:3.1400000000000001] [0:3.8399999999999999] [0.35999999999999999:1.95] [1.03:15.359999999999999] [-1.3600000000000001:2.04] [1.0700000000000001:10.94] [0.37:3.1200000000000001] [1.6000000000000001:8.1099999999999994] [-4.6500000000000004:3.3199999999999998] [-2.21:3.2799999999999998] [-0.78000000000000003:10.68] [0.54000000000000004:1.6699999999999999] [0:2.6400000000000001] [0.19500000000000001:0.39100000000000001] [-0.25:0.26000000000000001] [-0.37:0.26000000000000001] [-0.42999999999999999:0.64000000000000001] [-0.41999999999999998:0.40999999999999998] [-0.56999999999999995:0.44] [-0.64000000000000001:0.46000000000000002] [-0.57999999999999996:0.46999999999999997] [-0.46999999999999997:0.45000000000000001] [-0.47999999999999998:0.40999999999999998] [-0.41999999999999998:0.33000000000000002] [-0.38:0.45000000000000001] [-0.42999999999999999:0.33000000000000002] [-0.44:0.77000000000000002] [-0.35999999999999999:0.78000000000000003] [-0.45000000000000001:0.47999999999999998] [0.67000000000000004:2.02] [0.66000000000000003:1.5800000000000001] [0:2.8599999999999999] [0.69999999999999996:1.96] [0.29999999999999999:3.0899999999999999] [0:2.98] [0:6.4900000000000002] [0.40000000000000002:2.73] [0:2.3199999999999998] [10.890000000000001:38.140000000000001] [13.59:52.630000000000003] [0.29999999999999999:1.8999999999999999] [0.29999999999999999:2.6000000000000001] [0.29999999999999999:2.6000000000000001] [0.40000000000000002:3.2999999999999998] [0.20000000000000001:1.8999999999999999] [0.29999999999999999:1.8] [0:2.7000000000000002] [0.20000000000000001:2.1000000000000001] [0:3.3999999999999999] [0:3.8999999999999999] [0.10000000000000001:1.8999999999999999] [0:2.7000000000000002] [-3.7000000000000002:7.4000000000000004] [-4.2999999999999998:6.5] [-6:6.5] [0:1.3] [0.16:0.28100000000000003] [-0.28499999999999998:0.49299999999999999] [-0.371:0.46999999999999997] [0.10000000000000001:77] [0:2.1680000000000001] [0.17799999999999999:1.7250000000000001] [0:3.379] [0.01:0.29599999999999999] [0.059999999999999998:0.78500000000000003] [0.049000000000000002:0.73699999999999999] [0:0.1263] [-0.79000000000000004:1.03] [-0.37:1.1799999999999999] [-3.4399999999999999:4.1299999999999999] [0:12.199999999999999] [0:18.620000000000001] [0.59999999999999998:1.4099999999999999] [0.40999999999999998:1.3100000000000001] [0.59999999999999998:1.4299999999999999] [0.57999999999999996:1.72] [0.26000000000000001:2.2999999999999998] [0.52000000000000002:2.0699999999999998] [0.10000000000000001:1.55] [0.44:2.7400000000000002] [0.67000000000000004:1.3999999999999999] [0.26000000000000001:2.0099999999999998] [0.085999999999999993:1.7] [0.59999999999999998:9.4000000000000004] [-132:329] [0.28999999999999998:16.559999999999999] [0:6.9299999999999997] [-3.2799999999999998:9.3000000000000007] [-3:7.2599999999999998] [-0.47799999999999998:0.56399999999999995] [0.77800000000000002:1.2989999999999999] [0.68559999999999999:1.266] [0.5:1.3320000000000001] [0.47799999999999998:1.369] [0.53100000000000003:1.361] [3.5:9.3300000000000001] [7:31.344000000000001] [-4.2270000000000003:0.21099999999999999] [0:12] [0:23.5] [0:1] [0:1] [0:1] [0:1] [0:1] [0:1] [0:4.21] [0:100] [0:1] [0:1] [0:1] [0:1] none [0:1] [0:1] [0:1] none [0:1] none none [0:1] [0:1] [0:1] [0:1] [0:1] [0:1] [0:1] [0:1] [0.0031041943306314998:0.0133190685756532] [0.0030288402859689001:0.0106356376763285]
tree_sizes=1166 1206 1205 1198 1201 1218 1218 1209 1210 1209 1197 1195 1196 1198 1204 1207 1212 1223 1207 1216 1212 1203 1206 1211 1207 1204 1206 1210 1209 1200 1212 1208 1207 1203 1201 1212 1217 1202 1188 1219 1204 1219 1210 1208 1208 1209 1206 1203 1211 1206 1213 1213 1210 1214 1217 1197 1196 1197 1212 1209 1208 1209 1213 1218 1223 1223 1206 1204 1217 1215 1213 1207 1211 1208 1210 1209 1210 1209 1203 1202 1207 1212 1211 1201 1210 1217 1214 1221 1212 1216 1215 1215 1218 1217 1211 1205 1203 1222 1220 1218 1212 1216 1205 1205 1215 1208 1212 1211 1216 1213 1216 1211 1220 1219 1219 1210 1212 1214 1225 1213 1218 1218 1222 1204 1214 1232 1214 1216 1213 1224 1208 1216 1216 1226 1215 1209 1197 1207 1193 1211 1216 1210 1214 1216 1221 1207 1217 1215 1214 1208 1210 1209 1211 1220 1211 1207 1211 1217 1203 1219 1198 1199 1211 1208 1209 1212 1203 1212 1208 1213 1215 1206 1204 1211 1216 1203 1208 1204 1210 1205 1203 1214 1204 1211 1211 1200 1203 1204 1203 1194 1207 1203 1214 1208 1197 1214 1201 1209 1213 1204 1211 1210 1208 1207 1201 1210 1205 1217 1206 1207 1201 1193 1209 1218 1208 1220 1201 1208 1207 1207 1195 1208 1188 1197 1209 1195 1191 1201 1203 1196 1210 1209 1208 1213 1215 1203 1207 1198 1214 1203 1208 1203 1210 1202 1217 1210 1207 1206 1201 1212 1210 1199 1215 1208 1207 1208 1209 1205 1210 1210 1207 1214 1200 1209 1196 1200 1196 1198 1201 1207 1216 1201 1203 1208 1205 1214 1201 1195 1203 1212 1199 1202 1210 1213 1205 1214 1206 1210 1218 1208 1212 1208 1205 1207 1201 1206 1198 1199 1219 1204 1208 1197 1213 1203 1207 1209 1199 1199 1199 1209 1219 1209 1215 1223 1214 1215 1182 1202 1209 1203 1221 1220 1215 1209 1216 1208 1203 1206 1206 1209 1210 1207 1203 1214 1209 1204 1198 1203 1197 1204 1202 1216 1212 1219 1193 1199 1209 1196 1204 1203 1209 1210 1206 1205 1209 1196 1210 1207 1210 1206 1200 1206 1203 1208 1207 1203 1198 1205 1199 1197 1205 1206 1200 1193 1197 1195 1201 1204 1201 1209 1203 1203 1210 1205 1207 1201 1220 1195 1196 1197 1208 1185 1210 1194 1191 1209 1203 1213 1214 1201 1213 1207 1208 1206 1213 1200 1202 1216 1218 1216 1199 1198 1192 1199 1214 1211 1209 1205 1208 1200 1205 1207 1200 1214 1205 1209 1210 1209 1218 1203 1213 1212 1216 1220 1209 1206 1207 1191 1204 1208 1206 1207 1213 1219 1206 1196 1210 1212 1223 1212 1209 1204 1215 1201 1206 1213 1195 1201 1196 1203 1201 1202 1197 1201 1193 1212 1212 1201 1210 1207 1208 1204 1208 1202 1208 1215 1214 1212 1212 1205 1201 1208 1195 1201 1212 1207 1198 1209 1203 1206 1180 1203 1192 1194 1184 1194 1204 1200 1200 1185 1191 1195 1191 1217 1198 1206 1210 1206 1210 1202 1202 1208 1205 1210 1207 1203 1203 1199 1203 1203 1205 1211 1200 1200 1197 1209 1202 1212 1211 1205 1192 1194 1191 1199 1196 1210 1217 1201 1199 1206 1199 1208 1208 1208 1197 1206 1209 1219 1208 1200 1193 1189 1196 1198 1192 1208 1203 1210 1202 1198 1216 1198 1194 1202 1191 1190 1200 1206 1191 1209 1213 1204 1199 1210 1190 1209 1208 1208 1203 1208 1197 1207 1202 1204 1203 1200 1203 1207 1200 1206 1208 1208 1210 1207 1207 1188 1175 1183 1192 1190 1215 1211 1216 1195 1202 1212 1210 1213 1194 1212 1187 1201 1202 1201 1189 1200 1210 1202 1201 1201 1209 1201 1215 1199 1204 1208 1213 1206 1207 1203 1200 1201 1210 1213 1203 1205 1205 1210 1208 1205 1191 1195 1190 1185 1191 1207 1202 1195 1211 1202 1200 1204 1201 1197 1201 1203 1201 1203 1203 1204 1197 1196 1189 1211 1196 1204 1210 1197 1203 1207 1198 1214 1197 1210 1213 1206 1205 1204 1205 1215 1207 1198 1186 1204 1201 1210 1211 1212 1194 1207 1211 1213 1202 1213 1210 1202 1205 1212 1207 1213 1190 1190 1189 1206 1202 1205 1202 1197 1196 1196 1206 1201 1204 1202 1199 1206 1206 1194 1196 1196 1207 1195 1195 1201 1204 1190 1195 1199 1202 1205 1201 1206 1196 1189 1198 1213 1202 1196 1199 1210 1209 1201 1207 1216 1204 1201 1210 1209 1201 1201 1206 1202 1205 1190 1193 1191 1188 1203 1191 1195 1198 1195 1192 1194 1197 1203 1190 1191 1204 1215 1208 1197 1190 1204 1210 1204 1199 1199 1203 1209 1203 1201 1200 1208 1206 1195 1210 1207 1211 1202 1197 1200 1200 1203 1197 1200 1195 1201 1216 1204 1205 1202 1197 1193 1206 1192 1196 1209 1197 1198 1206 1205 1204 1195 1205 1206 1208 1203 1203 1208 1199 1204 1199 1197 1208 1203 1197 1196 1196 1196 1217 1206 1201 1212 1202 1192 1202 1205 1197 1211 1203 1203 1205 1200 1201 1190 1197 1184 1199 1188 1213 1201 1201 1197 1200 1205 1189 1188 1204 1198 1198 1202 1197 1198 1204 1202 1208 1200 1193 1212 1198 1219 1186 1199 1207 1205 1204 1207 1202 1207 1197 1197 1194 1195 1203 1202 1200 1199 1198 1208 1208 1197 1209 1196 1208 1202 1198 1199 1201 1196 1205 1199 1203 1199 1193 1203 1209 1198 1207 1195 1198 1198 1196 1203 1197 1211 1199 1209 1207 1207 1204 1211 1198 1209 1204 1186 1201 1204 1197 1205 1203 1197 1197 1193 1203 1218 1201 1202 1213 1218 1209 1208 1199 1212 1202 1208 1209 1203 1207 1212 1200 1201 1198 1202 1201 1200 1195 1200 1207 1198 1196 1211 1200 1203 1202 1196 1184 1193 1205 1189 1199 1201 1187 1193 1202 1204 1207 1207 1205 1202 1209 1204 1184 1195 1221 1199 1206 1206 1205 1193 1197 1204 1211 1206 1198 1197 1201 1195 1197

Tree=0
num_leaves=10
num_cat=0
split_feature=170 189 175 17 38 114 171 22 171
split_gain=376.818 156.669 103.928 60.7227 50.802 33.516 23.5952 22.0944 20.0708
threshold=1.0000000180025095e-35 1.0000000180025095e-35 1.0000000180025095e-35 101.9466666666665 101.90000000000002 0.47083333333333355 0.44850000000000007 0.63881944444444461 0.49708333333333354
decision_type=2 2 2 2 2 2 2 2 2
left_child=1 3 6 4 5 -1 7 -3 -7
right_child=-2 2 -4 -5 -6 8 -8 -9 -10
leaf_value=0.27299694620602244 0.25049153713189681 0.25778268466171611 0.24927426194263866 0.2765154926985926 0.275271767915858 0.24991665224824 0.28284600253614672 0.27955059922721542 0.26074587912642622
leaf_weight=19.400303423404694 104.36872094869614 7.6127772927284267 10.805232286453245 45.185516834259033 29.714388787746429 20.873744189739227 134.81983011960983 12.033099591732023 95.036929428577423
leaf_count=79 425 31 44 184 121 85 549 49 387
internal_value=0.267717 0.271972 0.279257 0.266244 0.263432 0.260832 0.281354 0.271116 0.258796
internal_weight=0 375.482 165.271 210.211 165.025 135.311 154.466 19.6459 115.911
internal_count=1954 1529 673 856 672 551 629 80 472
is_linear=0
shrinkage=1


Tree=1
num_leaves=10
num_cat=0
split_feature=170 189 175 17 122 171 22 171 7
split_gain=368.683 153.856 101.957 59.5396 70.4786 23.2273 21.7423 18.2465 17.449
threshold=1.0000000180025095e-35 1.0000000180025095e-35 1.0000000180025095e-35 101.9466666666665 -0.12588888888888897 0.44850000000000007 0.53708333333333358 0.45083333333333359 0.028000000000000004
decision_type=2 2 2 2 2 2 2 2 2
left_child=1 3 5 4 -1 6 -3 -6 -9
right_child=-2 2 -4 -5 7 -7 -8 8 -10
leaf_value=0.0052285570590379924 -0.017014859391947128 -0.013697800876672193 -0.018214508246643148 0.0087212861493580693 -0.017906018757602216 0.015009249305963694 0.0098552230898789148 -0.003657980358316023 -0.012598406358263209
leaf_weight=53.260099977254868 104.60058450698853 5.4096312820911434 10.830875456333159 45.13178551197052 18.212560325860977 134.54112875461578 14.226784333586691 58.988706111907959 34.654892027378082
leaf_count=217 425 22 44 184 74 549 58 240 141
internal_value=0 0.0042152 0.011443 -0.00145737 -0.00423954 0.0135264 0.00336661 -0.00874776 -0.00696658
internal_weight=0 375.256 165.008 210.248 165.116 154.178 19.6364 111.856 93.6436
internal_count=1954 1529 673 856 672 629 80 455 381
is_linear=0
shrinkage=0.01


Tree=2
num_leaves=10
num_cat=0
split_feature=170 189 185 17 122 171 171 4 7
split_gain=360.779 151.109 80.5548 58.3814 69.0089 41.4457 17.812 17.4344 17.0513
threshold=1.0000000180025095e-35 1.0000000180025095e-35 1.0000000180025095e-35 101.9466666666665 -0.12588888888888897 0.68125000000000013 0.45083333333333359 19.000000000000004 0.028000000000000004
decision_type=2 2 2 2 2 2 2 2 2
left_child=1 3 -3 4 7 -4 -6 -1 -8
right_child=-2 2 5 -5 6 -7 8 -9 -10
leaf_value=0.011037268870475661 -0.016810061862189227 0.014136669105784028 -0.017514638256945932 0.0086446374588740015 -0.017688644525204963 0.0099983930385970296 -0.003619684888459004 -0.00041266881289958769 -0.012452409007869779
leaf_weight=25.99602147936821 104.81509566307068 142.12555637955666 13.297889903187754 45.076902627944946 18.251808404922485 9.3074684292078 59.016530394554138 27.226127982139587 34.710307881236076
leaf_count=106 425 581 54 184 74 38 240 111 141
internal_value=0 0.0041759 0.0113478 -0.00144254 -0.00419494 -0.0061865 -0.00865074 0.00517998 -0.00689075
internal_weight=0 375.009 164.731 210.278 165.201 22.6054 111.979 53.2221 93.7268
internal_count=1954 1529 673 856 672 92 455 217 381
is_linear=0
shrinkage=0.01


Tree=3
num_leaves=10
num_cat=0
split_feature=172 175 13 1 17 6 52 165 6
split_gain=235.205 86.4276 72.1877 38.7921 35.7012 28.1976 36.3579 25.1894 20.1507
threshold=72.047916666666666 1.0000000180025095e-35 0.27166666666666656 351.50000000000006 94.885000000000005 16939.720500000003 1.0133928571428552 1.0000000180025095e-35 47097.632500000014
decision_type=2 2 2 2 2 2 2 2 2
left_child=1 3 -2 8 -4 -5 -7 -6 -1
right_child=2 -3 4 5 7 6 -8 -9 -10
leaf_value=-0.0067929659851733116 0.0022507234982922734 -0.019007675896885384 -0.015247202743804143 0.011014763426702876 -0.011691322966079738 0.0089018336825269686 -0.0019073637431417545 0.0093227971503884108 0.011896844795186828
leaf_weight=30.685444489121437 40.25581368803978 14.320406287908552 114.73092152178288 122.57328502833843 11.829435914754868 73.001004040241241 54.237907037138939 11.016324684023857 7.1042915582656851
leaf_count=125 164 58 465 501 48 298 221 45 29
internal_value=0 0.00496943 -0.00952762 0.00616331 -0.012974 0.00759173 0.00429422 -0.00155822 -0.00327937
internal_weight=0 301.922 177.832 287.602 137.577 249.812 127.239 22.8458 37.7897
internal_count=1954 1232 722 1174 558 1020 519 93 154
is_linear=0
shrinkage=0.01


Tree=4
num_leaves=10
num_cat=0
split_feature=189 171 172 19 171 149 17 122 172
split_gain=248.655 113.336 95.4208 61.4961 55.1496 35.2641 25.356 27.2417 21.5623
threshold=1.0000000180025095e-35 0.4416666666666666 58.231666666666662 6.495000000000001 0.49708333333333354 1.0000000180025095e-35 101.9466666666665 -0.12261904761904799 93.241000000000014
decision_type=2 2 2 2 2 2 2 2 2
left_child=2 5 6 -4 -5 -2 7 -1 -3
right_child=1 8 3 4 -6 -7 -8 -9 -10
leaf_value=0.0066064889098182136 -0.013759504610498272 0.014022070347276925 -0.017222660301992168 -0.014948533475542741 -5.12975653487418e-05 0.004606250919075041 0.01037880643113462 -0.0055417360755652227 0.0015382156208807308
leaf_weight=28.415028110146523 24.206115618348122 130.97354607284069 78.809274226427078 39.479136496782303 67.063630819320679 18.403316304087639 24.198272064328194 52.683029815554619 15.469773918390272
leaf_count=116 98 537 319 160 273 75 99 214 63
internal_value=0 0.00852684 -0.00620676 -0.0105254 -0.00557143 -0.0058272 0.00139527 -0.00128526 0.0127033
internal_weight=0 189.053 290.648 185.352 106.543 42.6094 105.296 81.0981 146.443
internal_count=1954 773 1181 752 433 173 429 330 600
is_linear=0
shrinkage=0.01


Tree=5
num_leaves=10
num_cat=0
split_feature=170 189 175 19 131 84 38 189 97
split_gain=369.923 136.259 94.0317 52.1379 22.1531 22.3444 20.2836 15.5502 15.2754
threshold=1.0000000180025095e-35 1.0000000180025095e-35 1.0000000180025095e-35 6.495000000000001 0.010401666666666703 -1.0000000180025095e-35 102.33333333333351 1.0000000180025095e-35 0.98535714285714315
decision_type=2 2 2 2 2 2 2 2 2
left_child=1 3 8 -1 -5 6 -6 -2 -3
right_child=7 2 -4 4 5 -7 -8 -9 -10
leaf_value=-0.0084930640579411274 -0.018481689498852451 0.0077820725930139488 -0.015001580387333015 0.0087179386438137017 -0.0065907393721272179 0.0056870131892045482 0.008431275508670821 -0.0094485223925659997 0.015309816032730929
leaf_weight=59.427961125969887 80.270394146442413 34.627628788352013 12.367619767785071 42.328734219074249 48.74597655236721 42.150126174092293 11.020708709955214 24.989985853433609 121.67979145050049
leaf_count=241 324 142 50 173 198 172 45 101 500
internal_value=0 0.00489457 0.0115419 -0.000610542 0.00263699 0.000111414 -0.00382075 -0.0163371 0.0136422
internal_weight=0 372.349 168.675 203.674 144.246 101.917 59.7667 105.26 156.307
internal_count=1946 1521 692 829 588 415 243 425 642
is_linear=0
shrinkage=0.01


Tree=6
num_leaves=10
num_cat=0
split_feature=170 189 175 19 131 84 38 189 158
split_gain=362.229 133.907 92.3276 51.064 21.7487 21.9068 19.8765 15.1832 14.5053
threshold=1.0000000180025095e-35 1.0000000180025095e-35 1.0000000180025095e-35 6.495000000000001 0.010401666666666703 -1.0000000180025095e-35 102.33333333333351 1.0000000180025095e-35 1.0964722222222203
decision_type=2 2 2 2 2 2 2 2 2
left_child=1 3 -3 8 -5 6 -6 -2 -1
right_child=7 2 -4 4 5 -7 -8 -9 -10
leaf_value=-0.011494910502356834 -0.018266244486340476 0.013536401600497454 -0.014829547953798572 0.0086419393450395364 -0.0065196119210161286 0.005634689120412051 0.0083571987744913041 -0.0093452577604127823 -0.0005211012876621306
leaf_weight=42.708765029907227 80.404299572110176 155.95514377951622 12.385887950658796 42.274246722459793 48.784807756543159 42.116290301084518 11.007277742028235 25.013343319296837 16.776667788624763
leaf_count=173 324 642 50 173 198 172 45 101 68
internal_value=0 0.00485013 0.0114493 -0.000604415 0.0026118 0.000110336 -0.0037809 -0.0161495 -0.00839997
internal_weight=0 372.009 168.341 203.668 144.183 101.908 59.7921 105.418 59.4854
internal_count=1946 1521 692 829 588 415 243 425 241
is_linear=0
shrinkage=0.01


Tree=7
num_leaves=10
num_cat=0
split_feature=170 189 175 19 131 84 171 22 38
split_gain=354.741 131.606 90.6611 50.0147 21.3524 21.4781 19.5821 21.939 19.4782
threshold=1.0000000180025095e-35 1.0000000180025095e-35 1.0000000180025095e-35 6.495000000000001 0.010401666666666703 -1.0000000180025095e-35 0.46900000000000003 0.63881944444444461 102.33333333333351
decision_type=2 2 2 2 2 2 2 2 2
left_child=1 3 6 -1 -5 8 7 -3 -6
right_child=-2 2 -4 4 5 -7 -8 -9 -10
leaf_value=-0.0083083669937339608 -0.015966492146036931 -0.0094514451651620847 -0.014661351464787696 0.0085668215043385072 -0.0064494445284349038 0.005582892650486262 0.014832502194926128 0.011972370673668815 0.0082839697069211678
leaf_weight=59.539490595459938 105.5588290989399 7.3695365041494396 12.402614399790762 42.21875661611557 48.822222590446472 42.082135051488876 134.62185856699944 13.602886050939558 10.993603736162184
leaf_count=241 425 30 50 173 198 172 556 56 45
internal_value=0 0.00480632 0.0113582 -0.000598366 0.0025869 0.000109271 0.0134323 0.00444422 -0.00374158
internal_weight=0 371.653 167.997 203.656 144.117 101.898 155.594 20.9724 59.8158
internal_count=1946 1521 692 829 588 415 642 86 243
is_linear=0
shrinkage=0.01


Tree=8
num_leaves=10
num_cat=0
split_feature=170 171 153 188 36 158 161 171 104
split_gain=347.448 74.8708 41.7091 36.4619 22.6744 26.6914 18.2432 16.7483 17.2645
threshold=1.0000000180025095e-35 0.44850000000000007 1.0893750000000002 1.0000000180025095e-35 0.071225000000000011 0.86057142857142865 21.671750000000007 0.78900000000000015 24.323857142857154
decision_type=2 2 2 2 2 2 2 2 2
left_child=1 2 -1 4 -3 -6 -7 8 -5
right_child=-2 3 -4 7 5 6 -8 -9 -10
leaf_value=-0.012962027696453098 -0.015787506252768528 0.0085506969213536045 0.0036830271362324929 0.0070425813537200403 0.0090657701268547653 0.0051120529676350846 -0.0057823950250241634 0.012094161840607577 -0.012991968536215249
leaf_weight=33.105943262577057 105.68735376000404 53.819605723023415 27.608945831656456 35.282340154051781 26.794106438755989 21.766677394509315 52.308197662234306 115.68771821260452 4.898404747247695
leaf_count=134 425 221 113 145 110 89 213 476 20
internal_value=0 0.00476325 -0.005393 0.00674882 0.00330929 0.000512694 -0.00258109 0.0101623 0.00460018
internal_weight=0 371.272 60.7149 310.557 154.689 100.869 74.0749 155.868 40.1807
internal_count=1946 1521 247 1274 633 412 302 641 165
is_linear=0
shrinkage=0.01


Tree=9
num_leaves=10
num_cat=0
split_feature=170 189 175 19 131 27 85 171 23
split_gain=340.327 129.081 88.3021 48.5876 20.7643 20.4787 22.1879 18.9603 18.7395
threshold=1.0000000180025095e-35 1.0000000180025095e-35 1.0000000180025095e-35 6.495000000000001 0.010401666666666703 0.88194444444444453 0.06392857142857146 0.46900000000000003 -0.21441666666666645
decision_type=2 2 2 2 2 2 2 2 2
left_child=1 3 7 -1 -5 6 -6 8 -3
right_child=-2 2 -4 4 5 -7 -8 -9 -10
leaf_value=-0.0082248208565975211 -0.015612697083243787 -0.011565719646376401 -0.014429405862668634 0.0084197564097115395 -0.0054618069511805098 0.0078567711315449072 0.0073264761051876747 0.014662360256850693 0.010022274501409408
leaf_weight=59.583628505468369 105.80140163004398 5.4250682145357159 12.422758921980856 42.105177477002144 58.825184777379036 25.365219354629517 17.634408384561539 134.04685978591442 15.536295071244238
leaf_count=241 425 22 50 173 239 104 72 556 64
internal_value=0 0.00471984 0.0112235 -0.000630692 0.0025131 7.06605e-05 -0.00251236 0.0132793 0.00443503
internal_weight=0 370.945 167.431 203.514 143.93 101.825 76.4596 155.008 20.9614
internal_count=1946 1521 692 829 588 415 311 642 86
is_linear=0
shrinkage=0.01


Tree=10
num_leaves=10
num_cat=0
split_feature=170 171 1 50 64 6 6 127 60
split_gain=316.282 74.9888 36.1202 32.9585 29.9603 28.2287 24.4813 21.0425 18.999
threshold=1.0000000180025095e-35 0.44850000000000007 351.50000000000006 4.7892857142857155 108.78750000000001 42209.679000000011 47097.632500000014 0.7069444444444446 0.65125000000000011
decision_type=2 2 2 2 2 2 2 2 2
left_child=1 3 6 7 5 -4 8 -1 -3
right_child=-2 2 4 -5 -6 -7 -8 -9 -10
leaf_value=-0.016635431910507738 -0.01490320847740568 0.0044001224406633559 0.0073964703899336796 0.0057525821906567534 0.0097312944985309697 -0.0066143721624567289 0.014711829092368544 -0.0030564590147983363 -0.0099144189367217413
leaf_weight=23.070676118135452 107.89280991256237 14.637378558516501 35.287320777773857 19.008205994963646 207.92951576411724 24.270815178751945 7.7904123663902274 22.582645937800407 25.295449823141098
leaf_count=93 433 60 145 78 857 99 32 92 103
internal_value=0 0.00449796 0.0065103 -0.00531177 0.00794014 0.00168685 -0.00150393 -0.00991852 -0.00466742
internal_weight=0 379.872 315.211 64.6615 267.488 59.5581 47.7232 45.6533 39.9328
internal_count=1992 1559 1296 263 1101 244 195 185 163
is_linear=0
shrinkage=0.01


Tree=11
num_leaves=10
num_cat=0
split_feature=170 171 1 50 64 6 6 127 60
split_gain=309.87 73.5738 35.4767 32.2764 29.4594 27.6796 24.0293 20.578 18.5971
threshold=1.0000000180025095e-35 0.44850000000000007 351.50000000000006 4.7892857142857155 108.78750000000001 42209.679000000011 47097.632500000014 0.7069444444444446 0.65125000000000011
decision_type=2 2 2 2 2 2 2 2 2
left_child=1 3 6 7 5 -4 8 -1 -3
right_child=-2 2 4 -5 -6 -7 -8 -9 -10
leaf_value=-0.016447297077369354 -0.014742451688313642 0.004359064242760057 0.0073311364183620423 0.0057002161638603013 0.0096500491681991828 -0.0065425609260956466 0.014599622220022077 -0.0030247126916067434 -0.009803062065618871
leaf_weight=23.101070880889893 107.97817090153694 14.62754502892494 35.245985746383667 18.991086006164551 207.58503599464893 24.291733905673027 7.7718762457370749 22.591423317790031 25.326803252100945
leaf_count=93 433 60 145 78 857 99 32 92 103
internal_value=0 0.00445703 0.00645267 -0.00525681 0.00787154 0.00167059 -0.00148873 -0.00981086 -0.00461822
internal_weight=0 379.533 314.849 64.6836 267.123 59.5377 47.7262 45.6925 39.9543
internal_count=1992 1559 1296 263 1101 244 195 185 163
is_linear=0
shrinkage=0.01


Tree=12
num_leaves=10
num_cat=0
split_feature=170 171 1 50 64 6 6 127 60
split_gain=303.618 72.1879 34.8453 31.6109 28.9682 27.1419 23.5875 20.1295 18.2059
threshold=1.0000000180025095e-35 0.44850000000000007 351.50000000000006 4.7892857142857155 108.78750000000001 42209.679000000011 47097.632500000014 0.7069444444444446 0.66154761904761916
decision_type=2 2 2 2 2 2 2 2 2
left_child=1 3 6 7 5 -4 8 -1 -3
right_child=-2 2 4 -5 -6 -7 -8 -9 -10
leaf_value=-0.016263740022424172 -0.01458515236864703 0.0040884540724580526 0.0072664948620774937 0.0056483704280951043 0.0095697837069417223 -0.0064717271751888929 0.014489517109285303 -0.0029933219839244126 -0.009829942375515743
leaf_weight=23.128039360046387 108.05090315639973 15.107649862766264 35.204142913222313 18.973835945129395 207.23462769389153 24.311931401491165 7.7527208775281897 22.600011065602303 24.866664916276932
leaf_count=93 433 62 145 78 857 99 32 92 101
internal_value=0 0.00441663 0.00639576 -0.00520273 0.00780377 0.00165452 -0.00147375 -0.00970515 -0.00456971
internal_weight=0 379.18 314.478 64.7019 266.751 59.5161 47.727 45.7281 39.9743
internal_count=1992 1559 1296 263 1101 244 195 185 163
is_linear=0
shrinkage=0.01


Tree=13
num_leaves=10
num_cat=0
split_feature=170 171 1 50 64 6 6 127 60
split_gain=297.521 70.8305 34.2258 30.9615 28.4864 26.6152 23.1554 19.6963 17.8316
threshold=1.0000000180025095e-35 0.44850000000000007 351.50000000000006 4.7892857142857155 108.78750000000001 42209.679000000011 47097.632500000014 0.7069444444444446 0.65125000000000011
decision_type=2 2 2 2 2 2 2 2 2
left_child=1 3 6 7 5 -4 8 -1 -3
right_child=-2 2 4 -5 -6 -7 -8 -9 -10
leaf_value=-0.016084577368601652 -0.014431183214420905 0.0042802760794851567 0.0072025332381333356 0.0055970373046325397 0.0094904752359140521 -0.0064018505244319368 0.014381446351321665 -0.0029622818197830008 -0.0095873629827392289
leaf_weight=23.151679456233978 108.11136856675148 14.60829922556877 35.161815822124481 18.956463366746902 206.87853771448135 24.331425324082375 7.7329685389995566 22.608413115143776 25.38447842001915
leaf_count=93 433 60 145 78 857 99 32 92 103
internal_value=0 0.00437675 0.00633954 -0.00514949 0.00773679 0.00163864 -0.00145899 -0.00960132 -0.00452188
internal_weight=0 378.814 314.098 64.7166 266.372 59.4932 47.7257 45.7601 39.9928
internal_count=1992 1559 1296 263 1101 244 195 185 163
is_linear=0
shrinkage=0.01


Tree=14
num_leaves=10
num_cat=0
split_feature=170 189 175 96 158 189 171 22 19
split_gain=291.573 135.385 81.7567 47.6715 50.5776 29.882 18.3718 22.4906 17.2741
threshold=1.0000000180025095e-35 1.0000000180025095e-35 1.0000000180025095e-35 1.7854166666666653 1.0964722222222203 1.0000000180025095e-35 0.44850000000000007 0.62236111111111114 7.1633333333333358
decision_type=2 2 2 2 2 2 2 2 2
left_child=1 3 6 4 8 -2 7 -3 -1
right_child=5 2 -4 -5 -6 -7 -8 -9 -10
leaf_value=-0.01120831693684856 -0.01721551155752547 -0.010490888660739385 -0.013397258722241409 0.0058702336787586733 0.0028287953289539798 -0.004867551669682048 0.014320345610614784 0.011717610211741676 0.0015420956310794607
leaf_weight=71.155235096812248 82.450508266687393 6.9366043210029629 12.69296459853649 67.837319597601891 58.305125489830971 25.709413945674896 135.7093922495842 13.309088453650473 12.490653678774832
leaf_count=288 330 28 51 279 239 103 568 55 51
internal_value=0 0.00433737 0.0110083 -0.00102539 -0.00432075 -0.0142804 0.0129947 0.00410851 -0.00930433
internal_weight=0 378.436 168.648 209.788 141.951 108.16 155.955 20.2457 83.6459
internal_count=1992 1559 702 857 578 433 651 83 339
is_linear=0
shrinkage=0.01


Tree=15
num_leaves=10
num_cat=0
split_feature=170 189 175 17 122 189 44 171 149
split_gain=282.496 140.034 75.7303 40.848 46.5236 23.1593 18.7508 17.75 16.9425
threshold=1.0000000180025095e-35 1.0000000180025095e-35 1.0000000180025095e-35 101.9466666666665 -0.12588888888888897 1.0000000180025095e-35 1.8116666666666652 0.44850000000000007 -11.512499999999998
decision_type=2 2 2 2 2 2 2 2 2
left_child=1 3 7 4 -1 -2 -7 8 -3
right_child=5 2 -4 -5 -6 6 -8 -9 -10
leaf_value=0.0043465084050286883 -0.016745209477303305 -0.012090039492910319 -0.01341375320763093 0.0072467582440791795 -0.0072332480813217647 -0.013621597646018412 0.0027618876042633266 0.014221197263527996 0.0095855870874065139
leaf_weight=50.559777617454529 81.228222846984863 4.9439080953598049 11.706887125968931 44.256120845675468 110.57620166242123 15.48012086749077 12.730507224798201 135.29601030051708 13.32595571875572
leaf_count=208 325 20 47 183 448 62 51 568 55
internal_value=0 0.00425087 0.0111029 -0.00126272 -0.00359986 -0.0140342 -0.00622828 0.0129719 0.00372006
internal_weight=0 370.665 165.273 205.392 161.136 109.439 28.2106 153.566 18.2699
internal_count=1967 1529 690 839 656 438 113 643 75
is_linear=0
shrinkage=0.01


Tree=16
num_leaves=10
num_cat=0
split_feature=170 189 175 17 122 189 171 116 22
split_gain=276.915 137.696 74.4145 40.059 45.5674 22.6941 17.5136 16.8252 15.1778
threshold=1.0000000180025095e-35 1.0000000180025095e-35 1.0000000180025095e-35 101.9466666666665 -0.12588888888888897 1.0000000180025095e-35 0.44850000000000007 1.0472222222222203 0.63881944444444461
decision_type=2 2 2 2 2 2 2 2 2
left_child=1 3 6 4 -1 -2 8 -6 -3
right_child=5 2 -4 -5 7 -7 -8 -9 -10
leaf_value=0.004306136085422063 -0.016574599548749867 -0.0090364453862373257 -0.013271067621100337 0.0071837626707544023 -0.0042900162408779849 -0.0061648257718903534 0.014123361688432281 -0.012461591805196615 0.010221916893067506
leaf_weight=50.523645877838135 81.243610352277756 6.1945643723011043 11.714389204978941 44.198059752583504 71.856276914477348 28.215919986367226 134.87302149832249 38.803966403007507 12.058761626482008
leaf_count=208 325 25 47 183 291 113 568 157 50
internal_value=0 0.00421349 0.0110208 -0.00125013 -0.00356278 -0.0138912 0.0128792 -0.00715545 0.00368628
internal_weight=0 370.223 164.841 205.382 161.184 109.46 153.126 110.66 18.2533
internal_count=1967 1529 690 839 656 438 643 448 75
is_linear=0
shrinkage=0.01


Tree=17
num_leaves=10
num_cat=0
split_feature=170 189 185 101 62 154 176 189 193
split_gain=271.469 135.409 53.0458 38.0034 33.9025 28.7524 23.5683 22.2477 21.0757
threshold=1.0000000180025095e-35 1.0000000180025095e-35 1.0000000180025095e-35 0.94550000000000012 17.141666666666705 -0.034833333333333348 1.0000000180025095e-35 1.0000000180025095e-35 0.0098970046912887025
decision_type=2 2 2 2 2 2 2 2 2
left_child=1 3 -3 8 -5 -4 -6 -2 -1
right_child=7 2 5 4 6 -7 -8 -9 -10
leaf_value=0.0071910214034974843 -0.016408036472533472 0.0131012814254998 -0.01390147308337749 0.0036260096331582289 -0.011443192328473458 0.0099674621068596061 -0.0015942969578316439 -0.0061019679213626318 -0.0096581681731830391
leaf_weight=57.462535202503204 81.247626706957817 143.61233353614807 12.15497823059559 39.636626437306404 57.850306689739227 8.6297460943460447 41.891425311565399 28.22148509323597 8.5251387953758222
leaf_count=237 325 605 49 163 234 36 170 113 35
internal_value=0 0.00417665 0.0109403 -0.00123769 -0.00419762 -0.00399117 -0.00730667 -0.0137511 0.00501423
internal_weight=0 369.763 164.397 205.366 139.378 20.7847 99.7417 109.469 65.9877
internal_count=1967 1529 690 839 567 85 404 438 272
is_linear=0
shrinkage=0.01


Tree=18
num_leaves=10
num_cat=0
split_feature=189 175 172 172 123 97 96 37 171
split_gain=221.019 102.542 81.1455 39.1828 37.0919 33.15 30.5567 23.9635 22.5261
threshold=1.0000000180025095e-35 1.0000000180025095e-35 77.200611111111115 83.490000000000023 -0.15857499999999999 1.3590000000000002 1.9907142857142852 6.4194444444444452 0.6586607142857146
decision_type=2 2 2 2 2 2 2 2 2
left_child=2 3 5 -2 8 6 7 -1 -4
right_child=1 -3 4 -5 -6 -7 -8 -9 -10
leaf_value=-0.0093417443199820156 0.013416949568560401 -0.01195652245718693 -0.0097788021568854158 0.0014722055895181466 -0.015110085445780885 0.0082862870759312438 0.005681666784580772 0.00076347388892124529 0.0065643466841910523
leaf_weight=65.441220447421074 135.80304539203644 21.965618744492531 19.978255718946457 34.423980057239532 87.695218726992607 31.741970285773277 30.555520996451378 36.587225884199142 14.594608321785925
leaf_count=265 574 88 81 141 352 131 126 149 60
internal_value=0 0.00837758 -0.00548307 0.0110014 -0.0116518 -0.000893178 -0.00309084 -0.00571803 -0.0028797
internal_weight=0 192.193 286.594 170.227 122.268 164.326 132.584 102.028 34.5729
internal_count=1967 803 1164 715 493 671 540 414 141
is_linear=0
shrinkage=0.01


Tree=19
num_leaves=10
num_cat=0
split_feature=170 189 185 96 146 149 189 172 99
split_gain=262.271 130.746 51.6557 38.6495 43.7057 27.9293 21.4051 20.1362 21.5314
threshold=1.0000000180025095e-35 1.0000000180025095e-35 1.0000000180025095e-35 1.9907142857142852 0.87472222222222207 -1.0000000180025095e-35 1.0000000180025095e-35 60.190000000000005 0.68472222222222212
decision_type=2 2 2 2 2 2 2 2 2
left_child=1 3 -3 4 -1 -4 -2 8 -6
right_child=6 2 5 -5 7 -7 -8 -9 -10
leaf_value=0.003978930222277125 -0.016120690152679994 0.012927177962644722 -0.012778120227596446 0.0059595200021876358 0.011217731428421989 0.011297224957904901 -0.0060120565418500718 -0.012091174961776269 -0.0060737475149538356
leaf_weight=48.537654921412468 81.225712805986404 142.78876286745071 13.150189250707628 55.161446899175644 8.6431894153356534 7.605291247367858 28.227080270648003 49.864634558558464 43.165358573198318
leaf_count=200 325 605 53 228 35 32 113 201 175
internal_value=0 0.0041133 0.0107845 -0.00119917 -0.00382804 -0.00395635 -0.0135137 -0.007555 -0.00318902
internal_weight=0 368.917 163.544 205.372 150.211 20.7555 109.453 101.673 51.8085
internal_count=1967 1529 690 839 611 85 438 411 210
is_linear=0
shrinkage=0.01


Tree=20
num_leaves=10
num_cat=0
split_feature=170 189 185 36 171 104 176 171 145
split_gain=270.62 143.96 64.1346 39.6933 36.3708 31.7498 21.6333 19.2372 17.6309
threshold=1.0000000180025095e-35 1.0000000180025095e-35 1.0000000180025095e-35 0.065828571428571472 0.87125000000000019 16.596587301587302 1.0000000180025095e-35 0.48125000000000001 0.91267857142857156
decision_type=2 2 2 2 2 2 2 2 2
left_child=1 3 -3 7 -4 -5 8 -1 -7
right_child=-2 2 4 5 -6 6 -8 -9 -10
leaf_value=-0.0058218897335930529 -0.01447648529814167 0.012963751510464439 -0.01399727224412255 0.0040596933053871978 0.014833027030363781 0.0012228515508599031 -0.0022224817716365339 0.0092930185306795265 -0.012907173511768563
leaf_weight=10.824721068143843 105.9322050511837 144.49712820351124 15.094981700181963 34.603655815124512 6.1620301455259314 10.496294200420378 56.096161723136902 37.909089058637619 55.644508257508278
leaf_count=44 424 614 61 143 26 43 228 157 225
internal_value=0 0.00364377 0.0105779 -0.00194723 -0.00563988 -0.00439663 -0.0067905 0.00593571 -0.0106648
internal_weight=0 371.329 165.754 205.574 21.257 156.841 122.237 48.7338 66.1408
internal_count=1965 1541 701 840 87 639 496 201 268
is_linear=0
shrinkage=0.01


Tree=21
num_leaves=10
num_cat=0
split_feature=189 171 171 19 73 172 35 172 175
split_gain=227.56 99.6415 86.7547 47.2965 26.0919 25.7464 22.0434 21.3734 20.5301
threshold=1.0000000180025095e-35 0.39100000000000007 0.48125000000000001 6.495000000000001 1.3270833333333352 68.952500000000015 0.077387500000000012 60.190000000000005 1.0000000180025095e-35
decision_type=2 2 2 2 2 2 2 2 2
left_child=2 4 7 5 -2 -4 -5 -1 -3
right_child=1 8 3 6 -6 -7 -8 -9 -10
leaf_value=-0.0019839078025501319 0.0050439752382224583 0.01229555530579716 -0.0034052117368163683 0.0045730212130006909 -0.012848675386649931 -0.015738965826118206 -0.0037654843093648973 -0.016348216554785827 -0.0069924510445712939
leaf_weight=12.022452324628828 12.308792278170584 148.86911341547966 36.36811575293541 76.888952434062958 24.121457055211067 31.657723695039749 53.946777135133743 74.85127729177475 5.7308814674615851
leaf_count=49 51 633 147 317 97 127 220 301 23
internal_value=0 0.0080747 -0.00602361 -0.00238167 -0.00680323 -0.00914507 0.00113485 -0.0143603 0.0115806
internal_weight=0 191.03 285.735 198.862 36.4302 68.0258 130.836 86.8737 154.6
internal_count=1965 804 1161 811 148 274 537 350 656
is_linear=0
shrinkage=0.01


Tree=22
num_leaves=10
num_cat=0
split_feature=189 171 171 19 73 172 7 172 175
split_gain=223.315 97.9521 85.0019 46.3448 25.5609 25.2413 22.9775 20.9479 20.1961
threshold=1.0000000180025095e-35 0.39100000000000007 0.48125000000000001 6.495000000000001 1.3270833333333352 68.952500000000015 0.028000000000000004 60.190000000000005 1.0000000180025095e-35
decision_type=2 2 2 2 2 2 2 2 2
left_child=2 4 7 5 -2 -4 -5 -1 -3
right_child=1 8 3 6 -6 -7 -8 -9 -10
leaf_value=-0.001963613431361914 0.0049977863944124018 0.012208287073463879 -0.0033700918931274457 0.0041477085028814257 -0.012715785233778998 -0.015581307429484954 -0.0046853489043912162 -0.016182673274408147 -0.0069204717225672795
leaf_weight=12.025225251913069 12.298374697566031 148.43611136078835 36.379579588770866 86.024248704314232 24.129766315221786 31.658263698220253 44.77948009967804 74.860755100846291 5.7325742691755286
leaf_count=49 51 633 147 354 97 127 183 301 23
internal_value=0 0.00801228 -0.00596353 -0.00235808 -0.00673557 -0.00905202 0.00112379 -0.0142147 0.011497
internal_weight=0 190.597 285.728 198.842 36.4281 68.0378 130.804 86.886 154.169
internal_count=1965 804 1161 811 148 274 537 350 656
is_linear=0
shrinkage=0.01


Tree=23
num_leaves=10
num_cat=0
split_feature=170 171 188 34 36 158 171 69 137
split_gain=258.398 83.8495 33.2365 29.2631 25.0522 24.7595 21.2574 18.9543 15.5675
threshold=1.0000000180025095e-35 0.44850000000000007 1.0000000180025095e-35 0.05056250000000001 0.071562500000000015 0.86057142857142865 0.78900000000000015 -0.76892857142857141 0.9069047619047621
decision_type=2 2 2 2 2 2 2 2 2
left_child=1 3 4 -1 -3 -6 -4 -5 -9
right_child=-2 2 6 7 5 -7 -8 8 -10
leaf_value=0.0059730855150058786 -0.014148476381279454 0.0080525890412967323 0.0028738914023745221 0.0041796940975789973 0.0077943482581072929 -0.0033397311346981917 0.011376011063203031 0.00051055416268430795 -0.015741184296021719
leaf_weight=13.909566417336462 105.810775578022 53.608462005853653 40.131622508168221 7.5405699163675299 27.188660144805908 75.252315312623978 110.04544933140278 7.0754963904619208 35.300886407494545
leaf_count=58 424 225 168 31 114 309 465 29 142
internal_value=0 0.00357254 0.00574573 -0.00685397 0.00251383 -0.000384657 0.009104 -0.0104283 -0.0130277
internal_weight=0 370.053 306.227 63.8265 156.049 102.441 150.177 49.917 42.3764
internal_count=1965 1541 1281 260 648 423 633 202 171
is_linear=0
shrinkage=0.01


Tree=24
num_leaves=10
num_cat=0
split_feature=171 172 101 172 188 36 96 176 171
split_gain=185.172 73.3879 40.3628 37.9279 32.9175 26.6316 17.245 17.3975 15.6635
threshold=0.44850000000000007 88.336250000000021 1.0110000000000003 60.190000000000005 1.0000000180025095e-35 0.071562500000000015 1.7854166666666653 1.0000000180025095e-35 0.78900000000000015
decision_type=2 2 2 2 2 2 2 2 2
left_child=3 4 -3 -1 5 -2 -7 -8 -6
right_child=1 2 -4 -5 8 6 7 -9 -10
leaf_value=0.0024769656256566053 0.008381010480159469 0.0031086357725008677 -0.011689595239821039 -0.013249992950872655 0.0034411587360859987 -0.0035940753989143117 -0.0032363027107159131 0.013174989100744591 0.011142727885687988
leaf_weight=17.965330481529236 47.112152233719826 31.964395478367805 43.535028263926506 104.71475549042225 35.580223858356476 65.858885928988457 11.48750527203083 14.758147567510605 102.43508689105511
leaf_count=74 198 132 176 422 149 270 48 62 434
internal_value=0 0.00331615 -0.00542443 -0.0109469 0.00569649 0.00226558 -0.000862503 0.0059919 0.00915727
internal_weight=0 352.731 75.4994 122.68 277.232 139.217 92.1045 26.2457 138.015
internal_count=1965 1469 308 496 1161 578 380 110 583
is_linear=0
shrinkage=0.01


Tree=25
num_leaves=10
num_cat=0
split_feature=189 175 172 96 172 36 101 96 78
split_gain=208.959 106.679 68.2289 55.0419 28.3408 26.077 23.7082 23.1067 23.075
threshold=1.0000000180025095e-35 1.0000000180025095e-35 58.231666666666662 1.8933333333333351 83.490000000000023 0.071225000000000011 1.4534285714285702 1.7614285714285702 0.26610000000000006
decision_type=2 2 2 2 2 2 2 2 2
left_child=2 4 5 8 -2 -1 -6 -7 -4
right_child=1 -3 3 -5 6 7 -8 -9 -10
leaf_value=0.0075395851784526655 0.012904346883541497 -0.013151568679248883 -0.00048440255426831878 -0.00039324541771591635 0.0072794098339822901 -0.0066849440447880083 -0.012829525676698608 0.0070904121068419302 -0.013665401089289942
leaf_weight=41.026724606752396 135.60416549444199 20.715810000896454 14.929796427488325 55.63453771173954 24.524243429303169 43.183645203709602 7.7050568461418143 16.958697453141212 120.29550251364708
leaf_count=170 584 83 61 228 102 175 31 70 484
internal_value=0 0.00825836 -0.00524643 -0.00876558 0.010901 0.0013926 0.00247197 -0.00280062 -0.0122101
internal_weight=0 188.549 292.029 190.86 167.833 101.169 32.2293 60.1423 135.225
internal_count=1988 800 1188 773 717 415 133 245 545
is_linear=0
shrinkage=0.01


Tree=26
num_leaves=10
num_cat=0
split_feature=189 175 19 176 25 101 16 107 3
split_gain=205.149 104.805 56.7006 35.3641 19.7399 19.7237 17.3065 14.1921 12.7503
threshold=1.0000000180025095e-35 1.0000000180025095e-35 6.495000000000001 1.0000000180025095e-35 0.26785714285714307 0.94550000000000012 0.42270833333333357 0.59375000000000011 97.500000000000014
decision_type=2 2 2 2 2 2 2 2 2
left_child=2 4 6 5 -2 -4 8 -7 -1
right_child=1 -3 3 -5 -6 7 -8 -9 -10
leaf_value=-0.011614176073314417 -0.0020831168194670176 -0.013021679930327724 -0.00017302377081739184 0.0036805103968015297 0.01173777051312622 0.002752207022096117 -0.0131981630751176 -0.010440472704278088 0.0031126453382217777
leaf_weight=10.682485461235048 11.065869763493536 20.713233232498169 45.433535650372505 71.032262578606606 156.27669858932495 9.4366735070943815 82.324282214045525 59.999839022755623 13.074242353439329
leaf_count=43 46 83 187 292 671 39 331 243 53
internal_value=0 0.00819739 -0.00519476 -0.00186593 0.0108238 -0.00529569 -0.0110284 -0.00864754 -0.00350944
internal_weight=0 188.056 291.983 185.902 167.343 114.87 106.081 69.4365 23.7567
internal_count=1988 800 1188 761 717 469 427 282 96
is_linear=0
shrinkage=0.01


Tree=27
num_leaves=10
num_cat=0
split_feature=170 189 175 96 16 189 0 7 137
split_gain=242.327 119.959 80.6473 43.3998 32.5428 15.1151 16.4612 13.3206 13.6792
threshold=1.0000000180025095e-35 1.0000000180025095e-35 1.0000000180025095e-35 1.8233333333333352 0.38616666666666655 1.0000000180025095e-35 61.500000000000007 0.013000000000000003 1.0705555555555553
decision_type=2 2 2 2 2 2 2 2 2
left_child=1 3 -3 4 -1 -2 -7 8 -6
right_child=5 2 -4 -5 7 6 -8 -9 -10
leaf_value=0.0030244254459189271 -0.01535134027911895 0.012270653210530613 -0.014190830929135669 0.0054486368809178853 -0.0073753891220370935 0.0088731361671935214 -0.010841221854877377 -0.011880200755818924 0.0033005385901817403
leaf_weight=42.661422565579414 81.865478903055191 151.15038327872753 12.467612415552138 67.38839989900589 43.511846452951431 5.4945945441722897 18.481678947806358 39.970131888985634 16.573278978466988
leaf_count=176 329 654 50 279 176 22 74 161 67
internal_value=0 0.00383418 0.0102543 -0.00116546 -0.00428852 -0.0133062 -0.00632332 -0.0074066 -0.00443065
internal_weight=0 373.723 163.618 210.105 142.717 105.842 23.9763 100.055 60.0851
internal_count=1988 1563 704 859 580 425 96 404 243
is_linear=0
shrinkage=0.01


Tree=28
num_leaves=10
num_cat=0
split_feature=189 175 172 96 171 36 34 171 22
split_gain=197.739 101.34 65.743 52.5257 32.7067 25.1538 24.1469 23.7359 23.3523
threshold=1.0000000180025095e-35 1.0000000180025095e-35 58.231666666666662 1.8933333333333351 0.41100000000000003 0.071225000000000011 0.048071428571428557 0.6586607142857146 0.66527777777777819
decision_type=2 2 2 2 2 2 2 2 2
left_child=2 4 5 6 8 -1 -4 -5 -2
right_child=1 -3 3 7 -6 -7 -8 -9 -10
leaf_value=0.0074697217662028949 -0.011065034576117867 -0.012787659479431192 -0.00042966078875936176 -0.0080279139952077368 0.012407148790194307 -0.0026898856222979219 -0.013472005418044962 0.005206178695020409 0.0095009573761501952
leaf_weight=40.950396940112114 10.912503421306612 20.704006537795067 16.118153408169746 23.414826273918152 144.29380640387535 60.187205076217651 119.00262306630611 32.17556956410408 11.175262123346327
leaf_count=170 44 83 66 95 626 245 479 133 47
internal_value=0 0.00807624 -0.00509373 -0.00855005 0.0106725 0.00142372 -0.0119162 -0.000368057 -0.000659711
internal_weight=0 187.086 291.849 190.711 166.382 101.138 135.121 55.5904 22.0878
internal_count=1988 800 1188 773 717 415 545 228 91
is_linear=0
shrinkage=0.01


Tree=29
num_leaves=10
num_cat=0
split_feature=170 171 188 149 6 4 5 15 0
split_gain=234.841 60.0982 32.6548 23.2788 23.0489 26.5697 20.9599 18.5222 16.0295
threshold=1.0000000180025095e-35 0.44850000000000007 1.0000000180025095e-35 27.900000000000002 25363.279500000004 49.000000000000007 0.21050000000000002 0.82928571428571451 211.50000000000003
decision_type=2 2 2 2 2 2 2 2 2
left_child=1 3 4 -1 -3 6 -6 -8 -5
right_child=-2 2 -4 8 5 -7 7 -9 -10
leaf_value=-0.011432361430418925 -0.013107996327438212 0.00667817467854993 0.0087445791368191833 -0.0068232654396666141 0.012231795530014758 0.013617169509568173 -0.0078937375952036464 0.0039537563489938036 0.0082536830895864575
leaf_weight=31.01870933175087 105.66968601942062 67.716617837548256 157.26878628134727 13.398981094360353 7.9772306382656089 10.803516104817389 51.900624975562096 17.694973096251488 14.885952562093733
leaf_count=125 425 284 670 55 33 46 213 75 62
internal_value=0 0.00378156 0.00552854 -0.00544955 0.00228828 -0.00107539 -0.00312161 -0.00488146 0.00111152
internal_weight=0 372.665 313.362 59.3036 156.093 88.3763 77.5728 69.5956 28.2849
internal_count=1988 1563 1321 242 651 367 321 288 117
is_linear=0
shrinkage=0.01


Tree=30
num_leaves=10
num_cat=0
split_feature=170 171 172 188 27 27 153 194 0
split_gain=247.668 56.7551 38.4907 29.2553 22.7023 24.1084 22.3026 17.0392 12.6877
threshold=1.0000000180025095e-35 0.64585714285714313 59.330000000000005 1.0000000180025095e-35 0.67708333333333359 1.0000000180025095e-35 1.0893750000000002 0.008203359450562853 166.50000000000003
decision_type=2 2 2 2 2 2 2 2 2
left_child=1 2 -1 4 5 7 -4 -3 -8
right_child=-2 3 6 -5 -6 -7 8 -9 -10
leaf_value=0.0060919020564820106 -0.013427018995980238 0.008855545659365251 -0.011844079277904285 0.0095512327553524019 0.0099124752397947765 -0.0043059698990105914 -0.0086240914366146493 -0.0060895980425153644 0.0038843379310003964
leaf_weight=36.086326226592064 108.81012269854546 36.023613974452019 37.933096438646317 132.36254672706127 33.998717024922371 51.098206102848053 12.8901120275259 9.6782016456127149 21.863788187503815
leaf_count=151 438 152 154 566 144 211 53 40 91
internal_value=0 0.00372537 -0.00235064 0.00623679 0.00288272 0.000413689 -0.00654205 0.00569064 -0.000754999
internal_weight=0 371.935 108.773 263.161 130.799 96.8 72.687 45.7018 34.7539
internal_count=2000 1562 449 1113 547 403 298 192 144
is_linear=0
shrinkage=0.01


Tree=31
num_leaves=10
num_cat=0
split_feature=170 189 175 101 62 37 171 1 22
split_gain=242.986 107.666 72.0398 39.5692 28.4865 22.5321 19.8297 16.7015 15.6901
threshold=1.0000000180025095e-35 1.0000000180025095e-35 1.0000000180025095e-35 0.84416666666666706 17.426785714285703 6.4380952380952357 0.44850000000000007 316.00000000000006 0.53708333333333358
decision_type=2 2 2 2 2 2 2 2 2
left_child=1 3 6 -1 7 -6 8 -5 -3
right_child=-2 2 -4 4 5 -7 -8 -9 -10
leaf_value=0.0081582080181896305 -0.013305531047972599 -0.012151353530903845 -0.013144326561505389 -0.0097929063233425026 -0.0091321781461136536 0.00042341217338539189 0.013043654922702498 0.0050230444179671851 0.0078392559032183957
leaf_weight=37.752848953008652 108.70610851049423 5.4584998935461071 12.69367305934429 9.0652474611997587 76.701510965824127 36.381370827555656 132.11880135536194 47.344574093818665 13.986378103494642
leaf_count=158 438 22 51 37 310 148 581 196 59
internal_value=0 0.00369247 0.00973945 -0.00110021 -0.00316243 -0.00605792 0.011656 0.00264207 0.00222756
internal_weight=0 371.503 164.257 207.246 169.493 113.083 151.564 56.4098 19.4449
internal_count=2000 1562 713 849 691 458 662 233 81
is_linear=0
shrinkage=0.01


Tree=32
num_leaves=10
num_cat=0
split_feature=189 175 172 171 171 36 77 124 41
split_gain=184.795 88.3372 75.1979 45.2649 31.6539 28.301 19.5322 19.2887 19.2765
threshold=1.0000000180025095e-35 1.0000000180025095e-35 60.426404510701651 0.90791666666666659 0.46900000000000003 0.071225000000000011 1.1864583333333354 2.3785714285714303 10.416666666666652
decision_type=2 2 2 2 2 2 2 2 2
left_child=2 4 5 8 6 -1 -2 -7 -4
right_child=1 -3 3 -5 -6 7 -8 -9 -10
leaf_value=0.0076998308511511942 0.0059368172399556184 -0.011088486843036148 -0.013742736716411706 -0.0010481189271661629 0.012030462714071098 0.0077081674782033937 -0.012154692598836796 -0.00565839112860824 -0.0031393101038708483
leaf_weight=43.660338252782822 19.415808722376827 22.400015503168106 112.26258946955204 51.147796526551247 138.22965568304062 13.788051784038542 8.6157858371734601 49.750498026609421 20.235268816351891
leaf_count=182 81 90 454 209 607 57 35 202 83
internal_value=0 0.00755391 -0.00515388 -0.00903876 0.0100656 0.00150142 0.000376214 -0.00275781 -0.0121234
internal_weight=0 188.661 290.845 183.646 166.261 107.199 28.0316 63.5385 132.498
internal_count=2000 813 1187 746 723 441 116 259 537
is_linear=0
shrinkage=0.01


Tree=33
num_leaves=10
num_cat=0
split_feature=170 189 175 101 62 37 171 1 22
split_gain=235.509 104.102 69.796 38.4221 27.7737 21.9086 19.3412 16.3645 15.2661
threshold=1.0000000180025095e-35 1.0000000180025095e-35 1.0000000180025095e-35 0.84416666666666706 17.426785714285703 6.4380952380952357 0.44850000000000007 316.00000000000006 0.53708333333333358
decision_type=2 2 2 2 2 2 2 2 2
left_child=1 3 6 -1 7 -6 8 -5 -3
right_child=-2 2 -4 4 5 -7 -8 -9 -10
leaf_value=0.008073250882998222 -0.013110812524981467 -0.011974737588370516 -0.012913933180802717 -0.0096578699808283729 -0.0089789624141400574 0.00044293049272939588 0.012893155294183287 0.0050003571451539761 0.0077469532220240944
leaf_weight=37.666072621941566 108.48294204473495 5.4618029892444637 12.682045385241507 9.077426001429556 76.765885666012764 36.373308807611465 131.11550918221474 47.3138627409935 13.949547439813612
leaf_count=158 438 22 51 37 310 148 581 196 59
internal_value=0 0.00364254 0.00961578 -0.00106258 -0.00309236 -0.0059499 0.0115139 0.00264079 0.00219783
internal_weight=0 370.405 163.209 207.197 169.53 113.139 150.527 56.3913 19.4114
internal_count=2000 1562 713 849 691 458 662 233 81
is_linear=0
shrinkage=0.01


Tree=34
num_leaves=10
num_cat=0
split_feature=170 171 19 64 6 172 188 0 84
split_gain=231.12 54.0727 35.5691 28.9503 18.8644 17.4128 15 14.4649 12.913
threshold=1.0000000180025095e-35 0.66900000000000015 6.495000000000001 108.78750000000001 41698.780000000006 59.330000000000005 1.0000000180025095e-35 187.50000000000003 -0.009374999999999899
decision_type=2 2 2 2 2 2 2 2 2
left_child=1 2 -1 4 -3 -4 8 -7 -5
right_child=-2 3 5 6 -6 7 -8 -9 -10
leaf_value=-0.010467838333744055 -0.012994888115410105 0.004799518622956799 0.0071848053245414101 0.0022051337926712543 -0.0064631349846242447 -0.0088281018430482801 0.010830625968876087 0.0024080097736068145 0.0097118673948885272
leaf_weight=35.103548884391785 108.35681416094303 36.532653853297234 32.926148980855942 56.396438926458359 25.082123056054115 19.705937147140503 98.078464061021805 27.371439322829247 38.599170476198196
leaf_count=143 438 155 139 237 103 81 425 114 165
internal_value=0 0.00361217 -0.00207586 0.00618289 0.000214721 0.00160634 0.00808748 -0.00229527 0.00525531
internal_weight=0 369.796 115.107 254.689 61.6148 80.0035 193.074 47.0774 94.9956
internal_count=2000 1562 477 1085 258 334 827 195 402
is_linear=0
shrinkage=0.01


Tree=35
num_leaves=10
num_cat=0
split_feature=170 189 175 96 69 7 189 171 22
split_gain=212.507 89.2166 65.4601 41.3293 37.0561 22.5996 21.1877 19.5711 27.5356
threshold=1.0000000180025095e-35 1.0000000180025095e-35 1.0000000180025095e-35 1.8233333333333352 1.2416666666666651 0.013000000000000003 1.0000000180025095e-35 0.44850000000000007 0.63881944444444461
decision_type=2 2 2 2 2 2 2 2 2
left_child=1 3 7 4 5 -1 -2 8 -3
right_child=6 2 -4 -5 -6 -7 -8 -9 -10
leaf_value=-0.0024410745090312205 -0.014710612524870409 -0.014021591640802035 -0.012149599905829006 0.0060530551545882483 0.0083420692267920458 -0.011483331791700985 -0.0044365929591391358 0.012734577782765193 0.011025497558038187
leaf_weight=73.922577396035194 81.089193969964981 6.9358854293823269 12.92224173247814 64.804504245519638 21.895768791437149 44.148210033774376 26.675839260220528 127.65804499387741 11.953581735491751
leaf_count=300 329 28 52 270 92 178 107 569 51
internal_value=0 0.00381812 0.00942632 -0.000549383 -0.00360631 -0.00582209 -0.0121674 0.0113288 0.00182864
internal_weight=0 364.241 159.47 204.771 139.967 118.071 107.765 146.548 18.8895
internal_count=1976 1540 700 840 570 478 436 648 79
is_linear=0
shrinkage=0.01


Tree=36
num_leaves=10
num_cat=0
split_feature=170 189 185 96 69 149 7 189 1
split_gain=208.588 87.8432 57.9939 40.5333 36.3321 26.18 22.1303 20.8581 16.9692
threshold=1.0000000180025095e-35 1.0000000180025095e-35 1.0000000180025095e-35 1.8233333333333352 1.2416666666666651 -1.0000000180025095e-35 0.013000000000000003 1.0000000180025095e-35 1763.0000000000002
decision_type=2 2 2 2 2 2 2 2 2
left_child=1 3 -3 4 6 -4 8 -2 -1
right_child=7 2 5 -5 -6 -7 -8 -9 -10
leaf_value=-0.0043450444249016409 -0.014589436030297226 0.011894229585190281 -0.013035512383824364 0.0059995012855555445 0.0082733765930941994 0.0087947816013980839 -0.011362016659851044 -0.0043928559164127315 0.0094817777273035683
leaf_weight=63.624219998717308 80.945792719721794 135.21201469004154 15.045598417520525 64.729522362351418 21.856985151767731 8.6528939455747587 44.173266604542732 26.67203976213932 10.314970031380652
leaf_count=258 329 601 61 270 92 38 178 107 42
internal_value=0 0.00378661 0.00936512 -0.000544054 -0.00357015 -0.00506474 -0.00576182 -0.0120623 -0.00241612
internal_weight=0 363.609 158.911 204.699 139.969 23.6985 118.112 107.618 73.9392
internal_count=1976 1540 700 840 570 99 478 436 300
is_linear=0
shrinkage=0.01


Tree=37
num_leaves=10
num_cat=0
split_feature=170 189 175 96 69 7 189 85 44
split_gain=204.748 86.4701 63.579 39.7536 35.6235 21.6729 20.5382 18.0982 15.7747
threshold=1.0000000180025095e-35 1.0000000180025095e-35 1.0000000180025095e-35 1.8233333333333352 1.2416666666666651 0.013000000000000003 1.0000000180025095e-35 0.017321428571428554 1.7219642857142852
decision_type=2 2 2 2 2 2 2 2 2
left_child=1 3 -3 4 5 7 -2 -1 -8
right_child=6 2 -4 -5 -6 -7 8 -9 -10
leaf_value=-0.0051243623528343038 -0.014470573360806734 0.011189654806956651 -0.011971700536533118 0.0059464628595331257 0.0082053969602887081 -0.011242771432501211 -0.012125224770096759 0.0065633731140029615 0.0032577935773019586
leaf_weight=56.66113443672657 80.795333489775658 145.47682453691959 12.903036892414091 64.654176592826843 21.81788082420826 44.195254325866699 13.188163384795191 17.292002037167549 13.47985804080963
leaf_count=229 329 648 52 270 92 178 53 71 54
internal_value=0 0.00375514 0.00930272 -0.00053879 -0.0035345 -0.00570245 -0.011959 -0.00239149 -0.00434959
internal_weight=0 363 158.38 204.62 139.966 118.148 107.463 73.9531 26.668
internal_count=1976 1540 700 840 570 478 436 300 107
is_linear=0
shrinkage=0.01


Tree=38
num_leaves=10
num_cat=0
split_feature=170 171 19 172 172 6 17 27 4
split_gain=200.997 70.4561 27.9835 27.2025 20.028 17.6719 20.0056 18.9882 16.2095
threshold=1.0000000180025095e-35 0.46900000000000003 6.1311111111111112 57.947500000000012 58.231666666666662 17442.547000000002 101.6375 0.20714285714285705 53.000000000000007
decision_type=2 2 2 2 2 2 2 2 2
left_child=1 3 4 -1 -3 -4 7 -7 -9
right_child=-2 2 5 -5 -6 6 -8 8 -10
leaf_value=0.0056246500021947775 -0.011857821636693935 0.0055136899349402411 0.010604129456080949 -0.0094004950730030741 -0.0046900646644692755 0.0076873343148909168 0.011184577374096612 -0.004962226335411977 0.010177281937647158
leaf_weight=15.976406767964361 107.2971123456955 39.927933350205421 103.65101690590382 49.023929998278618 37.118877112865448 35.403264105319977 35.558510914444923 36.986601054668427 8.7439903765916807
leaf_count=67 436 170 451 200 154 151 155 154 38
internal_value=0 0.00372394 0.00578535 -0.00570747 0.000597822 0.00759926 0.00493021 0.00218911 -0.00206745
internal_weight=0 362.391 297.39 65.0003 77.0468 220.343 116.692 81.1339 45.7306
internal_count=1976 1540 1273 267 324 949 498 343 192
is_linear=0
shrinkage=0.01


Tree=39
num_leaves=10
num_cat=0
split_feature=170 189 185 96 69 149 7 189 85
split_gain=197.271 85.0809 56.2253 38.7149 34.6557 25.1136 21.017 20.2941 17.6268
threshold=1.0000000180025095e-35 1.0000000180025095e-35 1.0000000180025095e-35 1.8233333333333352 1.2416666666666651 -1.0000000180025095e-35 0.013000000000000003 1.0000000180025095e-35 0.017321428571428554
decision_type=2 2 2 2 2 2 2 2 2
left_child=1 3 -3 4 6 -4 8 -2 -1
right_child=7 2 5 -5 -6 -7 -8 -9 -10
leaf_value=-0.0050900279244840453 -0.014259307033463516 0.01172078628139187 -0.012818654711054986 0.0058442831827149886 0.0080822280373436823 0.0086232532915455698 -0.011111523687292827 -0.0041910203710501378 0.0064536980443778008
leaf_weight=56.656302213668823 80.503249108791351 133.96115423738956 15.015497282147409 64.485434129834175 21.737622424960136 8.5857341885566694 44.204675167798996 26.646264597773552 17.256545826792717
leaf_count=229 329 601 61 270 92 38 178 107 71
internal_value=0 0.00369174 0.00921342 -0.000565895 -0.00352155 -0.00501845 -0.00565703 -0.0117555 -0.0023949
internal_weight=0 361.903 157.562 204.341 139.855 23.6012 118.118 107.15 73.9128
internal_count=1976 1540 700 840 570 99 478 436 300
is_linear=0
shrinkage=0.01


Tree=40
num_leaves=10
num_cat=0
split_feature=170 171 52 6 153 4 176 168 19
split_gain=189.261 49.4579 28.2942 24.0259 22.8899 17.6378 16.4159 12.635 11.7729
threshold=1.0000000180025095e-35 0.45083333333333359 1.0050000000000001 13337.990500000002 1.0893750000000002 53.000000000000007 1.0000000180025095e-35 1.0000000180025095e-35 6.2472222222222209
decision_type=2 2 2 2 2 2 2 2 2
left_child=1 4 7 -4 6 -5 -1 -3 -9
right_child=-2 2 3 5 -6 -7 -8 8 -10
leaf_value=-0.014627720666749279 -0.011811396511363505 0.0096435747888356065 0.0064888744133818222 -0.0039267648027224546 0.0016115099949052575 0.0082142664790412351 0.00060573257352676177 -0.011624613201296534 0.005142958588393769
leaf_weight=23.981837406754494 104.7780731767416 119.86560878157616 64.026985853910446 65.83303439617157 32.389799728989601 14.623470321297644 10.033774912357329 4.7640632092952719 34.591940000653267
leaf_count=97 427 523 277 274 135 63 41 20 148
internal_value=0 0.00341251 0.00512185 0.00191768 -0.00440514 -0.00172006 -0.0101342 0.00802942 0.00311324
internal_weight=0 370.111 303.705 144.483 66.4054 80.4565 34.0156 159.222 39.356
internal_count=2005 1578 1305 614 273 337 138 691 168
is_linear=0
shrinkage=0.01


Tree=41
num_leaves=10
num_cat=0
split_feature=170 189 175 17 122 189 44 119 185
split_gain=185.768 97.2414 62.4067 34.6975 40.1947 16.7733 17.5211 15.3062 12.6198
threshold=1.0000000180025095e-35 1.0000000180025095e-35 1.0000000180025095e-35 100.31666666666651 -0.12588888888888897 1.0000000180025095e-35 1.7219642857142852 -0.84722222222222188 1.0000000180025095e-35
decision_type=2 2 2 2 2 2 2 2 2
left_child=1 3 8 4 -1 -2 -7 -6 -3
right_child=5 2 -4 -5 7 6 -8 -9 -10
leaf_value=0.0040374066144000208 -0.01400641291875645 0.011875703957625277 -0.011716066434099157 0.0064148021039456852 -0.002195347118841211 -0.012664330267694429 0.0038032460278479949 -0.0097872458642514724 0.00079766263730785491
leaf_weight=50.556974664330482 78.742664813995361 137.41903041303158 13.107092425227163 47.056314066052437 44.47086364030838 13.403635680675508 12.473946064710615 65.922681331634521 11.114885583519934
leaf_count=211 323 621 53 199 180 54 50 266 48
internal_value=0 0.00338267 0.00920095 -0.00113869 -0.00334706 -0.011711 -0.00472635 -0.00672893 0.0110467
internal_weight=0 369.648 161.641 208.007 160.951 104.62 25.8776 110.394 148.534
internal_count=2005 1578 722 856 657 427 104 446 669
is_linear=0
shrinkage=0.01


Tree=42
num_leaves=10
num_cat=0
split_feature=170 189 175 96 36 189 44 0 171
split_gain=182.4 95.7089 61.3757 43.7084 32.5439 16.5285 17.1906 15.3795 14.3058
threshold=1.0000000180025095e-35 1.0000000180025095e-35 1.0000000180025095e-35 1.7966071428571453 0.071873015873015908 1.0000000180025095e-35 1.7219642857142852 70.500000000000014 0.44850000000000007
decision_type=2 2 2 2 2 2 2 2 2
left_child=1 3 8 4 7 -2 -7 -1 -3
right_child=5 2 -4 -5 -6 6 -8 -9 -10
leaf_value=-0.0096637834137805311 -0.013897490828387269 0.0031892406168023595 -0.011610277818998189 0.0055811865238327004 -0.0080169531753342977 -0.012550129874589254 0.0037648000462262594 0.0043274887806364834 0.012218514963535715
leaf_weight=9.5454540550708753 78.567094370722771 20.34395669400692 13.094317913055418 66.196253702044487 87.793805032968521 13.390412241220476 12.475308835506437 44.401956290006638 127.63877747952938
leaf_count=39 323 86 53 278 354 54 50 185 583
internal_value=0 0.00335469 0.00914103 -0.00112765 -0.00426083 -0.0116148 -0.00468127 0.00185187 0.0109772
internal_weight=0 369.015 161.077 207.937 141.741 104.433 25.8657 53.9474 147.983
internal_count=2005 1578 722 856 578 427 104 224 669
is_linear=0
shrinkage=0.01


Tree=43
num_leaves=10
num_cat=0
split_feature=170 189 175 96 36 189 44 0 4
split_gain=179.104 94.2112 60.3676 42.8604 31.8783 16.2895 16.8675 15.0716 13.2652
threshold=1.0000000180025095e-35 1.0000000180025095e-35 1.0000000180025095e-35 1.7966071428571453 0.071873015873015908 1.0000000180025095e-35 1.7219642857142852 70.500000000000014 11.000000000000002
decision_type=2 2 2 2 2 2 2 2 2
left_child=1 3 -3 4 7 -2 -7 -1 -6
right_child=5 2 -4 -5 8 6 -8 -9 -10
leaf_value=-0.009559390083606711 -0.013790481068631634 0.010909218905534653 -0.011506109787280816 0.0055318539706739056 -0.0020213726334838049 -0.012437826516213902 0.0037267733110028364 0.0042874637637188105 -0.010488488010230697
leaf_weight=9.5531588792800886 78.385889932513237 147.41912449896336 13.080803230404852 66.119108185172081 26.49750080704689 13.376274153590204 12.476569563150404 44.368468686938286 61.327984526753426
leaf_count=39 323 669 53 278 107 54 50 185 247
internal_value=0 0.00332709 0.00908236 -0.00111674 -0.00421803 -0.0115202 -0.0046368 0.00183425 -0.00793391
internal_weight=0 368.366 160.5 207.866 141.747 104.239 25.8528 53.9216 87.8255
internal_count=2005 1578 722 856 578 427 104 224 354
is_linear=0
shrinkage=0.01


Tree=44
num_leaves=10
num_cat=0
split_feature=170 171 19 188 96 36 176 46 0
split_gain=175.876 47.5957 32.3284 28.4006 17.6301 20.9676 14.5012 17.4307 14.9462
threshold=1.0000000180025095e-35 0.64585714285714313 6.495000000000001 1.0000000180025095e-35 1.8233333333333352 0.065828571428571472 1.0000000180025095e-35 10.645000000000001 116.50000000000001
decision_type=2 2 2 2 2 2 2 2 2
left_child=1 2 -1 4 5 -3 7 -4 -8
right_child=-2 3 6 -5 -6 -7 8 -9 -10
leaf_value=-0.0099672884390271648 -0.01142713291259956 0.0093939315626680765 -0.01140127747084365 0.0089478950122521429 0.0079004770479862898 -0.002855114619210996 -0.0049316125863976224 0.0020348596115955762 0.010333454648311698
leaf_weight=35.612135007977486 104.03823584318161 17.669300466775894 14.136876389384268 131.07816833257675 38.090502470731735 66.834258496761322 8.5978702902793867 30.457216829061508 25.253100991249084
leaf_count=146 427 78 58 579 166 278 36 128 109
internal_value=0 0.00329961 -0.0020657 0.00571198 0.00225213 -0.000293896 0.00152142 -0.00222456 0.00645625
internal_weight=0 367.729 114.057 253.672 122.594 84.5036 78.4451 44.5941 33.851
internal_count=2005 1578 477 1101 522 356 331 186 145
is_linear=0
shrinkage=0.01


Tree=45
num_leaves=10
num_cat=0
split_feature=170 189 185 96 16 154 189 158 1
split_gain=177.633 97.3296 43.9544 31.9589 35.9252 24.613 11.93 15.2868 11.8297
threshold=1.0000000180025095e-35 1.0000000180025095e-35 1.0000000180025095e-35 1.7854166666666653 0.39843750000000006 -0.055687499999999994 1.0000000180025095e-35 1.1020833333333353 1763.0000000000002
decision_type=2 2 2 2 2 2 2 2 2
left_child=1 3 -3 4 -1 -4 -2 -8 -6
right_child=6 2 5 -5 8 -7 7 -9 -10
leaf_value=0.0030676638181682992 -0.013358113717512346 0.011449358833418662 -0.013892215477836249 0.0047671366737446468 -0.0085458862482629492 0.0089606035082127906 -0.0098946010961625704 0.0080912201050613447 0.0020097853546383443
leaf_weight=51.627664536237717 81.180035084486008 130.52834671735764 11.625797733664514 63.868940591812134 85.848261043429375 7.9258580505847922 19.573440060019497 6.2296040952205649 12.115302935242651
leaf_count=215 336 597 48 269 346 35 79 25 49
internal_value=0 0.00318404 0.00935487 -0.00115456 -0.00368286 -0.00462813 -0.0114754 -0.0055523 -0.00724045
internal_weight=0 363.54 150.08 213.46 149.591 19.5517 106.983 25.803 97.9636
internal_count=1999 1559 680 879 610 83 440 104 395
is_linear=0
shrinkage=0.01


Tree=46
num_leaves=10
num_cat=0
split_feature=189 175 171 19 34 171 22 91 7
split_gain=147.724 64.206 56.4877 39.1112 24.498 20.3173 20.0107 16.915 15.7472
threshold=1.0000000180025095e-35 1.0000000180025095e-35 0.54125000000000012 6.495000000000001 0.041416666666666657 0.76142857142857168 0.5268333333333336 -0.13633333333333347 0.028000000000000004
decision_type=2 2 2 2 2 2 2 2 2
left_child=2 5 4 7 -1 6 -2 -4 -5
right_child=1 -3 3 8 -6 -7 -8 -9 -10
leaf_value=0.0045352010227382349 -0.0076400897346576213 -0.0096647540404275097 0.0040458316064433033 0.004615002350682784 -0.012121908156331499 0.012150407064180427 0.0074349507035707399 -0.0096482049336545934 -0.0027810804844284197
leaf_weight=9.7705535590648633 10.7521915435791 20.170563340187073 10.735681757330893 81.142859041690826 91.662649855017662 95.771282613277435 48.630481570959091 56.443674668669701 44.615771844983101
leaf_count=41 45 82 44 340 377 442 215 229 184
internal_value=0 0.00711899 -0.00447587 -0.00129965 -0.0105174 0.00930094 0.00470537 -0.00745981 0.00199107
internal_weight=0 175.325 294.371 192.938 101.433 155.154 59.3827 67.1794 125.759
internal_count=1999 784 1215 797 418 702 260 273 524
is_linear=0
shrinkage=0.01


Tree=47
num_leaves=10
num_cat=0
split_feature=170 171 188 131 30 38 149 4 4
split_gain=172.608 44.3403 28.2411 26.8326 20.5024 17.6837 14.464 13.8204 13.6257
threshold=1.0000000180025095e-35 0.45083333333333359 1.0000000180025095e-35 0.0098445000000000008 0.68633333333333357 101.25000000000001 88.533333333333374 21.000000000000004 51.000000000000007
decision_type=2 2 2 2 2 2 2 2 2
left_child=1 3 4 -1 -3 7 -5 -6 -9
right_child=-2 2 -4 6 5 -7 -8 8 -10
leaf_value=0.0068168667344647741 -0.011331288971374438 0.0075052866706975686 0.0078764506507599166 -0.010927831960263449 0.002017199775915197 0.0078219379877318227 0.0039774696898455123 -0.0079651059250420032 0.0070684055275939571
leaf_weight=15.474357500672339 106.6111087501049 44.129210293292999 146.3043151050806 38.354329541325569 38.863587200641632 20.491164430975914 7.841394990682601 43.923001229763031 6.98805809020996
leaf_count=66 440 193 647 156 163 90 33 181 30
internal_value=0 0.0031441 0.00472825 -0.00458008 0.00174502 -0.000560289 -0.00839776 -0.00247354 -0.0059016
internal_weight=0 362.369 300.699 61.6701 154.395 110.266 46.1957 89.7746 50.9111
internal_count=1999 1559 1304 255 657 464 189 374 211
is_linear=0
shrinkage=0.01


Tree=48
num_leaves=10
num_cat=0
split_feature=170 171 188 123 30 38 176 4 4
split_gain=169.477 43.5176 27.7792 27.2835 20.1403 17.359 15.3388 13.5393 13.3476
threshold=1.0000000180025095e-35 0.45083333333333359 1.0000000180025095e-35 -0.18329999999999999 0.68633333333333357 101.25000000000001 1.0000000180025095e-35 21.000000000000004 51.000000000000007
decision_type=2 2 2 2 2 2 2 2 2
left_child=1 3 4 -1 -3 7 -5 -6 -9
right_child=-2 2 -4 6 5 -7 -8 8 -10
leaf_value=0.0054978741907631516 -0.011239246130076635 0.0074453568723772583 0.0078147325492349071 -0.012556125084471036 0.0019976786582157013 0.0077611701237928765 0.00098446316176050309 -0.007880039845865508 0.0070074269938704596
leaf_weight=18.819020047783852 106.41035586595535 44.040022984147072 145.98677730560303 31.404645770788193 38.85098597407341 20.445319175720215 11.403910160064695 43.953031659126282 6.9784280061721793
leaf_count=80 440 193 647 128 163 90 47 181 30
internal_value=0 0.00311691 0.00468796 -0.00453741 0.00172903 -0.000554846 -0.008949 -0.00244857 -0.00584022
internal_weight=0 361.882 300.255 61.6276 154.268 110.228 42.8086 89.7824 50.9315
internal_count=1999 1559 1304 255 657 464 175 374 211
is_linear=0
shrinkage=0.01


Tree=49
num_leaves=10
num_cat=0
split_feature=189 175 172 171 19 172 29 29 171
split_gain=143.923 61.7 58.6444 34.0249 34.3058 26.3188 16.2115 23.9634 18.3965
threshold=1.0000000180025095e-35 1.0000000180025095e-35 58.231666666666662 0.45083333333333359 6.0062500000000005 74.302500000000009 0.94444444444444453 0.26785714285714307 1.7673333333333352
decision_type=2 2 2 2 2 2 2 2 2
left_child=2 5 6 -4 -5 -2 7 -1 -9
right_child=1 -3 3 4 -6 -7 -8 8 -10
leaf_value=0.0044123251069514147 0.011480238124226824 -0.0094229740192416332 -0.013474314338751448 -0.011705051916228873 -0.00060767067468040273 0.0016899174464788502 0.01025338077760176 -0.0094886241055304708 0.0081306423633805101
leaf_weight=49.134525448083878 118.2907320857048 20.094542413949966 67.105638489127159 43.484571725130081 77.50993986427784 35.758653208613396 17.806713595986366 31.092856734991074 7.3213432282209387
leaf_count=205 549 82 278 178 322 153 76 126 30
internal_value=0 0.00705787 -0.00441776 -0.00776338 -0.00459599 0.00920766 0.00155545 -0.000213638 -0.00613058
internal_weight=0 174.144 293.456 188.1 120.995 154.049 105.355 87.5487 38.4142
internal_count=1999 784 1215 778 500 702 437 361 156
is_linear=0
shrinkage=0.01


Tree=50
num_leaves=10
num_cat=0
split_feature=170 189 175 19 131 189 119 171 3
split_gain=156.928 79.1504 59.1524 35.0521 22.3812 21.224 20.7412 18.1249 17.5853
threshold=1.0000000180025095e-35 1.0000000180025095e-35 1.0000000180025095e-35 6.495000000000001 0.010401666666666703 1.0000000180025095e-35 0.97083333333333355 0.44850000000000007 80.500000000000014
decision_type=2 2 2 2 2 2 2 2 2
left_child=1 3 7 -1 -5 -2 -6 -3 -7
right_child=5 2 -4 4 6 8 -8 -9 -10
leaf_value=-0.0070394951791120913 -0.013571068877086074 0.0017773600744783963 -0.012748300620970836 0.0084044545395722866 -0.0041111695179476696 0.0097020535531177916 0.0050142907806626988 0.012070213016783356 -0.0086346923532533634
leaf_weight=61.417471021413803 74.264539435505867 19.940103679895401 11.750467762351034 39.43100243806839 62.035009667277336 7.6981812119483974 41.615986719727516 120.4616162031889 16.312503933906555
leaf_count=248 311 85 48 169 253 31 175 565 66
internal_value=0 0.00334311 0.0088046 -0.000720362 0.0019921 -0.0109286 -0.000447287 0.0106084 -0.00275566
internal_weight=0 356.652 152.152 204.499 143.082 98.2752 103.651 140.402 24.0107
internal_count=1951 1543 698 845 597 408 428 650 97
is_linear=0
shrinkage=0.01


Tree=51
num_leaves=10
num_cat=0
split_feature=170 189 175 19 131 189 119 0 171
split_gain=154.146 77.9502 58.1878 34.3549 21.9905 20.9301 20.3345 19.5744 17.9398
threshold=1.0000000180025095e-35 1.0000000180025095e-35 1.0000000180025095e-35 6.495000000000001 0.010401666666666703 1.0000000180025095e-35 0.97083333333333355 68.500000000000014 0.44850000000000007
decision_type=2 2 2 2 2 2 2 2 2
left_child=1 3 8 -1 -5 -2 -6 -7 -3
right_child=5 2 -4 4 6 7 -8 -9 -10
leaf_value=-0.0069683119665235587 -0.013474519266005283 0.0017602343630376556 -0.012641500462985834 0.0083382401586759303 -0.0040683738918429069 0.013896154734172222 0.0049691527083993228 -0.007634358917390725 0.012005390355892048
leaf_weight=61.42438231408596 74.049780428409576 19.932800397276878 11.731338322162626 39.347106337547302 62.060557350516319 5.4684864431619671 41.574281483888626 18.534015610814095 119.90372313559055
leaf_count=248 311 85 48 169 253 22 175 75 565
internal_value=0 0.00331608 0.00875038 -0.000713458 0.0019736 -0.0108441 -0.000442868 -0.00272907 0.010545
internal_weight=0 355.974 151.568 204.406 142.982 98.0523 103.635 24.0025 139.837
internal_count=1951 1543 698 845 597 408 428 97 650
is_linear=0
shrinkage=0.01


Tree=52
num_leaves=10
num_cat=0
split_feature=189 175 19 172 193 172 101 164 142
split_gain=134.831 55.0953 54.2629 25.4975 21.6937 20.8547 19.4635 16.0158 13.9244
threshold=1.0000000180025095e-35 1.0000000180025095e-35 6.495000000000001 83.490000000000023 0.0093362094816357016 70.934583333333364 1.3945000000000001 5.8819444444444455 0.96267857142857161
decision_type=2 2 2 2 2 2 2 2 2
left_child=2 3 5 -2 -4 7 -5 8 -1
right_child=1 -3 4 6 -6 -7 -8 -9 -10
leaf_value=-0.0050811399257303684 0.011199956829499886 -0.0088051218895577339 0.0015254426385916656 0.0062940280654887742 -0.0062583042525407593 -0.014016620792265155 -0.010549540060514943 -0.008906022313702612 0.014419846718133828
leaf_weight=8.1811251342296583 122.88024114072323 19.295812740921974 125.49983781576157 23.026825025677681 50.099864766001701 55.327074021100998 9.7717728316783887 32.405308783054352 6.6279612481594077
leaf_count=33 576 79 525 100 209 231 40 131 27
internal_value=0 0.00713358 -0.00407057 0.00910912 -0.000695317 -0.00985061 0.00127578 -0.00496877 0.00364673
internal_weight=0 174.975 278.141 155.679 175.6 102.541 32.7986 47.2144 14.8091
internal_count=1951 795 1156 716 734 422 140 191 60
is_linear=0
shrinkage=0.01


Tree=53
num_leaves=10
num_cat=0
split_feature=170 189 175 19 131 189 119 0 171
split_gain=149.713 75.3016 56.4982 33.1463 21.6221 20.504 19.8838 19.195 17.7638
threshold=1.0000000180025095e-35 1.0000000180025095e-35 1.0000000180025095e-35 6.495000000000001 0.010401666666666703 1.0000000180025095e-35 0.97083333333333355 68.500000000000014 0.44850000000000007
decision_type=2 2 2 2 2 2 2 2 2
left_child=1 3 8 -1 -5 -2 -6 -7 -3
right_child=5 2 -4 4 6 7 -8 -9 -10
leaf_value=-0.0068248104643943977 -0.013323396237979361 0.0016728543756712919 -0.012463663645053047 0.0082786160941980408 -0.0040176927674233122 0.013780804779720225 0.0049212220702167363 -0.0075412647463386443 0.011885231350812231
leaf_weight=61.415493696928024 73.686217322945595 19.882209688425064 11.69715169072151 39.269638672471046 62.088555470108986 5.4697919785976437 41.529104918241501 18.509438678622246 118.84307923913002
leaf_count=248 311 85 48 169 253 22 175 75 565
internal_value=0 0.00327244 0.00864198 -0.000680997 0.00195972 -0.0107096 -0.000435049 -0.00267759 0.0104216
internal_weight=0 354.725 150.422 204.303 142.887 97.6654 103.618 23.9792 138.725
internal_count=1951 1543 698 845 597 408 428 97 650
is_linear=0
shrinkage=0.01


Tree=54
num_leaves=10
num_cat=0
split_feature=170 189 175 19 131 189 84 171 17
split_gain=147.077 74.1679 55.5824 32.4893 21.2454 20.2255 19.2642 17.5852 16.9228
threshold=1.0000000180025095e-35 1.0000000180025095e-35 1.0000000180025095e-35 6.495000000000001 0.010401666666666703 1.0000000180025095e-35 -1.0000000180025095e-35 0.44850000000000007 80.749206349206375
decision_type=2 2 2 2 2 2 2 2 2
left_child=1 3 7 -1 -5 -2 8 -3 -6
right_child=5 2 -4 4 6 -7 -8 -9 -10
leaf_value=-0.0067563043833474262 -0.013230853079949456 0.001656713377918592 -0.012361344529235587 0.0082136335431753655 0.0011365866882786519 -0.0026519387285161263 0.004652202894056579 0.011822617898155878 -0.0094646971408809105
leaf_weight=61.417825147509575 73.460729360580444 19.875193953514099 11.676138639450071 39.184945195913315 30.547649592161179 23.969302386045456 43.357210397720337 118.28058011829853 29.694884330034256
leaf_count=248 311 85 48 169 125 97 183 565 120
internal_value=0 0.00324615 0.0085895 -0.000674493 0.00194155 -0.0106283 -0.000430759 0.0103601 -0.00408902
internal_weight=0 354.034 149.832 204.203 142.785 97.43 103.6 138.156 60.2425
internal_count=1951 1543 698 845 597 408 428 650 245
is_linear=0
shrinkage=0.01


Tree=55
num_leaves=10
num_cat=0
split_feature=170 189 185 96 158 171 189 158 91
split_gain=151.163 83.1154 47.7684 32.1131 28.7799 22.6736 12.645 16.3629 11.4294
threshold=1.0000000180025095e-35 1.0000000180025095e-35 1.0000000180025095e-35 1.889 1.0769285714285701 0.99683333333333357 1.0000000180025095e-35 1.1020833333333353 -0.13633333333333347
decision_type=2 2 2 2 2 2 2 2 2
left_child=1 3 -3 4 8 -4 -2 -8 -1
right_child=6 2 5 -5 -6 -7 7 -9 -10
leaf_value=0.0014228659711736816 -0.013023815951125003 0.011041110580159094 -0.010287889022368144 0.0046796320949411014 0.0014504572706382096 0.013541032068365644 -0.009863124005963014 0.0081879951000722768 -0.0091852155315555514
leaf_weight=11.843736633658407 76.353510811924934 124.09161446988583 17.31745553016663 63.322034597396851 59.163236647844315 5.189791575074195 17.990421473979954 6.9661827385425559 71.302650660276413
leaf_count=48 324 588 73 269 246 24 73 28 288
internal_value=0 0.00285689 0.00861006 -0.00124466 -0.00388072 -0.00479334 -0.011004 -0.00482448 -0.00767415
internal_weight=0 352.231 146.599 205.632 142.31 22.5072 101.31 24.9566 83.1464
internal_count=1961 1536 685 851 582 97 425 101 336
is_linear=0
shrinkage=0.01


Tree=56
num_leaves=10
num_cat=0
split_feature=170 189 175 96 158 171 14 189 158
split_gain=148.514 81.8216 51.2837 31.4882 28.2018 14.4739 13.6507 12.4929 16.0496
threshold=1.0000000180025095e-35 1.0000000180025095e-35 1.0000000180025095e-35 1.889 1.0769285714285701 0.46100000000000008 0.46845238095238106 1.0000000180025095e-35 1.1020833333333353
decision_type=2 2 2 2 2 2 2 2 2
left_child=1 3 5 4 -1 6 -3 -2 -9
right_child=7 2 -4 -5 -6 -7 -8 8 -10
leaf_value=-0.0075965982567559051 -0.012934272121530196 -0.01204490856972199 -0.010505736572532152 0.0046378143531683302 0.0014362580401598676 0.011789948342500231 0.0072212806961362641 -0.0097746200800261432 0.008102913120999344
leaf_weight=83.155233666300774 76.114482030272484 4.8426646441221264 12.86947652697563 63.254400059580803 59.150720745325089 113.04374152421951 15.286126166582106 17.971874549984935 6.968921720981597
leaf_count=336 324 20 53 269 246 545 67 73 28
internal_value=0 0.00283347 0.00855666 -0.00123263 -0.00384201 0.0103988 0.00258614 -0.0109216 -0.00477931
internal_weight=0 351.602 146.042 205.56 142.306 133.173 20.1288 101.055 24.9408
internal_count=1961 1536 685 851 582 632 87 425 101
is_linear=0
shrinkage=0.01


Tree=57
num_leaves=10
num_cat=0
split_feature=170 189 185 96 158 171 3 189 158
split_gain=145.92 80.5754 46.5393 30.8753 27.6345 22.0702 12.4713 12.3436 15.7429
threshold=1.0000000180025095e-35 1.0000000180025095e-35 1.0000000180025095e-35 1.889 1.0769285714285701 0.99683333333333357 57.500000000000007 1.0000000180025095e-35 1.1020833333333353
decision_type=2 2 2 2 2 2 2 2 2
left_child=1 3 -3 4 -1 -4 -6 -2 -9
right_child=7 2 5 -5 6 -7 -8 8 -10
leaf_value=-0.0075196671994485495 -0.012846082764897111 0.010920986223893344 -0.010158775908805739 0.0045963726001224618 -0.0067674810733848343 0.013434668355108141 0.0039971838992557667 -0.0096872772815310565 0.0080190112714521207
leaf_weight=83.165850520133972 75.871861010789871 123.02354164421558 17.27585738897324 63.186806529760361 14.146313369274138 5.1457930356264105 44.991959780454636 17.952670693397526 6.9714053124189368
leaf_count=336 324 588 73 269 58 24 188 73 28
internal_value=0 0.00281056 0.00850608 -0.0012207 -0.00380364 -0.00474405 0.0014222 -0.0108404 -0.00473473
internal_weight=0 350.936 145.445 205.491 142.304 22.4217 59.1383 100.796 24.9241
internal_count=1961 1536 685 851 582 97 246 425 101
is_linear=0
shrinkage=0.01


Tree=58
num_leaves=10
num_cat=0
split_feature=189 185 171 19 83 100 11 109 172
split_gain=124.435 63.1539 47.7682 35.5137 21.2304 17.9353 24.7969 17.9521 16.2781
threshold=1.0000000180025095e-35 1.0000000180025095e-35 0.43125000000000008 6.1550000000000011 -0.010714285714285699 0.14638888888888904 4.5805555555555557 0.7527777777777781 58.231666666666662
decision_type=2 2 2 2 2 2 2 2 2
left_child=2 -2 -1 8 -3 -5 7 -7 -4
right_child=1 4 3 5 -6 6 -8 -9 -10
leaf_value=-0.011300361263616032 0.0094730110751641318 0.011957127833460229 -0.00069487954907145402 0.0046798433502923545 -0.0097524900621598284 0.0074800088990124372 0.0073217410671136355 -0.0083005359896001392 -0.011296480215101875
leaf_weight=72.636712700128555 137.64422161877155 5.4175270348787299 21.289166942238808 67.448570683598518 26.730163723230362 8.52970142662525 19.27238917350769 46.556478917598724 45.302394062280655
leaf_count=306 649 25 86 286 112 36 83 190 188
internal_value=0 0.00652562 -0.0043171 -0.0018831 -0.00609399 0.000945754 -0.00244133 -0.00585703 -0.00790717
internal_weight=0 169.792 281.035 208.399 32.1477 141.807 74.3586 55.0862 66.5916
internal_count=1961 786 1175 869 137 595 309 226 274
is_linear=0
shrinkage=0.01


Tree=59
num_leaves=10
num_cat=0
split_feature=170 189 175 96 158 171 14 189 158
split_gain=142.055 78.025 49.3692 29.8996 28.6025 14.304 13.2034 11.9322 15.3717
threshold=1.0000000180025095e-35 1.0000000180025095e-35 1.0000000180025095e-35 1.7854166666666653 1.0769285714285701 0.46100000000000008 0.46845238095238106 1.0000000180025095e-35 1.1020833333333353
decision_type=2 2 2 2 2 2 2 2 2
left_child=1 3 5 4 -1 6 -3 -2 -9
right_child=7 2 -4 -5 -6 -7 -8 8 -10
leaf_value=-0.0077382000891774109 -0.012700956549026237 -0.011946074107686791 -0.010326780741377663 0.0042994136079087678 0.001464177400087033 0.011631229110135055 0.007033573082908068 -0.0096177461070679586 0.0078799829114067806
leaf_weight=79.714704886078835 75.443102017045021 4.8327685296535519 12.814123675227163 67.00996196269989 58.608346223831177 111.57559551298618 15.172415137290953 17.928126603364948 6.9735153019428244
leaf_count=322 324 20 53 285 244 545 67 73 28
internal_value=0 0.00277783 0.00841038 -0.00118311 -0.00383909 0.0102351 0.00244855 -0.0107198 -0.00471764
internal_weight=0 349.728 144.395 205.333 138.323 131.581 20.0052 100.345 24.9016
internal_count=1961 1536 685 851 566 632 87 425 101
is_linear=0
shrinkage=0.01


Tree=60
num_leaves=10
num_cat=0
split_feature=170 189 185 17 90 171 62 146 164
split_gain=145.878 67.4461 44.7493 31.7044 28.6195 22.9342 19.6626 21.7503 10.9005
threshold=1.0000000180025095e-35 1.0000000180025095e-35 1.0000000180025095e-35 101.9466666666665 1.0000000180025095e-35 0.90100000000000013 17.825000000000006 0.82083333333333364 8.9500000000000011
decision_type=2 2 2 2 2 2 2 2 2
left_child=1 3 -3 4 6 -4 -1 -8 -5
right_child=-2 2 5 8 -6 -7 7 -9 -10
leaf_value=0.00690697941196209 -0.010571610315863901 0.010431382850956301 -0.010667946349354654 0.011686982918838934 -0.0090589240430738269 0.012122834993442876 0.0069801444221148966 -0.0055137344638163041 0.001736460560121604
leaf_weight=30.099043115973473 103.0423332452774 125.46863788366318 17.00541611015797 22.060559391975403 50.79694002866745 5.9638051986694327 18.158215656876564 59.893459469079971 21.97632560133934
leaf_count=128 438 608 72 96 206 28 76 242 94
internal_value=0 0.00295917 0.00808215 -0.000787151 -0.00286737 -0.00475047 4.07192e-05 -0.00260711 0.00672124
internal_weight=0 351.422 148.438 202.985 158.948 22.9692 108.151 78.0517 44.0369
internal_count=1988 1550 708 842 652 100 446 318 190
is_linear=0
shrinkage=0.01


Tree=61
num_leaves=10
num_cat=0
split_feature=170 189 175 17 122 1 171 149 137
split_gain=143.314 66.4129 51.9323 31.1133 30.8995 15.1257 14.8013 14.6868 11.5909
threshold=1.0000000180025095e-35 1.0000000180025095e-35 1.0000000180025095e-35 101.9466666666665 -0.12588888888888897 1763.0000000000002 0.44850000000000007 -18.357142857142847 1.1136666666666653
decision_type=2 2 2 2 2 2 2 2 2
left_child=1 3 6 4 -1 8 7 -3 -6
right_child=-2 2 -4 -5 5 -7 -8 -9 -10
leaf_value=0.003863532784712883 -0.010491361652588276 -0.013248821278168437 -0.011468185043594408 0.0066662265725088085 -0.0085061610614128834 0.0053468418032093304 0.01119474434660917 0.0067757372644116692 0.00059321885771477308
leaf_weight=47.994778648018837 102.79344969987869 4.8733176290988949 12.501934468746184 43.956921085715294 82.979329183697701 11.074772283434866 115.74778483808041 14.744064658880232 16.839820072054863
leaf_count=203 438 20 52 190 336 45 571 65 68
internal_value=0 0.0029356 0.00803241 -0.000779778 -0.00283973 -0.0057409 0.00983342 0.00180127 -0.00697107
internal_weight=0 350.713 147.867 202.846 158.889 110.894 135.365 19.6174 99.8191
internal_count=1988 1550 708 842 652 449 656 85 404
is_linear=0
shrinkage=0.01


Tree=62
num_leaves=10
num_cat=0
split_feature=170 189 175 17 122 1 137 172 142
split_gain=140.8 65.4245 51.1043 30.5293 30.2855 14.8232 11.3579 13.9214 17.2534
threshold=1.0000000180025095e-35 1.0000000180025095e-35 1.0000000180025095e-35 101.9466666666665 -0.12588888888888897 1763.0000000000002 1.1136666666666653 60.426404510701651 0.97267857142857161
decision_type=2 2 2 2 2 2 2 2 2
left_child=1 3 -3 4 -1 6 7 8 -6
right_child=-2 2 -4 -5 5 -7 -8 -9 -10
leaf_value=0.0038279242895439269 -0.010412065418958907 0.0097779094626767715 -0.011377090468446149 0.0066110097872132557 -0.010103146661085548 0.0052941350081412153 0.00058729670828998153 -0.012933601307099848 0.0023173638508247958
leaf_weight=47.957017838954926 102.54180553555489 134.7757071852684 12.476144537329672 43.881200447678566 25.725813150405884 11.073186904191969 16.839532047510147 37.477212458848953 19.785504102706909
leaf_count=203 438 656 52 190 104 45 68 152 80
internal_value=0 0.00291234 0.00798552 -0.000772366 -0.00281187 -0.00568311 -0.00690073 -0.00842016 -0.00470348
internal_weight=0 349.991 147.252 202.739 158.858 110.901 99.8281 82.9885 45.5113
internal_count=1988 1550 708 842 652 449 404 336 184
is_linear=0
shrinkage=0.01


Tree=63
num_leaves=10
num_cat=0
split_feature=189 185 172 101 83 17 122 176 172
split_gain=105.83 54.8771 48.8453 28.24 23.544 20.2134 19.0942 15.903 15.482
threshold=1.0000000180025095e-35 1.0000000180025095e-35 60.190000000000005 0.94550000000000012 -0.010714285714285699 101.9466666666665 -0.040874999999999995 1.0000000180025095e-35 75.276333333333369
decision_type=2 2 2 2 2 2 2 2 2
left_child=2 8 5 -4 -3 6 -1 -5 -2
right_child=1 4 3 7 -6 -7 -8 -9 -10
leaf_value=0.0025196874904864536 0.010632356366723991 0.013278427746018567 -0.00018209333825489581 -0.011463993037373046 -0.0094487232317230514 0.0097318147874143803 -0.0077731748524446113 -0.0034389242095130886 0.0026418631827439831
leaf_weight=55.274093180894852 107.40926107764244 5.4841168820857993 43.905351564288139 98.249845772981644 26.996607780456543 23.222098216414452 26.74323958158493 32.983161777257919 31.318428426980972
leaf_count=229 530 26 187 417 114 102 108 137 138
internal_value=0 0.00608901 -0.00388893 -0.00712441 -0.00561142 0.00149551 -0.000836487 -0.00944703 0.00882846
internal_weight=0 171.208 280.378 175.138 32.4807 105.239 82.0173 131.233 138.728
internal_count=1988 808 1180 741 140 439 337 554 668
is_linear=0
shrinkage=0.01


Tree=64
num_leaves=10
num_cat=0
split_feature=170 189 185 131 17 83 176 105 100
split_gain=136.83 63.3131 42.4877 29.8074 28.448 20.8416 17.3474 11.8179 14.0765
threshold=1.0000000180025095e-35 1.0000000180025095e-35 1.0000000180025095e-35 0.0076179166666666505 105.02500000000002 -0.010714285714285699 1.0000000180025095e-35 0.74142857142857166 1.3008750000000002
decision_type=2 2 2 2 2 2 2 2 2
left_child=1 3 -3 -1 6 -4 -5 -8 -9
right_child=-2 2 5 4 -6 -7 7 8 -10
leaf_value=0.0068381307525898338 -0.010287439200840486 0.010209247093369596 0.01407804750541612 -0.0075022304274123906 0.0071316797824295128 -0.0095400435459899579 0.0089587181139216248 -0.0067180050641652833 0.0048092472638510417
leaf_weight=41.283925771713257 102.08573426306248 123.36754985153675 4.7104119956493404 79.394791468977928 24.953340858221054 18.067352429032326 11.159548386931418 29.080673739314079 16.66393381357193
leaf_count=179 438 608 23 323 108 77 46 118 68
internal_value=0 0.00287603 0.00789242 -0.000743678 -0.00268478 -0.00465585 -0.00448196 -0.000267957 -0.00251884
internal_weight=0 348.682 146.145 202.536 161.252 22.7778 136.299 56.9042 45.7446
internal_count=1988 1550 708 842 663 100 555 232 186
is_linear=0
shrinkage=0.01


Tree=65
num_leaves=10
num_cat=0
split_feature=170 189 185 131 4 149 121 140 92
split_gain=136.146 75.8509 35.5735 27.8141 20.6356 20.2754 19.5235 13.8029 11.0795
threshold=1.0000000180025095e-35 1.0000000180025095e-35 1.0000000180025095e-35 0.006085000000000001 13.000000000000002 -1.0000000180025095e-35 0.23805555555555552 0.90366666666666662 -0.0054999999999999988
decision_type=2 2 2 2 2 2 2 2 2
left_child=1 3 -3 -1 6 -4 8 -6 -5
right_child=-2 2 5 4 7 -7 -8 -9 -10
leaf_value=0.0062787196106439073 -0.010380957111445765 0.010496528686546089 -0.011960351084717441 0.010123978730649243 -8.4641613705009671e-06 0.0086976358469004617 -0.0085903758586631865 -0.0077251697456613231 0.00011367917792685888
leaf_weight=42.347792118787766 99.112611904740334 123.27974390983582 12.166430056095125 22.6520005017519 33.447610110044479 7.7951485812664023 13.272192254662512 75.506350666284561 21.599709182977676
leaf_count=184 426 610 51 95 140 37 54 307 88
internal_value=0 0.00288687 0.00849122 -0.000957363 -0.00279804 -0.00389325 0.00204733 -0.00535623 0.00523785
internal_weight=0 352.067 143.241 208.826 166.478 19.9616 57.5239 108.954 44.2517
internal_count=1992 1566 698 868 684 88 237 447 183
is_linear=0
shrinkage=0.01


Tree=66
num_leaves=10
num_cat=0
split_feature=170 189 175 131 4 121 80 161 4
split_gain=133.77 74.7147 40.6753 27.2894 20.2218 19.1435 13.5378 11.3433 11.021
threshold=1.0000000180025095e-35 1.0000000180025095e-35 1.0000000180025095e-35 0.006085000000000001 13.000000000000002 0.23805555555555552 0.10125000000000002 13.8192380952381 57.000000000000007
decision_type=2 2 2 2 2 2 2 2 2
left_child=1 3 7 -1 5 -5 8 -3 -6
right_child=-2 2 -4 4 6 -7 -8 -9 -10
leaf_value=0.0062262741727548742 -0.010303870383153248 -0.0040894579142703256 -0.0098246924125366657 0.0051903364694956605 -0.0083445598376476124 -0.0085035644896721899 0.0020747634940838401 0.010615596783734242 0.0021609365707316074
leaf_weight=42.277805626392365 98.856850787997246 5.4737295508384696 11.230474904179571 44.210627302527428 77.241805925965309 13.273601561784742 20.252781495451927 125.93548640608788 11.46857078373432
leaf_count=184 426 25 47 183 314 54 86 626 47
internal_value=0 0.00286381 0.00844197 -0.000948223 -0.00277055 0.0020283 -0.00530222 0.0100031 -0.0069864
internal_weight=0 351.365 142.64 208.725 166.447 57.4842 108.963 131.409 88.7104
internal_count=1992 1566 698 868 684 237 447 651 361
is_linear=0
shrinkage=0.01


Tree=67
num_leaves=10
num_cat=0
split_feature=170 171 6 52 172 38 176 9 176
split_gain=131.437 36.5266 26.1676 20.8241 16.6677 13.1382 11.5006 11.4299 11.1048
threshold=1.0000000180025095e-35 0.46900000000000003 16939.720500000003 1.0133928571428552 59.330000000000005 99.737500000000011 1.0000000180025095e-35 24257682.500000004 1.0000000180025095e-35
decision_type=2 2 2 2 2 2 2 2 2
left_child=1 4 6 -4 -1 -5 7 -3 -6
right_child=-2 2 3 5 8 -7 -8 -9 -10
leaf_value=0.0046664287570688445 -0.010227659752374461 0.011664859895082869 0.005113185319046417 -0.0042310070983268677 -0.010452873759279233 0.0065537252592349242 0.010136387659569963 0.0017471052233053166 0.00042615174114599131
leaf_weight=15.777390256524084 98.598835989832878 15.626314193010328 78.09795318543911 61.605384185910225 32.047821953892708 13.832060739398001 75.088823184370995 45.326689288020134 13.266999110579489
leaf_count=68 426 72 353 264 134 63 354 202 56
internal_value=0 0.00284089 0.00432329 0.00149365 -0.00418571 -0.00225354 0.0075168 0.00428969 -0.00726778
internal_weight=0 350.669 289.577 153.535 61.0922 75.4374 136.042 60.953 45.3148
internal_count=1992 1566 1308 680 258 327 628 274 190
is_linear=0
shrinkage=0.01


Tree=68
num_leaves=10
num_cat=0
split_feature=170 189 175 131 4 121 140 161 92
split_gain=129.131 73.5913 39.6497 26.672 19.5944 18.6755 13.2709 11.1555 10.8855
threshold=1.0000000180025095e-35 1.0000000180025095e-35 1.0000000180025095e-35 0.006085000000000001 13.000000000000002 0.23805555555555552 0.90366666666666662 13.8192380952381 -0.0054999999999999988
decision_type=2 2 2 2 2 2 2 2 2
left_child=1 3 7 -1 5 8 -6 -3 -5
right_child=-2 2 -4 4 6 -7 -8 -9 -10
leaf_value=0.0061416678290230611 -0.010152304145131019 -0.0040472079487348152 -0.0096885205062916344 0.0099475327066551652 -1.0944429919355408e-05 -0.0084405394985642666 -0.0075795011082666324 0.010535987146437328 1.2539060492124378e-05
leaf_weight=42.148895144462585 98.338687434792519 5.4750968515872946 11.191234201192854 22.55941453576088 33.427639245986938 13.265713542699812 75.478072315454483 125.06967559456825 21.576145097613335
leaf_count=184 426 25 47 95 140 54 307 626 88
internal_value=0 0.00281637 0.00837576 -0.000963639 -0.00276441 0.00196357 -0.0052564 0.00992436 0.0050907
internal_weight=0 350.192 141.736 208.456 166.307 57.4013 108.906 130.545 44.1356
internal_count=1992 1566 698 868 684 237 447 651 183
is_linear=0
shrinkage=0.01


Tree=69
num_leaves=10
num_cat=0
split_feature=170 189 175 131 4 101 151 122 80
split_gain=126.886 72.4858 39.0266 26.1692 19.2021 14.0999 13.6921 19.2593 13.0602
threshold=1.0000000180025095e-35 1.0000000180025095e-35 1.0000000180025095e-35 0.006085000000000001 13.000000000000002 0.87708333333333355 2.0450000000000004 -0.12488888888888898 0.10125000000000002
decision_type=2 2 2 2 2 2 2 2 2
left_child=1 3 -3 -1 5 -5 7 -7 -6
right_child=-2 2 -4 4 8 6 -8 -9 -10
leaf_value=0.0060904227745362119 -0.010077783059308607 0.0098685845305764765 -0.0096101130742638815 0.013767206391387007 -0.0068576902702823031 0.011746729776267069 0.011634624278520314 -0.0058475735739847001 0.0020460901100174296
leaf_weight=42.078854665160179 98.076520264148712 129.97289051115513 11.169823691248892 8.5798633098602277 88.677879080176353 7.6731116324663153 8.2201038450002653 32.886504933238029 20.232817560434341
leaf_count=184 426 651 47 37 361 32 35 133 86
internal_value=0 0.00279389 0.00832707 -0.00095447 -0.00273736 0.00194538 -0.000133959 -0.00251906 -0.0052036
internal_weight=0 349.492 141.143 208.349 166.27 57.3596 48.7797 40.5596 108.911
internal_count=1992 1566 698 868 684 237 200 165 447
is_linear=0
shrinkage=0.01


Tree=70
num_leaves=10
num_cat=0
split_feature=170 189 185 6 36 171 13 0 189
split_gain=116.845 67.5021 41.5944 24.3752 25.3798 23.766 21.2421 12.2688 12.1158
threshold=1.0000000180025095e-35 1.0000000180025095e-35 1.0000000180025095e-35 3956.8610000000003 0.071732142857142869 0.68125000000000013 0.45550000000000007 70.500000000000014 1.0000000180025095e-35
decision_type=2 2 2 2 2 2 2 2 2
left_child=1 3 -3 -1 7 -4 -6 -5 -2
right_child=8 2 5 4 6 -7 -8 -9 -10
leaf_value=0.0045812836183257944 -0.011205775106312283 0.01059068494057902 -0.014067375238201528 -0.011222555883361534 0.0019837123521099604 0.0080775141332152019 -0.0087819034931177122 0.0049564335884823034 -0.0031392790389495333
leaf_weight=63.320323467254639 74.332090884447098 122.454998716712 11.782312139868738 5.2850376814603797 25.025734812021255 8.2324419915676099 68.484522759914398 41.423078775405884 24.843210086226463
leaf_count=266 330 618 50 22 106 39 278 177 102
internal_value=0 0.00312692 0.00840623 -0.000568409 -0.00289393 -0.00495877 -0.00590075 0.00312578 -0.00918513
internal_weight=0 346.008 142.47 203.539 140.218 20.0148 93.5103 46.7081 99.1753
internal_count=1988 1556 707 849 583 89 384 199 432
is_linear=0
shrinkage=0.01


Tree=71
num_leaves=10
num_cat=0
split_feature=170 171 19 1 188 175 15 172 1
split_gain=114.819 37.6348 30.0476 20.3339 17.2115 14.7466 12.5544 12.5419 13.2153
threshold=1.0000000180025095e-35 0.90791666666666659 6.3562500000000002 348.50000000000006 1.0000000180025095e-35 1.0000000180025095e-35 0.82928571428571451 58.515000000000008 428.50000000000006
decision_type=2 2 2 2 2 2 2 2 2
left_child=1 2 7 -4 6 -5 -3 8 -1
right_child=-2 4 3 5 -6 -7 -8 -9 -10
leaf_value=-0.011781245383948549 -0.0091185472338639693 0.0012353600760079586 -0.0060742530121394422 0.0052449514097358653 0.0096140879820680713 -0.010565887128992604 0.0098028686577469031 -0.010377290564777675 0.0097009617826991495
