tree
version=v4
num_class=1
num_tree_per_iteration=1
label_index=0
max_feature_idx=194
objective=binary sigmoid:1
feature_names=start protein_len relative_pos closest_distance Degree Closeness Betweenness Hub_Score gene_age g_start ponp3_score aaindex_ANDN920101 aaindex_ARGP820101 aaindex_ARGP820102 aaindex_BEGF750101 aaindex_BEGF750102 aaindex_BHAR880101 aaindex_BIGC670101 aaindex_BUNA790101 aaindex_BUNA790103 aaindex_BURA740101 aaindex_BURA740102 aaindex_CHAM810101 aaindex_CHAM820102 aaindex_CHAM830102 aaindex_CHAM830103 aaindex_CHAM830104 aaindex_CHAM830105 aaindex_CHAM830107 aaindex_CHAM830108 aaindex_CHOP780204 aaindex_CHOP780205 aaindex_CHOP780206 aaindex_CHOP780207 aaindex_CHOP780213 aaindex_CHOP780214 aaindex_CHOP780215 aaindex_DAYM780101 aaindex_DAYM780201 aaindex_EISD860102 aaindex_FASG760102 aaindex_FASG760103 aaindex_FASG760104 aaindex_FASG760105 aaindex_FAUJ880101 aaindex_FAUJ880105 aaindex_FAUJ880107 aaindex_FAUJ880108 aaindex_FAUJ880111 aaindex_FAUJ880112 aaindex_FAUJ880113 aaindex_FINA910101 aaindex_FINA910102 aaindex_FINA910103 aaindex_FINA910104 aaindex_GEIM800102 aaindex_GEIM800103 aaindex_HUTJ700101 aaindex_ISOY800106 aaindex_ISOY800107 aaindex_ISOY800108 aaindex_KARP850103 aaindex_KHAG800101 aaindex_KLEP840101 aaindex_LEVM760103 aaindex_MAXF760103 aaindex_MAXF760105 aaindex_MAXF760106 aaindex_NAKH900103 aaindex_NAKH900104 aaindex_NAKH900109 aaindex_NAKH900113 aaindex_NAKH920103 aaindex_OOBM850102 aaindex_OOBM850103 aaindex_OOBM850105 aaindex_PALJ810111 aaindex_PALJ810113 aaindex_PRAM820101 aaindex_QIAN880101 aaindex_QIAN880102 aaindex_QIAN880103 aaindex_QIAN880114 aaindex_QIAN880115 aaindex_QIAN880117 aaindex_QIAN880123 aaindex_QIAN880124 aaindex_QIAN880125 aaindex_QIAN880127 aaindex_QIAN880128 aaindex_QIAN880129 aaindex_QIAN880137 aaindex_QIAN880138 aaindex_QIAN880139 aaindex_RACS820101 aaindex_RACS820102 aaindex_RACS820103 aaindex_RACS820105 aaindex_RACS820106 aaindex_RACS820107 aaindex_RACS820109 aaindex_RACS820110 aaindex_RACS820112 aaindex_RACS820113 aaindex_RACS820114 aaindex_RICJ880101 aaindex_RICJ880104 aaindex_RICJ880105 aaindex_RICJ880106 aaindex_RICJ880108 aaindex_RICJ880109 aaindex_RICJ880110 aaindex_RICJ880113 aaindex_RICJ880114 aaindex_RICJ880115 aaindex_RICJ880116 aaindex_RICJ880117 aaindex_ROBB760107 aaindex_ROBB760109 aaindex_ROBB760111 aaindex_ROSM880103 aaindex_SNEP660101 aaindex_SNEP660103 aaindex_SNEP660104 aaindex_SUEM840102 aaindex_TANS770102 aaindex_TANS770106 aaindex_TANS770108 aaindex_VASM830101 aaindex_VASM830102 aaindex_VASM830103 aaindex_VELV850101 aaindex_WERD780102 aaindex_WERD780103 aaindex_WOLS870103 aaindex_YUTK870102 aaindex_YUTK870103 aaindex_AURR980101 aaindex_AURR980102 aaindex_AURR980103 aaindex_AURR980104 aaindex_AURR980106 aaindex_AURR980107 aaindex_AURR980116 aaindex_AURR980117 aaindex_AURR980118 aaindex_AURR980119 aaindex_AURR980120 aaindex_KUMS000101 aaindex_NADH010107 aaindex_FUKS010101 aaindex_MITS020101 aaindex_WILM950103 aaindex_WILM950104 aaindex_SUYM030101 aaindex_GEOR030101 aaindex_GEOR030103 aaindex_GEOR030104 aaindex_GEOR030105 aaindex_DIGM050101 aaindex_KARS160118 aaindex_KARS160119 aaindex_KARS160120 aaindex_KARS160122 W_U Alphahelix Beta-sheet B_Beta T/C G_helix vlow_conf Conservation Accessibility p_idr p_tmp p_repeat p_domain p_swissport_CARBOHYD p_swissport_MOD_RES p_swissport_DISULFID p_swissport_BINDING p_swissport_ACT_SITE p_swissport_SIGNAL p_swissport_CROSSLNK p_swissport_INTRAMEM p_palindrome g_exon Housekeeping Essential Haploinsufficient Redundancy Pseudogene Duplicate up5seq_bitScore down5seq_bitScore
feature_infos=[1:4694] [52:4967] [0.0002399232245681:1] [0:2477] [2:496] [0.125:1] [0:1908783.9029999999] [0:0.86599999999999999] [3:4290] [48872:244864041] [0.154076923076923:0.49003764581124098] [3.9500000000000002:4.7599999999999998] [0:2.6499999999999999] [0.050000000000000003:3.23] [0.059999999999999998:1] [0.55000000000000004:0.97999999999999998] [0.29499999999999998:0.54400000000000004] [36.299999999999997:135.40000000000001] [0:8.7469999999999999] [0:9.4000000000000004] [0.12:0.53800000000000003] [0.20000000000000001:0.53300000000000003] [0:1.02] [-2.2400000000000002:4.9100000000000001] [-0.25800000000000001:0.51300000000000001] [0:2] [0:2] [0:1.5] [0:1] [0:1] [0.44:2.4399999999999999] [0:1.8300000000000001] [0.34000000000000002:1.55] [0.16:1.8600000000000001] [0.012999999999999999:0.30099999999999999] [0.012999999999999999:0.191] [0.052999999999999999:0.16700000000000001] [1.3:8.5999999999999996] [18:134] [0:10] [178:344] [-86.200000000000003:14.6] [8.3499999999999996:10.640000000000001] [1.8200000000000001:2.4300000000000002] [0:4.1900000000000004] [1:1.8999999999999999] [0:17.800000000000001] [-0.01:0.14999999999999999] [0:1] [0:1] [0:5.6900000000000004] [0.59999999999999998:3.2000000000000002] [0.69999999999999996:13] [0.69999999999999996:1.7] [0.10000000000000001:1.7] [0.81999999999999995:1.3200000000000001] [0.20000000000000001:1.8600000000000001] [23.710000000000001:69.319999999999993] [0.27000000000000002:1.78] [0:2.7799999999999998] [0.39000000000000001:3.0299999999999998] [0.80300000000000005:1.0569999999999999] [-3.6000000000000001:133] [-1:1] [0:122] [0.32000000000000001:3.1400000000000001] [0:3.8399999999999999] [0.35999999999999999:1.95] [1.03:15.359999999999999] [-1.3600000000000001:2.04] [1.0700000000000001:10.94] [0.37:3.1200000000000001] [1.6000000000000001:8.1099999999999994] [-4.6500000000000004:3.3199999999999998] [-2.21:3.2799999999999998] [-0.78000000000000003:10.68] [0.54000000000000004:1.6699999999999999] [0:2.6400000000000001] [0.19500000000000001:0.39100000000000001] [-0.25:0.26000000000000001] [-0.37:0.26000000000000001] [-0.42999999999999999:0.64000000000000001] [-0.41999999999999998:0.40999999999999998] [-0.56999999999999995:0.44] [-0.64000000000000001:0.46000000000000002] [-0.57999999999999996:0.46999999999999997] [-0.46999999999999997:0.45000000000000001] [-0.47999999999999998:0.40999999999999998] [-0.41999999999999998:0.33000000000000002] [-0.38:0.45000000000000001] [-0.42999999999999999:0.33000000000000002] [-0.44:0.77000000000000002] [-0.35999999999999999:0.78000000000000003] [-0.45000000000000001:0.47999999999999998] [0.67000000000000004:2.02] [0.66000000000000003:1.5800000000000001] [0:2.8599999999999999] [0.69999999999999996:1.96] [0.29999999999999999:3.0899999999999999] [0:2.98] [0:6.4900000000000002] [0.40000000000000002:2.73] [0:2.3199999999999998] [10.890000000000001:38.140000000000001] [13.59:52.630000000000003] [0.29999999999999999:1.8999999999999999] [0.29999999999999999:2.6000000000000001] [0.29999999999999999:2.6000000000000001] [0.40000000000000002:3.2999999999999998] [0.20000000000000001:1.8999999999999999] [0.29999999999999999:1.8] [0:2.7000000000000002] [0.20000000000000001:2.1000000000000001] [0:3.3999999999999999] [0:3.8999999999999999] [0.10000000000000001:1.8999999999999999] [0:2.7000000000000002] [-3.7000000000000002:7.4000000000000004] [-4.2999999999999998:6.5] [-6:6.5] [0:1.3] [0.16:0.28100000000000003] [-0.28499999999999998:0.49299999999999999] [-0.371:0.46999999999999997] [0.10000000000000001:77] [0:2.1680000000000001] [0.17799999999999999:1.7250000000000001] [0:3.379] [0.01:0.29599999999999999] [0.059999999999999998:0.78500000000000003] [0.049000000000000002:0.73699999999999999] [0:0.1263] [-0.79000000000000004:1.03] [-0.37:1.1799999999999999] [-3.4399999999999999:4.1299999999999999] [0:12.199999999999999] [0:18.620000000000001] [0.59999999999999998:1.4099999999999999] [0.40999999999999998:1.3100000000000001] [0.59999999999999998:1.4299999999999999] [0.57999999999999996:1.72] [0.26000000000000001:2.2999999999999998] [0.52000000000000002:2.0699999999999998] [0.10000000000000001:1.55] [0.44:2.7400000000000002] [0.67000000000000004:1.3999999999999999] [0.26000000000000001:2.0099999999999998] [0.085999999999999993:1.7] [0.59999999999999998:9.4000000000000004] [-132:329] [0.28999999999999998:16.559999999999999] [0:6.9299999999999997] [-3.2799999999999998:9.3000000000000007] [-3:7.2599999999999998] [-0.47799999999999998:0.56399999999999995] [0.77800000000000002:1.2989999999999999] [0.68559999999999999:1.266] [0.5:1.3320000000000001] [0.47799999999999998:1.369] [0.53100000000000003:1.361] [3.5:9.3300000000000001] [7:31.344000000000001] [-4.2270000000000003:0.21099999999999999] [0:12] [0:23.5] [0:1] [0:1] [0:1] [0:1] [0:1] [0:1] [0:4.2599999999999998] [0:100] [0:1] [0:1] [0:1] [0:1] none [0:1] [0:1] [0:1] none [0:1] none none [0:1] [0:1] [0:1] [0:1] [0:1] [0:1] [0:1] [0:1] [0.0021028582569326999:0.0133190685756532] [0.0030288402859689001:0.010659124554832301]
tree_sizes=1173 1205 1207 1210 1201 1211 1223 1210 1200 1222 1204 1209 1197 1206 1208 1214 1211 1202 1202 1219 1206 1195 1205 1213 1198 1204 1213 1211 1206 1207 1190 1200 1203 1205 1205 1209 1207 1214 1204 1215 1194 1214 1202 1209 1194 1210 1210 1204 1209 1206 1215 1218 1205 1211 1220 1219 1215 1214 1208 1219 1208 1216 1200 1205 1216 1210 1218 1211 1211 1217 1204 1217 1202 1206 1214 1217 1218 1214 1220 1199 1208 1210 1207 1220 1206 1212 1213 1216 1210 1213 1217 1209 1215 1213 1218 1211 1204 1229 1212 1219 1205 1222 1217 1217 1226 1218 1218 1205 1221 1221 1208 1226 1221 1212 1211 1219 1209 1194 1205 1201 1218 1214 1214 1208 1219 1211 1199 1206 1217 1214 1218 1226 1221 1206 1207 1215 1206 1218 1213 1212 1207 1212 1207 1200 1208 1211 1224 1203 1221 1214 1210 1203 1211 1217 1208 1220 1210 1210 1204 1211 1221 1221 1208 1213 1215 1213 1219 1221 1221 1223 1218 1202 1215 1208 1196 1201 1209 1212 1203 1212 1215 1213 1214 1211 1204 1209 1198 1209 1216 1208 1211 1202 1204 1211 1210 1208 1203 1199 1204 1211 1211 1209 1212 1207 1203 1210 1204 1214 1209 1218 1223 1218 1211 1210 1203 1211 1204 1203 1206 1208 1214 1207 1204 1201 1206 1199 1218 1197 1207 1216 1198 1205 1204 1199 1201 1201 1202 1214 1214 1214 1213 1212 1206 1195 1211 1207 1204 1214 1204 1200 1207 1214 1216 1222 1209 1207 1216 1197 1200 1210 1201 1206 1206 1210 1204 1209 1205 1208 1214 1210 1212 1208 1205 1210 1209 1217 1206 1217 1198 1207 1196 1206 1205 1204 1213 1210 1210 1204 1213 1202 1206 1204 1192 1202 1203 1203 1194 1205 1216 1201 1213 1203 1213 1208 1207 1196 1200 1205 1179 1205 1204 1193 1210 1202 1204 1208 1209 1211 1205 1211 1208 1211 1207 1204 1197 1191 1198 1189 1198 1188 1202 1207 1205 1205 1212 1199 1197 1207 1211 1212 1204 1212 1208 1197 1215 1195 1212 1200 1186 1199 1201 1201 1201 1202 1202 1200 1199 1196 1204 1201 1211 1203 1205 1199 1207 1199 1202 1205 1196 1196 1205 1199 1211 1201 1193 1212 1195 1209 1209 1201 1202 1196 1208 1211 1198 1205 1201 1201 1211 1205 1212 1206 1210 1223 1218 1207 1196 1204 1198 1207 1203 1209 1206 1208 1201 1199 1216 1209 1210 1205 1194 1212 1216 1191 1219 1205 1211 1208 1208 1204 1212 1203 1209 1204 1205 1202 1201 1202 1196 1200 1199 1216 1206 1205 1200 1211 1217 1210 1207 1217 1201 1212 1209 1205 1212 1201 1212 1208 1214 1210 1216 1216 1205 1206 1215 1211 1209 1210 1205 1215 1198 1197 1205 1202 1203 1193 1210 1195 1221 1206 1203 1208 1207 1202 1210 1206 1201 1185 1198 1209 1207 1209 1203 1203 1204 1216 1199 1207 1218 1212 1199 1203 1191 1196 1203 1194 1202 1193 1193 1201 1196 1190 1195 1209 1194 1186 1210 1200 1196 1202 1205 1203 1182 1204 1210 1202 1210 1200 1194 1203 1220 1225 1203 1196 1208 1199 1202 1206 1203 1209 1191 1207 1200 1202 1208 1194 1199 1196 1211 1201 1213 1206 1213 1189 1207 1194 1201 1205 1192 1214 1195 1193 1215 1200 1196 1200 1194 1212 1205 1197 1192 1207 1207 1208 1207 1202 1202 1200 1199 1199 1196 1195 1200 1191 1196 1199 1208 1209 1209 1209 1220 1196 1197 1217 1216 1197 1206 1193 1213 1198 1206 1197 1218 1210 1211 1206 1201 1214 1202 1214 1189 1196 1188 1203 1188 1212 1213 1211 1211 1200 1206 1200 1204 1208 1219 1202 1207 1206 1200 1195 1215 1205 1215 1204 1205 1205 1202 1202 1215 1222 1215 1198 1200 1204 1204 1195 1193 1199 1211 1196 1197 1209 1206 1208 1211 1191 1209 1204 1211 1202 1201 1196 1193 1202 1203 1199 1191 1186 1192 1191 1199 1187 1199 1209 1189 1191 1192 1195 1203 1198 1194 1209 1193 1205 1201 1197 1193 1197 1199 1206 1194 1208 1210 1211 1203 1201 1204 1197 1202 1214 1208 1206 1208 1190 1191 1206 1205 1209 1206 1200 1204 1213 1206 1204 1209 1199 1195 1198 1197 1205 1190 1205 1192 1198 1196 1210 1204 1196 1206 1191 1199 1218 1194 1202 1191 1202 1212 1215 1204 1213 1203 1202 1194 1209 1201 1208 1211 1201 1197 1202 1208 1213 1210 1212 1218 1202 1202 1203 1203 1212 1204 1205 1203 1212 1197 1216 1196 1195 1213 1206 1196 1205 1200 1204 1212 1192 1198 1194 1194 1216 1198 1208 1197 1197 1204 1204 1201 1206 1191 1204 1202 1202 1211 1197 1206 1197 1208 1205 1196 1199 1205 1205 1206 1204 1209 1203 1196 1198 1197 1206 1208 1213 1207 1203 1211 1224 1210 1226 1200 1226 1190 1207 1186 1197 1193 1197 1193 1209 1190 1202 1190 1196 1206 1206 1202 1203 1204 1211 1206 1207 1192 1202 1202 1196 1208 1195 1198 1207 1196 1195 1197 1206 1196 1186 1197 1194 1195 1201 1197 1199 1197 1204 1198 1190 1210 1207 1214 1209 1198 1207 1200 1197 1199 1197 1201 1209 1209 1192 1211 1211 1212 1204 1215 1201 1215 1213 1201 1204 1201 1211 1205 1194 1211 1213 1192 1202 1204 1208 1207 1196 1219 1212 1202 1198 1202 1208 1208 1198 1202 1202 1197 1193 1203 1198 1207 1194 1207 1194 1197 1187 1203 1203 1208 1199 1208 1202 1203 1202 1198 1192 1210 1209 1211 1212 1207 1204 1206 1209 1203 1194 1204 1209 1202 1198 1196 1203 1208 1200 1206 1203 1205 1198 1204 1206 1212 1213 1197 1205 1207 1207 1196 1197 1190 1202 1208 1206 1213 1208 1204 1206 1195 1200 1199 1193 1188 1205 1206 1198

Tree=0
num_leaves=10
num_cat=0
split_feature=170 189 175 17 38 7 101 171 5
split_gain=395.597 153.048 128.736 55.9272 34.2751 24.045 20.4396 17.1269 19.2053
threshold=1.0000000180025095e-35 1.0000000180025095e-35 1.0000000180025095e-35 101.96666666666651 100.16666666666652 0.011500000000000002 0.88083333333333369 0.34900000000000003 0.16650000000000004
decision_type=2 2 2 2 2 2 2 2 2
left_child=1 3 -3 4 5 6 -1 -8 -9
right_child=-2 2 -4 -5 -6 -7 7 8 -10
leaf_value=0.27868525646058223 0.25221895620793516 0.28363030800152333 0.25087848607075092 0.27856229444064973 0.27503710995365038 0.25781783087133808 0.24928458207982326 0.24811891041113349 0.26782047583503293
leaf_weight=12.030462265014647 107.53760147094727 154.43185234069824 13.01254081726074 41.492818832397461 30.935474395751953 49.349447250366211 6.6290302276611319 5.4014320373535147 58.924713134765625
leaf_count=49 438 629 53 169 126 201 27 22 240
internal_value=0.269359 0.273994 0.281085 0.268195 0.265561 0.263345 0.266633 0.264589 0.266166
internal_weight=0 372.208 167.444 204.763 163.271 132.335 82.9856 70.9552 64.3261
internal_count=1954 1516 682 834 665 539 338 289 262
is_linear=0
shrinkage=1


Tree=1
num_leaves=10
num_cat=0
split_feature=170 189 175 17 38 7 101 171 5
split_gain=387.085 150.319 126.308 54.8466 33.575 23.5035 20.0382 16.7251 18.7598
threshold=1.0000000180025095e-35 1.0000000180025095e-35 1.0000000180025095e-35 101.96666666666651 100.16666666666652 0.011500000000000002 0.88083333333333369 0.34900000000000003 0.16650000000000004
decision_type=2 2 2 2 2 2 2 2 2
left_child=1 3 -3 4 5 6 -1 -8 -9
right_child=-2 2 -4 -5 -6 -7 7 8 -10
leaf_value=0.0092449853159032071 -0.016930582317652858 0.014156660841368858 -0.018251609979944593 0.009122941792362926 0.005625870055648333 -0.011408203457752267 -0.019821837532437641 -0.020969814230127729 -0.0015226244515955003
leaf_weight=12.015194684267042 107.77685102820396 154.12938173115253 13.043678745627401 41.440866380929947 30.911723434925079 49.424133896827698 6.6462105810642234 5.4162120521068564 58.93681526184082
leaf_count=49 438 629 53 169 126 201 27 22 240
internal_value=0 0.00459195 0.011628 -0.00115165 -0.00375825 -0.00594854 -0.00269803 -0.00471915 -0.00315938
internal_weight=0 371.964 167.173 204.791 163.35 132.439 83.0144 70.9992 64.353
internal_count=1954 1516 682 834 665 539 338 289 262
is_linear=0
shrinkage=0.01


Tree=2
num_leaves=10
num_cat=0
split_feature=170 189 185 17 171 38 7 101 171
split_gain=378.813 147.654 102.602 53.7888 42.7656 32.8907 22.977 19.6454 16.3618
threshold=1.0000000180025095e-35 1.0000000180025095e-35 1.0000000180025095e-35 101.96666666666651 0.63125000000000009 100.16666666666652 0.011500000000000002 0.88083333333333369 1.5718750000000001
decision_type=2 2 2 2 2 2 2 2 2
left_child=1 3 -3 5 -4 6 7 -1 -9
right_child=-2 2 4 -5 -6 -7 -8 8 -10
leaf_value=0.0091645105298064911 -0.016726719889715892 0.014653734017168255 -0.019260671534652395 0.00904336509883155 0.0087080669634744309 0.0055739601481047665 -0.011277894073884432 -0.0068899649867422775 0.0057019087659009662
leaf_weight=11.999574437737463 107.99838057160378 144.04798740148544 13.774321138858797 41.387735366821289 9.0648032724857313 30.88772651553154 49.494887933135033 58.511338844895363 12.528970733284948
leaf_count=49 438 589 56 169 37 126 201 238 51
internal_value=0 0.00454939 0.0115316 -0.00113998 -0.00815993 -0.00371897 -0.00588472 -0.00267018 -0.00466921
internal_weight=0 371.697 166.887 204.81 22.8391 163.422 132.535 83.0399 71.0403
internal_count=1954 1516 682 834 93 665 539 338 289
is_linear=0
shrinkage=0.01


Tree=3
num_leaves=10
num_cat=0
split_feature=172 175 101 1 171 165 22 188 69
split_gain=268.479 84.7771 63.7629 38.5402 35.5183 29.2432 24.4759 24.3348 20.2617
threshold=76.241250000000022 1.0000000180025095e-35 1.0053571428571451 288.50000000000006 0.28142857142857153 1.0000000180025095e-35 0.68683333333333363 1.0000000180025095e-35 0.97533333333333361
decision_type=2 2 2 2 2 2 2 2 2
left_child=1 3 5 -1 -5 -2 -4 8 -6
right_child=2 -3 6 4 7 -7 -8 -9 -10
leaf_value=-0.0056808940100697546 -0.0067563935920586671 -0.017383914155436182 -0.017095799251620053 -0.0084578479651155197 0.0034058090046705466 0.0083238864645091594 -0.0063254293419549171 0.011413884547855227 0.014412780930245922
leaf_weight=23.568441823124886 37.42031717300415 15.550645813345907 87.585466608405113 13.013371407985685 100.99095684289932 19.591203168034554 27.79586660861969 134.05734926462173 20.043126985430717
leaf_count=96 152 63 355 53 412 80 113 548 82
internal_value=0 0.00536632 -0.0102262 0.00657926 0.00765702 -0.00157427 -0.0145012 0.00847911 0.00522855
internal_weight=0 307.224 172.393 291.673 268.105 57.0115 115.381 255.091 121.034
internal_count=1954 1254 700 1191 1095 232 468 1042 494
is_linear=0
shrinkage=0.01


Tree=4
num_leaves=10
num_cat=0
split_feature=172 189 101 171 69 171 165 13 22
split_gain=263.01 116.862 62.3074 56.4182 35.3764 29.83 28.6639 25.2599 23.8926
threshold=76.241250000000022 1.0000000180025095e-35 1.0053571428571451 0.27166666666666656 1.0275000000000001 0.9125000000000002 1.0000000180025095e-35 0.48250000000000004 0.68683333333333363
decision_type=2 2 2 2 2 2 2 2 2
left_child=1 4 6 -3 5 -1 -2 -7 -4
right_child=2 3 8 -5 -6 7 -8 -9 -10
leaf_value=-0.0073148349428581554 -0.0066833636576633425 -0.010479439499007285 -0.016892954361645736 0.013484758656712207 0.010888692751537974 0.012383729787272139 0.0082506013021295937 -0.0014410188502264189 -0.0062572529879395848
leaf_weight=66.638665586709976 37.450766429305077 10.587116703391073 87.749946743249893 136.31664150953293 22.979074940085411 17.627535849809647 19.567685544490814 52.8166523873806 27.817623034119606
leaf_count=271 152 43 355 559 94 72 80 215 113
internal_value=0 0.00531719 -0.0101125 0.0117577 -0.000593857 -0.00251867 -0.0015583 0.0020184 -0.0143329
internal_weight=0 306.966 172.586 146.904 160.062 137.083 57.0185 70.4442 115.568
internal_count=1954 1254 700 602 652 558 232 287 468
is_linear=0
shrinkage=0.01


Tree=5
num_leaves=10
num_cat=0
split_feature=170 189 175 123 97 38 7 113 191
split_gain=373.539 140.473 107.671 49.0227 37.8212 41.7842 17.872 20.7793 14.6133
threshold=1.0000000180025095e-35 1.0000000180025095e-35 1.0000000180025095e-35 -0.16339999999999996 1.3470833333333352 96.30952380952381 0.0095000000000000015 0.9683333333333336 1.0000000180025095e-35
decision_type=2 2 2 2 2 2 2 2 2
left_child=1 3 -3 -1 5 6 7 8 -5
right_child=-2 2 -4 4 -6 -7 -8 -9 -10
leaf_value=0.0071089082925169444 -0.016531630248279392 0.014048605783630078 -0.016636599594411324 0.0031129300414088862 0.0076935985679125688 0.0046935883157207406 -0.014223614642212806 -0.012629206861766478 -0.013038250173761531
leaf_weight=58.749647855758667 104.99693962931633 151.87978513538837 12.366126790642737 26.048639342188835 24.4806969165802 28.692263782024384 39.474068999290466 23.638344019651413 7.1367967277765265
leaf_count=240 424 624 50 106 100 117 160 96 29
internal_value=0 0.0048237 0.0117383 -0.000630587 -0.0036726 -0.0058988 -0.00905484 -0.00546421 -0.000360512
internal_weight=0 372.466 164.246 208.22 149.471 124.99 96.2978 56.8238 33.1854
internal_count=1946 1522 674 848 608 508 391 231 135
is_linear=0
shrinkage=0.01


Tree=6
num_leaves=10
num_cat=0
split_feature=170 189 175 123 11 176 105 168 36
split_gain=365.751 138.052 105.707 48.0701 30.8246 26.495 20.6439 18.8527 15.0256
threshold=1.0000000180025095e-35 1.0000000180025095e-35 1.0000000180025095e-35 -0.16339999999999996 4.4993750000000015 1.0000000180025095e-35 1.1894444444444452 1.0000000180025095e-35 0.072550000000000017
decision_type=2 2 2 2 2 2 2 2 2
left_child=1 3 -3 -1 5 8 -6 -7 -5
right_child=-2 2 -4 4 6 7 -8 -9 -10
leaf_value=0.0070451296139910592 -0.016341052684838028 0.013940689437489622 -0.016443050838709432 -0.0025424412528401346 -0.0065460138667080949 0.0060083375870621852 0.0088910595231343811 -0.0066219560636053909 -0.013621997416972419
leaf_weight=58.688991472125053 105.15841744840145 151.52671387791634 12.386465609073637 16.727800264954567 12.777547791600226 22.132151290774345 26.901238664984703 25.359374597668648 45.625183835625648
leaf_count=240 424 624 50 68 52 90 110 103 185
internal_value=0 0.00477994 0.0116447 -0.000624251 -0.00363454 -0.00636342 0.00391994 -0.000735947 -0.0106496
internal_weight=0 372.125 163.913 208.212 149.523 109.845 39.6788 47.4915 62.353
internal_count=1946 1522 674 848 608 446 162 193 253
is_linear=0
shrinkage=0.01


Tree=7
num_leaves=10
num_cat=0
split_feature=170 189 175 123 97 38 7 113 171
split_gain=358.17 135.688 103.79 47.1364 36.6971 40.2855 17.3732 20.2064 15.1055
threshold=1.0000000180025095e-35 1.0000000180025095e-35 1.0000000180025095e-35 -0.16339999999999996 1.3470833333333352 96.30952380952381 0.0095000000000000015 0.9683333333333336 0.46100000000000008
decision_type=2 2 2 2 2 2 2 2 2
left_child=1 3 8 -1 5 6 7 -5 -3
right_child=-2 2 -4 4 -6 -7 -8 -9 -10
leaf_value=0.0069820289371380715 -0.016155123355955106 0.0057819572595952306 -0.016254265786418226 -0.00030627242586227243 0.0076094691976604 0.0046236064750565459 -0.013967855154377568 -0.012394745518895663 0.015075603710041293
leaf_weight=58.627512738108635 105.30424907803535 20.183991611003876 12.404929578304289 33.206567227840424 24.445822685956955 28.661099269986153 39.568772867321968 23.694081172347069 130.97884938120842
leaf_count=240 424 83 50 135 100 117 160 96 541
internal_value=0 0.00473675 0.0115527 -0.000617985 -0.00359686 -0.00578616 -0.00887891 -0.00534005 0.0138347
internal_weight=0 371.772 163.568 208.204 149.576 125.131 96.4694 56.9006 151.163
internal_count=1946 1522 674 848 608 508 391 231 624
is_linear=0
shrinkage=0.01


Tree=8
num_leaves=10
num_cat=0
split_feature=170 171 188 19 6 64 131 138 9
split_gain=350.793 75.6802 43.7292 36.2441 33.3081 25.5989 16.0075 17.7285 15.1853
threshold=1.0000000180025095e-35 0.45083333333333359 1.0000000180025095e-35 6.3732142857142859 17442.547000000002 109.53333333333352 0.015938095238095203 1.0556250000000003 19148896.500000004
decision_type=2 2 2 2 2 2 2 2 2
left_child=1 3 4 -1 -3 -6 -7 -8 -4
right_child=-2 2 8 -5 5 6 7 -9 -10
leaf_value=-0.015801804013828934 -0.015973656727866156 0.00876800539728953 0.016175766670361122 0.00015856758249784515 -0.0095077918031640125 0.010285280799752753 -0.0035878021520340366 0.010048907475507535 0.0087994142649079014
leaf_weight=21.498915031552315 105.43487317860126 62.917659968137741 37.260281398892403 42.071927949786186 24.113040149211884 18.950746208429337 40.95206680893898 12.426339179277418 111.20011575520039
leaf_count=87 424 258 154 172 98 78 167 51 457
internal_value=0 0.00469429 0.00674571 -0.00523904 0.00310779 -0.000584856 0.00238987 -0.000413215 0.0106507
internal_weight=0 371.391 307.82 63.5708 159.36 96.4422 72.3292 53.3784 148.46
internal_count=1946 1522 1263 259 652 394 296 218 611
is_linear=0
shrinkage=0.01


Tree=9
num_leaves=10
num_cat=0
split_feature=170 189 175 123 11 176 105 168 171
split_gain=343.593 132.935 101.022 45.8438 29.3894 25.6012 19.9959 18.3778 14.6135
threshold=1.0000000180025095e-35 1.0000000180025095e-35 1.0000000180025095e-35 -0.16339999999999996 4.4993750000000015 1.0000000180025095e-35 1.1894444444444452 1.0000000180025095e-35 0.46100000000000008
decision_type=2 2 2 2 2 2 2 2 2
left_child=1 3 8 -1 5 -5 -6 -7 -3
right_child=-2 2 -4 4 6 7 -8 -9 -10
leaf_value=0.0068591706609346659 -0.015796473810883619 0.0057550029890426017 -0.01598841791788819 -0.010449438568884724 -0.0064865867579060408 0.0059562568330018906 0.0087115817096442682 -0.0065139812103930592 0.014900998764770785
leaf_weight=58.500959664583206 105.55071622133255 20.172589436173439 12.427917763590811 62.466551944613457 12.783925160765646 22.111987918615341 26.814982444047928 25.385784447193146 130.39876048266888
leaf_count=240 424 83 50 253 52 90 110 103 541
internal_value=0 0.00465152 0.0114139 -0.000646211 -0.00358191 -0.00624201 0.00380508 -0.000708619 0.0136757
internal_weight=0 371.063 162.999 208.064 149.563 109.964 39.5989 47.4978 150.571
internal_count=1946 1522 674 848 608 446 162 193 624
is_linear=0
shrinkage=0.01


Tree=10
num_leaves=10
num_cat=0
split_feature=170 171 30 1 171 115 146 55 176
split_gain=331.826 81.6926 48.6221 38.7803 25.1686 27.499 23.5287 14.5379 13.4486
threshold=1.0000000180025095e-35 0.32083333333333358 0.69550000000000012 347.00000000000006 0.90416666666666667 1.1633333333333351 0.89183333333333359 1.1387857142857152 1.0000000180025095e-35
decision_type=2 2 2 2 2 2 2 2 2
left_child=1 6 7 -4 5 8 -1 -3 -5
right_child=-2 2 3 4 -6 -7 -8 -9 -10
leaf_value=0.0033794994900128851 -0.015312570821777541 0.012464741226557899 -0.0057808270496635108 0.00034938339797546545 0.0083852172711744409 -0.0089168409841356971 -0.014650759559360795 -0.0010769679228258202 0.0098883663485940711
leaf_weight=10.002715602517126 106.8994587212801 105.96867707371712 37.808671772480011 34.262519419193268 111.22625005245209 20.61144945025444 26.181494280695915 8.5689057707786542 25.992509514093399
leaf_count=41 429 438 154 140 458 84 106 35 107
internal_value=0 0.00462706 0.00612863 0.00347669 0.0052988 0.00105365 -0.0096665 0.0114516 0.00446426
internal_weight=0 380.623 344.439 229.901 192.093 80.8665 36.1842 114.538 60.255
internal_count=1992 1563 1416 943 789 331 147 473 247
is_linear=0
shrinkage=0.01


Tree=11
num_leaves=10
num_cat=0
split_feature=170 171 30 1 171 115 146 194 188
split_gain=325.097 80.1053 47.8361 38.0307 24.7265 26.9422 23.0119 17.3318 16.1775
threshold=1.0000000180025095e-35 0.32083333333333358 0.69550000000000012 347.00000000000006 0.90416666666666667 1.1633333333333351 0.89183333333333359 0.0075737877373460508 1.0000000180025095e-35
decision_type=2 2 2 2 2 2 2 2 2
left_child=1 6 -3 -4 5 -5 -1 -7 -6
right_child=-2 2 3 4 8 7 -8 -9 -10
leaf_value=0.0033474406246485726 -0.015147079639472944 0.011360749115188338 -0.0057188253086958287 0.0044229143773703962 0.0041485254962925202 -4.3842139025025349e-05 -0.0144835308120085 -0.018390932355958508 0.011810429815653348
leaf_weight=9.9975533783435804 106.98627100884914 114.30074036121368 37.836256235837936 60.210613086819649 50.700512602925301 10.766692101955416 26.218760713934898 9.8678008913993818 60.370691418647766
leaf_count=41 429 473 154 247 208 44 106 40 250
internal_value=0 0.00458512 0.00607422 0.0034442 0.00525069 0.00104343 -0.00956127 -0.00881776 0.00831301
internal_weight=0 380.27 344.053 229.753 191.916 80.8451 36.2163 20.6345 111.071
internal_count=1992 1563 1416 943 789 331 147 84 458
is_linear=0
shrinkage=0.01


Tree=12
num_leaves=10
num_cat=0
split_feature=170 171 1 64 146 6 172 6 120
split_gain=318.539 78.553 41.5041 31.2249 22.5101 18.9597 19.6908 15.6318 14.4845
threshold=1.0000000180025095e-35 0.32083333333333358 347.00000000000006 109.53333333333352 0.89183333333333359 21603.281000000003 71.758333333333368 36196.299000000006 0.41547619047619055
decision_type=2 2 2 2 2 2 2 2 2
left_child=1 4 8 5 -1 6 -4 -5 -3
right_child=-2 2 3 7 -6 -7 -8 -9 -10
leaf_value=0.003315687933442067 -0.014985244006454663 0.0066628561808462416 0.0099426904648879742 0.011610264195944402 -0.014319941341756931 -0.0041361517970366019 -0.011304798405445425 0.0062937121529011457 -0.0051287656731550876
leaf_weight=9.9923878014087659 107.05989131331444 14.115714028477667 28.28302338719368 126.44129250943661 26.252923548221588 31.604977041482925 5.156879410147666 98.29558852314949 39.75978584587574
leaf_count=41 429 58 117 524 106 129 21 405 162
internal_value=0 0.00454373 0.00602048 0.00751893 -0.00945801 0.00141731 0.00666604 0.00928491 -0.00203929
internal_weight=0 379.903 343.657 289.782 36.2453 65.0449 33.4399 224.737 53.8755
internal_count=1992 1563 1416 1196 147 267 138 929 220
is_linear=0
shrinkage=0.01


Tree=13
num_leaves=10
num_cat=0
split_feature=170 175 15 176 6 172 171 71 9
split_gain=312.141 77.1495 43.027 35.5491 26.7065 24.8975 24.4608 18.3158 18.0139
threshold=1.0000000180025095e-35 1.0000000180025095e-35 0.82928571428571451 1.0000000180025095e-35 25242.678000000004 56.753571428571455 0.90416666666666667 0.79401785714285711 89428181.000000015
decision_type=2 2 2 2 2 2 2 2 2
left_child=1 2 3 5 -5 -1 -7 -6 -8
right_child=-2 -3 -4 4 7 6 8 -9 -10
leaf_value=0.0049613781108759636 -0.014826925394198023 -0.013951376589634261 0.011163947977888082 0.011781692739761502 0.011188399728322312 -0.0085699594149244145 0.0074411085158930124 -0.0011573304845594516 -0.0085590291468702097
leaf_weight=56.67885634303093 107.12070596218109 21.378152042627335 100.23961670696735 64.383744820952415 16.950807377696037 44.876478910446167 23.743462607264519 41.285284921526909 10.000214472413061
leaf_count=233 429 86 416 267 70 183 98 169 41
internal_value=0 0.00450269 0.0056042 0.00344342 0.00734319 -9.0901e-05 -0.00373319 0.00243615 0.00269934
internal_weight=0 379.537 358.158 257.919 122.62 135.299 78.6202 58.2361 33.7437
internal_count=1992 1563 1477 1061 506 555 322 239 139
is_linear=0
shrinkage=0.01


Tree=14
num_leaves=10
num_cat=0
split_feature=170 189 175 17 122 171 1 92 185
split_gain=305.901 138.714 111.787 43.1469 39.808 16.035 16.539 17.2953 14.8733
threshold=1.0000000180025095e-35 1.0000000180025095e-35 1.0000000180025095e-35 101.96666666666651 -0.13389285714285698 0.32619047619047653 288.50000000000006 -0.13803571428571448 1.0000000180025095e-35
decision_type=2 2 2 2 2 2 2 2 2
left_child=1 3 8 4 -1 -6 -7 -8 -3
right_child=-2 2 -4 -5 5 6 7 -9 -10
leaf_value=0.0043729774816445048 -0.014671994288417143 0.014417276354540588 -0.016492515653000746 0.00815607357915543 -0.018357403010125541 -0.013782343538317629 0.0073324556963068315 -0.0052469566601953746 0.0028614991128834912
leaf_weight=48.531108155846596 107.16908894479275 144.88233977556229 13.467322424054144 41.266794413328171 10.207618206739424 18.78783006966114 12.731669694185255 77.221345752477646 12.065567016601561
leaf_count=199 429 606 54 171 41 76 52 314 50
internal_value=0 0.00446215 0.0111564 -0.00100288 -0.00325964 -0.00637375 -0.00524884 -0.00346651 0.0135289
internal_weight=0 379.162 170.415 208.746 167.48 118.948 108.741 89.953 156.948
internal_count=1992 1563 710 853 682 483 442 366 656
is_linear=0
shrinkage=0.01


Tree=15
num_leaves=10
num_cat=0
split_feature=170 189 175 17 122 7 189 136 171
split_gain=312.827 139.604 96.1785 38.067 36.1671 19.0681 18.2832 15.4593 15.4217
threshold=1.0000000180025095e-35 1.0000000180025095e-35 1.0000000180025095e-35 101.96666666666651 -0.13574999999999998 0.0095000000000000015 1.0000000180025095e-35 18.074500000000004 0.46100000000000008
decision_type=2 2 2 2 2 2 2 2 2
left_child=1 3 8 4 -1 7 -2 -6 -3
right_child=6 2 -4 -5 5 -7 -8 -9 -10
leaf_value=0.0040612266271782835 -0.017161065981998635 0.0048148017349449578 -0.014796253314065486 0.007280810693816339 -0.0072176704261429896 -0.011432659209736764 -0.007334430315128879 0.0023765132870698074 0.014456821397149584
leaf_weight=46.049131944775581 83.465407177805901 18.866299971938133 13.22193384170532 41.924568250775337 39.109976544976234 45.778342843055725 24.489330589771271 29.434782400727272 137.3669515401125
leaf_count=189 334 78 53 174 159 185 98 120 577
internal_value=0 0.00440523 0.0111008 -0.00120337 -0.00342131 -0.00643526 -0.0149319 -0.0030977 0.0132925
internal_weight=0 371.752 169.455 202.297 160.372 114.323 107.955 68.5448 156.233
internal_count=1967 1535 708 827 653 464 432 279 655
is_linear=0
shrinkage=0.01


Tree=16
num_leaves=10
num_cat=0
split_feature=170 189 175 17 122 7 189 171 22
split_gain=306.638 137.284 94.4983 37.3347 35.4274 18.6538 17.9094 15.2307 21.5505
threshold=1.0000000180025095e-35 1.0000000180025095e-35 1.0000000180025095e-35 101.96666666666651 -0.13574999999999998 0.0095000000000000015 1.0000000180025095e-35 0.46100000000000008 0.54236111111111118
decision_type=2 2 2 2 2 2 2 2 2
left_child=1 3 7 4 -1 -6 -2 8 -3
right_child=6 2 -4 -5 5 -7 -8 -9 -10
leaf_value=0.0040231971286023675 -0.016985033661221619 -0.012127651662455727 -0.014640363088466007 0.0072180837300533443 -0.0030655969894054658 -0.01130630781927963 -0.0072601341403044665 0.01435837262115925 0.01153621622755663
leaf_weight=46.019718453288078 83.487016320228577 5.3892122954130199 13.229056373238562 41.866307139396667 68.569390192627907 45.826783061027527 24.492525607347488 136.92792423069477 13.460912466049193
leaf_count=189 334 22 53 174 279 185 98 577 56
internal_value=0 0.00436672 0.0110191 -0.00119139 -0.00338614 -0.0063668 -0.0147792 0.0131982 0.00477076
internal_weight=0 371.289 169.007 202.282 160.416 114.396 107.98 155.778 18.8501
internal_count=1967 1535 708 827 653 464 432 655 78
is_linear=0
shrinkage=0.01


Tree=17
num_leaves=10
num_cat=0
split_feature=170 189 185 149 6 97 13 72 189
split_gain=300.604 135.02 74.3095 43.6736 33.7845 32.0587 24.9328 29.2309 17.5507
threshold=1.0000000180025095e-35 1.0000000180025095e-35 1.0000000180025095e-35 -0.94999999999999984 3210.9845 1.3453571428571454 0.27166666666666656 7.1754166666666661 1.0000000180025095e-35
decision_type=2 2 2 2 2 2 2 2 2
left_child=1 4 -3 -4 -1 6 -6 -8 -2
right_child=8 2 3 -5 5 -7 7 -9 -10
leaf_value=0.0052143603600720454 -0.016813301533612168 0.013579025976580214 -0.016901935536088149 0.011281014937448649 0.0033689039265338942 0.0059990287478722207 -0.010726857056651133 0.0046979568994815419 -0.0071867914047995963
leaf_weight=58.668788269162178 83.496305555105209 145.53930296003819 13.911273777484896 9.0923192948102933 22.555461689829826 27.125285655260086 79.380266979336739 14.535412803292273 24.495040506124496
leaf_count=241 334 614 56 38 93 112 321 60 98
internal_value=0 0.00432877 0.0109392 -0.00576244 -0.00117955 -0.00379189 -0.00607212 -0.00833954 -0.0146298
internal_weight=0 370.808 168.543 23.0036 202.265 143.596 116.471 93.9157 107.991
internal_count=1967 1535 708 94 827 586 474 381 432
is_linear=0
shrinkage=0.01


Tree=18
num_leaves=10
num_cat=0
split_feature=189 175 172 172 96 15 15 110 30
split_gain=234.063 118.985 98.293 38.3131 29.1666 26.925 29.11 25.0054 18.4863
threshold=1.0000000180025095e-35 1.0000000180025095e-35 70.070000000000007 82.811250000000015 2.4133333333333353 0.82928571428571451 0.5993750000000001 0.73095238095238113 0.62733333333333363
decision_type=2 2 2 2 2 2 2 2 2
left_child=2 3 5 -2 8 6 -1 -5 -4
right_child=1 -3 4 7 -6 -7 -8 -9 -10
leaf_value=0.0091056195448220596 0.013531912065547203 -0.014055429957780578 -0.00036222206062173581 -0.01762243071568674 -0.0020363313305314075 0.0069828334029609111 -0.0049505437526952707 0.0055204674139199853 -0.015084598869787878
leaf_weight=17.667761921882629 140.54566012322903 20.734699055552483 9.2881985902786237 5.7106629014015224 25.444491967558861 40.288073852658272 88.716005548834801 25.588348492980003 104.33351024985313
leaf_count=73 595 83 38 23 104 167 360 105 419
internal_value=0 0.0085733 -0.00569052 0.0113037 -0.0117139 2.05108e-05 -0.00261616 0.00129793 -0.0138811
internal_weight=0 192.579 285.738 171.845 139.066 146.672 106.384 31.299 113.622
internal_count=1967 806 1161 723 561 600 433 128 457
is_linear=0
shrinkage=0.01


Tree=19
num_leaves=10
num_cat=0
split_feature=170 189 185 149 17 122 189 176 119
split_gain=290.526 130.355 72.295 42.2665 35.6767 33.7113 16.8841 16.5379 17.9988
threshold=1.0000000180025095e-35 1.0000000180025095e-35 1.0000000180025095e-35 -0.94999999999999984 101.96666666666651 -0.13574999999999998 1.0000000180025095e-35 1.0000000180025095e-35 -0.46458333333333346
decision_type=2 2 2 2 2 2 2 2 2
left_child=1 4 -3 -4 5 -1 -2 8 -7
right_child=6 2 3 -5 -6 7 -8 -9 -10
leaf_value=0.0039546019277225761 -0.016521450525743258 0.01340275508663403 -0.01663085607116023 0.011129905834853338 0.0070960630507038991 -0.0041217349731767893 -0.0070794542795572539 -0.0016308307075490755 -0.01444755892853848
leaf_weight=45.954148203134537 83.482006758451462 144.65554864704609 13.9214935451746 9.0496107190847379 41.745071098208427 33.313033267855644 24.495763421058655 47.032499969005585 34.22266198694706
leaf_count=189 334 614 56 38 174 135 98 191 138
internal_value=0 0.00426471 0.0107857 -0.00569433 -0.00113952 -0.00328124 -0.0143794 -0.0061836 -0.00935419
internal_weight=0 369.894 167.627 22.9711 202.267 160.522 107.978 114.568 67.5357
internal_count=1967 1535 708 94 827 653 432 464 273
is_linear=0
shrinkage=0.01


Tree=20
num_leaves=10
num_cat=0
split_feature=170 189 185 171 19 1 171 64 91
split_gain=282.549 116.597 80.1572 34.5647 32.8399 20.5487 17.4499 15.5318 17.542
threshold=1.0000000180025095e-35 1.0000000180025095e-35 1.0000000180025095e-35 0.55928571428571472 6.2625000000000011 323.50000000000006 0.29950000000000004 117.89000000000001 -0.11155555555555548
decision_type=2 2 2 2 2 2 2 2 2
left_child=1 4 -3 -4 -1 -6 -7 8 -8
right_child=-2 2 3 -5 5 6 7 -9 -10
leaf_value=-0.0074692735421249415 -0.014379399828948359 0.013035772661264485 -0.017685889426633288 0.0074602395506511042 -0.0066518832088106432 -0.011681516093056439 0.0065720337450720602 0.0065772086773526377 -0.0078854750531079428
leaf_weight=56.615869969129562 106.95683394372463 143.75929562747478 13.177736133337023 9.3410251885652524 25.584785953164101 7.3917347639799109 15.054036289453505 80.099512696266174 18.965702965855598
leaf_count=229 428 612 53 39 104 30 62 331 77
internal_value=0 0.00407428 0.0102878 -0.007255 -0.000997488 0.00149345 0.00320849 0.00417294 -0.0014879
internal_weight=0 369.99 166.278 22.5188 203.712 147.096 121.511 114.119 34.0197
internal_count=1965 1537 704 92 833 604 500 470 139
is_linear=0
shrinkage=0.01


Tree=21
num_leaves=10
num_cat=0
split_feature=172 189 175 17 1 171 124 64 6
split_gain=197.12 91.0312 106.542 51.5427 28.3551 26.1012 27.84 22.6157 17.2441
threshold=75.72312500000001 1.0000000180025095e-35 1.0000000180025095e-35 96.343333333333362 282.50000000000006 0.50166666666666659 13.041666666666652 109.53333333333352 472.04850000000005
decision_type=2 2 2 2 2 2 2 2 2
left_child=1 4 -3 5 -1 -2 -7 -6 -9
right_child=3 2 -4 -5 7 6 -8 8 -10
leaf_value=-0.012913802819165685 -0.015083010888809572 0.013120218144234162 -0.018309181319403935 0.0023578517869959422 -0.0062089049241910868 0.0021429723839772471 -0.011583548081651665 0.011095180614645936 0.001194578554686961
leaf_weight=16.320838168263435 77.461567282676697 132.82796017825603 11.738875716924666 35.060570254921913 33.107037544250488 23.705524265766144 39.224471285939217 22.198190689086914 84.780869290232658
leaf_count=66 311 568 47 144 134 97 158 92 348
internal_value=0 0.00484777 0.0105681 -0.00848804 -0.000439573 -0.0111966 -0.00641281 0.00101375 0.00324896
internal_weight=0 300.974 144.567 175.452 156.407 140.392 62.93 140.086 106.979
internal_count=1965 1255 615 710 640 566 255 574 440
is_linear=0
shrinkage=0.01


Tree=22
num_leaves=10
num_cat=0
split_feature=172 189 175 96 1 13 69 122 165
split_gain=193.312 89.6037 104.689 52.2199 27.7601 27.1792 21.9853 23.0959 19.6922
threshold=75.72312500000001 1.0000000180025095e-35 1.0000000180025095e-35 1.8975000000000002 282.50000000000006 1.8966666666666652 1.0275000000000001 -0.13204999999999997 1.0000000180025095e-35
decision_type=2 2 2 2 2 2 2 2 2
left_child=1 4 -3 5 -1 -2 7 -6 -5
right_child=3 2 -4 8 6 -7 -8 -9 -10
leaf_value=-0.012769810802555487 -0.013382937294631185 0.013032817274283662 -0.018127718278280806 -0.0039384316983764904 0.0059474806498223259 0.0021873760183055584 0.010428845484301251 -0.0035979769240149302 0.0096737539268507613
leaf_weight=16.33972592651844 113.15654963254929 132.38377374410629 11.737824603915213 34.484028205275536 36.609094649553299 12.443780869245527 21.032921925187111 82.403528958559036 15.362160339951513
leaf_count=66 455 568 47 140 151 51 88 335 64
internal_value=0 0.00480686 0.010495 -0.00840342 -0.000435209 -0.0118403 0.00100392 -0.000661729 0.000256725
internal_weight=0 300.507 144.122 175.447 156.385 125.6 140.046 119.013 49.8462
internal_count=1965 1255 615 710 640 506 574 486 204
is_linear=0
shrinkage=0.01


Tree=23
num_leaves=10
num_cat=0
split_feature=170 171 3 188 175 15 168 158 7
split_gain=269.531 67.2976 35.3655 33.7761 32.1174 23.8092 20.3735 21.4399 14.9969
threshold=1.0000000180025095e-35 0.45083333333333359 3.5000000000000004 1.0000000180025095e-35 1.0000000180025095e-35 0.79775000000000007 1.0000000180025095e-35 0.83712500000000012 0.016500000000000004
decision_type=2 2 2 2 2 2 2 2 2
left_child=1 4 -3 6 5 -1 8 -8 -4
right_child=-2 2 3 -5 -6 -7 7 -9 -10
leaf_value=-0.006980792430389674 -0.014045731049092068 -0.017896550456618112 0.0093158922135266175 0.0098528071540380721 -0.018071132136864225 0.0079696175665007994 0.011386032808668733 -0.0039619785504605423 0.001126359167058963
leaf_weight=28.432384669780731 106.85856418311596 6.1245520710945121 57.021330460906029 145.04074746370316 15.443552851676939 17.03393143415451 11.047956630587576 51.6631780564785 36.786076262593269
leaf_count=116 428 25 239 613 62 71 46 212 153
internal_value=0 0.00399189 0.00589304 0.0063762 -0.00561172 -0.00137963 0.00315453 -0.00125809 0.00610441
internal_weight=0 368.594 307.684 301.559 60.9099 45.4663 156.519 62.7111 93.8074
internal_count=1965 1537 1288 1263 249 187 650 258 392
is_linear=0
shrinkage=0.01


Tree=24
num_leaves=10
num_cat=0
split_feature=172 171 96 188 34 64 4 171 172
split_gain=186.405 52.0582 50.5917 39.8209 26.513 25.2538 18.1566 17.0169 14.436
threshold=75.72312500000001 0.32083333333333358 1.8975000000000002 1.0000000180025095e-35 0.041416666666666657 109.53333333333352 23.000000000000004 0.6605000000000002 40.524285714285703
decision_type=2 2 2 2 2 2 2 2 2
left_child=1 -1 4 5 -2 6 -3 -4 -7
right_child=2 3 7 -5 -6 8 -8 -9 -10
leaf_value=-0.0099214119674614892 0.0047050454552711911 0.003159555005834213 -0.0053968224501266563 0.0097768640435279327 -0.012926576591415231 0.008655740911187728 -0.011160278917522524 0.0063012366586167566 0.0012222296078688011
leaf_weight=22.434037014842033 9.203212693333624 15.511749610304831 25.629654064774513 136.04869739711285 116.33937254548073 48.805529236793518 20.630974486470222 24.154972463846207 56.218404501676559
leaf_count=91 38 64 104 577 468 205 84 100 234
internal_value=0 0.00473044 -0.00825132 0.00591617 -0.011634 0.00219544 -0.00501449 0.000278952 0.00467665
internal_weight=0 299.649 175.327 277.215 125.543 141.167 36.1427 49.7846 105.024
internal_count=1965 1255 710 1164 506 587 148 204 439
is_linear=0
shrinkage=0.01


Tree=25
num_leaves=10
num_cat=0
split_feature=189 175 172 41 172 101 30 27 27
split_gain=205.926 113.4 93.41 37.4232 26.1816 27.2311 22.2255 22.1029 27.5702
threshold=1.0000000180025095e-35 1.0000000180025095e-35 64.004375000000024 8.6000000000000032 82.811250000000015 1.1250000000000002 0.61125000000000018 1.0000000180025095e-35 0.76388888888888917
decision_type=2 2 2 2 2 2 2 2 2
left_child=2 4 7 6 -2 -6 -4 -1 -9
right_child=1 -3 3 -5 5 -7 -8 8 -10
leaf_value=0.0055010436008271525 0.012766937292251637 -0.013173253912838665 0.0013376033696127546 0.00062850981614586115 0.011485426414952957 -0.0073720547488314303 -0.014176690417141159 -0.0060902131010378471 0.0067604945666704629
leaf_weight=54.712105840444565 135.93934315443039 22.206872209906578 10.022740632295607 24.121164947748184 16.150281384587291 14.562573611736296 117.33231869339943 62.288390874862671 22.808162465691566
leaf_count=226 587 89 41 99 67 59 472 253 95
internal_value=0 0.00805431 -0.00535214 -0.0107926 0.0108829 0.00254411 -0.0129557 0.000542302 -0.00264588
internal_weight=0 188.859 291.285 151.476 166.652 30.7129 127.355 139.809 85.0966
internal_count=1988 802 1186 612 713 126 513 574 348
is_linear=0
shrinkage=0.01


Tree=26
num_leaves=10
num_cat=0
split_feature=189 175 30 176 62 97 185 156 7
split_gain=202.168 111.415 55.4047 44.7913 27.1593 19.0791 29.7849 16.3123 15.4756
threshold=1.0000000180025095e-35 1.0000000180025095e-35 0.69550000000000012 1.0000000180025095e-35 9.4750000000000014 0.95464285714285702 1.0000000180025095e-35 0.94951250000000009 0.0095000000000000015
decision_type=2 2 2 2 2 2 2 2 2
left_child=2 5 7 4 -4 6 -2 -1 -6
right_child=1 -3 3 -5 8 -7 -8 -9 -10
leaf_value=-0.012842443000859861 0.0080961710857429502 -0.0130469230862969 -0.00097397996244193033 -0.0013898250654832429 -0.009660255586314434 0.012473521395372441 -0.018099951421140847 0.0035283133099863685 -0.016805870077951361
leaf_weight=6.6779417544603339 27.220317080616951 22.197722300887108 22.472502678632736 71.266786739230156 66.103054612874985 133.77481414377689 5.1636895537376395 68.739936307072639 55.972821041941643
leaf_count=27 116 89 92 290 267 576 21 285 225
internal_value=0 0.0079952 -0.00529956 -0.00787795 -0.0110768 0.0108063 0.00391915 0.00207875 -0.0129366
internal_weight=0 188.357 291.233 215.815 144.548 166.159 32.384 75.4179 122.076
internal_count=1988 802 1186 874 584 713 137 312 492
is_linear=0
shrinkage=0.01


Tree=27
num_leaves=10
num_cat=0
split_feature=170 189 175 96 16 27 153 189 31
split_gain=254.731 117.9 89.77 37.1143 34.8857 22.76 13.8308 13.6853 13.2208
threshold=1.0000000180025095e-35 1.0000000180025095e-35 1.0000000180025095e-35 1.8975000000000002 0.39992857142857158 1.0000000180025095e-35 2.6833333333333353 1.0000000180025095e-35 0.90527777777777818
decision_type=2 2 2 2 2 2 2 2 2
left_child=1 3 -3 4 6 8 -1 -2 -6
right_child=7 2 -4 -5 5 -7 -8 -9 -10
leaf_value=0.0049816859889564285 -0.015506978531890897 0.012484449489534252 -0.01425442484868494 0.0056929649669259594 -0.0045191373724464447 -0.0098963969688097304 -0.012708630215008527 -0.0070673273274527004 0.010163707187832974
leaf_weight=43.885483935475349 83.417478621006012 149.20648287236691 13.70947143435478 57.643169358372688 16.577591001987461 75.052739396691322 4.9144388586282721 24.963113561272621 9.7329446822404844
leaf_count=182 335 647 55 239 67 303 20 100 40
internal_value=0 0.00386522 0.0102344 -0.00112805 -0.00374644 -0.00709079 0.00320017 -0.0135631 0.000912425
internal_weight=0 370.722 162.916 207.806 150.163 101.363 48.7999 108.381 26.3105
internal_count=1988 1553 702 851 612 410 202 435 107
is_linear=0
shrinkage=0.01


Tree=28
num_leaves=10
num_cat=0
split_feature=189 175 172 41 171 64 27 36 30
split_gain=194.87 107.702 89.8851 35.7499 26.8873 24.5165 21.2471 26.4659 21.2223
threshold=1.0000000180025095e-35 1.0000000180025095e-35 64.004375000000024 8.6000000000000032 0.40733333333333355 113.08166666666652 1.0000000180025095e-35 0.065422222222222215 0.61125000000000018
decision_type=2 2 2 2 2 2 2 2 2
left_child=2 4 6 8 5 -2 -1 -8 -4
right_child=1 -3 3 -5 -6 -7 7 -9 -10
leaf_value=0.0054520982025340068 -0.014846015245098321 -0.012813959570893416 0.0013225936497095823 0.00063175282243968815 0.012208509086081391 0.0078387492575856827 0.0083232702853744921 -0.0053997511504040793 -0.013846412997173705
leaf_weight=54.634429708123207 7.1987988650798824 22.176115810871124 10.010891288518904 24.093897491693497 143.88751009106636 14.087111279368399 17.756409347057343 67.392639368772507 117.20808881521225
leaf_count=226 29 89 41 99 625 59 74 274 472
internal_value=0 0.00787854 -0.00519653 -0.0105374 0.0106567 0.000166864 0.000584906 -0.00253804 -0.0126528
internal_weight=0 187.35 291.096 151.313 165.173 21.2859 139.783 85.149 127.219
internal_count=1988 802 1186 612 713 88 574 348 513
is_linear=0
shrinkage=0.01


Tree=29
num_leaves=10
num_cat=0
split_feature=170 171 188 19 15 13 171 57 5
split_gain=246.641 61.6678 39.0558 28.8509 22.5129 24.2397 15.2955 14.4308 15.6426
threshold=1.0000000180025095e-35 0.45083333333333359 1.0000000180025095e-35 6.3732142857142859 0.82928571428571451 0.48250000000000004 0.79833333333333367 40.253333333333359 0.23950000000000002
decision_type=2 2 2 2 2 2 2 2 2
left_child=1 3 4 -1 5 -3 -4 -7 -9
right_child=-2 2 6 -5 -6 7 -8 8 -10
leaf_value=-0.014639375854791574 -0.013354327282980267 0.0074667913939987056 0.0043767387857027952 -0.0002143399496748228 0.0082721708044515493 0.0012266639079314542 0.011360979947047274 -0.0095430094291894772 0.0074157423908936624
leaf_weight=21.854917705059052 108.20809999108315 30.832885935902596 44.697879031300545 37.926577299833298 43.906625613570213 42.759580492973328 105.05172719061375 36.214667871594429 6.4002833962440482
leaf_count=88 435 130 189 157 187 176 451 148 27
internal_value=0 0.0038112 0.00560526 -0.00548784 0.00217185 -0.000133035 0.00927629 -0.0028777 -0.006996
internal_weight=0 369.645 309.864 59.7815 160.114 116.207 149.75 85.3745 42.615
internal_count=1988 1553 1308 245 668 481 640 351 175
is_linear=0
shrinkage=0.01


Tree=30
num_leaves=10
num_cat=0
split_feature=170 171 30 6 153 38 1 9 14
split_gain=232.18 75.9051 32.7302 31.3351 23.9739 21.5111 17.3507 15.7986 14.3526
threshold=1.0000000180025095e-35 0.45083333333333359 0.70125000000000004 12090.001500000002 1.0760000000000003 95.77500000000002 1993.0000000000002 55230750.000000007 0.78452380952380962
decision_type=2 2 2 2 2 2 2 2 2
left_child=1 4 -3 7 -1 6 8 -4 -5
right_child=-2 2 3 5 -6 -7 -8 -9 -10
leaf_value=-0.01140173986571639 -0.012679368320240705 0.010559473087834129 0.011506919921065421 -0.0052940352989452556 0.0010783955795922314 0.0073122298971596746 0.010984459791651191 0.0030836251727624224 0.011257705285665498
leaf_weight=36.307090193033218 109.61307975649834 102.20725055038929 53.340805053710938 69.142673790454865 26.719942390918732 30.552645027637482 8.5665866881608945 38.222007662057877 5.6684173494577399
leaf_count=147 441 439 229 284 111 129 36 160 24
internal_value=0 0.00388704 0.00593494 0.00363481 -0.00611086 0.00013409 -0.00249624 0.0079907 -0.00403991
internal_weight=0 370.727 307.7 205.493 63.027 113.93 83.3777 91.5628 74.8111
internal_count=2000 1559 1301 862 258 473 344 389 308
is_linear=0
shrinkage=0.01


Tree=31
num_leaves=10
num_cat=0
split_feature=170 189 175 96 69 72 1 120 1
split_gain=227.794 109.397 80.7802 41.8929 44.3096 26.5092 17.7686 14.5344 13.3784
threshold=1.0000000180025095e-35 1.0000000180025095e-35 1.0000000180025095e-35 1.8855000000000002 1.1005000000000003 6.9344444444444457 1766.0000000000002 0.83166666666666667 2686.5000000000005
decision_type=2 2 2 2 2 2 2 2 2
left_child=1 3 -3 4 5 6 7 -1 -8
right_child=-2 2 -4 -5 -6 -7 8 -9 -10
leaf_value=-0.010511354272148759 -0.0125643255170899 0.012193220848094315 -0.013206723765170127 0.0060604036621700235 0.0094526323101923691 0.0054942688416714496 0.012336907260291272 0.0030946454587543549 -0.0088084084046662087
leaf_weight=88.407612085342407 109.51106941699982 147.64150415360928 13.681277334690092 60.871374726295471 21.571290969848633 17.179291501641273 7.1289810091257078 8.6163833588361722 5.1561760306358337
leaf_count=357 441 647 55 253 91 71 29 35 21
internal_value=0 0.00385317 0.0100391 -0.000923218 -0.00379437 -0.00605351 -0.00786839 -0.00930305 0.00346205
internal_weight=0 370.254 161.323 208.931 148.06 126.488 109.309 97.024 12.2852
internal_count=2000 1559 702 857 604 513 442 392 50
is_linear=0
shrinkage=0.01


Tree=32
num_leaves=10
num_cat=0
split_feature=189 175 171 104 123 172 110 15 13
split_gain=179.649 95.4529 80.5591 36.4098 34.2527 29.2761 20.6173 14.9544 18.546
threshold=1.0000000180025095e-35 1.0000000180025095e-35 0.78900000000000015 22.252500000000001 -0.16129166666666647 82.811250000000015 0.73095238095238113 0.82928571428571451 0.48250000000000004
decision_type=2 2 2 2 2 2 2 2 2
left_child=2 5 4 7 -1 -2 -7 8 -4
right_child=1 -3 3 -5 -6 6 -8 -9 -10
leaf_value=-0.0017825298787232538 0.012492480851104579 -0.012169209712424913 0.0086215796238134374 -0.0062403925006471938 -0.012329058351084244 -0.015005074057224396 0.0056624136876206954 0.010958976390787226 -0.00251421710440342
leaf_weight=41.73129691183567 131.89060504734516 21.124143928289413 25.150905549526215 46.433931067585945 117.50392970442772 5.9403393566608456 25.748564928770065 26.625905185937881 36.895049244165421
leaf_count=172 582 85 105 188 475 24 107 112 150
internal_value=0 0.00783547 -0.00474618 0.00093338 -0.0095651 0.0104188 0.00178813 0.00469 0.00199978
internal_weight=0 184.704 294.341 135.106 159.235 163.58 31.6889 88.6719 62.046
internal_count=2000 798 1202 555 647 713 131 367 255
is_linear=0
shrinkage=0.01


Tree=33
num_leaves=10
num_cat=0
split_feature=170 189 175 96 15 171 72 1 171
split_gain=220.933 105.672 78.1982 40.5763 41.422 15.4285 14.9673 13.8838 12.2827
threshold=1.0000000180025095e-35 1.0000000180025095e-35 1.0000000180025095e-35 1.8855000000000002 0.82928571428571451 0.78900000000000015 7.1053571428571409 1929.0000000000002 0.46100000000000008
decision_type=2 2 2 2 2 2 2 2 2
left_child=1 3 8 4 6 -6 7 -1 -3
right_child=-2 2 -4 -5 5 -7 -8 -9 -10
leaf_value=-0.0092620612586131953 -0.012383274275783196 0.0039948041213222251 -0.012972286148575499 0.0059954552791569617 -0.0020804903995157256 0.010340215855263677 0.0061701345361330172 0.0032336841173916608 0.013083958823097205
leaf_weight=89.549997910857201 109.31137655675411 16.791052609682083 13.661089941859244 60.772431910037994 17.810211181640625 22.807582944631577 8.0321062654256803 9.8719142824411374 129.80363002419472
leaf_count=361 441 71 55 253 74 96 33 40 576
internal_value=0 0.00380225 0.00991045 -0.000884851 -0.0037087 0.00489395 -0.00696052 -0.00802132 0.0120429
internal_weight=0 369.1 160.256 208.844 148.072 40.6178 107.454 99.4219 146.595
internal_count=2000 1559 702 857 604 170 434 401 647
is_linear=0
shrinkage=0.01


Tree=34
num_leaves=10
num_cat=0
split_feature=170 171 3 52 123 6 9 70 123
split_gain=216.815 72.2383 34.1754 30.0973 22.9864 22.1046 17.0299 15.9114 12.3643
threshold=1.0000000180025095e-35 0.45083333333333359 3.5000000000000004 1.0050000000000001 -0.15462499999999998 12388.576500000001 58084320.000000007 4.8212500000000009 -0.013599999999999999
decision_type=2 2 2 2 2 2 2 2 2
left_child=1 4 -3 -4 -1 6 -5 -7 -6
right_child=-2 2 3 5 8 7 -8 -9 -10
leaf_value=0.0030638744974408106 -0.012273137378096684 -0.019240478315363633 0.0091620103463301936 0.011389321699820992 -0.013482742850048681 0.0055443735858251878 0.00073292346166535874 -0.0041160186104823998 -0.001808916692299949
leaf_weight=19.406357973814011 109.18999929726124 5.3632662594318381 161.46669562160969 38.120839759707451 30.617052808403969 25.871274262666702 24.722096592187881 50.002798706293106 12.893599361181257
leaf_count=81 441 22 695 165 124 109 104 206 53
internal_value=0 0.00377084 0.00578008 0.00622711 -0.00598672 0.00281088 0.00719715 -0.000822052 -0.0100234
internal_weight=0 368.464 305.547 300.184 62.917 138.717 62.8429 75.8741 43.5107
internal_count=2000 1559 1301 1279 258 584 269 315 177
is_linear=0
shrinkage=0.01


Tree=35
num_leaves=10
num_cat=0
split_feature=170 189 175 17 72 96 119 171 67
split_gain=206.429 98.5509 79.3957 32.4124 28.7962 24.492 22.4018 16.0781 13.8607
threshold=1.0000000180025095e-35 1.0000000180025095e-35 1.0000000180025095e-35 101.96666666666651 6.9344444444444457 1.7816666666666652 -1.0099999999999998 0.9125000000000002 0.89583333333333359
decision_type=2 2 2 2 2 2 2 2 2
left_child=1 3 -3 4 5 6 -1 -7 -8
right_child=-2 2 -4 -5 -6 7 8 -9 -10
leaf_value=-0.0015078305955234829 -0.012310125466086758 0.011720374669181641 -0.013518493364600715 0.0074459153163224656 0.0057300581188052683 -0.0043783383655328252 -0.0042444860132759936 0.010482681190848804 -0.014054762072863856
leaf_weight=44.674404606223106 104.85792468488216 144.72550982236862 13.63856580853462 37.882234707474709 32.231071725487709 13.962676480412485 21.792743310332298 15.21121773123741 42.466191411018372
leaf_count=181 424 642 55 161 134 57 88 63 171
internal_value=0 0.00360142 0.00954676 -0.00092036 -0.00278097 -0.00476725 -0.00694657 0.00337017 -0.0107277
internal_weight=0 366.585 158.364 208.221 170.338 138.107 108.933 29.1739 64.2589
internal_count=1976 1552 697 855 694 560 440 120 259
is_linear=0
shrinkage=0.01


Tree=36
num_leaves=10
num_cat=0
split_feature=170 189 185 30 96 83 92 6 137
split_gain=202.6 96.9986 68.819 29.6955 31.4775 29.289 21.8575 17.6516 16.9278
threshold=1.0000000180025095e-35 1.0000000180025095e-35 1.0000000180025095e-35 0.61125000000000018 1.9337500000000003 -0.010499999999999997 -0.13803571428571448 3999.9300000000007 1.0529166666666652
decision_type=2 2 2 2 2 2 2 2 2
left_child=1 3 -3 -1 6 -4 -5 8 -8
right_child=-2 2 5 4 -6 -7 7 -9 -10
leaf_value=0.0087083372636320971 -0.012202344196479795 0.012211272489232585 0.012636129635056711 0.0033662811567222628 0.0041940906978797489 -0.013157250210068902 -0.0064089997889323408 -0.0095917669009683553 0.0095109616320108534
leaf_weight=27.802644312381744 104.72693057358265 134.8233889490366 5.9326957315206554 24.91611909866333 51.716104850172997 17.067086279392242 17.48962622880936 75.407000347971916 10.805611088871954
leaf_count=118 424 601 26 102 216 70 71 304 44
internal_value=0 0.00357159 0.00948388 -0.000911486 -0.0023946 -0.00650396 -0.00504384 -0.00706451 -0.000329358
internal_weight=0 365.96 157.823 208.137 180.334 22.9998 128.618 103.702 28.2952
internal_count=1976 1552 697 855 737 96 521 419 115
is_linear=0
shrinkage=0.01


Tree=37
num_leaves=10
num_cat=0
split_feature=170 189 175 17 29 89 8 125 165
split_gain=198.851 95.4729 77.1932 31.3437 28.4625 18.7022 13.6928 12.7003 16.0228
threshold=1.0000000180025095e-35 1.0000000180025095e-35 1.0000000180025095e-35 101.96666666666651 1.0000000180025095e-35 -0.010555555555555549 439.00000000000006 0.83600000000000019 1.0000000180025095e-35
decision_type=2 2 2 2 2 2 2 2 2
left_child=1 3 -3 4 6 -6 -1 8 -7
right_child=-2 2 -4 -5 5 7 -8 -9 -10
leaf_value=-0.011431824569022151 -0.012096269878476833 0.01157778270635639 -0.013339142615009649 0.0073399438609284438 0.0009631784242449267 -0.010004755243699879 0.0043322921138043546 -0.010842129374924131 0.0068243738284744816
leaf_weight=6.125957489013671 104.58953276276588 143.67209333181381 13.611324578523634 37.761154353618622 29.880766436457634 11.880082249641418 54.799996063113213 56.814122691750526 10.800809100270271
leaf_count=25 424 642 55 161 122 48 226 229 44
internal_value=0 0.00354193 0.00942147 -0.000902663 -0.0027303 -0.00578148 0.00274725 -0.00831668 -0.0019906
internal_weight=0 365.346 157.283 208.063 170.302 109.376 60.926 79.495 22.6809
internal_count=1976 1552 697 855 694 443 251 321 92
is_linear=0
shrinkage=0.01


Tree=38
num_leaves=10
num_cat=0
split_feature=170 171 6 30 123 4 176 9 92
split_gain=195.181 62.2941 32.3652 35.3197 26.2124 20.6512 19.5283 14.6119 13.3437
threshold=1.0000000180025095e-35 0.45083333333333359 17442.547000000002 0.70125000000000004 -0.15462499999999998 77.000000000000014 1.0000000180025095e-35 55230750.000000007 -0.16449999999999998
decision_type=2 2 2 2 2 2 2 2 2
left_child=1 4 7 -4 -1 8 -6 -3 -5
right_child=-2 2 3 5 6 -7 -8 -9 -10
leaf_value=0.0037462688196368537 -0.011991852242089887 0.01172049553524016 0.0090352934025604986 0.0075856321755167072 -0.014150982402912989 0.010289692998072315 0.0019377191006603798 0.0052665559707640091 -0.0040008955684147484
leaf_weight=19.777809262275696 104.44594922661781 78.789669021964073 52.615386098623276 11.28027658164501 31.208220541477203 14.242052137851713 9.9496023505926114 63.233230590820312 83.632472231984138
leaf_count=83 424 346 229 48 127 61 41 270 347
internal_value=0 0.00351254 0.00536345 0.00230515 -0.00571512 -0.000938946 -0.0102617 0.00884699 -0.00262385
internal_weight=0 364.729 303.793 161.77 60.9356 109.155 41.1578 142.023 94.9127
internal_count=1976 1552 1301 685 251 456 168 616 395
is_linear=0
shrinkage=0.01


Tree=39
num_leaves=10
num_cat=0
split_feature=170 189 185 17 29 149 89 8 125
split_gain=191.57 93.8355 66.5916 30.4042 27.8585 27.1842 18.342 13.3715 12.3493
threshold=1.0000000180025095e-35 1.0000000180025095e-35 1.0000000180025095e-35 101.96666666666651 1.0000000180025095e-35 -0.94999999999999984 -0.010555555555555549 439.00000000000006 0.83600000000000019
decision_type=2 2 2 2 2 2 2 2 2
left_child=1 3 -3 4 7 -4 -6 -1 -8
right_child=-2 2 5 -5 6 -7 8 -9 -10
leaf_value=-0.011298709578806672 -0.011889042603577036 0.012035541660635959 -0.01510412106736693 0.0072152002253141412 0.00094459343228170953 0.007245351946493968 -0.0020069290986456201 0.0042728819943619843 -0.010736727092970404
leaf_weight=6.1325458437204352 104.29639476537704 133.50583493709564 14.005488887429239 37.616238802671432 29.864759340882301 8.9011204391717893 22.668926268815994 54.728522375226021 56.824349492788315
leaf_count=25 424 601 57 161 122 39 92 226 229
internal_value=0 0.00348208 0.0093328 -0.000921042 -0.00271905 -0.00641949 -0.00573705 0.00270384 -0.00824727
internal_weight=0 364.248 156.412 207.835 170.219 22.9066 109.358 60.8611 79.4933
internal_count=1976 1552 697 855 694 96 443 251 321
is_linear=0
shrinkage=0.01


Tree=40
num_leaves=10
num_cat=0
split_feature=170 171 3 185 6 30 160 111 25
split_gain=204.443 63.1522 34.0103 28.9682 26.0253 25.2049 17.9622 13.2896 12.7419
threshold=1.0000000180025095e-35 0.44309523809523804 3.5000000000000004 1.0000000180025095e-35 3210.9845 0.69550000000000012 6.5962916666666658 1.4414285714285702 1.1339285714285701
decision_type=2 2 2 2 2 2 2 2 2
left_child=1 3 -3 -1 -4 -6 7 8 -7
right_child=-2 2 4 -5 5 6 -8 -9 -10
leaf_value=-0.0011232967184668281 -0.01211708099006012 -0.018942208265008711 0.0098675361328827288 -0.016056022306080976 0.0089905595774486709 -0.0043581222489399865 0.0072973950220491272 0.010812422976556896 0.0044516030669441058
leaf_weight=42.553887292742729 107.05573028326035 5.6154096871614447 106.54765374958515 18.699736386537552 61.75649206340313 65.857389569282532 35.838211506605148 8.6755191981792432 21.869455441832542
leaf_count=177 436 23 465 76 270 274 154 37 93
internal_value=0 0.00358681 0.00544123 -0.00568202 0.00589682 0.003716 0.00125278 -0.000994343 -0.00216194
internal_weight=0 367.414 306.16 61.2536 300.545 193.997 132.241 96.4024 87.7268
internal_count=2005 1569 1316 253 1293 828 558 404 367
is_linear=0
shrinkage=0.01


Tree=41
num_leaves=10
num_cat=0
split_feature=170 189 175 72 97 53 17 1 185
split_gain=200.689 89.2394 78.6908 27.6783 28.6027 24.4033 20.7173 15.0408 13.2559
threshold=1.0000000180025095e-35 1.0000000180025095e-35 1.0000000180025095e-35 6.9344444444444457 1.3470833333333352 1.3535714285714302 81.450000000000003 288.50000000000006 1.0000000180025095e-35
decision_type=2 2 2 2 2 2 2 2 2
left_child=1 3 8 4 5 6 7 -1 -3
right_child=-2 2 -4 -5 -6 -7 -8 -9 -10
leaf_value=-0.015440638704399257 -0.012015277462821329 0.012279482562493085 -0.014248982816423063 0.0065386252322707237 0.0061839417271187481 0.0070959772667370559 -0.010382636299143204 -0.00033741024182332505 0.00080509186444033655
leaf_weight=7.4647570252418509 106.88402698934078 132.64227721095085 13.039389446377752 42.228264048695564 30.846833571791649 16.095962539315224 57.193572506308556 56.509574666619301 10.895181000232695
leaf_count=30 436 602 53 178 130 68 231 230 47
internal_value=0 0.00355583 0.00927182 -0.000699163 -0.00251725 -0.00447263 -0.00600941 -0.00209971 0.0114085
internal_weight=0 366.916 156.577 210.339 168.111 137.264 121.168 63.9743 143.537
internal_count=2005 1569 702 867 689 559 491 260 649
is_linear=0
shrinkage=0.01


Tree=42
num_leaves=10
num_cat=0
split_feature=170 189 175 72 96 59 171 3 6
split_gain=197.036 87.8763 77.3954 27.1544 28.8805 27.5429 17.3273 14.3504 14.506
threshold=1.0000000180025095e-35 1.0000000180025095e-35 1.0000000180025095e-35 6.9344444444444457 1.7816666666666652 0.46375000000000005 1.0207142857142852 657.50000000000011 3999.9300000000007
decision_type=2 2 2 2 2 2 2 2 2
left_child=1 3 -3 4 5 -1 -6 8 -7
right_child=-2 2 -4 -5 6 7 -8 -9 -10
leaf_value=0.0061294731816386285 -0.011915017365550893 0.01133905522810269 -0.014129350463729054 0.0064825190853107541 -0.0014421093843773099 -0.0015297963257929325 0.01056263134148659 0.009530668806168088 -0.010344310475978708
leaf_weight=18.379823476076126 106.7064688205719 142.97566512227058 13.018399864435194 42.168114140629768 26.43857604265213 25.333712205290794 22.051581367850304 4.8922115266323081 70.982493579387665
leaf_count=77 436 649 53 178 110 103 93 20 286
internal_value=0 0.00352687 0.0092136 -0.000692448 -0.00249253 -0.00513207 0.00401722 -0.00717721 -0.00802586
internal_weight=0 366.241 155.994 210.247 168.078 119.588 48.4902 101.208 96.3162
internal_count=2005 1569 702 867 689 486 203 409 389
is_linear=0
shrinkage=0.01


Tree=43
num_leaves=10
num_cat=0
split_feature=170 189 175 6 36 92 120 29 185
split_gain=193.458 86.5272 76.1192 24.9614 24.4755 17.0319 19.0838 15.5635 13.1739
threshold=1.0000000180025095e-35 1.0000000180025095e-35 1.0000000180025095e-35 3210.9845 0.065422222222222215 -0.13803571428571448 0.83166666666666667 0.26785714285714307 1.0000000180025095e-35
decision_type=2 2 2 2 2 2 2 2 2
left_child=1 3 8 -1 -5 -6 7 -7 -3
right_child=-2 2 -4 4 5 6 -8 -9 -10
leaf_value=0.0045957048679625655 -0.011816256198169393 0.012143335738075297 -0.014011908849300298 0.0049035940824324253 0.0016027012009569765 -0.0030866624871054072 0.0052810251408222991 -0.012442746890217847 0.00068578528453281415
leaf_weight=62.759942904114723 106.52326439321041 131.5600380897522 12.99634939432144 31.359711900353432 28.875452429056168 28.106231138110161 10.652611434459685 48.389977842569351 10.864008769392965
leaf_count=261 436 602 53 132 121 114 44 195 47
internal_value=0 0.00349816 0.00915533 -0.000685824 -0.00293484 -0.00505345 -0.00725887 -0.00900514 0.0112694
internal_weight=0 365.564 155.42 210.144 147.384 116.024 87.1488 76.4962 142.424
internal_count=2005 1569 702 867 606 474 353 309 649
is_linear=0
shrinkage=0.01


Tree=44
num_leaves=10
num_cat=0
split_feature=170 171 3 185 6 30 160 111 146
split_gain=189.952 60.8126 32.9934 27.4227 24.8858 24.1133 17.044 12.8334 12.642
threshold=1.0000000180025095e-35 0.44309523809523804 3.5000000000000004 1.0000000180025095e-35 3210.9845 0.69550000000000012 6.5962916666666658 1.4414285714285702 0.89366666666666661
decision_type=2 2 2 2 2 2 2 2 2
left_child=1 3 -3 8 -4 -6 7 -7 -1
right_child=-2 2 4 -5 5 6 -8 -9 -10
leaf_value=0.0066798386441158514 -0.011718950984834111 -0.018723144939066242 0.0096553744933204465 -0.015761642354871673 0.0088003202356995314 -0.0021350638050293175 0.0071160222572871027 0.010659160982392769 -0.0049845702275307874
leaf_weight=13.754591748118399 106.33461946249008 5.6120590716600409 105.49104568362236 18.6097491979599 61.19281430542469 87.422413676977158 35.56587940454483 8.6122805178165418 28.636180743575096
leaf_count=59 436 23 465 76 270 367 154 37 118
internal_value=0 0.00346961 0.00529862 -0.00564226 0.00575057 0.00361398 0.00120239 -0.000987692 -0.0011998
internal_weight=0 364.897 303.896 61.0005 298.284 192.793 131.601 96.0347 42.3908
internal_count=2005 1569 1316 253 1293 828 558 404 177
is_linear=0
shrinkage=0.01


Tree=45
num_leaves=10
num_cat=0
split_feature=170 189 185 96 72 97 154 1 176
split_gain=193.872 93.101 56.9983 30.1026 34.0368 29.9346 25.9544 15.5389 10.0932
threshold=1.0000000180025095e-35 1.0000000180025095e-35 1.0000000180025095e-35 1.8855000000000002 6.9344444444444457 1.3470833333333352 -0.012549999999999999 1929.0000000000002 1.0000000180025095e-35
decision_type=2 2 2 2 2 2 2 2 2
left_child=1 3 -3 4 5 7 -4 8 -1
right_child=-2 2 6 -5 -6 -7 -8 -9 -10
leaf_value=-0.011876837751817214 -0.011831615905822773 0.011781834769920721 -0.014724041975032199 0.0049903722715615413 0.0070630128852391316 0.0053932120440952896 0.0072655162803300722 0.0041851323997253425 -0.0049655785591430478
leaf_weight=54.669303223490715 106.1774036437273 134.6616704761982 12.86996276676655 61.272353142499924 25.715378910303116 20.43695855140686 9.2077817618846876 9.5994993299245817 34.443763300776482
leaf_count=220 436 619 53 258 109 86 40 39 139
internal_value=0 0.0035313 0.00934011 -0.000885506 -0.00337078 -0.00562265 -0.00555304 -0.00790331 -0.00920551
internal_weight=0 362.877 156.739 206.137 144.865 119.15 22.0777 98.7126 89.1131
internal_count=1999 1563 712 851 593 484 93 398 359
is_linear=0
shrinkage=0.01


Tree=46
num_leaves=10
num_cat=0
split_feature=189 185 171 19 171 3 28 122 171
split_gain=152.572 70.2982 58.197 32.757 23.9693 19.058 15.5583 21.2022 15.522
threshold=1.0000000180025095e-35 1.0000000180025095e-35 0.48150000000000004 6.4944444444444462 0.93187500000000012 228.50000000000003 1.0000000180025095e-35 -0.13574999999999998 0.16166666666666654
decision_type=2 2 2 2 2 2 2 2 2
left_child=2 8 -1 5 -3 -4 -5 -8 -2
right_child=1 4 3 6 -6 -7 7 -9 -10
leaf_value=-0.011033610014234316 -0.0075444762859593765 -0.010841358040903793 -0.010049364291527812 0.0051119885415327653 0.011571665764414573 0.0017164085137201827 0.0045512575492476122 -0.007079721568163385 0.010731853912520645
leaf_weight=91.540297627449036 4.8020731955766669 24.668137237429622 51.152171865105629 63.980932757258415 5.9157761782407752 18.836486309766769 28.353908091783524 35.043341740965843 143.85935434699059
leaf_count=376 20 102 208 271 26 77 119 142 658
internal_value=0 0.00730099 -0.00444336 -0.00138674 -0.00650606 -0.00688277 0.00163308 -0.00187786 0.0101415
internal_weight=0 179.245 288.907 197.367 30.5839 69.9887 127.378 63.3972 148.661
internal_count=1999 806 1193 817 128 285 532 261 678
is_linear=0
shrinkage=0.01


Tree=47
num_leaves=10
num_cat=0
split_feature=170 171 188 153 6 6 171 94 108
split_gain=188.601 57.9531 29.1712 25.4035 24.1385 16.5373 14.9109 14.8478 16.324
threshold=1.0000000180025095e-35 0.45083333333333359 1.0000000180025095e-35 1.0760000000000003 17442.547000000002 85880.47500000002 0.90416666666666667 1.1163333333333354 0.52916666666666667
decision_type=2 2 2 2 2 2 2 2 2
left_child=1 3 4 -1 -3 7 -4 -6 -9
right_child=-2 2 6 -5 5 -7 -8 8 -10
leaf_value=-0.010682345453619424 -0.011687381683241809 0.007123012720260169 0.0044046994245251075 0.0020799220595512074 0.003501425396660486 0.0083947372507112584 0.011104304450960244 0.0071751147070375412 -0.008288671804693901
leaf_weight=36.158900111913681 105.84876546263695 63.056922897696495 52.88570237159729 27.427522748708725 25.073274850845337 15.878100767731665 89.339138805866241 8.0900871455669385 43.703785598278046
leaf_count=148 436 273 231 116 109 68 402 34 182
internal_value=0 0.00348942 0.00533856 -0.00517744 0.0023494 -0.000896157 0.00861308 -0.00281534 -0.00587326
internal_weight=0 361.613 298.027 63.5864 155.802 92.7452 142.225 76.8671 51.7939
internal_count=1999 1563 1299 264 666 393 633 325 216
is_linear=0
shrinkage=0.01


Tree=48
num_leaves=10
num_cat=0
split_feature=170 171 188 153 6 6 171 94 100
split_gain=185.192 56.8807 28.7258 24.8986 23.7053 16.2276 14.7315 14.5443 12.6032
threshold=1.0000000180025095e-35 0.45083333333333359 1.0000000180025095e-35 1.0760000000000003 17442.547000000002 85880.47500000002 0.90416666666666667 1.1163333333333354 0.32083333333333358
decision_type=2 2 2 2 2 2 2 2 2
left_child=1 3 4 -1 -3 7 8 -6 -4
right_child=-2 2 6 -5 5 -7 -8 -9 -10
leaf_value=-0.010576540894284385 -0.011593492054086442 0.007063912251580191 0.0089658947068179881 0.0020599417174439285 0.0034694059423726166 0.0083263027717845727 0.011031064917813501 -0.0058106473651593285 -0.00082028750896041662
leaf_weight=36.155432492494583 105.63996666669846 62.949187979102135 27.99376979470253 27.416673347353935 25.051739811897278 15.848666071891783 89.034503400325775 51.828143060207367 24.834911003708839
leaf_count=148 436 273 124 116 109 68 402 216 107
internal_value=0 0.00345938 0.0052939 -0.00512682 0.00232781 -0.000887317 0.00854882 -0.00278669 0.00436538
internal_weight=0 361.113 297.541 63.5721 155.678 92.7285 141.863 76.8799 52.8287
internal_count=1999 1563 1299 264 666 393 633 325 231
is_linear=0
shrinkage=0.01


Tree=49
num_leaves=10
num_cat=0
split_feature=189 185 172 96 143 171 29 171 34
split_gain=148.379 67.895 62.3401 31.665 24.3214 26.2567 23.9553 23.1415 21.7592
threshold=1.0000000180025095e-35 1.0000000180025095e-35 60.140000000000008 1.8975000000000002 1.2691666666666652 1.7115000000000002 0.11805555555555551 0.93187500000000012 0.044750000000000005
decision_type=2 2 2 2 2 2 2 2 2
left_child=2 -2 4 8 5 6 -1 -3 -4
right_child=1 7 3 -5 -6 -7 -8 -9 -10
leaf_value=0.0034720614683147141 0.010037770749831714 -0.010622908766291158 0.0036493639034714436 -0.0013115038810130419 0.011498477898223908 0.010291570742462192 -0.0084352954677892108 0.011455190699106806 -0.011773400323460113
leaf_weight=29.224298223853111 147.50518521666527 24.584564581513408 9.9046691954135877 51.275852173566818 20.358431965112686 17.51807776093483 40.049065351486206 5.8837592601776114 119.72087934613228
leaf_count=122 678 102 42 214 87 73 163 26 492
internal_value=0 0.00723064 -0.00438326 -0.00796359 0.00166143 -0.000646015 -0.00341195 -0.00635939 -0.0105949
internal_weight=0 177.974 288.051 180.901 107.15 86.7914 69.2734 30.4683 129.626
internal_count=1999 806 1193 748 445 358 285 128 534
is_linear=0
shrinkage=0.01


Tree=50
num_leaves=10
num_cat=0
split_feature=170 189 185 27 149 80 151 36 22
split_gain=165.712 89.0132 61.5527 29.9641 29.0141 28.888 22.7703 14.087 13.8063
threshold=1.0000000180025095e-35 1.0000000180025095e-35 1.0000000180025095e-35 1.0000000180025095e-35 -0.94999999999999984 0.092916666666666661 1.8512500000000003 0.065422222222222215 0.67267857142857157
decision_type=2 2 2 2 2 2 2 2 2
left_child=1 3 -3 8 -4 6 7 -5 -1
right_child=-2 2 4 5 -6 -7 -8 -9 -10
leaf_value=-0.00035735633862371021 -0.010967043728712669 0.01207829268452661 -0.013893539235188971 0.0040589283795176723 0.0096072824623839523 0.0044897245433998334 0.0058778498302705044 -0.0095517158096690615 0.0085335786938324481
leaf_weight=32.27612741291523 101.87278790771961 127.01565282046795 15.01251755654812 8.4341849833726865 8.081403583288191 32.895967334508896 13.240480050444601 77.285280287265778 38.061919257044792
leaf_count=132 422 594 62 35 36 140 55 312 163
internal_value=0 0.00351405 0.00934781 -0.000816956 -0.00566975 -0.00362861 -0.00632728 -0.00821253 0.00445378
internal_weight=0 352.304 150.11 202.194 23.0939 131.856 98.9599 85.7195 70.338
internal_count=1951 1529 692 837 98 542 402 347 295
is_linear=0
shrinkage=0.01


Tree=51
num_leaves=10
num_cat=0
split_feature=170 189 185 27 149 80 151 171 36
split_gain=162.749 87.6906 60.6378 29.3868 28.4848 28.3151 22.3126 14.0963 14.2679
threshold=1.0000000180025095e-35 1.0000000180025095e-35 1.0000000180025095e-35 1.0000000180025095e-35 -0.94999999999999984 0.092916666666666661 1.8512500000000003 0.43125000000000008 0.065422222222222215
decision_type=2 2 2 2 2 2 2 2 2
left_child=1 3 -3 -1 -4 6 7 -5 -9
right_child=-2 2 4 5 -6 -7 -8 8 -10
leaf_value=0.0044142088621142925 -0.010879363297339569 0.012012255664694532 -0.0137746736234331 -0.018138557931051357 0.0095376288056197543 0.0044494496799199401 0.0058249331498910683 0.0064127144877177593 -0.0079882603220390157
leaf_weight=70.259700253605843 101.66790397465229 126.43967089056969 14.990753009915354 12.086008578538893 8.0591302663087827 32.861963406205177 13.227222099900244 7.6808369457721701 65.967386871576309
leaf_count=295 422 594 62 49 36 140 55 32 266
internal_value=0 0.00348625 0.00929294 -0.000809202 -0.00562379 -0.00359319 -0.0062639 -0.00812899 -0.00648637
internal_weight=0 351.573 149.49 202.083 23.0499 131.823 98.9615 85.7342 73.6482
internal_count=1951 1529 692 837 98 542 402 347 298
is_linear=0
shrinkage=0.01


Tree=52
num_leaves=10
num_cat=0
split_feature=189 175 172 17 172 151 67 8 50
split_gain=140.388 69.635 61.216 31.1297 23.5627 19.9348 19.3142 17.4921 14.3541
threshold=1.0000000180025095e-35 1.0000000180025095e-35 64.004375000000024 96.828571428571465 83.466250000000016 1.0000000180025095e-35 1.3130555555555552 439.00000000000006 4.8107142857142859
decision_type=2 2 2 2 2 2 2 2 2
left_child=2 4 5 8 -2 7 -6 -1 -4
right_child=1 -3 3 -5 6 -7 -8 -9 -10
leaf_value=-0.010939801482970328 0.011661334492181527 -0.010120898938209512 -0.012282960133594202 0.00089732491952739196 0.0065233048583498614 -0.0031026554413503549 -0.011933705310661593 0.0062393207126618172 -0.0025352355010792855
leaf_weight=6.5592767447233191 121.83821825683117 20.019172251224518 100.36515641212463 28.083177030086517 21.533424556255344 66.928740441799164 7.6958826482295981 61.494952023029327 17.783425539731979
leaf_count=27 575 83 415 118 93 274 32 260 74
internal_value=0 0.00740451 -0.00408369 -0.00856631 0.00972694 0.000772488 0.0016637 0.00458354 -0.0108158
internal_weight=0 171.087 281.215 146.232 151.068 134.983 29.2293 68.0542 118.149
internal_count=1951 783 1168 607 700 561 125 287 489
is_linear=0
shrinkage=0.01


Tree=53
num_leaves=10
num_cat=0
split_feature=170 189 185 29 149 17 43 161 1
split_gain=157.835 84.9849 59.2137 28.2518 27.6556 26.3925 19.1828 16.3716 12.0499
threshold=1.0000000180025095e-35 1.0000000180025095e-35 1.0000000180025095e-35 1.0000000180025095e-35 -0.94999999999999984 103.59166666666651 2.0316666666666654 27.846500000000002 323.50000000000006
decision_type=2 2 2 2 2 2 2 2 2
left_child=1 3 -3 -1 -4 6 -5 8 -8
right_child=-2 2 4 5 -6 -7 7 -9 -10
leaf_value=0.0041941422683884786 -0.010734544303465317 0.011892278880332641 -0.01361557202948291 0.0058207507242096493 0.0094149226054272058 0.0066721406448870917 -0.014862521623100826 0.0098839818293301636 -0.0061525211542106566
leaf_weight=72.903509601950645 101.28534783422947 125.32917968928814 14.942167937755586 12.972587361931799 8.0086949020624143 20.972937002778053 20.621908739209175 5.3306565880775443 69.126267895102501
leaf_count=307 422 594 62 54 36 91 83 22 280
internal_value=0 0.00343942 0.00918805 -0.000781933 -0.00557909 -0.0035936 -0.00558619 -0.00714256 -0.00815386
internal_weight=0 350.208 148.28 201.928 22.9509 129.024 108.051 95.0788 89.7482
internal_count=1951 1529 692 837 98 530 439 385 363
is_linear=0
shrinkage=0.01


Tree=54
num_leaves=10
num_cat=0
split_feature=170 189 185 27 80 171 151 7 22
split_gain=155.026 83.7353 58.3391 28.0218 27.1202 26.2657 21.5307 13.8363 13.4934
threshold=1.0000000180025095e-35 1.0000000180025095e-35 1.0000000180025095e-35 1.0000000180025095e-35 0.092916666666666661 0.93187500000000012 1.8512500000000003 0.011500000000000002 0.67267857142857157
decision_type=2 2 2 2 2 2 2 2 2
left_child=1 3 -3 8 6 -4 7 -5 -1
right_child=-2 2 5 4 -6 -7 -8 -9 -10
leaf_value=-0.00042143131636341566 -0.010649877805929691 0.011828471365447369 -0.011414981334742662 -0.0044679096253715401 0.0043879843323677212 0.013967262019006735 0.0057791313723678586 -0.012590037514798674 0.0083812895588934941
leaf_weight=32.240356162190437 101.07073763012886 124.74811945855618 17.597725376486782 49.111346572637558 32.795258179306984 5.3061683028936377 13.208653241395949 36.608121261000633 37.865171954035759
leaf_count=132 422 594 74 199 140 24 55 148 163
internal_value=0 0.00341221 0.00913509 -0.000774474 -0.0034928 -0.00553465 -0.00610532 -0.00793662 0.00433307
internal_weight=0 349.481 147.652 201.829 131.723 22.9039 98.9281 85.7195 70.1055
internal_count=1951 1529 692 837 542 98 402 347 295
is_linear=0
shrinkage=0.01


Tree=55
num_leaves=10
num_cat=0
split_feature=170 189 185 17 38 171 27 138 133
split_gain=153.374 87.8479 55.1702 29.8149 28.7449 26.3828 15.5195 13.0066 12.1535
threshold=1.0000000180025095e-35 1.0000000180025095e-35 1.0000000180025095e-35 101.96666666666651 100.16666666666652 0.68125000000000013 1.0000000180025095e-35 0.98062500000000008 -0.044642857142857144
decision_type=2 2 2 2 2 2 2 2 2
left_child=1 3 -3 4 6 -4 -1 -8 -9
right_child=-2 2 5 -5 -6 -7 7 8 -10
leaf_value=7.137222693997783e-05 -0.011054430657894328 0.011279633503389617 -0.016001839916996708 0.0066185638083659471 0.0059228910864787456 0.0077762926616645571 -0.011552779934317912 0.0066419927329354504 -0.0061379293487235764
leaf_weight=41.027009591460228 104.01479139924049 123.35838028788567 12.011784806847574 37.775305077433586 28.554270222783089 7.6303922683000556 40.966662973165512 8.797840550541876 48.256617352366447
leaf_count=169 435 590 50 165 121 34 166 36 195
internal_value=0 0.00278316 0.0088011 -0.00140701 -0.00321587 -0.00676475 -0.00509256 -0.00725394 -0.00416726
internal_weight=0 348.378 143.001 205.378 167.602 19.6422 139.048 98.0211 57.0545
internal_count=1961 1526 674 852 687 84 566 397 231
is_linear=0
shrinkage=0.01


Tree=56
num_leaves=10
num_cat=0
split_feature=170 189 175 17 38 29 80 171 189
split_gain=150.663 86.5021 56.6886 29.2533 28.1806 15.897 13.4447 13.504 12.1391
threshold=1.0000000180025095e-35 1.0000000180025095e-35 1.0000000180025095e-35 101.96666666666651 100.16666666666652 0.11805555555555551 0.070500000000000021 1.2283333333333351 1.0000000180025095e-35
decision_type=2 2 2 2 2 2 2 2 2
left_child=1 3 -3 4 5 -1 7 -7 -2
right_child=8 2 -4 -5 -6 6 -8 -9 -10
leaf_value=0.00025364710091212877 -0.012908227235664555 0.01064514257285936 -0.012248316735225607 0.0065647998898021413 0.0058714845938795147 -0.011226989702981662 0.0036104597433924868 -0.0029446686426862225 -0.0049369822523282533
leaf_weight=40.278562843799591 78.53126747906208 130.61803808808327 11.792675018310545 37.704185992479324 28.516418650746346 58.910209715366364 10.303792029619215 29.566220417618752 25.246127068996429
leaf_count=166 331 625 49 165 121 238 42 120 104
internal_value=0 0.00276088 0.00874939 -0.00139359 -0.00318421 -0.00504124 -0.00720028 -0.00845928 -0.010969
internal_weight=0 347.69 142.411 205.279 167.575 139.059 98.7802 88.4764 103.777
internal_count=1961 1526 674 852 687 566 400 358 435
is_linear=0
shrinkage=0.01


Tree=57
num_leaves=10
num_cat=0
split_feature=170 189 185 17 38 171 29 80 161
split_gain=148.015 85.1679 53.9298 28.7033 27.629 25.7697 15.5799 13.1745 13.2438
threshold=1.0000000180025095e-35 1.0000000180025095e-35 1.0000000180025095e-35 101.96666666666651 100.16666666666652 0.68125000000000013 0.11805555555555551 0.070500000000000021 27.846500000000002
decision_type=2 2 2 2 2 2 2 2 2
left_child=1 3 -3 4 6 -4 -1 8 -8
right_child=-2 2 5 -5 -6 -7 7 -9 -10
leaf_value=0.00025111889479466858 -0.010885771299713054 0.011163334467086233 -0.015863787074898179 0.0065115010459513515 0.0058205512084318258 0.0076900586082583192 -0.0094691682798008596 0.0035757563468999543 0.0052948155603286797
leaf_weight=40.277241006493568 103.52697876095772 122.27735649049282 11.966310381889345 37.633037358522415 28.478485748171806 7.5920049399137488 81.919554963707924 10.299774184823034 6.5625629872083655
leaf_count=166 435 590 50 165 121 34 331 42 27
internal_value=0 0.00273875 0.00869721 -0.00138037 -0.00315307 -0.00672083 -0.00499082 -0.00712816 -0.00837415
internal_weight=0 347.006 141.836 205.171 167.538 19.5583 139.059 98.7819 88.4821
internal_count=1961 1526 674 852 687 84 566 400 358
is_linear=0
shrinkage=0.01


Tree=58
num_leaves=10
num_cat=0
split_feature=189 185 171 17 122 171 172 172 116
split_gain=129.558 69.7456 54.0344 25.2883 30.8267 20.9381 17.7811 15.1127 15.08
threshold=1.0000000180025095e-35 1.0000000180025095e-35 0.48150000000000004 101.96666666666651 -0.13574999999999998 1.0408333333333353 60.140000000000008 83.704375000000013 1.0316666666666652
decision_type=2 2 2 2 2 2 2 2 2
left_child=2 7 6 4 -4 -3 -1 -2 -6
right_child=1 5 3 -5 8 -7 -8 -9 -10
leaf_value=0.00012444939980171103 0.01124078267135219 -0.011158502414517586 0.0039255912299682024 0.0061418019148251207 -0.0031768457061779076 0.012048107580428638 -0.012956146402749676 0.0029247996728572934 -0.010549955677094569
leaf_weight=12.09183396399021 110.10907915234566 24.424951374530796 43.560566633939743 34.616250723600388 74.914268225431442 4.6239213198423377 73.928166344761848 27.264353528618813 44.050939455628395
leaf_count=50 536 103 185 152 306 21 310 118 180
internal_value=0 0.00661341 -0.00450427 -0.00161873 -0.00327164 -0.00746454 -0.0111174 0.00959032 -0.00590699
internal_weight=0 166.422 283.162 197.142 162.526 29.0489 86.02 137.373 118.965
internal_count=1961 778 1183 823 671 124 360 654 486
is_linear=0
shrinkage=0.01


Tree=59
num_leaves=10
num_cat=0
split_feature=170 189 175 69 13 29 7 189 171
split_gain=143.785 82.4173 54.6402 26.9696 34.9555 27.0711 13.3612 11.8764 11.7164
threshold=1.0000000180025095e-35 1.0000000180025095e-35 1.0000000180025095e-35 1.0275000000000001 0.48250000000000004 0.11805555555555551 0.0095000000000000015 1.0000000180025095e-35 1.2021111111111102
decision_type=2 2 2 2 2 2 2 2 2
left_child=1 3 -3 4 -1 6 -6 -2 -7
right_child=7 2 -4 -5 5 8 -8 -9 -10
leaf_value=0.0050644254786154277 -0.012679074637914765 0.010478383986222964 -0.012071190372375123 0.0082419607591227313 0.0049664309801189981 -0.011065417145828503 -0.0066785741842345205 -0.0047775412355592003 -0.0035988517383732203
leaf_weight=43.705981507897377 77.930607572197914 128.9674164056778 11.722454249858854 25.694555014371872 30.063728541135788 57.872871086001396 14.656363829970358 25.164804622530937 32.999844267964363
leaf_count=186 331 625 49 113 125 234 60 104 134
internal_value=0 0.00270555 0.00859953 -0.00133958 -0.00271266 -0.00521947 0.00114995 -0.0107504 -0.00835398
internal_weight=0 345.683 140.69 204.993 179.299 135.593 44.7201 103.095 90.8727
internal_count=1961 1526 674 852 739 553 185 435 368
is_linear=0
shrinkage=0.01


Tree=60
num_leaves=10
num_cat=0
split_feature=170 189 185 149 96 69 29 171 1
split_gain=146.087 75.1323 46.1889 27.1398 25.3275 31.6407 17.9673 15.483 15.2568
threshold=1.0000000180025095e-35 1.0000000180025095e-35 1.0000000180025095e-35 -0.94999999999999984 1.8355555555555552 1.1005000000000003 0.11805555555555551 0.93187500000000012 1766.0000000000002
decision_type=2 2 2 2 2 2 2 2 2
left_child=1 4 -3 -4 5 6 -1 -6 -8
right_child=-2 2 3 -5 7 -7 8 -9 -10
leaf_value=0.0010623702948464177 -0.010193632061097406 0.011072138819631911 -0.015116615493315168 0.0081352527381779224 0.0001034537480044039 0.0084532429052139035 -0.0087518490123235388 0.010281928827725859 0.0051316706102985075
leaf_weight=36.140615254640579 104.51228296756744 124.59196828305721 11.688370794057848 8.7986251562833768 32.286136269569397 20.904064208269119 77.56166909635067 27.824128568172455 8.8147740364074689
leaf_count=149 442 610 49 40 136 92 314 120 36
internal_value=0 0.00328546 0.00878411 -0.00513055 -0.000634034 -0.00291778 -0.00485793 0.00481492 -0.00733503
internal_weight=0 348.61 145.079 20.487 203.531 143.421 122.517 60.1103 86.3764
internal_count=1988 1546 699 89 847 591 499 256 350
is_linear=0
shrinkage=0.01


Tree=61
num_leaves=10
num_cat=0
split_feature=170 189 175 72 96 59 176 171 168
split_gain=143.515 74.0383 52.0755 25.8542 29.7025 25.9743 16.7983 15.6607 13.7947
threshold=1.0000000180025095e-35 1.0000000180025095e-35 1.0000000180025095e-35 6.9344444444444457 1.8355555555555552 0.46375000000000005 1.0000000180025095e-35 0.97125000000000006 1.0000000180025095e-35
decision_type=2 2 2 2 2 2 2 2 2
left_child=1 3 -3 4 5 -1 -7 -6 -8
right_child=-2 2 -4 -5 7 6 8 -9 -10
leaf_value=0.0061181810660075973 -0.010115491112108103 0.010493849397972883 -0.011755609848175828 0.00659698496670555 -0.0011391894958051266 -0.010467892270130882 0.0048057862981762513 0.010517617122439118 -0.0069853247546507449
leaf_weight=17.655731111764908 104.26766055822372 133.02637201547623 11.422775655984877 39.829410165548325 24.239102393388748 58.753267705440521 16.881402924656868 21.973308756947517 24.068123757839203
leaf_count=75 442 651 48 171 102 238 69 95 97
internal_value=0 0.00325982 0.0087344 -0.000628068 -0.00238736 -0.00506139 -0.00704111 0.00440345 -0.00212445
internal_weight=0 347.849 144.449 203.4 163.571 117.359 99.7028 46.2124 40.9495
internal_count=1988 1546 699 847 676 479 404 197 166
is_linear=0
shrinkage=0.01


Tree=62
num_leaves=10
num_cat=0
split_feature=170 189 175 72 96 59 1 6 1
split_gain=140.992 72.946 51.2508 25.372 29.126 25.4631 16.4602 11.2183 10.8457
threshold=1.0000000180025095e-35 1.0000000180025095e-35 1.0000000180025095e-35 6.9344444444444457 1.8355555555555552 0.46375000000000005 1766.0000000000002 7487.362000000001 347.00000000000006
decision_type=2 2 2 2 2 2 2 2 2
left_child=1 3 -3 4 5 -1 7 -7 -6
right_child=-2 2 -4 -5 8 6 -8 -9 -10
leaf_value=0.0060644913108674949 -0.010038254970224664 0.010434933583085363 -0.011664182554797769 0.0065417108636620733 -0.0062697290078234389 -0.0027935310461377912 0.0050235375725704579 -0.010606526829967251 0.0065742075712363623
leaf_weight=17.634028315544128 104.02045778930187 132.44259934127331 11.397315323352812 39.764614373445511 7.940514773130416 25.849892318248749 10.262311816215513 63.577710464596748 38.217081919312477
leaf_count=75 442 651 48 171 33 105 42 257 164
internal_value=0 0.00323442 0.00868389 -0.00062223 -0.00236476 -0.00501225 -0.0069716 -0.00834811 0.00436466
internal_weight=0 347.086 143.84 203.246 163.482 117.324 99.6899 89.4276 46.1576
internal_count=1988 1546 699 847 676 479 404 362 197
is_linear=0
shrinkage=0.01


Tree=63
num_leaves=10
num_cat=0
split_feature=189 175 172 1 104 172 67 30 176
split_gain=114.811 63.4938 46.2826 26.3959 25.8071 24.7877 20.407 18.6695 15.5508
threshold=1.0000000180025095e-35 1.0000000180025095e-35 75.72312500000001 282.50000000000006 19.878750000000004 82.811250000000015 1.2411111111111102 0.69550000000000012 1.0000000180025095e-35
decision_type=2 2 2 2 2 2 2 2 2
left_child=2 5 3 -1 7 -2 -7 -4 -5
right_child=1 -3 4 8 -6 6 -8 -9 -10
leaf_value=-0.011754531247179774 0.010899707984977506 -0.010670286863534611 0.0053998637133236809 -0.0016807458716798017 -0.01255390763839833 0.0059093590557413476 -0.012598981885021157 -0.007130994046636599 0.0049932796271440543
leaf_weight=17.483186915516853 120.12210303544998 18.668943211436272 16.999109074473381 78.976752415299416 66.491633489727974 20.884266197681431 8.3346803784370405 39.557001739740372 62.572723940014839
leaf_count=71 596 79 73 331 282 92 35 167 262
internal_value=0 0.00671684 -0.00372525 -0.000162252 -0.00833024 0.00889039 0.00062987 -0.00336459 0.00126954
internal_weight=0 168.01 282.08 159.033 123.048 149.341 29.2189 56.5561 141.549
internal_count=1988 802 1186 664 522 723 127 240 593
is_linear=0
shrinkage=0.01


Tree=64
num_leaves=10
num_cat=0
split_feature=170 189 185 149 72 96 97 176 3
split_gain=136.796 70.6918 44.4355 25.9912 24.8219 28.4309 29.3002 13.8061 13.1878
threshold=1.0000000180025095e-35 1.0000000180025095e-35 1.0000000180025095e-35 -0.94999999999999984 6.9344444444444457 1.8355555555555552 1.3470833333333352 1.0000000180025095e-35 239.50000000000003
decision_type=2 2 2 2 2 2 2 2 2
left_child=1 4 -3 -4 5 6 7 -1 -9
right_child=-2 2 3 -5 -6 -7 -8 8 -10
leaf_value=-0.010481064106366254 -0.0099102112299095293 0.010859709843719296 -0.014927471233923685 0.0079533175864405243 0.006493510839452884 0.0043314207274373585 0.0055171669041659457 -0.0063628531149346468 0.0066261357685579473
leaf_weight=56.566738039255142 103.56575514376163 122.34873136878014 11.587752416729929 8.6859778761863691 39.702246606349945 46.096908316016197 21.816150471568108 28.020524963736534 10.840873554348944
leaf_count=229 442 610 49 40 171 197 93 113 44
internal_value=0 0.00319174 0.00858755 -0.00512454 -0.000598402 -0.00232219 -0.00493818 -0.00732842 -0.00273941
internal_weight=0 345.666 142.622 20.2737 203.043 163.341 117.244 95.4281 38.8614
internal_count=1988 1546 699 89 847 676 479 386 157
is_linear=0
shrinkage=0.01


Tree=65
num_leaves=10
num_cat=0
split_feature=170 189 185 69 124 154 145 1 37
split_gain=122.811 68.9885 40.4993 26.495 30.1791 23.5327 18.6091 15.4792 15.7029
threshold=1.0000000180025095e-35 1.0000000180025095e-35 1.0000000180025095e-35 1.0275000000000001 6.5625000000000009 -0.035124999999999997 1.1308333333333351 1929.0000000000002 5.3645833333333357
decision_type=2 2 2 2 2 2 2 2 2
left_child=1 3 -3 4 -1 -4 7 8 -6
right_child=-2 2 5 -5 6 -7 -8 -9 -10
leaf_value=0.0038573563098866482 -0.0094795495570933527 0.010639892638600663 -0.014280332215089587 0.0086979467148819677 -0.012003280126318357 0.0074317990758691176 0.0061721386320504673 0.0059676093184839012 -0.0039476261500154038
leaf_weight=59.404650494456291 101.11396688222885 120.55988195538521 11.25625289976597 26.605044469237328 42.266188353300095 8.9698542058467847 13.64509169757366 9.5077961534261686 56.604857817292213
leaf_count=253 433 602 48 118 172 41 57 39 229
internal_value=0 0.00303707 0.00844305 -0.000621416 -0.00198803 -0.00465146 -0.00483372 -0.00621938 -0.00739132
internal_weight=0 348.82 140.786 208.034 181.429 20.2261 122.024 108.379 98.871
internal_count=1992 1559 691 868 750 89 497 440 401
is_linear=0
shrinkage=0.01


Tree=66
num_leaves=10
num_cat=0
split_feature=170 189 175 92 36 120 7 159 189
split_gain=120.652 67.9759 51.993 26.0508 24.5291 19.8018 20.6535 19.5334 15.4666
threshold=1.0000000180025095e-35 1.0000000180025095e-35 1.0000000180025095e-35 -0.13803571428571448 0.071775000000000019 0.78452380952380962 0.0065000000000000014 1.0451666666666652 1.0000000180025095e-35
decision_type=2 2 2 2 2 2 2 2 2
left_child=1 3 -3 -1 -5 6 7 -6 -2
right_child=8 2 -4 4 5 -7 -8 -9 -10
leaf_value=0.0054811676428432035 -0.011506967743445442 0.010255424975888215 -0.011539933484425146 0.002722177556041741 -0.010456407271961603 0.003546703114063405 -0.013807001246312924 0.0022976689830785857 -0.0021043147579159556
leaf_weight=52.415066495537758 78.347724199295044 128.21490716934204 11.966540500521658 54.677700221538544 22.242557004094124 19.181168913841248 33.282617345452309 26.09785832464695 22.523465037345886
leaf_count=224 339 640 51 232 90 81 135 106 94
internal_value=0 0.00301319 0.00839487 -0.000615584 -0.00267088 -0.00559616 -0.0077447 -0.00357078 -0.00940746
internal_weight=0 348.078 140.181 207.897 155.482 100.804 81.623 48.3404 100.871
internal_count=1992 1559 691 868 644 412 331 196 433
is_linear=0
shrinkage=0.01


Tree=67
num_leaves=10
num_cat=0
split_feature=170 171 1 188 176 172 124 2 40
split_gain=118.545 45.6636 39.7112 18.9375 15.7321 15.7022 16.2555 15.8079 14.484
threshold=1.0000000180025095e-35 0.34900000000000003 347.00000000000006 1.0000000180025095e-35 1.0000000180025095e-35 18.896666666666654 18.008333333333354 0.48121685450456558 257.88888888888908
decision_type=2 2 2 2 2 2 2 2 2
left_child=1 4 -3 5 -1 -4 -7 -8 -9
right_child=-2 2 3 -5 -6 6 7 8 -10
leaf_value=-0.011472496676136718 -0.0093373518445488517 -0.0039160236971671975 0.0096978213570307042 0.0085698559928120196 0.001766277704066269 0.0054633188651787446 -0.0083176149358076996 -0.0079585810779984039 0.0078511114119031999
leaf_weight=26.728589102625847 100.61376371979713 49.349872946739197 28.470807269215584 129.6517469137907 13.514779374003409 48.029863014817238 25.054232314229012 8.5490424185991305 17.987328320741653
leaf_count=114 433 211 131 609 58 215 105 36 80
internal_value=0 0.00298951 0.00430208 0.0058756 -0.00702657 0.00314852 0.00127678 -0.00262081 0.00275781
internal_weight=0 347.336 307.093 257.743 40.2434 128.091 99.6205 51.5906 26.5364
internal_count=1992 1559 1387 1176 172 567 436 221 116
is_linear=0
shrinkage=0.01


Tree=68
num_leaves=10
num_cat=0
split_feature=170 189 175 69 6 189 0 36 138
split_gain=116.445 66.8522 50.8039 25.647 22.0943 15.3131 15.1844 15.6851 13.7884
threshold=1.0000000180025095e-35 1.0000000180025095e-35 1.0000000180025095e-35 1.0275000000000001 3999.9300000000007 1.0000000180025095e-35 395.50000000000006 0.097416666666666665 1.0135416666666652
decision_type=2 2 2 2 2 2 2 2 2
left_child=1 3 -3 4 8 -2 7 -6 -1
right_child=5 2 -4 -5 6 -7 -8 -9 -10
leaf_value=-0.0023886601568710625 -0.011364740820113812 0.010173144328689 -0.011419569665926112 0.0085662305474516927 -0.0044544105214948575 -0.0019945558465653697 0.00082647726238745545 -0.014988106823442095 0.0077705813606115592
leaf_weight=23.618407562375069 77.895361915230751 127.31294675171375 11.916277199983595 26.453178107738495 68.882411763072014 22.472326800227165 40.093923926353455 17.786000266671181 30.75671561062336
leaf_count=97 339 640 51 118 283 94 167 73 130
internal_value=0 0.0029641 0.00832508 -0.000631469 -0.00197469 -0.00926676 -0.00426209 -0.00661612 0.00335781
internal_weight=0 346.82 139.229 207.591 181.137 100.368 126.762 86.6684 54.3751
internal_count=1992 1559 691 868 750 433 523 356 227
is_linear=0
shrinkage=0.01


Tree=69
num_leaves=10
num_cat=0
split_feature=170 189 175 92 36 13 189 172 160
split_gain=114.414 65.8752 50.0061 25.3083 23.7112 17.9504 15.1091 14.2464 13.6525
threshold=1.0000000180025095e-35 1.0000000180025095e-35 1.0000000180025095e-35 -0.13803571428571448 0.071775000000000019 0.49828571428571455 1.0000000180025095e-35 37.983125000000008 5.6414285714285706
decision_type=2 2 2 2 2 2 2 2 2
left_child=1 3 -3 -1 7 -6 -2 -5 -7
right_child=6 2 -4 4 5 8 -8 -9 -10
leaf_value=0.0053942108779680134 -0.011287803089283285 0.01011713946757673 -0.011335140770316159 0.0094440803066292451 0.0017498276943577356 0.0026772929407897043 -0.0019754094947523906 -0.0011901576609188345 -0.0096798333603975249
leaf_weight=52.25288000702858 77.643299415707588 126.74040542542934 11.885140851140021 19.738475739955902 25.34854881465435 10.368042573332785 22.463280737400055 34.822487562894821 64.951147496700287
leaf_count=224 339 640 51 86 106 42 94 146 264
internal_value=0 0.00294059 0.00827792 -0.000625462 -0.0026518 -0.0055291 -0.00919816 0.00265698 -0.00797882
internal_weight=0 346.107 138.626 207.482 155.229 100.668 100.107 54.561 75.3192
internal_count=1992 1559 691 868 644 412 433 232 306
is_linear=0
shrinkage=0.01


Tree=70
num_leaves=10
num_cat=0
split_feature=170 189 175 7 172 17 3 38 97
split_gain=114.986 71.348 50.0414 30.414 18.2359 17.4055 13.244 15.7367 13.2019
threshold=1.0000000180025095e-35 1.0000000180025095e-35 1.0000000180025095e-35 0.0095000000000000015 16.598333333333354 101.96666666666651 47.500000000000007 99.062500000000014 1.3590000000000002
decision_type=2 2 2 2 2 2 2 2 2
left_child=1 3 -3 4 -1 6 -5 -8 -6
right_child=-2 2 -4 5 8 -7 7 -9 -10
leaf_value=0.011058547518385928 -0.0095560594568127408 0.0099517735628243831 -0.010441228205356147 -0.017508423288587961 -0.0012084419829925153 0.0035622130158900812 -0.0088440239444984355 0.0065632320053743837 0.0086951286973062751
leaf_weight=18.070524781942368 100.12760849297047 128.84974689781666 13.27224940061569 13.259668529033659 93.662703678011894 14.377531751990317 38.218504711985588 8.0203906148672086 15.719190552830694
leaf_count=79 434 655 57 54 388 64 156 34 67
internal_value=0 0.00262258 0.00804735 -0.00120687 0.00175225 -0.006312 -0.00869805 -0.00617155 0.000214793
internal_weight=0 343.451 142.122 201.329 127.452 73.8761 59.4986 46.2389 109.382
internal_count=1988 1554 712 842 534 308 244 190 455
is_linear=0
shrinkage=0.01


Tree=71
num_leaves=10
num_cat=0
split_feature=170 171 3 188 7 172 69 168 166
split_gain=112.986 41.9274 31.5237 23.1913 20.2561 18.7355 14.0599 12.2777 16.1855
threshold=1.0000000180025095e-35 0.45083333333333359 3.5000000000000004 1.0000000180025095e-35 0.028000000000000004 58.042500000000011 0.31625000000000009 1.0000000180025095e-35 1.0000000180025095e-35
decision_type=2 2 2 2 2 2 2 2 2
left_child=1 5 -3 4 7 -1 -6 -4 -9
right_child=-2 2 3 -5 6 -7 -8 8 -10
leaf_value=0.0042718055500498139 -0.0094854525160815474 -0.017761215045160553 0.0078701243998709584 0.0076527919040147042 -0.0066959932043551698 -0.0085124020281747946 0.0040079544054053015 0.0043303452935124862 -0.011021338383029511
