tree
version=v4
num_class=1
num_tree_per_iteration=1
label_index=0
max_feature_idx=19
objective=binary sigmoid:1
feature_names=Haploinsufficient Conservation vlow_conf Accessibility p_repeat protein_len aaindex_RACS820103 Closeness aaindex_NAKH920103 aaindex_NAKH900104 p_palindrome aaindex_BIGC670101 T/C aaindex_SUEM840102 aaindex_LEVM760103 aaindex_CHOP780204 aaindex_ARGP820102 aaindex_GEOR030105 Hub_Score p_domain
feature_infos=[0:1] [0:4.2599999999999998] [0:1] [0:100] [0:1] [79:4967] [0:2.8599999999999999] [0.125:1] [1.6000000000000001:8.1099999999999994] [-1.3600000000000001:2.04] [0:1] [36.299999999999997:135.40000000000001] [0:1] [0.10000000000000001:77] [0:122] [0.44:2.4399999999999999] [0.050000000000000003:3.23] [0.47799999999999998:1.369] [0:0.86599999999999999] [0:1]
tree_sizes=2160 2262 2276 2276 2254 2266 2278 2272 2274 2248 2276 2268 2263 2253 2271 2273 2249 2255 2278 2272 2254 2248 2272 2264 2271 2286 2263 2271 2273 2263 2276 2273 2231 2253 2298 2264 2272 2268 2260 2274 2259 2273 2252 2273 2258 2254 2262 2236 2267 2280 2260 2292 2275 2261 2253 2273 2273 2240 2247 2260 2257 2259 2256 2268 2261 2275 2261 2262 2258 2275 2268 2268 2289 2273 2253 2264 2255 2269 2281 2269 2248 2253 2275 2269 2250 2263 2250 2289 2268 2256 2271 2272 2272 2270 2288 2259 2266 2274 2275 2253 2233 2260 2267 2269 2269 2262 2263 2252 2254 2278 2282 2263 2269 2263 2256 2275 2269 2263 2274 2253 2275 2272 2276 2256 2265 2266 2272 2270 2247 2274 2281 2271 2266 2240 2276 2246 2251 2249 2273 2279 2263 2277 2277 2278 2271 2260 2262 2251 2262 2245 2278 2243 2261 2272 2266 2261 2266 2260 2264 2284 2272 2261 2261 2266 2283 2278 2276 2271 2283 2285 2264 2269 2275 2290 2258 2278 2271 2262 2276 2265 2260 2272 2276 2278 2275 2256 2279 2239 2281 2270 2278 2271 2248 2247 2278 2267 2269 2240 2258 2258 2278 2266 2264 2273 2264 2251 2269 2274 2290 2273 2269 2270 2260 2272 2269 2287 2281 2275 2251 2256 2274 2270 2272 2256 2277 2277 2257 2271 2253 2283 2266 2264 2279 2266 2270 2276 2276 2270 2265 2268 2275 2243 2262 2268 2266 2269 2273 2270 2264 2275 2267 2254 2260 2282 2269 2260 2243 2280 2268 2253 2285 2269 2286 2269 2258 2274 2276 2294 2279 2279 2266 2268 2273 2220 2272 2282 2260 2247 2264 2273 2248 2260 2252 2264 2288 2275 2257 2274 2271 2285 2274 2255 2279 2264 2281 2275 2254 2269 2274 2284 2268 2228 2242 2277 2281 2264 2275 2272 2254 2284 2267 2262 2269 2284 2262 2291 2264 2277 2291 2273 2258 2274 2274 2249 2276 2242 2269 2275 2279 2266 2275 2263 2265 2261 2283 2275 2263 2279 2254 2259 2272 2268 2273 2273 2279 2281 2281 2277 2279 2268 2263 2269 2275 2275 2258 2278 2273 2265 2250 2266 2258 2261 2275 2257 2273 2268 2270 2254 2249 2253 2267 2268 2246 2267 2251 2258 2273 2263 2222 2262 2277 2269 2276 2271 2269 2281 2270 2268 2268 2279 2271 2252 2283 2279 2264 2275 2266 2279 2248 2243 2265 2258 2274 2279 2275 2265 2265 2274 2246 2243 2243 2259 2247 2266 2263 2276 2277 2282 2264 2271 2288 2274 2284 2267 2280 2261 2275 2278 2245 2269 2268 2268 2270 2288 2277 2265 2274 2258 2273 2278 2278 2270 2272 2272 2270 2277 2276 2280 2271 2272 2264 2274 2281 2249 2277 2273 2261 2266 2282 2275 2270 2247 2266 2261 2261 2276 2281 2276 2267 2288 2272 2269 2240 2281 2274 2275 2279 2251 2259 2268 2259 2277 2265 2264 2269 2280 2282 2272 2273 2279 2279 2276 2271 2259 2266 2269 2279 2247 2266 2261 2306 2283 2277 2259 2270 2285 2262 2280 2280 2282 2276 2275 2283 2245 2288 2272 2262 2268 2261 2269 2263 2264 2260 2260 2251 2280 2271 2264 2270 2272 2269 2262 2268 2267 2259 2278 2242 2271 2268 2269 2265 2258 2261 2270 2263 2279 2282 2289 2276 2281 2277 2282 2266 2272 2278 2209 2271 2257 2274 2267 2255 2266 2266 2281 2273 2273 2265 2281 2287 2268 2259 2267 2273 2276 2261 2283 2278 2270 2281 2254 2260 2255 2264 2275 2276 2285 2270 2280 2278 2280 2277 2274 2280 2264 2281 2277 2273 2284 2258 2272 2266 2262 2267 2265 2267 2265 2262 2273 2276 2261 2270 2279 2269 2287 2279 2273 2265 2259 2255 2270 2256 2250 2285 2259 2262 2247 2258 2265 2237 2263 2288 2292 2267 2273 2266 2275 2282 2274 2270 2274 2265 2274 2273 2271 2263 2258 2274 2276 2277 2253 2285 2279 2266 2270 2281 2267 2259 2260 2272 2257 2277 2258 2265 2282 2261 2247 2270 2282 2271 2252 2269 2275 2274 2259 2266 2270 2273 2265 2223 2259 2261 2278 2250 2262 2270 2271 2281 2264 2276 2271 2242 2247 2269 2269 2281 2280 2268 2249 2267 2255 2260 2280 2260 2271 2271 2289 2268 2264 2282 2273 2275 2266 2277 2221 2286 2273 2273 2271 2251 2281 2267 2260 2276 2281 2264 2255 2260 2280 2268 2289 2261 2282 2254 2273 2269 2258 2254 2236 2267 2268 2277 2251 2257 2262 2275 2252 2267 2272 2238 2259 2273 2247 2258 2264 2258 2259 2248 2272 2270 2277 2275 2260 2284 2265 2282 2271 2255 2271 2259 2240 2271 2260 2263 2247 2274 2281 2241 2278 2277 2300 2263 2282 2272 2246 2286 2265 2282 2278 2277 2237 2270 2271 2272 2273 2264 2239 2266 2257 2238 2291 2286 2270 2262 2252 2263 2271 2266 2271 2283 2237 2281 2236 2277 2268 2253 2253 2272 2256 2283 2261 2235 2249 2282 2262 2282 2271 2269 2264 2272 2271 2270 2272 2285 2261 2258 2260 2264 2272 2264 2271 2269 2282 2279 2281 2271 2284 2272 2226 2269 2255 2222 2238 2263 2250 2274 2259 2273 2267 2275 2257 2263 2260 2281 2289 2290 2269 2277 2280 2261 2274 2274 2258 2274 2285 2277 2268 2280 2251 2249 2297 2269 2259 2262 2276 2279 2251 2273 2267 2284 2276 2261 2285 2272 2270 2266 2276 2249 2283 2223 2267 2282 2267 2268 2271 2275 2258 2276 2248 2265 2248 2264 2286 2265 2273 2269 2266 2271 2266 2271 2263 2259 2251 2260 2262 2270 2271 2252 2266 2287 2246 2266 2279 2263 2258 2279 2269 2260 2268 2267 2278 2273 2288 2258 2238 2268 2277 2261 2274 2261 2268 2258 2275 2277 2277 2269 2283 2262 2274 2268 2252 2276 2275 2268 2250 2275 2263 2276 2277 2260 2279 2284 2276 2263 2265 2273 2276 2234 2274 2250 2264 2220 2277 2234 2284 2256 2262 2273 2289 2266 2269 2246 2270 2282 2265 2271 2265 2269 2253 2272 2253

Tree=0
num_leaves=20
num_cat=0
split_feature=3 4 11 16 11 19 3 7 3 11 16 7 13 14 16 11 7 3 19
split_gain=193.064 73.984 49.3429 32.1717 19.2768 20.3421 18.8112 17.0765 12.0847 11.7584 11.5388 9.66826 9.54172 11.188 10.8145 9.46069 9.89688 10.8284 9.16427
threshold=69.047000000000011 1.0000000180025095e-35 95.425396825396817 0.11166666666666651 100.855 1.0000000180025095e-35 87.878750000000011 0.25250000000000006 99.970000000000013 67.292857142857159 1.7483333333333351 0.17750000000000002 17.781250000000004 117.44166666666651 0.65708333333333357 85.252777777777808 0.23650000000000002 59.217777777777805 1.0000000180025095e-35
decision_type=2 2 2 2 2 2 2 2 2 2 2 2 2 2 2 2 2 2 2
left_child=1 4 3 8 5 7 9 11 -2 -5 -8 -1 -7 -14 -15 16 17 -13 -4
right_child=2 -3 18 6 -6 12 10 -9 -10 -11 -12 15 13 14 -16 -17 -18 -19 -20
leaf_value=0.26356038235577828 0.27386033005311355 0.26152084595289288 0.26864387507402737 0.26331482479139168 0.27405240390414776 0.27372353922648701 0.26281456369934497 0.27523451421099721 0.26721296745583029 0.26831473265893502 0.27124286493626965 0.27385612802589676 0.27292327173960779 0.27493892968264061 0.2675816431870523 0.26775171681086696 0.26886222101499835 0.26891846006573283 0.27276388235766991
leaf_weight=3.9283142089843741 6.8745498657226571 10.802864074707029 23.56988525390625 10.802864074707029 51.804643630981445 52.786722183227539 75.865568161010742 8.5931873321533185 10.311824798583984 22.096767425537109 2.4551963806152335 19.887090682983402 26.025081634521484 3.6827945709228542 15.713256835937498 24.30644416809082 24.797483444213867 10.066305160522459 12.521501541137694
leaf_count=16 28 44 96 44 211 215 309 35 42 90 10 81 106 15 64 99 101 41 51
internal_value=0.269359 0.271483 0.266038 0.264902 0.271933 0.27135 0.264133 0.270017 0.26986 0.266648 0.263086 0.269466 0.272587 0.271251 0.26902 0.269771 0.270676 0.272188 0.270068
internal_weight=0 252.394 164.498 128.407 241.591 189.787 111.22 91.5788 17.1864 32.8996 78.3208 82.9856 98.2079 45.4211 19.3961 79.0573 54.7509 29.9534 36.0914
internal_count=1698 1028 670 523 984 773 453 373 70 134 319 338 400 185 79 322 223 122 147
is_linear=0
shrinkage=1


Tree=1
num_leaves=20
num_cat=0
split_feature=1 15 18 1 15 11 1 6 6 13 6 9 9 1 9 15 6 18 8
split_gain=222.922 49.6111 35.312 22.6754 21.3335 19.7041 18.5924 17.8307 12.2513 9.92629 9.82425 7.44882 7.05935 7.02482 6.83562 6.42985 9.00853 6.13008 6.0786
threshold=0.62200000000000011 0.68100000000000016 0.028000000000000004 0.30111111111111105 0.84450000000000014 96.74375000000002 1.2405555555555552 1.5667500000000001 2.0680000000000001 25.943750000000005 1.2121250000000001 0.29775000000000001 0.13583333333333353 0.80125000000000013 0.11071428571428552 0.84125000000000016 0.84087301587301611 0.0065000000000000014 5.6892857142857158
decision_type=2 2 2 2 2 2 2 2 2 2 2 2 2 2 2 2 2 2 2
left_child=1 11 4 -3 -2 7 10 9 14 -4 -6 18 -8 -9 17 -16 -17 -5 -1
right_child=2 3 5 8 6 -7 12 13 -10 -11 -12 -13 -14 -15 15 16 -18 -19 -20
leaf_value=-0.0032157048722327554 0.0046183867356908194 -0.0069568569095624167 -0.0012012467698236076 -0.0038718989458803011 -0.0019843100154172629 0.0033982971453138076 0.004808714400408926 -0.0019274412600130447 -0.00020932836686353746 -0.0054120579636748488 0.0015685799476489496 0.0020568566329227777 0.0013530284886637363 0.0028749787834166005 -0.0051659331733728492 0.0039004382580530013 -0.0030226469724283322 -0.0073422938966755209 0.0013305760619541712
leaf_weight=11.53674127161503 82.955812826752663 50.118631035089493 25.043768107891083 19.158371403813362 18.417515680193901 20.36972913146019 30.435771271586418 6.1379511803388622 14.242059931159018 13.261839613318442 33.140318900346756 17.9174894541502 13.50164085626602 17.675066247582436 8.349916875362398 4.1736955195665351 8.5962543189525586 14.739568322896956 7.1196046471595755
leaf_count=47 338 204 102 78 75 83 124 25 58 54 135 73 55 72 34 17 35 60 29
internal_value=0 -0.00372366 0.00218639 -0.00494417 0.00316438 6.4665e-05 0.00189369 -0.00102591 -0.00347415 -0.00267956 0.000290458 0.000252095 0.00376117 0.00161788 -0.00431028 -0.0025103 -0.000716804 -0.00540957 -0.00146206
internal_weight=0 155.952 260.939 119.378 178.451 82.4884 95.4952 62.1186 69.2599 38.3056 51.5578 36.5738 43.9374 23.813 55.0178 21.1199 12.7699 33.8979 18.6563
internal_count=1698 635 1063 486 727 336 389 253 282 156 210 149 179 97 224 86 52 138 76
is_linear=0
shrinkage=0.0039119


Tree=2
num_leaves=20
num_cat=0
split_feature=2 1 5 4 14 18 11 19 17 14 1 17 16 11 17 11 5 16 1
split_gain=323.762 83.8838 32.166 23.5443 22.285 20.0091 16.4114 16.3401 15.5061 14.2025 12.5227 10.0356 9.73624 9.7802 9.61312 9.56211 8.86328 9.80073 8.03707
threshold=1.0000000180025095e-35 0.45083333333333359 351.50000000000006 1.0000000180025095e-35 106.17777777777802 0.028000000000000004 100.38333333333301 1.0000000180025095e-35 1.1393125000000002 119.68285714285702 0.76916666666666667 0.87980000000000014 0.71900000000000008 88.808333333333366 1.0973125000000004 62.625714285714302 297.00000000000006 1.3155000000000003 0.90916666666666657
decision_type=2 2 2 2 2 2 2 2 2 2 2 2 2 2 2 2 2 2 2
left_child=1 3 5 4 -1 18 7 9 12 10 -4 -12 -6 -14 -2 -13 17 -7 -3
right_child=14 2 6 -5 8 16 -8 -9 -10 -11 11 15 13 -15 -16 -17 -18 -19 -20
leaf_value=-0.0076922377053169743 -0.0074612208992864918 -0.00056785929442451167 -0.0021261320862514402 -0.0075129745181890138 0.0016875593310607527 -0.00391333525412572 0.0051779430900305828 0.0038464142353958251 0.0035717872365857127 0.0050829416707806824 0.0046752959046232386 0.0053356502313302049 -0.0013217242714024175 -0.0074836591639416928 -0.0044446029934394051 -0.00011862895978760362 -0.0079755887867118333 0.003513046473442106 0.003600785823065708
leaf_weight=6.8807801008224478 64.896121621131897 12.518989041447641 17.684413209557533 11.559441730380057 8.3504489660263079 9.3308726251125353 53.468540102243423 89.065135419368744 12.023598626255987 13.496526643633841 12.760317757725714 5.6432902663946143 12.284189388155939 5.8969460874795905 23.340840294957161 33.388781324028969 4.9128203690052024 3.6829540580511084 15.703833043575285
leaf_count=28 264 51 72 47 34 38 218 363 49 55 52 23 50 24 95 136 20 15 64
internal_value=0 0.00176185 0.00266772 -0.00254609 -0.00126014 -0.000299598 0.00327658 0.00268071 -8.51851e-05 0.00142158 0.000698423 0.00167264 -0.00176433 -0.00337171 -0.00667361 0.000671579 -0.00352793 -0.00177105 0.00174238
internal_weight=0 328.652 271.656 56.9954 45.436 46.1495 225.507 172.038 38.5552 82.9733 69.4768 51.7924 26.5316 18.1811 88.237 39.0321 17.9266 13.0138 28.2228
internal_count=1698 1339 1107 232 185 188 919 701 157 338 283 211 108 74 359 159 73 53 115
is_linear=0
shrinkage=0.0039119


Tree=3
num_leaves=20
num_cat=0
split_feature=0 10 19 15 17 9 14 19 8 18 17 14 15 14 13 13 9 8 8
split_gain=219.824 90.5141 61.6205 37.357 33.2779 18.5111 15.345 12.242 10.8006 11.0599 8.94341 8.84646 20.6009 8.64327 7.68452 9.78431 7.62963 7.47207 6.08127
threshold=1.0000000180025095e-35 1.0000000180025095e-35 1.0000000180025095e-35 0.67050000000000021 0.86083333333333367 0.37100000000000005 118.08500000000002 1.0000000180025095e-35 7.2150000000000007 0.028000000000000004 1.1351071428571451 119.21000000000002 1.0673333333333352 117.91000000000001 14.23333333333335 27.516666666666655 0.52950000000000019 7.9583333333333348 5.9183333333333357
decision_type=2 2 2 2 2 2 2 2 2 2 2 2 2 2 2 2 2 2 2
left_child=2 7 3 10 -5 -3 8 16 9 13 -1 17 18 -4 -8 -16 -2 -6 -13
right_child=1 5 6 4 11 -7 14 -9 -10 -11 -12 12 -14 -15 15 -17 -18 -19 -20
leaf_value=-0.002328208428138238 0.0027217655640815143 -0.0050374729378790777 0.0001043597790226975 -0.00016135715567076002 -0.0065307827614746817 0.0038978434199967121 0.003660710802669559 0.0057380154457185644 0.0042030957165674412 -0.0052156545037290144 0.0014671527754553306 -0.001725813701705711 -0.0068030300853037197 -0.0071358198282984939 -0.0022723557080261891 0.0027544419117168568 0.0059875985961190979 -0.00028922911292880704 0.0047018870298831221
leaf_weight=18.165697485208511 53.521756693720818 20.169455200433735 24.289334893226627 19.886257469654083 78.671496286988258 4.1730953454971305 20.855148315429688 76.514691770076752 4.6633935272693625 11.542259156703947 19.621103540062904 4.9138289391994494 11.311191618442534 2.7035399079322806 11.040243893861772 12.506420850753782 14.228154897689818 3.1951557993888846 3.9301771819591522
leaf_count=74 218 82 99 81 320 17 85 312 19 47 80 20 46 11 45 51 58 13 16
internal_value=0 0.00347753 -0.00231358 -0.0037593 -0.00481218 -0.00347999 0.000318796 0.00465582 -0.00133423 -0.00202361 -0.00034844 -0.00571385 -0.00332429 -0.000630022 0.0019352 0.000381359 0.0034212 -0.00629261 0.00110748
internal_weight=0 168.607 247.295 159.695 121.908 24.3426 87.6003 144.265 43.1985 38.5351 37.7868 102.022 20.1552 26.9929 44.4018 23.5467 67.7499 81.8667 8.84401
internal_count=1694 687 1007 650 496 99 357 588 176 157 154 415 82 110 181 96 276 333 36
is_linear=0
shrinkage=0.0039119


Tree=4
num_leaves=20
num_cat=0
split_feature=2 0 10 1 1 14 5 18 0 5 7 14 18 1 11 7 1 7 1
split_gain=315.205 131.379 65.8116 37.1027 35.7899 31.7542 27.3261 16.6927 15.3 11.4172 9.56028 9.43857 12.3911 7.9862 7.56449 8.1157 7.34046 7.14798 6.02343
threshold=1.0000000180025095e-35 1.0000000180025095e-35 1.0000000180025095e-35 0.32937500000000003 0.63100000000000012 108.86071428571451 314.50000000000006 0.011500000000000002 1.0000000180025095e-35 469.50000000000006 0.23850000000000002 119.99166666666652 0.028000000000000004 1.7115000000000002 82.09285714285717 0.23850000000000002 1.1925000000000001 0.19750000000000004 1.045625
decision_type=2 2 2 2 2 2 2 2 2 2 2 2 2 2 2 2 2 2 2
left_child=1 3 18 17 -4 7 10 14 -2 -10 16 12 13 -8 15 -5 -7 -1 -3
right_child=8 2 4 5 -6 6 11 -9 9 -11 -12 -13 -14 -15 -16 -17 -18 -19 -20
leaf_value=0.00035847516263616395 -0.0074014514045206304 0.0046968342807390843 -0.0075707079721638714 -0.0011867073021438915 0.0037065829986343882 -0.0049733908883001117 0.0015858771373807312 -0.0069086394132926885 0.0021097233475198623 -0.0049389832364502319 0.0032535000172710139 0.0042110525746873219 -0.00077107430998815392 0.0052036345102904509 -0.0049040381148956176 0.0054862906045643678 0.00042384019917075355 -0.006652472843996819 0.0064581318901679929
leaf_weight=2.455597490072253 66.942919254302979 66.938941821455956 9.6045426875352877 13.008269920945173 7.6079741120338431 15.722014963626867 41.459394261240959 11.797963783144949 4.1797709614038494 18.693074479699135 3.4340566098690024 22.31794573366642 27.987601354718208 12.260754302144049 5.8916938900947562 3.4368408471345893 4.9077776670455924 15.743948921561239 61.500882998108864
leaf_count=10 272 273 39 53 31 64 169 48 17 76 14 91 114 50 24 14 20 64 251
internal_value=0 0.00182192 0.00458441 -0.000407319 -0.0025709 0.000185876 0.0010819 -0.00315834 -0.00645053 -0.0036303 -0.00266043 0.00195308 0.00132715 0.00242697 -0.00113809 0.00020896 -0.00367468 -0.00568834 0.00554761
internal_weight=0 326.076 145.652 180.424 17.2125 162.224 128.09 34.1348 89.8158 22.8728 24.0638 104.026 81.7077 53.7201 22.3368 16.4451 20.6298 18.1995 128.44
internal_count=1694 1329 594 735 70 661 522 139 365 93 98 424 333 219 91 67 84 74 524
is_linear=0
shrinkage=0.0039119


Tree=5
num_leaves=20
num_cat=0
split_feature=3 4 5 11 3 16 17 17 17 19 19 17 5 5 11 5 16 19 3
split_gain=203.57 77.823 39.0492 34.3435 20.0762 19.5624 19.555 21.5571 13.7451 13.4621 12.2907 10.7626 10.036 11.5861 8.95017 8.38433 7.52261 7.28672 6.95875
threshold=82.854375000000019 1.0000000180025095e-35 314.50000000000006 97.800000000000026 25.261500000000002 0.11166666666666651 0.83712500000000012 1.1285357142857151 1.1076000000000004 1.0000000180025095e-35 1.0000000180025095e-35 1.0969444444444452 465.50000000000006 2808.5000000000005 76.346428571428561 1117.5000000000002 1.5776388888888901 1.0000000180025095e-35 57.855500000000006
decision_type=2 2 2 2 2 2 2 2 2 2 2 2 2 2 2 2 2 2 2
left_child=1 2 8 5 -4 -2 -6 10 -1 -5 18 -7 -12 14 -14 -13 -10 -9 -8
right_child=3 -3 4 9 6 11 7 17 16 -11 12 15 13 -15 -16 -17 -18 -19 -20
leaf_value=-0.0036049297895018213 -0.00041466737372783982 -0.0065596772692847385 0.0047329472463989841 -0.0021338546391990974 0.0049227831917188084 -0.0064861772189156184 0.00087452565631441039 0.002603120824441339 0.0057722492045924429 0.0033758831934850137 0.0051194760391180061 -0.0022148838285934135 0.0029069150624439523 0.0046010387431049274 -0.0013132675869148207 -0.0074662729800662698 -0.0014306873752755499 0.0064947664946652115 -0.0021490639721237991
leaf_weight=20.38731645047665 12.768476590514181 15.521049618721007 68.601153999567032 19.401939317584038 32.831828400492668 65.019452765583992 20.865276023745537 16.668613076210022 4.4146924465894681 10.295398443937303 11.762217327952383 20.421021655201915 11.032370194792746 10.780991286039351 24.770824670791626 6.1552116870880118 4.1704634875059128 14.202237650752069 25.804230764508247
leaf_count=83 52 63 280 79 134 264 85 68 18 42 48 83 45 44 101 25 17 58 105
internal_value=0 0.00192176 0.00241986 -0.00393229 0.00294385 -0.00498775 0.00221171 0.00155066 -0.00185416 -0.000205705 0.000699675 -0.00561982 0.00189716 0.00106594 0 -0.00346923 0.00225201 0.00442131 -0.000789916
internal_weight=0 281.813 266.292 134.062 237.32 104.364 168.719 135.887 28.9725 29.6973 105.016 91.5957 58.3464 46.5842 35.8032 26.5762 8.58516 30.8709 46.6695
internal_count=1694 1149 1086 545 968 424 688 554 118 121 428 372 238 190 146 108 35 126 190
is_linear=0
shrinkage=0.0039119


Tree=6
num_leaves=20
num_cat=0
split_feature=2 0 10 1 18 16 9 1 13 0 16 13 1 9 9 13 1 9 16
split_gain=328.137 154.245 63.7468 36.6395 36.0813 23.0807 26.3963 20.9666 14.7997 14.3573 12.2208 12.4357 12.2106 10.4078 10.6525 11.1628 9.3086 8.89735 8.24776
threshold=1.0000000180025095e-35 1.0000000180025095e-35 1.0000000180025095e-35 0.93925733622748553 0.011500000000000002 0.23166666666666655 0.95250000000000001 0.82083333333333364 4.7500000000000009 1.0000000180025095e-35 1.4460000000000002 6.1270833333333359 0.21050000000000002 -0.74708333333333343 1.1725000000000001 16.810000000000006 0.40083333333333354 0.41125000000000006 1.4061111111111153
decision_type=2 2 2 2 2 2 2 2 2 2 2 2 2 2 2 2 2 2 2
left_child=1 4 -3 -4 7 -6 8 10 -7 -2 11 -1 -11 -9 15 -15 -13 -17 -14
right_child=9 2 3 -5 5 6 -8 13 -10 12 -12 16 18 14 -16 17 -18 -19 -20
leaf_value=0.00013278802941680306 -0.0073934643747391917 0.0056208192332587231 -0.0055850278535790158 0.0060431599317842533 0.0027161847954920225 -0.0006048708433382898 0.0018776309766717833 0.0054420839887481696 -0.0060129682007001263 -0.0081057146966155656 0.0023074806347296302 -0.0081323385508613975 -0.003148133898795201 0.0027890649859588601 0.005361844126086839 0.00035753556667722763 -0.0024770662903862281 -0.0046795693168599339 0.0040025861508948529
leaf_weight=17.423943996429443 71.971473976969719 132.2101561576128 13.304658755660059 5.8860258460044852 9.5642251372337324 9.825675427913664 10.298127442598341 11.758622244000433 40.087822839617729 6.6553628444671658 11.278738424181936 6.6508846580982235 12.309207916259764 20.340442106127739 8.5687589198350889 18.645537570118908 14.498990207910536 7.3628133088350287 2.949228271842002
leaf_count=71 292 540 54 24 39 40 42 48 163 27 46 27 50 83 35 76 59 30 12
internal_value=0 0.00172176 0.00465344 -0.0019854 -0.000659791 -0.0028835 -0.00378249 0.000669713 -0.00495952 -0.00654216 -0.00124295 -0.00229448 -0.00370759 0.00210536 0.00137521 0.000619804 -0.00430376 -0.00106592 -0.00172347
internal_weight=0 337.705 151.401 19.1907 186.305 69.7759 60.2116 116.529 49.9135 93.8853 49.8526 38.5738 21.9138 66.6762 54.9176 46.3488 21.1499 26.0084 15.2584
internal_count=1758 1377 618 78 759 284 245 475 203 381 203 157 89 272 224 189 86 106 62
is_linear=0
shrinkage=0.0039119


Tree=7
num_leaves=20
num_cat=0
split_feature=0 1 1 6 8 10 1 9 13 1 6 1 19 9 10 14 9 14 1
split_gain=253.061 100.646 88.9066 36.8228 35.4631 33.5511 23.5532 21.7314 22.411 16.8884 14.8984 12.4999 12.2129 9.52823 9.40606 8.46431 6.66266 5.99058 5.08754
threshold=1.0000000180025095e-35 0.40083333333333354 0.80125000000000013 1.9870833333333351 6.9516666666666653 1.0000000180025095e-35 0.29250000000000004 1.2416666666666651 19.580555555555552 1.8458035714285701 2.0680000000000001 1.0608333333333353 1.0000000180025095e-35 1.3095833333333353 1.0000000180025095e-35 119.88125000000001 0.52950000000000019 111.57000000000001 0.16111111111111101
decision_type=2 2 2 2 2 2 2 2 2 2 2 2 2 2 2 2 2 2 2
left_child=2 5 4 7 6 18 -1 8 17 -10 13 12 14 15 16 -8 -3 -4 -2
right_child=1 11 3 -5 -6 -7 10 -9 9 -11 -12 -13 -14 -15 -16 -17 -18 -19 -20
leaf_value=-0.0083462700421762636 -0.0024731100839276948 0.0019552106779627773 -0.0017315992287893136 0.0035857114479471803 -0.00067348801319133602 -0.0064326186700489748 -0.0062356111556531738 0.0040300340808195126 -0.0051737846376793328 0.0010558813475133914 -0.0011364145791219128 0.0062722466922090049 0.0054586048408779503 0.0013905161208587517 -0.0031653015898395671 -0.0015079410610023194 0.0061870115494429929 0.0015484769993715632 0.002679624151247987
leaf_weight=34.290934696793556 3.6839391291141501 24.766675353050232 13.9907369017601 31.356421664357185 27.762717127799988 16.780765980482101 50.511386871337891 10.036497563123701 34.173746362328529 8.1047140657901746 16.948067799210548 66.037279590964317 37.917872548103333 2.9439589232206336 4.1828702092170706 6.8846535533666602 7.5873533040285102 21.346253588795662 12.263495966792105
leaf_count=139 15 101 57 128 113 68 205 41 139 33 69 270 155 12 17 28 31 87 50
internal_value=0 0.00358039 -0.00252918 -4.22691e-05 -0.00464883 -0.00258364 -0.00563297 -0.0013472 -0.00205186 -0.00397066 -0.00441486 0.00501992 0.00389701 -0.00532582 0.00225523 -0.00567894 0.00297567 0.000237558 0.00145695
internal_weight=0 173.22 258.35 119.008 139.342 32.7282 111.579 87.6519 77.6155 42.2785 77.2881 140.492 74.4548 60.34 36.5369 57.396 32.354 35.337 15.9474
internal_count=1758 707 1051 485 566 133 453 357 316 172 314 574 304 245 149 233 132 144 65
is_linear=0
shrinkage=0.0039119


Tree=8
num_leaves=20
num_cat=0
split_feature=0 4 3 3 14 5 14 14 19 16 19 5 3 8 5 16 14 8 13
split_gain=251.139 112.991 105.736 44.9576 38.3347 25.2995 23.0466 16.528 15.3307 14.8966 11.1122 10.9655 10.7685 10.3146 9.92642 10.1254 7.98445 7.79629 7.60833
threshold=1.0000000180025095e-35 1.0000000180025095e-35 70.197500000000005 82.854375000000019 118.08500000000002 314.50000000000006 108.97750000000001 109.85000000000001 1.0000000180025095e-35 0.69100000000000006 1.0000000180025095e-35 1813.0000000000002 1.1300000000000001 7.1053571428571409 1395.0000000000002 1.7840000000000003 114.65317460317452 6.8193333333333355 18.412500000000005
decision_type=2 2 2 2 2 2 2 2 2 2 2 2 2 2 2 2 2 2 2
left_child=2 3 5 -2 -4 17 8 -5 -7 -8 14 -9 -11 16 15 -6 -14 -1 -18
right_child=1 -3 4 7 10 6 9 11 -10 12 -12 -13 13 -15 -16 -17 18 -19 -20
leaf_value=-0.0054314574191475376 0.0056838739917384837 -0.0053401680803490869 -0.0071658816348656989 -0.0046657382247313021 -0.0052890898612741885 -0.0052322559426209699 0.0044692312881227016 0.0033518526258196541 0.00047700405016498225 0.0042116752709108543 4.3312465519913783e-05 -0.0041863712816603603 0.0029675750268323572 0.0034521644879794743 0.0010397488987823776 0.0014472448859313193 0.00051958758109154127 0.0018856858876028363 -0.0029022777023409154
leaf_weight=15.737432911992075 125.89144837856293 19.23856058716774 66.368222340941429 7.6412400752306011 31.784827411174774 15.010691821575165 20.083093240857124 16.910821393132213 13.494844809174538 10.766932502388952 15.4643118083477 3.4429162144660941 7.1219116300344458 10.538553506135939 5.4053732305765143 3.6830971688032141 16.677430033683777 2.4552157521247855 23.831620723009109
leaf_count=64 515 78 269 31 129 61 82 69 55 44 63 14 29 43 22 15 68 10 97
internal_value=0 0.00356838 -0.00251859 0.0046874 -0.00514869 -0.000135731 0.000526971 0.000188106 -0.00252353 0.00150992 -0.00275693 0.00204337 0.000636897 -2.41583e-05 -0.00382347 -0.00457647 -0.000807126 -0.00441767 -0.00148606
internal_weight=0 173.125 258.424 153.886 122.706 135.718 117.525 27.995 28.5055 89.0195 56.3376 20.3537 68.9364 58.1695 40.8733 35.4679 47.631 18.1926 40.5091
internal_count=1758 707 1051 629 498 553 479 114 116 363 229 83 281 237 166 144 194 74 165
is_linear=0
shrinkage=0.0039119


Tree=9
num_leaves=20
num_cat=0
split_feature=1 3 3 5 14 3 14 13 5 8 8 1 5 9 1 1 8 8 5
split_gain=225.98 84.7257 30.5142 27.2325 23.9282 14.6625 14.6565 13.6665 13.6395 12.4949 12.5171 10.5753 12.908 10.4492 9.63529 9.32408 9.07254 8.34691 8.31374
threshold=0.44888888888888906 85.382916666666674 59.914835768102023 360.50000000000006 118.08500000000002 33.629285714285707 119.71111111111101 8.6000000000000032 2260.5000000000005 4.401250000000001 6.2980000000000009 0.17100000000000001 2004.5000000000002 1.0425000000000002 0.80944444444444463 1.7115000000000002 4.3283333333333358 6.2658333333333358 528.50000000000011
decision_type=2 2 2 2 2 2 2 2 2 2 2 2 2 2 2 2 2 2 2
left_child=2 3 -1 7 16 -5 8 -2 15 -9 -11 -4 13 -13 -6 18 -3 -18 -7
right_child=1 4 11 5 14 6 -8 9 -10 10 -12 12 -14 -15 -16 -17 17 -19 -20
leaf_value=0.0007150560394024655 0.0034655252764476487 0.0023264530990667011 -0.0077657486572419712 0.0046309853996004862 -0.0017096481573602002 0.0026411477740463716 0.0052714565969727237 0.0036643239295067885 0.004874940039328199 -0.0048204751150261677 0.0016727059386893669 -0.0059174990370508655 3.2825188992807639e-06 0.00010119362514847183 0.0024050302228435421 0.0041551491820581198 -0.0060916922993418934 -0.0013797557411267438 -0.00024630987372369935
leaf_weight=12.756211325526236 10.543644070625303 2.7004456073045722 27.654289856553078 79.214884176850319 18.932718902826309 21.547982782125473 23.467301994562149 5.143985033035281 18.581744819879532 16.227771744132045 6.1288735568523398 54.030709236860275 7.3781092166900626 4.6636583954095832 15.93033644556999 13.457880064845083 24.675017803907394 7.8845219612121573 51.00697834789753
leaf_count=52 43 11 112 324 77 88 96 21 76 66 25 219 30 19 65 55 100 32 208
internal_value=0 0.00165905 -0.00492921 0.00274346 -0.00212764 0.00330176 0.00247352 -0.000288733 0.00183759 -0.00174962 -0.00302349 -0.0057015 -0.00482118 -0.00543326 0.000160827 0.00117198 -0.00439546 -0.00497036 0.000608302
internal_weight=0 315.444 106.483 245.321 70.123 207.277 128.062 38.0443 104.595 27.5006 22.3566 93.7268 66.0725 58.6944 34.8631 86.0128 35.26 32.5595 72.555
internal_count=1719 1287 432 1002 285 847 523 155 427 112 91 380 268 238 142 351 143 132 296
is_linear=0
shrinkage=0.0039119


Tree=10
num_leaves=20
num_cat=0
split_feature=1 0 15 13 0 10 1 4 19 8 13 19 8 15 1 8 15 1 15
split_gain=224.143 167.457 39.3292 31.9642 24.7583 42.8544 22.8413 15.64 14.8228 12.4884 9.16018 8.83615 8.82689 8.13445 7.56671 7.35745 6.26491 5.16796 4.96322
threshold=0.44888888888888906 1.0000000180025095e-35 0.68100000000000016 6.0214285714285714 1.0000000180025095e-35 1.0000000180025095e-35 1.7115000000000002 1.0000000180025095e-35 1.0000000180025095e-35 7.9583333333333348 49.266666666666659 1.0000000180025095e-35 6.1955714285714309 0.73100000000000009 1.0608333333333353 3.5275000000000003 2.0175000000000005 0.17100000000000001 0.65900000000000014
decision_type=2 2 2 2 2 2 2 2 2 2 2 2 2 2 2 2 2 2 2
left_child=4 2 15 13 9 17 8 14 10 -1 12 -11 -5 -4 16 -2 -3 -6 -17
right_child=1 7 3 6 5 -7 -8 -9 -10 11 -12 -13 -14 -15 -16 18 -18 -19 -20
leaf_value=-0.0067309087528746002 0.0050136961711986297 0.004592226095858588 -0.0046626357161696271 -0.0061780128229392732 -0.0026712029371539934 -0.006681742989869806 0.0014350050880147214 -0.00305094443033371 -0.0015556429077334605 -0.0053783244130502375 0.0010839074997446272 0.0049023381426240575 -0.0019264716474858066 0.0020000755800256734 0.0062130599887120289 0.00023015995831297589 -0.00015460039330327348 0.0026719183882587963 0.00314066952387474
leaf_weight=64.940500244498253 11.256261467933653 58.655111014842987 2.9537643939256659 41.435419797897339 3.1938969343900707 17.551227912306786 15.201807275414465 3.44618235528469 30.931887254118919 2.4610093832015982 3.4388093203306189 2.4503846615552902 9.603870287537573 31.391048014163971 64.652277797460556 23.042302787303925 4.4087932407855979 15.943985402584074 14.941907525062559
leaf_count=263 46 240 12 168 13 71 62 14 126 10 14 10 39 128 265 94 18 65 61
internal_value=0 0.00165305 -0.000750727 -0.00184393 -0.00490726 -0.00227979 -0.00295677 0.00502977 -0.00374378 -0.0062765 -0.00497388 -0.00017558 -0.005391 0.00140383 0.00525309 0.00223523 0.00425446 0.00175063 0.00139058
internal_weight=0 315.359 184.197 134.957 106.541 36.6891 100.612 131.162 85.41 69.8519 54.4781 4.91139 51.0393 34.3448 127.716 49.2405 63.0639 19.1379 37.9842
internal_count=1719 1287 750 549 432 149 409 537 347 283 221 20 207 140 523 201 258 78 155
is_linear=0
shrinkage=0.0039119


Tree=11
num_leaves=20
num_cat=0
split_feature=2 1 15 10 7 7 1 17 1 14 8 14 7 14 17 15 17 17 6
split_gain=314.643 83.7145 31.1917 21.2734 14.2203 22.2381 15.9943 14.0211 12.4348 12.014 9.77313 9.49668 11.3566 8.99602 8.19414 8.01414 6.41613 6.20819 18.9366
threshold=1.0000000180025095e-35 0.44888888888888906 0.68100000000000016 1.0000000180025095e-35 0.26800000000000007 0.23650000000000002 1.0110000000000003 0.85039285714285706 0.12562500000000001 110.98500000000001 7.050833333333336 119.68285714285702 0.23782979334098739 119.99166666666652 1.1012777777777754 1.1135416666666653 1.1484000000000003 1.0151250000000001 2.0680000000000001
decision_type=2 2 2 2 2 2 2 2 2 2 2 2 2 2 2 2 2 2 2
left_child=1 3 -3 8 5 6 10 -7 -1 -10 13 12 -9 16 -2 -14 -4 18 -11
right_child=14 2 4 -5 -6 7 -8 11 9 17 -12 -13 15 -15 -16 -17 -18 -19 -20
leaf_value=-0.0075954255224179737 -0.006996734219458128 0.0045674689152126807 -0.0011971123225141776 -0.0066260647515730591 0.0057779307950725665 0.0031781203582853263 0.0039336944571518959 -0.0026774165572933384 -0.0066202490845349267 -0.0071026678138598589 0.0065698578238893397 0.0035378472705348244 0.0034756318596281741 0.0050402926493241205 -0.0041255357758326529 -0.0024222285815785672 0.0043677773174646871 0.002066931607019964 0.0029472901683837462
leaf_weight=3.9429026991128913 71.924579784274101 88.170661121606827 29.441870495676994 15.329474553465841 12.457887619733809 15.172736987471579 60.123955652117729 38.592728093266487 3.943733498454093 5.1816318333148974 3.9163328707218161 6.1234317123889914 9.5428446233272535 4.8917842805385581 20.97323939204216 5.3964545577764502 3.434262126684188 17.171383395791054 6.1330629289150238
leaf_count=16 291 361 120 62 51 62 246 157 16 21 16 25 39 20 85 22 14 70 25
internal_value=0 0.00179121 0.00264406 -0.00277112 0.00174321 0.00145333 0.00264261 -0.00016091 -0.001122 -0.000301987 0.000766076 -0.0010206 -0.00155495 0.000138164 -0.00635785 0.00131722 -0.000592455 0.000579154 -0.00164278
internal_weight=0 328.967 277.265 51.7022 189.094 176.636 101.808 74.8282 36.3727 32.4298 41.6842 59.6555 53.532 37.7679 92.8978 14.9393 32.8761 28.4861 11.3147
internal_count=1719 1343 1133 210 772 721 416 305 148 132 170 243 218 154 376 61 134 116 46
is_linear=0
shrinkage=0.0039119


Tree=12
num_leaves=20
num_cat=0
split_feature=1 19 1 17 9 7 1 11 9 9 19 13 11 1 13 13 5 5 7
split_gain=198.361 60.9734 38.6357 33.9056 19.8854 17.644 13.4073 13.2584 20.476 12.1523 11.2936 10.5782 10.2354 13.4977 13.5158 9.85076 8.13342 7.82557 9.45845
threshold=0.47916666666666657 1.0000000180025095e-35 0.93925733622748553 1.1012777777777754 1.3095833333333353 0.23850000000000002 0.22562500000000005 98.110000000000014 -0.27803571428571444 0.14585714285714302 1.0000000180025095e-35 5.5619047619047661 100.855 1.8458035714285701 17.781250000000004 20.876190476190505 386.50000000000006 416.50000000000006 0.25050000000000006
decision_type=2 2 2 2 2 2 2 2 2 2 2 2 2 2 2 2 2 2 2
left_child=3 2 4 10 5 11 -5 8 -4 -10 -1 -2 13 14 -3 -7 -16 -18 -19
right_child=1 12 7 6 -6 15 -8 -9 9 -11 -12 -13 -14 -15 16 -17 17 18 -20
leaf_value=-0.0066275188194447106 -0.00065100986048832645 0.0037084436454158129 0.0038130654087733637 -0.0050286821482637897 0.0038016060738543483 0.0035198582100347152 0.00046945866339551085 0.0042805196098041785 -0.0033049383342862973 0.00088834594763406043 -0.0030525512569033746 -0.0045559079338758565 0.0054984699198761307 0.0059109419768576185 -0.0037905389318173706 -0.0037325530455569007 0.0064782081012348695 -0.00024045442751298489 0.0057407667857777402
leaf_weight=61.811759933829308 14.47203156352043 46.924181014299393 23.712777704000473 9.3617711067199689 8.0647412240505201 9.5590445101261121 23.607577979564667 23.686110243201256 16.721343800425529 28.188991710543633 18.231200218200684 42.89335110783577 31.69587516784668 19.273037627339363 5.4053887724876395 3.9413052797317496 3.8974642008543006 26.947061151266102 4.6396662890911093
leaf_count=250 59 192 97 38 33 39 96 97 68 115 74 174 130 79 22 16 16 110 19
internal_value=0 0.00160382 3.93745e-05 -0.00444797 -0.00196642 -0.00263278 -0.00109042 0.00175897 0.000877966 -0.000668111 -0.00582296 -0.00358044 0.00352992 0.00293902 0.00227632 0.00136194 0.000618268 0.00130963 0.000641106
internal_weight=0 310.022 171.24 113.012 78.9305 70.8657 32.9693 92.3092 68.6231 44.9103 80.043 57.3654 138.783 107.087 87.8138 13.5003 40.8896 35.4842 31.5867
internal_count=1724 1266 698 458 321 288 134 377 280 183 324 233 568 438 359 55 167 145 129
is_linear=0
shrinkage=0.0039119


Tree=13
num_leaves=20
num_cat=0
split_feature=0 1 1 3 16 3 3 10 3 11 9 5 8 1 5 3 1 8 9
split_gain=221.025 93.8735 87.4093 42.9432 37.7459 28.7435 23.5679 22.94 22.4397 15.85 14.8813 14.3971 10.1273 13.2986 8.47311 8.32453 12.146 7.11702 6.72109
threshold=1.0000000180025095e-35 0.47916666666666657 0.39100000000000007 33.629285714285707 0.23166666666666655 88.882500000000007 58.598333333333308 1.0000000180025095e-35 88.882500000000007 91.881250000000009 1.3095833333333353 727.50000000000011 6.6041666666666661 1.6591666666666651 323.50000000000006 99.970000000000013 0.72888888888888903 6.4614285714285709 0.38944444444444454
decision_type=2 2 2 2 2 2 2 2 2 2 2 2 2 2 2 2 2 2 2
left_child=1 6 7 14 15 -4 17 18 11 -7 -10 12 13 -6 -3 -5 -17 -1 -2
right_child=2 3 5 4 8 9 -8 -9 10 -11 -12 -13 -14 -15 -16 16 -18 -19 -20
leaf_value=-0.0034542629097346982 -0.00116028802160889 -0.0026520093542035531 0.0055287279991764818 0.0041680781025483418 -0.0048881920967603076 -0.002761135986318889 -0.00670781581617868 -0.0061427850656989224 -0.0064458981311975331 0.0048824115865721274 0.00337595104404422 0.00027270633918631115 0.00083986718700661571 0.0019329757004812559 0.0029441255928846976 -0.0057298966963175236 0.002646013536426706 0.0038990118969730288 0.004375485660017258
leaf_weight=3.6899064481258383 9.1013806164264661 4.4235653877258292 118.46148429811001 15.149940401315689 32.965166449546814 10.818602308630945 67.042419984936714 14.36319525539875 29.419109120965008 6.5940785259008399 2.450867384672164 31.402556538581848 7.8487380445003501 4.8970001339912406 43.535833820700645 3.9354560524225235 7.5934108942747116 4.1729614585638046 5.1363563090562829
leaf_count=15 37 18 486 62 134 44 271 58 119 27 10 128 32 20 178 16 31 17 21
internal_value=0 -0.00226865 0.00353048 -0.000759485 -0.0018857 0.00483937 -0.00595705 -0.00266921 -0.00290782 0.000122443 -0.00567014 -0.00175526 -0.00315452 -0.00399289 0.00241538 0.00227034 -0.000204206 0.000399078 0.000826083
internal_weight=0 258.527 164.475 183.622 135.662 135.874 74.9053 28.6009 108.983 17.4127 31.87 77.1135 45.7109 37.8622 47.9594 26.6788 11.5289 7.86287 14.2377
internal_count=1724 1051 673 748 552 557 303 116 443 71 129 314 186 154 196 109 47 32 58
is_linear=0
shrinkage=0.0039119


Tree=14
num_leaves=20
num_cat=0
split_feature=2 0 18 6 9 15 6 0 8 15 6 11 8 11 7 9 9 15 11
split_gain=317.452 125.82 43.2615 21.6939 20.0869 19.7829 21.4367 13.8339 13.681 12.6012 13.294 11.9984 10.7972 9.35251 9.33218 7.64713 10.0289 6.79538 6.60058
threshold=1.0000000180025095e-35 1.0000000180025095e-35 0.028000000000000004 1.8975000000000002 1.0207142857142852 0.81875000000000009 1.8270833333333352 1.0000000180025095e-35 4.9483333333333359 0.71071428571428552 0.61375000000000013 73.475000000000009 5.1283333333333356 46.300000000000004 0.21050000000000002 1.3095833333333353 0.41645833333333354 1.0169047619047651 77.320000000000007
decision_type=2 2 2 2 2 2 2 2 2 2 2 2 2 2 2 2 2 2 2
left_child=1 2 5 4 -4 15 12 -2 -9 -3 11 -11 -7 -12 -8 16 -1 18 -14
right_child=7 9 3 -5 -6 6 14 8 -10 10 13 -13 17 -15 -16 -17 -18 -19 -20
leaf_value=0.0025949171249590318 -0.0072733681435349891 0.006044620482609688 -0.0052657155410457904 0.0010627357217521227 0.0025319738352788772 -0.0052545456807394633 0.0055106757096476666 0.0040662214750684517 -0.0048765754181021208 -0.0060241887271377638 -0.0022824701883634589 0.0021138487877408992 0.00041204076409019207 0.0046989340019021539 0.0003032807790380808 0.0048480913975400752 -0.0021798925862253713 0.00033309612713902621 -0.0061360414384078309
leaf_weight=35.998304232954979 71.321833446621895 53.046008422970772 41.399207651615143 14.941761150956152 5.6244473010301581 12.067420691251753 9.545316159725191 2.9554702043533352 17.292606875300407 3.2110246717929867 2.9344244450330725 16.640903979539871 3.6821138858795184 68.295819297432899 12.003416672348974 16.6003388017416 8.1055375486612302 21.386403381824493 5.9031444191932678
leaf_count=147 288 218 168 61 23 49 39 12 70 13 12 68 15 280 49 68 33 87 24
internal_value=0 0.00176837 -0.000344631 -0.00301716 -0.00432135 0.000975346 -0.000526496 -0.00645653 -0.00353846 0.00451472 0.00361377 0.000754329 -0.00212483 0.00440304 0.00264284 0.00257794 0.00170559 -0.000879829 -0.00360197
internal_weight=0 331.386 187.257 61.9654 47.0237 125.292 64.5878 91.5699 20.2481 144.128 91.0822 19.8519 43.0391 71.2302 21.5487 60.7042 44.1038 30.9717 9.58526
internal_count=1724 1354 763 252 191 511 263 370 82 591 373 81 175 292 88 248 180 126 39
is_linear=0
shrinkage=0.0039119


Tree=15
num_leaves=20
num_cat=0
split_feature=2 0 15 8 18 19 15 5 0 16 5 5 5 16 5 5 13 19 5
split_gain=300.058 152.938 45.4536 33.3756 30.0888 14.3982 15.5126 16.0786 12.9942 13.512 12.2265 10.9771 10.5649 10.412 8.25751 8.2371 9.38896 8.20081 7.3192
threshold=1.0000000180025095e-35 1.0000000180025095e-35 0.68100000000000016 6.8930000000000007 0.011500000000000002 1.0000000180025095e-35 0.69900000000000007 1936.5000000000002 1.0000000180025095e-35 1.3845833333333353 2764.5000000000005 351.50000000000006 300.50000000000006 0.83928571428571452 1752.0000000000002 742.50000000000011 32.925000000000004 1.0000000180025095e-35 410.50000000000006
decision_type=2 2 2 2 2 2 2 2 2 2 2 2 2 2 2 2 2 2 2
left_child=1 2 15 4 13 6 -3 11 -2 -10 -9 12 -8 17 18 16 -1 -4 -15
right_child=8 5 3 -5 -6 -7 7 10 9 -11 -12 -13 -14 14 -16 -17 -18 -19 -20
leaf_value=-5.9425426298372255e-05 -0.0071633208901141264 0.0062960859139029922 -0.0013104035132386687 0.002577251869964678 -0.0052208737198007607 0.0059351739609437917 0.0031680223036032011 -0.0052248423774820616 -0.0050647066721451525 0.0028095509180178324 0.0030772072852919318 0.0043485519381683954 -0.0069718281709653792 -0.00037136175777832594 0.0027355369343989495 0.0042434611684216157 0.0043690422259125422 0.0025698284175302631 -0.0044442354707910307
leaf_weight=25.963036268949509 67.654388919472694 20.678035378456116 17.460309222340584 22.054215893149376 43.399768471717834 76.123526707291603 3.4212518483400336 6.6488641649484617 18.289934307336811 3.936947524547576 4.3957756757736206 32.233623802661896 2.7141639292240143 10.086325898766519 3.925349846482276 21.741433963179588 10.014124900102614 15.675159677863119 21.892688423395157
leaf_count=106 273 85 71 90 176 313 14 27 74 16 18 132 11 41 16 89 41 64 89
internal_value=0 0.00173411 -0.000557836 -0.00180538 -0.00267001 0.00474807 0.00344662 0.002236 -0.00630291 -0.00364612 -0.00188756 0.00343497 -0.00129474 -0.00105559 -0.00251392 0.00234048 0.00117107 0.000515629 -0.00317699
internal_weight=0 338.428 192.212 134.494 112.44 146.215 70.0917 49.4137 89.8813 22.2269 11.0446 38.369 6.13542 69.0398 35.9044 57.7186 35.9772 33.1355 31.979
internal_count=1746 1383 783 547 457 600 287 202 363 90 45 157 25 281 146 236 147 135 130
is_linear=0
shrinkage=0.0039119


Tree=16
num_leaves=20
num_cat=0
split_feature=2 4 5 14 19 6 6 11 7 11 14 14 18 7 5 7 7 7 5
split_gain=297.606 77.3248 39.8256 25.4816 19.4298 17.1199 18.2674 11.4758 11.5734 11.845 16.3622 13 10.7327 12.0585 9.90837 9.12098 7.25806 7.38606 6.93228
threshold=1.0000000180025095e-35 1.0000000180025095e-35 351.50000000000006 108.97750000000001 1.0000000180025095e-35 0.8155 2.3058333333333354 100.38333333333301 0.25050000000000006 85.252777777777808 119.71111111111101 116.64666666666652 0.011500000000000002 0.21550000000000002 742.50000000000011 0.21750000000000003 0.18050000000000002 0.23850000000000002 488.50000000000006
decision_type=2 2 2 2 2 2 2 2 2 2 2 2 2 2 2 2 2 2 2
left_child=1 2 5 4 14 -1 12 8 9 15 11 -11 13 -7 18 -5 -16 -18 -4
right_child=-2 -3 3 7 -6 6 -8 -9 -10 10 -12 -13 -14 -15 16 -17 17 -19 -20
leaf_value=0.0028963869008306244 -0.006274634394747766 -0.0063569446657033681 -0.00058915083592296852 0.0048714877849324106 0.0025794238671461851 -0.0048809676049764604 0.0024818113500079835 0.0048012365904319936 0.0057877932322517147 0.0037896405764835778 0.005717418161468913 -0.001476209573161592 -0.0059336756735403912 0.0016801605659944468 0.0062946299662760344 0.0021320196931634188 -0.0027125103863577657 0.0048223119817592999 -0.0067047775406223033
leaf_weight=13.962926298379896 89.933674141764641 17.06686170399189 4.6574933379888552 33.409436523914337 30.763858437538147 7.86794385313988 10.032869532704352 65.00654436647892 17.526963740587234 9.2885812222957593 8.5252346247434598 30.208577871322632 15.035785943269731 9.0828094780445081 2.4316992759704581 44.268274828791618 8.8463065177202207 2.4403015524148932 7.8956267535686493
leaf_count=57 363 69 19 137 126 32 41 267 72 38 35 123 61 37 10 181 36 10 32
internal_value=0 0.00172792 0.0021605 0.00279341 0.00046779 -0.000831128 -0.00208299 0.00342798 0.00279906 0.00237495 0.000834364 -0.000221513 -0.00353025 -0.00135311 -0.00199051 0.00332005 0.00028363 -0.00102099 -0.00448925
internal_weight=0 338.318 321.251 265.269 57.0353 55.9823 42.0194 208.234 143.227 125.7 48.0224 39.4972 31.9865 16.9508 26.2714 77.6777 13.7183 11.2866 12.5531
internal_count=1746 1383 1314 1086 233 228 171 853 586 514 196 161 130 69 107 318 56 46 51
is_linear=0
shrinkage=0.0039119


Tree=17
num_leaves=20
num_cat=0
split_feature=2 4 5 14 19 6 6 17 17 13 5 14 8 6 14 5 6 8 14
split_gain=295.175 76.7114 39.5415 25.309 19.2822 16.9877 18.12 11.0227 16.2066 11.6843 9.82689 9.62314 9.31147 7.63134 6.92049 6.86892 6.27187 6.76462 6.27151
threshold=1.0000000180025095e-35 1.0000000180025095e-35 351.50000000000006 108.97750000000001 1.0000000180025095e-35 0.8155 2.3058333333333354 1.1285357142857151 0.86083333333333367 19.329166666666655 742.50000000000011 115.87500000000001 6.3645555555555555 0.82535714285714301 91.51944444444446 488.50000000000006 1.2515476190476202 6.7128750000000013 117.81000000000002
decision_type=2 2 2 2 2 2 2 2 2 2 2 2 2 2 2 2 2 2 2
left_child=1 2 5 4 10 -1 16 8 -5 -10 15 -11 13 -13 -3 -4 -7 -18 -15
right_child=-2 14 3 7 -6 6 -8 -9 9 11 -12 12 -14 18 -16 -17 17 -19 -20
leaf_value=0.0028863051206918463 -0.006246500479458063 -0.00071512165911004886 -0.00058684760149749562 0.004498107749030064 0.0025703729629840649 -0.0057873882023987905 0.0024730843254362231 0.0048363512884394668 0.0031628716194573303 0.0035284095953434587 0.00028279011559750774 -0.0047863071565765036 0.0042473722300836328 -0.0038704610706476886 -0.0074653122046545641 -0.0066739600144886226 -0.0031315695565711493 0.0029618996145502697 0.0009888084840598407
leaf_weight=13.957246318459509 89.985682085156441 2.9621716886758831 4.6578730344772357 55.80373552441597 30.751792624592781 11.837418809533121 10.029247254133223 60.346594199538231 47.396008044481277 10.98802128434181 13.716985806822775 7.8849990069866207 4.8879716992378226 5.3903472274541882 14.115510657429693 7.9015061408281326 16.977000147104267 3.1852161288261405 15.422226861119269
leaf_count=57 363 12 19 229 126 48 41 248 194 45 56 32 20 22 57 32 69 13 63
internal_value=0 0.00172175 0.00215289 0.00278382 0.00046602 -0.000827788 -0.0020744 0.00341652 0.00283118 0.00181171 -0.00198233 0.000362374 -0.00066923 -0.00153208 -0.00632823 -0.00446981 -0.00351511 -0.00213975 -0.000263501
internal_weight=0 338.212 321.134 265.148 57.0282 55.9861 42.0289 208.12 147.773 91.9696 26.2764 44.5736 33.5855 28.6976 17.0777 12.5594 31.9996 20.1622 20.8126
internal_count=1746 1383 1314 1086 233 228 171 853 605 376 107 182 137 117 69 51 130 82 85
is_linear=0
shrinkage=0.0039119


Tree=18
num_leaves=20
num_cat=0
split_feature=2 0 4 6 9 18 0 1 1 11 1 9 1 18 11 9 9 11 11
split_gain=305.59 142.856 104.864 43.7645 30.6965 26.3894 14.8382 14.469 14.2211 10.8955 10.8562 8.20198 6.01097 5.89684 5.54855 5.3245 5.70517 5.82925 5.04554
threshold=1.0000000180025095e-35 1.0000000180025095e-35 1.0000000180025095e-35 1.9870833333333351 1.2416666666666651 0.013000000000000003 1.0000000180025095e-35 0.45083333333333359 1.7115000000000002 86.07285714285716 0.21050000000000002 -0.34607142857142842 0.30111111111111105 0.028000000000000004 89.300000000000026 -0.32464285714285696 -0.051249999999999997 80.669047619047674 46.300000000000004
decision_type=2 2 2 2 2 2 2 2 2 2 2 2 2 2 2 2 2 2 2
left_child=1 3 7 4 5 8 -2 -3 9 12 -8 -12 -1 -5 -7 -14 -17 -18 -9
right_child=6 2 -4 13 -6 14 10 18 -10 -11 11 -13 15 -15 -16 16 17 -19 -20
leaf_value=-0.0052921140159385895 -0.0072462851020561585 0.0017273102467837279 -0.006841350191727406 0.003542083807433166 0.0030979596246577751 -0.0038149891807832 -0.0073265892459462188 0.00014106638851948446 0.0024308323730695466 -0.0040751326513158515 -0.0051194868847457527 0.00082843454800753601 0.002238773039656786 0.00042950268490140583 -0.0068428029674557061 -0.0043270991301627131 0.0015449982273261645 -0.0029605059816202434 0.0060023927170503198
leaf_weight=3.7105760425329199 70.496033042669296 14.674087822437285 11.391406938433645 32.719718620181084 17.303140729665756 29.57770961523056 7.448472514748576 2.4343402236700049 14.424047783017157 21.899595722556114 5.6892273724079141 8.8874472081661189 10.289039686322207 13.467743486165999 14.823261946439741 6.1561319231986991 12.517432659864435 6.6415691226720801 120.90783616900444
leaf_count=15 284 60 46 134 71 120 30 10 59 89 23 36 42 55 60 25 51 27 498
internal_value=0 0.00166904 0.00450805 -0.000641195 -0.00175057 -0.00245472 -0.00636406 0.0054519 -0.00104027 -0.00186718 -0.00350266 -0.00148543 -0.000620142 0.00264583 -0.00484772 -0.000108826 -0.00108343 -3.80884e-06 0.00589009
internal_weight=0 332.938 149.408 183.53 137.343 120.039 92.5212 138.016 75.6384 61.2143 22.0251 14.5767 39.3147 46.1875 44.401 35.6042 25.3151 19.159 123.342
internal_count=1735 1362 614 748 559 488 373 568 308 249 89 59 160 189 180 145 103 78 508
is_linear=0
shrinkage=0.0039119


Tree=19
num_leaves=20
num_cat=0
split_feature=3 4 17 5 3 19 15 17 11 4 3 17 17 11 17 17 11 3 5
split_gain=194.875 92.193 32.3979 29.5365 19.7688 18.358 16.4673 13.1884 10.8438 8.7937 8.74887 7.71755 7.4994 6.81107 6.56488 6.29279 9.69893 6.93438 11.1738
threshold=81.043333333333365 1.0000000180025095e-35 0.86083333333333367 287.50000000000006 25.261500000000002 1.0000000180025095e-35 0.65900000000000014 1.0969444444444452 98.63000000000001 1.0000000180025095e-35 96.063888888888911 0.86083333333333367 1.1743333333333352 88.66333333333337 1.1311000000000002 1.1227250000000002 75.74166666666666 45.945000000000007 465.50000000000006
decision_type=2 2 2 2 2 2 2 2 2 2 2 2 2 2 2 2 2 2 2
left_child=1 3 9 7 -5 8 12 -1 11 -2 -8 -6 -4 -9 -12 16 -7 18 -18
right_child=2 -3 6 4 5 15 10 13 -10 -11 14 -13 -14 -15 -16 -17 17 -19 -20
leaf_value=-0.0035855150452689874 2.8437451778876888e-05 -0.0076867136305445848 -0.003623395906323794 0.004404436499071759 0.0026836334432787956 0.0046421383322783321 -0.004096374121664444 0.0065157786164959158 0.0036815060338647276 -0.0068912622408177238 -0.0074869079412753338 -0.00069431820813347928 0.0022645489966578421 -0.00061776997317788723 -0.0042524476241725681 0.0055477226433291978 0.0062903550450944604 0.0024704774412616331 -0.002977449473497987
leaf_weight=17.716514140367511 31.191597893834114 14.888300120830534 6.9042761623859388 72.951585277915001 12.667370423674582 26.312324032187462 37.869494751095772 3.4219010174274427 14.355904623866079 2.9770609140396109 38.468928948044777 54.472103387117386 6.1162085086107254 4.6511213183403015 14.357659772038458 14.561319142580031 2.4305695146322241 40.009971037507057 9.0667000710964185
leaf_count=72 127 60 28 300 52 108 153 14 59 12 155 222 25 19 58 60 10 164 37
internal_value=0 0.00175486 -0.00390027 0.00227455 0.00269135 0.00196824 -0.00498826 -0.00169445 0.00060778 -0.0005814 -0.00557912 -4.81305e-05 -0.000831613 0.00240078 -0.00662491 0.00316222 0.00270428 0.00169968 -0.000947121
internal_weight=0 287.506 137.885 272.617 246.828 173.876 103.717 25.7895 81.4954 34.1687 90.6961 67.1395 13.0205 8.07302 52.8266 92.3809 77.8196 51.5072 11.4973
internal_count=1735 1177 558 1117 1012 712 419 105 333 139 366 274 53 33 213 379 319 211 47
is_linear=0
shrinkage=0.0039119


Tree=20
num_leaves=20
num_cat=0
split_feature=2 0 1 6 18 3 3 0 16 11 1 5 6 7 5 1 11 5 18
split_gain=301.359 141.747 67.4009 43.3541 29.0496 20.9775 16.118 14.6969 14.4673 11.3411 10.7297 13.2455 8.28369 8.26336 8.82276 9.42685 7.72648 7.18433 5.84782
threshold=1.0000000180025095e-35 1.0000000180025095e-35 0.45083333333333359 1.9870833333333351 0.013000000000000003 28.056000000000001 57.994166666666651 1.0000000180025095e-35 1.9225000000000001 93.483750000000015 0.21050000000000002 950.00000000000011 0.40875 0.24250000000000002 1929.0000000000002 0.64142857142857157 71.175000000000026 1039.5000000000002 0.028000000000000004
decision_type=2 2 2 2 2 2 2 2 2 2 2 2 2 2 2 2 2 2 2
left_child=1 3 6 4 5 17 -3 -2 -6 12 -9 -12 -8 14 -7 -16 -14 -1 -5
right_child=7 2 -4 18 8 13 9 10 -10 -11 11 -13 16 -15 15 -17 -18 -19 -20
leaf_value=0.0014903538294158787 -0.0071936110849998344 0.0054936592380844104 0.0056146027593992637 0.0035242270234086383 -0.0050052258710800643 -0.0026560774080581534 -0.0083205838882465608 -0.007268618245423639 0.00088956938616587726 0.0038081313956314358 0.0026789691462224194 -0.004761442454741336 -0.0055841036132287299 0.0024012957708728759 -0.0041552769075256018 0.0045569039413688762 0.00092822940881238394 0.0065481173805168776 0.00042389269160269058
leaf_weight=17.086320355534557 70.561564162373543 3.8960028737783459 126.12509182095528 32.69235073029995 42.452824011445045 49.187958210706711 5.4599314481020036 7.4561362266540554 7.3325483947992316 2.9235625863075247 6.4190334826707831 8.1653724759817106 5.4491789340972883 7.113931030035018 2.7167723178863508 5.6172970086336136 5.3819675892591476 5.839952051639556 13.464332237839697
leaf_count=70 284 16 520 134 172 200 22 30 30 12 26 33 22 29 11 23 22 24 55
internal_value=0 0.00165899 0.00448922 -0.000641778 -0.00174563 -0.000382815 -0.00163336 -0.00631611 -0.00412914 -0.00311967 -0.00346936 -0.00146411 -0.00440243 -0.00152697 -0.00202291 0.0016549 -0.00233347 0.00281854 0.00263116
internal_weight=0 332.74 149.236 183.504 137.348 87.5622 23.1106 92.6021 49.7854 19.2146 22.0405 14.5844 16.2911 64.636 57.522 8.33407 10.8311 22.9263 46.1567
internal_count=1735 1362 614 748 559 357 94 373 202 78 89 59 66 263 234 34 44 94 189
is_linear=0
shrinkage=0.0039119


Tree=21
num_leaves=20
num_cat=0
split_feature=3 4 1 1 15 19 3 8 15 1 8 3 13 3 13 13 1 9 9
split_gain=207.367 61.1458 57.3143 27.6125 21.6431 20.9302 19.6117 16.4562 14.598 13.7336 16.65 12.1979 9.52764 7.60644 7.58812 8.14776 11.1368 7.27215 7.08887
threshold=71.038000000000011 1.0000000180025095e-35 0.63100000000000012 0.29250000000000004 0.69208333333333361 1.0000000180025095e-35 20.241250000000004 6.8408333333333315 0.73100000000000009 1.2614285714285702 6.9933333333333358 96.459500000000006 34.810000000000009 59.914835768102023 19.580555555555552 31.075000000000003 1.8067857142857153 -0.70833333333333337 0.66083333333333361
decision_type=2 2 2 2 2 2 2 2 2 2 2 2 2 2 2 2 2 2 2
left_child=1 3 8 13 -4 6 -5 11 -2 10 12 17 -8 -1 -7 16 -16 -6 -10
right_child=2 -3 4 5 7 14 9 -9 18 -11 -12 -13 -14 -15 15 -17 -18 -19 -20
leaf_value=0.000751256377719802 -0.0027479431937633592 -0.0072649871596403163 0.0029961344460914534 0.0041554552893755675 0.0040974364336059266 0.0048330604476370369 -0.0022406318490022464 0.0023911877189127639 -0.0065544569299344074 0.0029549076410682784 0.0035527529032367438 -0.0057628250281290989 0.0027040571854877091 -0.0059130067811305762 -4.8716182874765582e-05 0.0041520939962897485 0.0064562418892285794 -0.0022346209164410252 0
leaf_weight=3.9184288382530195 23.917572543025017 10.177657112479208 17.587313249707222 32.335270792245865 3.1755534857511512 63.377898335456848 40.503269240260124 9.7899458408355695 70.766529262065887 25.832238227128983 12.429129168391226 16.586396455764771 6.8361267298459998 7.1606841534376144 21.013537347316745 32.325042426586151 4.848728895187377 17.252303719520572 2.7166202664375296
leaf_count=16 97 41 72 133 13 261 165 40 285 106 51 67 28 29 86 133 20 70 11
internal_value=0 0.00208022 -0.00355591 0.00246409 -0.000683665 0.00274461 0.00156295 -0.00207818 -0.00544808 0.000575376 -0.000449752 -0.00327409 -0.00151414 -0.00353538 0.00388556 0.0028403 0.00117595 -0.00121607 -0.00631669
internal_weight=0 260.758 161.792 250.58 64.3915 239.501 117.936 46.8042 97.4007 85.6008 59.7685 37.0143 47.3394 11.0791 121.565 58.1873 25.8623 20.4279 73.4831
internal_count=1724 1069 655 1028 262 983 483 190 393 350 244 150 193 45 500 239 106 83 296
is_linear=0
shrinkage=0.0039119


Tree=22
num_leaves=20
num_cat=0
split_feature=2 19 15 5 12 7 18 13 7 9 9 7 11 5 7 5 18 18 5
split_gain=308.456 49.7365 31.0484 21.3658 16.6212 15.6994 13.172 13.0742 10.7762 9.49375 8.10768 7.40154 6.91953 7.6969 6.06672 6.25907 5.96367 5.81323 7.81285
threshold=1.0000000180025095e-35 1.0000000180025095e-35 0.70125000000000004 344.50000000000006 1.0000000180025095e-35 0.26050000000000006 1.0000000180025095e-35 49.266666666666659 0.24050000000000002 -0.72799999999999987 0.11708333333333351 0.23050000000000004 109.2 410.50000000000006 0.23450000000000001 205.50000000000003 0.0055000000000000005 0.0045000000000000014 283.50000000000006
decision_type=2 2 2 2 2 2 2 2 2 2 2 2 2 2 2 2 2 2 2
left_child=1 2 12 17 14 7 -6 9 -8 -5 -11 -12 13 -1 -3 -16 -13 18 -4
right_child=-2 4 3 5 6 -7 8 -9 -10 10 11 16 -14 -15 15 -17 -18 -19 -20
leaf_value=-0.00060136889589671903 -0.0063903659501256269 0.0052362304199014059 -0.004013750984720464 0.0021782165960514853 0.0031232776077248347 0.0058953642143810504 -0.0024150587410850799 0.0057273729745334328 0.0041671197373624822 -0.0025054534278568102 0.0020377517529858074 -0.0053976586783999149 0.0060464811558604194 0.0029677544684422355 -0.0021419405843668979 0.0036137460435018472 -0.00019055941151634794 -0.0058079841432613129 0.0037228830661851552
leaf_weight=11.998009935021399 92.426041230559349 51.915058627724648 6.6599718034267426 13.670726314187048 32.615490481257439 6.30465143918991 15.927624896168711 4.8650791049003592 4.8682600110769263 41.096451416611671 15.646200627088545 4.6717879772186288 7.9962226897478095 37.484121695160866 2.948690488934516 42.819141194224358 12.030613154172897 13.848385989665985 2.6997994780540466
leaf_count=49 372 214 27 56 134 26 65 20 20 167 64 19 33 154 12 176 49 56 11
internal_value=0 0.00169121 0.000293125 -0.000825184 0.00334337 -2.26091e-05 0.00157303 -0.000438455 -0.0008429 -0.00079345 -0.00135411 9.97387e-05 0.00266105 0.00209499 0.00430476 0.00323053 -0.00169376 -0.00419259 -0.00172502
internal_weight=0 330.066 178.972 121.494 151.094 98.2855 53.4114 91.9809 20.7959 87.1158 73.4451 32.3486 57.4784 49.4821 97.6829 45.7678 16.7024 23.2082 9.35977
internal_count=1724 1352 731 495 621 401 219 375 85 355 299 132 236 203 402 188 68 94 38
is_linear=0
shrinkage=0.0039119


Tree=23
num_leaves=20
num_cat=0
split_feature=1 19 14 1 15 7 16 12 18 5 8 7 5 1 1 14 1 1 7
split_gain=196.201 69.7883 48.0198 38.8782 23.0875 16.2406 13.5998 12.5085 13.3339 11.1357 10.822 9.53794 9.04154 8.58481 7.94939 9.5414 7.5113 7.05575 6.88151
threshold=0.43125000000000008 1.0000000180025095e-35 108.97750000000001 0.90916666666666657 0.67916666666666659 0.24150000000000002 1.9357500000000003 1.0000000180025095e-35 0.0015000000000000002 272.50000000000006 6.3770000000000007 0.24050000000000002 465.50000000000006 0.29250000000000004 0.21900000000000003 116.64666666666652 2.0877777777777804 0.93925733622748553 0.23550000000000001
decision_type=2 2 2 2 2 2 2 2 2 2 2 2 2 2 2 2 2 2 2
left_child=4 2 10 5 13 6 12 18 -9 -5 16 -10 -4 -1 -6 -16 -2 -12 -3
right_child=1 7 3 9 14 -7 -8 8 11 -11 17 -13 -14 -15 15 -17 -18 -19 -20
leaf_value=-0.0035889506952849681 -0.0051921390379796898 0.0054694373684999386 -0.005076027569899319 -0.002305775385878723 -0.0072364892261006326 0.0033417178734309184 0.0023807350006806614 0.0034580151525150545 -0.0023701517457034933 0.0034581773033346302 -0.0029110737801323529 0.0044962871409619035 -0.0014945966961712757 0.0010314342463146166 -0.0067693492158879456 -0.0030660947480171891 0.0017503719446812732 0.0037922227575025056 0.0032283246201235093
leaf_weight=12.816902294754984 32.369937419891357 46.977152466773987 17.289877384901047 5.4130574017763129 34.068067878484726 10.267076417803763 9.0231483876705152 31.366157487034798 13.474284291267397 65.494366899132729 5.4275158047676069 3.8903618156909934 29.988022804260254 11.50103050470352 19.133204489946365 25.978928133845329 2.4383927881717673 4.1508855372667313 41.362251743674278
leaf_count=52 131 194 70 22 137 42 37 129 55 269 22 16 122 47 77 105 10 17 170
internal_value=0 0.00144133 -0.000145508 0.000994774 -0.0047548 -0.00114727 -0.00197729 0.00354815 0.00193687 0.00301002 -0.00368031 -0.000792464 -0.00282056 -0.00139247 -0.00577945 -0.00465689 -0.00469098 0 0.00442936
internal_weight=0 318.932 181.862 137.476 103.498 66.5681 56.301 137.07 48.7308 70.9074 44.3867 17.3646 47.2779 24.3179 79.1802 45.1121 34.8083 9.5784 88.3394
internal_count=1724 1306 742 562 418 271 229 564 200 291 180 71 192 99 319 182 141 39 364
is_linear=0
shrinkage=0.0039119


Tree=24
num_leaves=20
num_cat=0
split_feature=2 0 4 11 13 5 0 11 13 15 3 7 11 5 15 11 3 13 11
split_gain=307.139 134.225 84.7782 33.1588 38.3908 23.1493 19.7935 13.7675 11.5893 10.9514 9.90012 9.08886 8.61683 8.29286 6.85966 6.81875 6.55647 7.87865 6.25918
threshold=1.0000000180025095e-35 1.0000000180025095e-35 1.0000000180025095e-35 101.60000000000001 8.8666666666666671 990.00000000000011 1.0000000180025095e-35 58.790000000000006 53.166666666666657 0.74071428571428555 41.031777777777812 0.19450000000000003 82.465000000000018 1142.0000000000002 0.86708333333333365 46.300000000000004 98.210000000000022 21.855000000000004 92.088888888888917
decision_type=2 2 2 2 2 2 2 2 2 2 2 2 2 2 2 2 2 2 2
left_child=1 3 15 4 -1 8 -2 -8 10 -5 11 -6 -7 -9 -13 -3 -17 -18 -14
right_child=6 2 -4 9 5 12 7 13 -10 -11 -12 14 18 -15 -16 16 17 -19 -20
leaf_value=0.0014678304329262192 -0.0070913600657748679 -0.0009845549077131643 -0.0061759717368602843 0.0033692098069716815 0.0048612120891985151 0.0031698008362798331 -0.0076180913137244514 0.0013514560109008263 0.0021598792521588125 -0.0032235077886689171 -0.00533279576266865 -0.0055962691806777723 -0.0041200691269160598 -0.004151437231864002 -0.00075704011476189774 0.0056709823223231324 0.0047298969551829266 -0.0026774886845935858 0.0017091786238140659
leaf_weight=48.717102006077766 73.406767845153809 2.442402556538581 10.424951702356337 36.255958914756775 2.4450290948152569 10.777755022048952 6.720015928149226 9.6401963979005831 4.3859648257493964 4.1736435443162909 45.677622675895691 8.3540016859769839 6.6390514373779279 7.1867933720350257 10.084601312875746 129.72077792882919 6.3230672478675825 3.1879377812147141 4.6559129655361176
leaf_count=199 295 10 42 149 10 44 27 39 18 17 185 34 27 29 41 536 26 13 19
internal_value=0 0.00181844 0.00453026 -0.000444879 -0.00133817 -0.00281194 -0.00608628 -0.00291972 -0.00389998 0.0026727 -0.00430779 -0.00203249 0.000669456 -0.000986355 -0.00298902 0.00532462 0.00543873 0.00220433 -0.00168894
internal_weight=0 334.266 152.099 182.167 141.737 93.0199 96.9538 23.547 70.9472 40.4296 66.5613 20.8836 22.0727 16.827 18.4386 141.674 139.232 9.51101 11.295
internal_count=1760 1370 627 743 577 378 390 95 288 166 270 85 90 68 75 585 575 39 46
is_linear=0
shrinkage=0.0039119


Tree=25
num_leaves=20
num_cat=0
split_feature=2 0 1 11 8 1 0 11 8 19 1 11 19 14 14 8 18 11 19
split_gain=304.683 133.321 60.9005 32.9056 33.9062 26.0609 19.6159 15.7782 14.7583 14.4619 13.4457 9.85685 9.59797 8.44109 8.37407 8.33895 7.28643 7.16511 7.06374
threshold=1.0000000180025095e-35 1.0000000180025095e-35 0.44888888888888906 101.60000000000001 6.9344444444444457 1.7115000000000002 1.0000000180025095e-35 93.483750000000015 4.9483333333333359 1.0000000180025095e-35 0.48125000000000001 76.346428571428561 1.0000000180025095e-35 78.633333333333368 119.99166666666652 6.4720000000000004 1.0000000180025095e-35 58.790000000000006 1.0000000180025095e-35
decision_type=2 2 2 2 2 2 2 2 2 2 2 2 2 2 2 2 2 2 2
left_child=1 3 7 4 5 9 -2 12 -8 14 -5 13 15 -11 -1 -3 -6 -10 -7
right_child=6 2 -4 10 16 18 8 -9 17 11 -12 -13 -14 -15 -16 -17 -18 -19 -20
leaf_value=-0.0049190563589131845 -0.0070604004554377427 -0.0067244678301306036 0.0055387818029791732 -0.0020632074021487081 0.0046403176318160766 -0.00059138311130315193 0.0038701618754779987 0.0048618587097545287 -0.007585111232590272 -0.0035757184758821565 0.003730544642012841 -0.0026732991366009221 0.0023401757198885653 0.0032540467597835096 -1.0444938930437242e-05 -0.00012391253372754976 0.00058505700017722167 -0.0025179256434349185 0.0042610749740644516
leaf_weight=49.430541530251503 73.440606355667114 9.4345532506704384 129.83898021280766 7.3585922867059699 13.175088956952095 8.3293153345584869 3.9473216831684139 4.6247385740280142 6.723260551691058 3.6748548895120612 33.052872702479362 26.789932861924171 3.6610232889652243 10.030084207653998 6.1379959136247626 4.4097068607807151 14.441829234361649 12.881016448140143 9.7444039881229401
leaf_count=200 295 38 537 30 54 34 16 19 27 15 136 109 15 41 25 18 59 52 40
internal_value=0 0.00181203 0.00451639 -0.000443127 -0.00133275 -0.0022755 -0.00606016 -0.00146243 -0.00290791 -0.00308756 0.00266341 -0.00129127 -0.0031736 0.00138173 -0.00438488 -0.00466606 0.00254356 -0.00430524 0.00201233
internal_weight=0 334.135 151.969 182.166 141.754 114.137 96.9922 22.13 23.5516 96.0634 40.4115 40.4949 17.5053 13.7049 55.5685 13.8443 27.6169 19.6043 18.0737
internal_count=1760 1370 627 743 577 464 390 90 95 390 166 165 71 56 225 56 113 79 74
is_linear=0
shrinkage=0.0039119


Tree=26
num_leaves=20
num_cat=0
split_feature=2 0 10 9 13 3 11 0 11 14 13 11 13 14 9 3 14 12 3
split_gain=302.252 132.425 53.4893 35.2248 49.3139 22.0411 19.84 19.4417 13.5377 12.9105 10.6641 10.5668 8.12292 8.53029 6.71706 6.52217 6.49 7.03637 6.18918
threshold=1.0000000180025095e-35 1.0000000180025095e-35 1.0000000180025095e-35 1.2416666666666651 8.8666666666666671 59.914835768102023 80.208333333333357 1.0000000180025095e-35 58.790000000000006 117.07750000000001 15.294285714285701 92.458928571428558 45.541666666666657 119.00555555555552 0.32666666666666655 37.625000000000007 115.87500000000001 1.0000000180025095e-35 58.598333333333308
decision_type=2 2 2 2 2 2 2 2 2 2 2 2 2 2 2 2 2 2 2
left_child=1 3 -3 4 9 -4 10 -2 -9 15 -6 -7 13 16 18 -1 17 -8 -12
right_child=7 2 5 -5 6 11 12 8 -10 -11 14 -13 -14 -15 -16 -17 -18 -19 -20
leaf_value=0.0025842311688592042 -0.0070297650626756532 0.0053594178621846743 0.006369481892534906 0.0040084498804386489 -0.0045347434930537783 -0.0055472590575384156 0.00069152700779951141 -0.0075525034285836585 -0.0009783488860197712 0.0024931418441512406 0.0018879686865123277 0.0032117283018221277 0.0010785220990693835 -0.002169337422010459 0.0055744867383201255 -0.0041418625556847504 -0.0066913370875505383 -0.0050100073842522137 -0.0021507888131741585
leaf_weight=2.9319823235273343 73.472485542297363 133.65064588189125 3.8706091940403011 23.556849405169487 7.387707754969596 11.889197587966917 4.4306593239307412 6.7262996733188656 16.82965674996376 50.056466653943062 11.983897298574453 2.4280181825160971 4.1595996767282477 17.947684109210968 3.6800250858068457 7.6394788473844528 25.716150209307671 11.601335793733597 11.069670274853705
leaf_count=12 295 553 16 97 30 48 18 27 68 205 49 10 17 73 15 31 104 47 45
internal_value=0 0.00180569 0.00450261 -0.000441394 -0.00110688 -0.00176701 -0.00282315 -0.00603426 -0.0028961 0.0016603 -0.00040038 -0.00402274 -0.004109 -0.0044782 0.000740196 -0.002233 -0.00545389 -0.00341554 -3.53463e-05
internal_weight=0 334 151.838 182.162 158.605 18.1878 97.9767 97.0284 23.556 60.6279 34.1213 14.3172 63.8554 59.6958 26.7336 10.5715 41.7481 16.032 23.0536
internal_count=1760 1370 627 743 646 74 398 390 95 248 139 58 259 242 109 43 169 65 94
is_linear=0
shrinkage=0.0039119


Tree=27
num_leaves=20
num_cat=0
split_feature=0 3 3 16 15 3 15 5 5 16 17 8 8 3 13 5 18 16 16
split_gain=218.279 69.3665 47.1763 37.8545 23.8545 23.1645 20.8311 20.8495 30.4778 20.4864 14.8768 14.6055 11.7328 10.1267 8.77898 7.90584 8.59245 9.42362 13.1685
threshold=1.0000000180025095e-35 69.363750000000024 57.994166666666651 0.22833333333333353 0.61875000000000013 20.241250000000004 0.71071428571428552 2705.5000000000005 892.00000000000011 0.48761904761904806 1.0407083333333353 7.2942857142857163 5.1142222222222209 94.474523809523816 21.302500000000002 272.50000000000006 0.028000000000000004 1.3845833333333353 0.83928571428571452
decision_type=2 2 2 2 2 2 2 2 2 2 2 2 2 2 2 2 2 2 2
left_child=1 5 -2 13 -5 -1 -4 8 10 -7 -8 15 -12 -3 -14 -11 17 18 -17
right_child=2 3 6 4 -6 9 7 -9 -10 11 12 -13 14 -15 -16 16 -18 -19 -20
leaf_value=0.0024425092592352438 0.0057818316381421566 0.0056306957568686943 0.0046871470306036481 0.0007099410507718782 -0.0059664732470714058 0.0026892683430029558 0.0041795782140944138 0.0048416937981806468 -0.0038934853240664468 -0.0062301206369562122 0.0063864746124465185 0.0027012887467893635 -0.0058316207540733255 -0.0010018827740576738 0.0010999727345968704 0.00060925147936366692 -0.0039309673536565056 0.0020755327597445144 -0.0042847504274115813
leaf_weight=33.826646387577057 74.027496293187141 4.3828701376915005 24.64364992082119 8.8419591486453992 93.22028112411499 16.556697264313698 18.711840197443962 13.539609163999556 23.882637828588486 8.1537622362375242 2.4416085779666892 8.7844267934560758 6.4602702856063825 16.194058895111084 4.6835064291954041 14.966427549719809 25.916166216135025 10.767225250601767 18.698478952050209
leaf_count=139 307 18 102 36 375 68 77 56 97 33 10 36 26 66 19 61 105 44 76
internal_value=0 -0.00227026 0.00344392 -0.00440883 -0.00538412 -0.000360525 0.00160152 0.000500092 -0.000546047 -0.00127884 0.00192157 -0.00203821 -0.00116774 0.000412332 -0.00289975 -0.00257631 -0.00213901 -0.00107854 -0.00210207
internal_weight=0 260.309 168.391 122.639 102.062 137.67 94.3631 69.7195 56.1799 103.843 32.2972 87.2865 13.5854 20.5769 11.1438 78.5021 70.3483 44.4321 33.6649
internal_count=1751 1057 694 495 411 562 387 285 229 423 132 355 55 84 45 319 286 181 137
is_linear=0
shrinkage=0.0039119


Tree=28
num_leaves=20
num_cat=0
split_feature=1 15 1 1 14 16 14 5 5 5 14 1 15 14 5 5 5 9 16
split_gain=179.883 43.0817 38.2363 23.3927 16.6513 15.0555 14.9726 12.4948 11.5831 10.9972 9.61277 11.588 9.10765 8.33475 6.43166 9.04585 10.5643 6.1594 7.29565
threshold=0.44142857142857156 0.68583333333333363 0.90916666666666657 0.29250000000000004 110.98500000000001 0.48761904761904806 114.84642857142852 351.50000000000006 1957.5000000000002 351.50000000000006 119.57321428571451 1.7812500000000002 0.60916666666666652 118.77083333333353 892.00000000000011 745.50000000000011 659.50000000000011 1.1725000000000001 1.4858333333333353
decision_type=2 2 2 2 2 2 2 2 2 2 2 2 2 2 2 2 2 2 2
left_child=3 17 6 12 -5 -4 -3 -6 10 -8 11 14 -1 -9 15 16 -7 18 -2
right_child=1 2 5 4 7 8 9 13 -10 -11 -12 -13 -14 -15 -16 -17 -18 -19 -20
leaf_value=5.6830803151311207e-05 0.0035831642286525208 -0.0033813179536620465 0.0042686052776957804 -0.0059731479854199755 -0.0055548214204933785 0.00012696970506288858 -0.0032647156533337166 -0.001360465026085291 0.0042172933641737636 0.00071352057771979305 0.004414996332883679 0.0029347761793642058 -0.0063817902703697024 0.0030854799181955633 -0.0028933733672176667 0.0045800662731821581 -0.0060474600508938691 0.0050710477377524515 -3.2018756346924162e-05
leaf_weight=3.4419189244508734 45.574968591332436 34.848585158586502 31.256724625825882 13.433987230062483 6.6854310780763617 35.974660992622375 13.563166111707686 16.248496323823932 16.014202639460564 47.690399289131165 8.9694924503564817 17.733330070972443 57.186829030513763 10.520857438445089 14.700560241937636 5.8332962393760672 4.6909926533699027 34.004853561520576 10.242406278848646
leaf_count=14 188 141 129 54 27 147 55 66 66 195 37 73 230 43 60 24 19 141 42
internal_value=0 0.00144122 0.000545641 -0.0044025 -0.00230682 0.00188743 -0.00133759 -0.000809511 0.00116402 -0.000164876 0.000599168 0.000155571 -0.00601033 0.000377296 -0.000646831 5.96997e-05 -0.000588774 0.00373964 0.00291392
internal_weight=0 321.098 231.275 107.518 46.8888 135.173 96.1022 33.4548 103.917 61.2536 87.9023 78.9328 60.6287 26.7694 61.1995 46.4989 40.6657 89.8222 55.8174
internal_count=1751 1317 946 434 190 555 391 136 426 250 360 323 244 109 250 190 166 371 230
is_linear=0
shrinkage=0.0039119


Tree=29
num_leaves=20
num_cat=0
split_feature=2 1 14 1 19 13 13 1 10 1 1 13 1 13 8 13 14 8 13
split_gain=312.309 72.1118 21.927 19.0288 14.403 12.7008 18.5993 11.9543 11.3037 10.5357 8.72342 8.55005 7.76449 6.87039 6.83551 6.66946 6.16547 5.83935 8.66322
threshold=1.0000000180025095e-35 0.32563492063492105 108.97750000000001 0.90916666666666657 1.0000000180025095e-35 19.481746031746052 31.966666666666654 1.7975000000000001 1.0000000180025095e-35 1.7729166666666651 0.14055555555555552 6.1270833333333359 0.44142857142857156 28.23 4.3283333333333358 23.294642857142851 94.66333333333337 6.9344444444444457 43.250000000000007
decision_type=2 2 2 2 2 2 2 2 2 2 2 2 2 2 2 2 2 2 2
left_child=1 8 7 4 14 -5 9 12 10 13 -1 -6 -3 15 -4 -7 -14 18 -16
right_child=-2 2 3 5 11 6 -8 -9 -10 -11 -12 -13 16 -15 17 -17 -18 -19 -20
leaf_value=-0.0064144563023672179 -0.0063911285811744326 -0.0067334512029089905 0.0054192821645068457 0.0050117572014586349 0.0051036180882228438 -0.003180346702246044 0.0043798841004690486 0.0039246082477686992 -0.0074131901296190465 0.0045352874901784246 -0.0007687291972050534 0.0017674892547390952 0.0011090371813616043 -0.0055120856924109098 -0.0017298426135752215 0.0021289226983833881 -0.0015697552659263761 0.0017168952031241251 0.0039521240000967763
leaf_weight=5.6923716217279461 92.392827481031418 2.7277157902717581 3.6474476605653754 70.145679205656052 20.817808106541634 6.1330459117889466 34.833730071783066 11.633833318948744 9.7093143761158007 5.8205793499946585 16.006850138306618 28.441777393221855 29.535895094275475 4.6564400345087043 30.966620564460754 8.5258472412824613 23.506853550672531 18.750483751296997 4.6042880415916434
leaf_count=23 371 11 15 290 86 25 144 48 39 24 65 117 121 19 126 35 96 77 19
internal_value=0 0.0017258 0.00230849 0.0028677 0.00163891 0.00387531 0.00253339 0.000332268 -0.00390489 -1.72243e-05 -0.00229035 0.00319279 -0.000415782 -0.00142554 0.000308522 -7.23831e-05 -7.1477e-05 -3.67824e-05 -0.000974386
internal_weight=0 336.157 304.748 237.344 107.228 130.115 59.9696 67.4043 31.4085 25.1359 21.6992 49.2596 55.7705 19.3153 57.9688 14.6589 53.0427 54.3214 35.5709
internal_count=1751 1380 1253 977 440 537 247 276 127 103 88 203 228 79 237 60 217 222 145
is_linear=0
shrinkage=0.0039119


Tree=30
num_leaves=20
num_cat=0
split_feature=2 1 12 4 8 13 16 8 19 13 11 13 8 1 19 13 11 11 1
split_gain=302.352 69.2044 22.4135 21.7884 12.2852 12.4993 11.6004 11.3445 11.1943 8.50244 8.43478 9.54298 8.04883 6.46881 5.80803 5.5485 8.06707 8.92253 5.35371
threshold=1.0000000180025095e-35 0.47100000000000003 1.0000000180025095e-35 1.0000000180025095e-35 6.9933333333333358 54.875000000000007 0.44250000000000006 7.1842857142857159 1.0000000180025095e-35 30.725000000000005 101.9466666666665 8.2925000000000022 5.2483333333333357 0.93925733622748553 1.0000000180025095e-35 19.580555555555552 81.351666666666674 93.15000000000002 0.82083333333333364
decision_type=2 2 2 2 2 2 2 2 2 2 2 2 2 2 2 2 2 2 2
left_child=1 3 8 4 5 9 -4 13 10 14 11 18 -13 -8 -1 -15 -17 -18 -3
right_child=-2 2 6 -5 -6 -7 7 -9 -10 -11 -12 12 -14 15 -16 16 17 -19 -20
leaf_value=-0.0033530378216727079 -0.0059681891276410319 0.0014912412925046034 0.0041499464112203111 -0.0065913948422293006 0.0023398039819450939 0.0062843599080087444 -0.001670034864132628 0.0053829201083547395 0.0046680449877028957 -0.0066088544689130177 0.0044582306979940867 0.0031671752907751682 -0.00072693989033771253 0.0023346169181077425 0.00061345593129298831 0.002399569010234704 -0.0039897285308156151 0.0023969203747916394 0.0052376861120886553
leaf_weight=12.334141686558731 94.648726403713226 10.479190990328791 17.229415416717529 11.951992481946943 14.16228076815605 2.4280109703540793 21.331315204501152 6.7861699014902106 84.744203343987465 6.6966699212789527 27.750039100646973 11.963197618722914 24.51945848762989 22.360792487859726 10.045711681246758 9.9869517236948031 11.040191337466238 4.6257726848125449 14.524918168783186
leaf_count=50 380 43 71 48 58 10 87 28 351 27 115 49 100 92 41 41 45 19 60
internal_value=0 0.00197317 0.00281171 -0.00190885 -0.00066306 -0.00202845 0.00125719 0.000592808 0.00364243 -0.00275517 0.00265994 0.00183607 0.000544471 0.000111334 -0.00156038 0.000912709 -0.000315783 -0.00207585 0.00369533
internal_weight=0 324.96 267.342 57.6188 45.6668 31.5045 93.3606 76.1312 173.981 29.0765 89.2368 61.4868 36.4827 69.345 22.3799 48.0137 25.6529 15.666 25.0041
internal_count=1715 1335 1101 234 186 128 383 312 718 118 367 252 149 284 91 197 105 64 103
is_linear=0
shrinkage=0.0039119


Tree=31
num_leaves=20
num_cat=0
split_feature=0 1 1 10 13 9 19 3 3 1 1 1 7 3 1 8 13 17 1
split_gain=217.377 86.244 73.0329 40.1633 34.5224 39.0647 25.3933 21.8996 18.778 14.0316 11.4451 10.763 10.0755 9.36492 11.0788 8.37972 12.9201 8.14805 7.67696
threshold=1.0000000180025095e-35 0.43833333333333352 0.46916666666666657 1.0000000180025095e-35 6.1270833333333359 1.2416666666666651 1.0000000180025095e-35 88.882500000000007 59.914835768102023 1.8250000000000004 0.49875000000000008 1.3912500000000001 0.18750000000000003 59.914835768102023 0.56166666666666665 4.9483333333333359 8.8666666666666671 0.94817857142857165 0.16111111111111101
decision_type=2 2 2 2 2 2 2 2 2 2 2 2 2 2 2 2 2 2 2
left_child=1 8 3 18 10 6 13 -4 -1 11 -3 -8 -10 14 -6 -9 -17 -15 -2
right_child=2 4 7 -5 5 -7 9 15 12 -11 -12 -13 -14 17 -16 16 -18 -19 -20
leaf_value=-0.00030224539020316929 -0.0028868734860474036 -0.0040827271415304674 0.0056000069212280889 -0.0057917929988076282 0.0043160466579319472 0.0028731536524596261 -0.00019150172705945218 0.0048646432691619316 -0.0017754576267541152 0.004531106861454335 0.0025761784769242572 -0.0058770983148175651 -0.0070588921438068299 -0.0021412537580841376 -0.003294644921384181 0.0021757918983897903 -0.0066339375790784869 -0.0063513614170001599 0.00336264015184867
leaf_weight=8.5956953167915326 3.4567215740680721 4.1773214638233176 115.00135838985443 16.196162447333336 3.2048866301775005 22.780036449432373 24.771523118019108 4.6199578195810309 6.4438387006521216 7.5361827611923209 47.324325114488602 6.3697987943887702 55.790080770850182 9.6362589597702009 23.885191082954407 6.085141181945799 4.1977688819169998 31.339942872524261 18.094513520598412
leaf_count=35 14 17 478 65 13 94 101 19 26 31 194 26 224 39 97 25 17 126 74
internal_value=0 -0.0021169 0.0036304 -0.00114857 -0.000681417 -0.00175996 -0.00275413 0.00502189 -0.00577405 -0.000211108 0.00202163 -0.00138207 -0.00652184 -0.00419099 -0.00236731 0.000527057 -0.00141216 -0.00537843 0.00233347
internal_weight=0 251.855 167.652 37.7474 181.025 129.524 106.744 129.904 70.8296 38.6775 51.5016 31.1413 62.2339 68.0663 27.0901 14.9029 10.2829 40.9762 21.5512
internal_count=1715 1023 692 153 738 527 433 539 285 158 211 127 250 275 110 61 42 165 88
is_linear=0
shrinkage=0.0039119


Tree=32
num_leaves=20
num_cat=0
split_feature=3 1 4 6 16 3 3 1 8 1 1 15 6 8 13 8 16 16 1
split_gain=191.114 56.5222 52.588 29.8665 23.4569 15.2551 13.4124 13.7492 13.7197 12.1181 11.8193 11.6775 11.1837 9.3834 13.5542 6.91116 6.75483 6.6723 6.99538
threshold=69.818333333333371 0.41100000000000003 1.0000000180025095e-35 1.889 1.7655000000000001 97.357000000000014 20.241250000000004 1.8250000000000004 6.9344444444444457 1.045625 0.46916666666666657 1.2370833333333351 1.7076388888888903 5.6518750000000013 19.580555555555552 7.0375000000000005 0.49733333333333357 1.3845833333333353 0.29250000000000004
decision_type=2 2 2 2 2 2 2 2 2 2 2 2 2 2 2 2 2 2 2
left_child=2 17 6 4 5 -3 -1 8 10 15 11 12 -8 14 -12 -5 -16 -2 -19
right_child=1 3 -4 9 -6 -7 7 -9 -10 -11 13 -13 -14 -15 16 -17 -18 18 -20
leaf_value=0.0041896071673402802 -0.0063494794117286788 -0.0022172057463841228 -0.0065393257638825522 -0.0011136861698971677 0.0033083678779808928 -0.0066291094617143258 -0.0062347582809286024 0.0051723641323244635 0.0041191249041369754 0.0049065012287843159 0.0042714804514196207 0.0051702905728237122 0.0013590025156012483 0.00015835701591739848 0.0054116842894661151 0.0033766075709856401 0.00010170181689559669 -0.0054295136933657446 0.00079949258742179595
leaf_weight=66.601491183042526 57.08195224404335 34.119419574737549 9.7180205285549146 19.371751815080646 8.0440031439065915 18.908338576555252 8.4078545868396741 20.002120167016983 29.541376322507858 11.403186604380606 33.56433516740799 2.7052488178014746 4.3959212750196448 42.941854819655418 4.0989861190319052 7.0730826854705802 30.274611294269562 6.7000076025724393 4.4389473646879196
leaf_count=276 229 138 39 79 33 76 34 83 122 47 139 11 18 176 17 29 124 27 18
internal_value=0 -0.00306342 0.00232875 -0.00116714 -0.00285976 -0.00380726 0.00268824 0.0021156 0.00171792 0.00155412 0.00115077 -0.00202755 -0.00360695 0.00160028 0.00250436 8.07718e-05 0.000760116 -0.00580156 -0.00292738
internal_weight=0 167.141 252.252 98.9198 61.0718 53.0278 242.534 175.932 155.93 37.848 126.389 15.509 12.8038 110.88 67.9379 26.4448 34.3736 68.2209 11.139
internal_count=1715 676 1039 402 247 214 1000 724 641 155 519 63 52 456 280 108 141 274 45
is_linear=0
shrinkage=0.0039119


Tree=33
num_leaves=20
num_cat=0
split_feature=2 1 5 8 11 5 3 16 8 11 5 3 17 16 5 5 5 3 16
split_gain=273.711 65.5329 24.2867 23.4462 15.442 12.7416 18.0601 17.9672 24.3788 11.6219 10.7887 10.7799 8.73139 8.84073 7.70079 6.74347 7.85425 5.94077 5.64647
threshold=1.0000000180025095e-35 0.42900000000000005 344.50000000000006 6.9933333333333358 97.564285714285717 2260.5000000000005 33.629285714285707 0.71900000000000008 6.5166666666666657 100.04222222222221 419.50000000000006 58.598333333333308 1.0952000000000002 0.11166666666666651 386.50000000000006 678.50000000000011 523.50000000000011 76.157500000000013 1.4163333333333352
decision_type=2 2 2 2 2 2 2 2 2 2 2 2 2 2 2 2 2 2 2
left_child=1 3 12 9 5 6 18 -8 10 11 14 -1 13 -3 -9 16 17 -12 -4
right_child=-2 2 4 -5 -6 -7 7 8 -10 -11 15 -13 -14 -15 -16 -17 -18 -19 -20
leaf_value=0.0001297826422021018 -0.0059499846735164086 0.0027432540453375702 0.00435310926472418 0.0019964747879047617 0.0045717262933793728 0.005005602402858072 0.0029633612613967986 -0.0020533208210038187 0.004110868628877799 0.00093847388372653075 0.00035680460394406821 -0.0062703924172514136 0.002230686946867563 -0.0024671538692998931 0.0055563554377958393 -0.0011371317410220605 -0.0069781129679700737 -0.0066738589536605945 0.00082454210096562924
leaf_weight=4.664025247097018 93.480342999100685 6.0764647275209454 41.55962510406971 12.229080855846403 61.129659056663513 22.665846809744835 38.050550758838654 3.4308500587940198 13.629298895597456 5.3795530200004569 6.1050592064857501 24.616679385304451 14.637542232871054 24.820319786667824 4.5841002613306046 20.835671573877335 9.1275982111692411 2.471798837184906 8.7329077422618848
leaf_count=19 375 25 172 50 254 94 157 14 56 22 25 99 60 101 19 85 37 10 36
internal_value=0 0.00164296 0.0023656 -0.00262686 0.00287755 0.002268 0.00184451 0.000861656 -0.000463333 -0.0042704 -0.00181679 -0.00524064 -0.000238448 -0.00142426 0.00226562 -0.00267957 -0.00445625 -0.00167787 0.00375102
internal_weight=0 324.747 277.857 46.8893 232.323 171.193 148.527 98.2349 60.1844 34.6603 46.5551 29.2807 45.5343 30.8968 8.01495 38.5401 17.7045 8.57686 50.2925
internal_count=1710 1335 1145 190 959 705 611 403 246 140 190 118 186 126 33 157 72 35 208
is_linear=0
shrinkage=0.0039119


Tree=34
num_leaves=20
num_cat=0
split_feature=0 4 11 13 18 19 18 14 19 11 5 10 5 18 11 13 18 19 5
split_gain=200.182 94.8984 44.5388 34.6958 25.4966 15.4153 15.1895 14.6043 12.4315 11.9535 15.8576 12.6157 10.3521 12.3863 8.35401 9.16743 7.83673 6.48908 7.41818
threshold=1.0000000180025095e-35 1.0000000180025095e-35 101.1285714285715 6.1270833333333359 0.0085000000000000023 1.0000000180025095e-35 0.0025000000000000005 106.17777777777802 1.0000000180025095e-35 84.71250000000002 861.00000000000011 1.0000000180025095e-35 2460.0000000000005 0.67600000000000005 78.683333333333366 14.850000000000001 0.028000000000000004 1.0000000180025095e-35 433.50000000000006
decision_type=2 2 2 2 2 2 2 2 2 2 2 2 2 2 2 2 2 2 2
left_child=2 8 3 7 5 6 -5 -1 9 10 11 -2 13 -12 -7 -16 -4 18 -9
right_child=1 -3 16 4 -6 14 -8 17 -10 -11 12 -13 -14 -15 15 -17 -18 -19 -20
leaf_value=-0.0044099097142540587 0.0048476272532908321 -0.0053033030825818976 0.0022587574845888947 -0.0044826530128868128 -0.0058937158547904449 0.0019530558046398482 0.0031604218291439402 -0.0037738908712716336 0.0055436342025935396 0.0048870283622420331 -0.0050650921238621673 -0.0039597389937898603 0.0050224877287104617 0.0046417898124224682 0.0034042441477552935 -0.0033394924568247051 -0.0011583831704669921 0.0025634432466718872 0.00055908535858002881
leaf_weight=11.373876288533209 19.617193967103962 17.170773088932037 33.071874856948853 50.109184443950653 62.521044045686722 12.932299345731733 4.1906821578741065 7.8821612298488608 72.676873430609703 34.270705163478851 9.6055480390787107 2.7226157188415518 2.9080812335014334 2.4130813479423514 3.6636297851800945 16.226522967219353 14.633267447352408 15.631911680102347 24.506786271929741
leaf_count=46 81 69 136 202 252 53 17 32 303 142 39 11 12 10 15 66 60 64 100
internal_value=0 0.00335782 -0.00220066 -0.00297929 -0.00398313 -0.00260237 -0.00388087 -0.000441152 0.00439472 0.00321593 0.00165974 0.00374395 -0.0014377 -0.00306166 -0.000470038 -0.00206696 0.00120216 0.000497941 -0.000491716
internal_weight=0 161.385 256.743 209.038 149.643 87.1223 54.2999 59.3947 144.214 71.5372 37.2665 22.3398 14.9267 12.0186 32.8225 19.8902 47.7051 48.0209 32.3889
internal_count=1710 667 1043 847 605 353 219 242 598 295 153 92 61 49 134 81 196 196 132
is_linear=0
shrinkage=0.0039119


Tree=35
num_leaves=20
num_cat=0
split_feature=2 0 18 3 11 8 13 9 3 11 3 3 16 11 0 18 11 8 13
split_gain=270.599 118.801 37.188 21.7002 20.7349 23.2604 14.6654 19.6273 14.0926 11.8369 18.6341 12.729 11.343 10.6066 9.01915 7.41848 10.9766 7.19227 6.90478
threshold=1.0000000180025095e-35 1.0000000180025095e-35 0.028000000000000004 57.994166666666651 101.9466666666665 6.9516666666666653 8.0166666666666675 1.0207142857142852 28.056000000000001 92.93125000000002 99.253541666666663 61.959166666666654 0.48761904761904806 56.300000000000004 1.0000000180025095e-35 0.028000000000000004 84.693750000000009 5.0897222222222203 8.8666666666666671
decision_type=2 2 2 2 2 2 2 2 2 2 2 2 2 2 2 2 2 2 2
left_child=1 2 4 -3 5 8 -4 -8 -1 10 11 13 -10 -5 -2 16 -15 -16 -12
right_child=14 3 6 9 -6 -7 7 -9 12 -11 18 -13 -14 15 17 -17 -18 -19 -20
leaf_value=0.0027764896325070056 -0.0065590407070033867 0.0058787777575086608 4.6178478398815521e-05 -0.0057800180560735803 0.0037855964530529103 0.0036204118033990231 -0.0054294751043721763 0.0011443541669915879 0.001837083136724202 0.0054396647340048199 0.00025318682226126171 0.005408285604079595 -0.0025973275851498417 0.0063804668342573607 0.0010992849081609742 -0.00040687820366166046 -0.00041152645160264423 -0.0046801669230073705 -0.0081209569395352225
leaf_weight=11.939619421958922 73.38030669093132 70.213033929467201 17.858179479837418 2.95792889595032 27.588522404432297 20.418868169188499 35.117363601922989 8.5044432878494245 10.467644587159155 18.946698784828186 2.4425180703401557 16.444017693400383 51.502320766448975 9.0970980972051603 3.9607973098754909 11.718965515494347 5.8375442326068887 16.170650914311409 3.4743921309709549
leaf_count=49 294 293 73 12 114 84 142 35 43 79 10 68 209 38 16 48 24 65 14
internal_value=0 0.00163496 -0.000439584 0.00433193 0.000808905 -6.06416e-05 -0.00291903 -0.00413922 -0.0010864 0.00278885 0.00180639 0.00265292 -0.00184023 0.00109658 -0.00591428 0.00189309 0.00371456 -0.00352393 -0.00465232
internal_weight=0 324.529 183.397 141.132 121.917 94.3285 61.48 43.6218 73.9096 70.9192 51.9725 46.0556 61.97 29.6115 93.5118 26.6536 14.9346 20.1314 5.91691
internal_count=1710 1335 749 586 499 385 250 177 301 293 214 190 252 122 375 110 62 81 24
is_linear=0
shrinkage=0.0039119


Tree=36
num_leaves=20
num_cat=0
split_feature=2 0 18 3 0 9 16 14 14 9 3 11 3 7 16 14 14 9 3
split_gain=275.116 134.152 28.233 21.1061 17.6562 17.5678 20.0874 12.5033 11.6561 11.0129 10.0756 10.0254 9.92679 7.08467 6.60628 7.78376 6.47225 5.48478 7.56342
threshold=1.0000000180025095e-35 1.0000000180025095e-35 0.013000000000000003 57.994166666666651 1.0000000180025095e-35 1.3095833333333353 0.48761904761904806 108.86071428571451 94.320000000000007 0.048035714285714307 35.494166666666707 70.266666666666666 42.560000000000009 0.23450000000000001 0.13100000000000003 113.91666666666652 120.06250000000001 0.029166666666666653 57.395476190476209
decision_type=2 2 2 2 2 2 2 2 2 2 2 2 2 2 2 2 2 2 2
left_child=1 2 7 -3 -2 6 -4 8 13 -6 -8 -5 -9 -1 -14 -16 -12 -17 -19
right_child=4 3 5 11 9 -7 10 12 -10 -11 16 -13 14 -15 15 17 -18 18 -20
leaf_value=-0.0014174648374005244 -0.0067738245235478608 0.005917404948664268 0.0010967538754669622 6.0637395306092143e-05 -0.0045235097565738108 0.0032138455659096259 -0.0013039702435334271 0.0031030842885173934 -0.005482684420094237 0.0015513751850585687 -0.0060365102795207348 0.0036979502074797818 0.0030959036446343178 0.0046556085120280904 0.0064399964854098719 -0.0020337012647276766 0.0003936731620031523 -0.003160971872666955 0.0017389446806357867
leaf_weight=10.778255671262743 72.401861369609833 77.519589960575104 12.44332619011402 14.886005833745001 14.689422681927683 7.0223819464445105 11.794461280107496 30.78526796400547 8.642856299877165 6.429114654660224 31.494369357824326 56.192381665110588 11.147378370165823 3.9198892414569846 2.4495257437229148 21.628621563315392 2.4563245773315421 6.1370921134948757 20.780597031116486
leaf_count=44 290 324 51 61 59 29 48 127 35 26 127 233 46 16 10 88 10 25 85
internal_value=0 0.00174517 -0.000509729 0.00450016 -0.00585221 -0.00256916 -0.0032781 0.000643175 -0.00190431 -0.0026571 -0.00447645 0.00294284 0.00128859 0.000196261 0.000379883 -0.000211064 -0.00556001 -0.000567249 0.000599746
internal_weight=0 330.078 181.48 148.598 93.5204 65.2109 58.1885 116.269 23.341 21.1185 45.7452 71.0784 92.9285 14.6981 62.1432 50.9958 33.9507 48.5463 26.9177
internal_count=1734 1359 741 618 375 265 236 476 95 85 185 294 381 60 254 208 137 198 110
is_linear=0
shrinkage=0.0039119


Tree=37
num_leaves=20
num_cat=0
split_feature=2 0 1 8 11 1 0 1 5 14 5 16 1 1 7 7 8 16 5
split_gain=272.962 133.254 52.8139 34.7324 28.5802 21.6202 17.5112 16.2022 19.0603 15.2013 12.8681 10.5403 10.0492 9.84255 8.10803 7.60849 8.99821 7.25989 10.8505
threshold=1.0000000180025095e-35 1.0000000180025095e-35 0.44888888888888906 6.9344444444444457 101.60000000000001 2.0365000000000006 1.0000000180025095e-35 0.30937500000000007 699.50000000000011 113.09166666666651 433.50000000000006 0.23166666666666655 0.47916666666666657 0.15100000000000002 0.22250000000000003 0.21950000000000003 5.0660714285714308 0.83100000000000007 1752.0000000000002
decision_type=2 2 2 2 2 2 2 2 2 2 2 2 2 2 2 2 2 2 2
left_child=1 3 9 4 5 7 -2 -1 11 -3 -8 -9 -6 -11 -5 16 -13 -10 -19
right_child=6 2 -4 14 12 -7 10 8 17 13 -12 15 -14 -15 -16 -17 -18 18 -20
leaf_value=-0.0076928074489442406 -0.0067459766185061628 -0.0071096265392648654 0.0054869400644897382 0.0049450841284364444 -0.0041672760868193296 0.0037775725684614635 0.0038365029160584703 0.002574103424488616 0.0019834694334195722 -0.0063829703526244981 -0.0040657259649374555 -0.0057812114840801185 0.0028151041945859313 0.001833788877505835 0.0012090342774766821 -0.0048903949205122404 0.00012180939147909244 -0.0032650667520086954 0.0038374497529126772
leaf_weight=9.219991058111189 72.416726723313332 4.7404825240373638 125.40395280718803 16.248740643262863 3.4421581625938442 8.2599305510520917 3.7136650085449245 3.8966865539550772 16.148663938045502 2.4843584895133999 17.407617002725601 5.6884891539812115 26.828548684716225 15.835863143205641 20.4719168394804 41.023986771702766 12.052241936326025 14.036039933562281 4.1569129079580298
leaf_count=37 290 19 524 67 14 34 15 16 66 10 70 23 111 65 84 166 49 57 17
internal_value=0 0.00173911 0.00448663 -0.000507714 -0.00137165 -0.00226678 -0.00582825 -0.00274358 -0.00226169 -0.000936366 -0.00264635 -0.00354386 0.00199713 0.000669695 0.00288179 -0.00395987 -0.00177084 6.99533e-05 -0.00160872
internal_weight=0 329.939 148.465 181.474 144.754 114.483 93.538 106.223 97.003 23.0607 21.1213 62.6614 30.2707 18.3202 36.7207 58.7647 17.7407 34.3416 18.193
internal_count=1734 1359 618 741 590 465 375 431 394 94 85 254 125 75 151 238 72 140 74
is_linear=0
shrinkage=0.0039119


Tree=38
num_leaves=20
num_cat=0
split_feature=3 3 17 17 10 9 3 18 17 8 3 3 8 8 8 13 9 3 8
split_gain=169.343 31.2925 29.1531 19.8135 15.0144 13.2481 12.6186 11.7597 11.2768 10.7229 10.1828 7.9779 7.13489 7.03302 8.14523 8.19601 7.42715 9.72721 6.36147
threshold=71.038000000000011 33.629285714285707 0.80558333333333365 1.0969444444444452 1.0000000180025095e-35 0.26200000000000007 88.692936507936523 0.016500000000000004 0.86083333333333367 4.0632142857142854 85.602500000000006 84.681666666666658 6.6814285714285706 4.9271428571428553 6.9166666666666661 35.527777777777807 -0.24414285714285697 6.9287500000000009 5.151250000000001
decision_type=2 2 2 2 2 2 2 2 2 2 2 2 2 2 2 2 2 2 2
left_child=1 13 -2 10 7 -6 11 -3 -9 -8 -4 -5 18 -1 15 16 -15 -18 -10
right_child=2 4 3 6 5 -7 9 8 12 -11 -12 -13 -14 14 -16 -17 17 -19 -20
leaf_value=0.0051334867816508305 0.00056169050623856636 0.0021842893430161756 -0.0024922375916435497 -0.0013419419707236403 -0.00375734028324536 0.0043740091411626353 0.0034167740334387318 0.0031880231599181758 0.00020299976312162859 -0.0035090388280707308 -0.0057720435124585636 0.0057936518867613357 0.0029234226649620353 0.0039419733389919748 0.0045966844841767206 0.0057538637481927262 -0.00540430682933816 0.00098595536245531419 -0.0032960476095264496
leaf_weight=35.168306827545166 27.137740463018417 93.915461972355843 19.559062883257866 4.6529729515314084 16.300119265913967 3.6427339017391196 3.6545820683240882 11.589956521987913 12.952188387513159 34.966628655791283 64.722548335790634 4.6405291110277176 5.338349536061286 8.9481871873140317 26.644799798727036 6.4687114655971518 4.3996382206678417 18.981788143515587 19.653862178325653
leaf_count=147 111 388 79 19 66 15 15 48 53 141 260 19 22 37 111 27 18 78 80
internal_value=0 0.00198826 -0.00311721 -0.00387524 0.000927232 -0.00223815 -0.00184826 0.00137127 -0.000163598 -0.00283644 -0.0050194 0.00220318 -0.00120331 0.00370484 0.00292448 0.00175716 0.00093014 -0.000217723 -0.00189778
internal_weight=0 264.004 159.334 132.196 163.393 19.9429 47.9147 143.45 49.5344 38.6212 84.2816 9.2935 37.9444 100.611 65.4431 38.7983 32.3296 23.3814 32.6061
internal_count=1734 1090 644 533 672 81 194 591 203 156 339 38 155 418 271 160 133 96 133
is_linear=0
shrinkage=0.0039119


Tree=39
num_leaves=20
num_cat=0
split_feature=2 0 4 8 11 11 0 5 9 5 15 15 14 11 14 7 8 7 7
split_gain=267.338 137.406 82.1814 36.1514 30.8812 17.3063 11.5008 10.5094 9.3273 9.24002 13.9039 8.71099 8.00723 6.64412 5.54955 4.92788 4.59443 4.72797 12.4408
threshold=1.0000000180025095e-35 1.0000000180025095e-35 1.0000000180025095e-35 6.9344444444444457 100.04222222222221 80.208333333333357 1.0000000180025095e-35 287.50000000000006 0.25055555555555559 997.00000000000011 0.71900000000000008 0.84125000000000016 118.74166666666652 46.300000000000004 109.53750000000001 0.21350000000000002 4.0287500000000014 0.19450000000000003 0.16650000000000004
decision_type=2 2 2 2 2 2 2 2 2 2 2 2 2 2 2 2 2 2 2
left_child=1 3 13 4 5 7 -2 -1 -8 16 -11 -6 -12 -3 -9 -5 -7 18 -18
right_child=6 2 -4 15 11 9 8 14 -10 10 12 -13 -14 -15 -16 -17 17 -19 -20
leaf_value=-0.0057853600265362426 -0.0066755801083987895 -0.00011168654786744202 -0.0053710642999115063 0.0047160282593562575 0.002610320950735674 0.00047429357606422912 -0.004588447557556787 -0.0015490415428969404 0.0020066782395244741 0.0054583377745939772 -0.0057340884017918073 -0.0030896566215200204 0.0012976529173090003 0.0053207285445245698 0.0011229071122287352 0.0016804862061323028 -0.0068866460431101038 -0.0052591418958583373 0.00500189129685629
leaf_weight=5.6839538365602484 73.682264283299446 3.3876244872808448 12.18682925403118 12.365185424685476 28.284415408968925 2.4594483226537696 16.191292583942417 23.345054551959038 3.9558075070381156 3.6587674021720877 6.9196999222040159 4.6508914530277243 3.6589127779006958 133.54114454984665 23.962384358048439 26.48611319065094 2.7197851389646521 44.298733234405518 2.4583367556333542
leaf_count=23 295 14 49 51 117 10 65 95 16 15 28 19 15 558 98 109 11 179 10
internal_value=0 0.00150231 0.00431525 -0.000693391 -0.00155532 -0.00248299 -0.0059529 -0.0008054 -0.00327068 -0.00381724 -0.000981687 0.00178665 -0.00327595 0.00518349 -0.000187868 0.00266628 -0.00458365 -0.00484342 -0.00118056
internal_weight=0 340.067 149.116 190.952 152.1 119.165 93.8294 52.9914 20.1471 66.1737 14.2374 32.9353 10.5786 136.929 47.3074 38.8513 51.9363 49.4769 5.17812
internal_count=1777 1401 621 780 620 484 376 216 81 268 58 136 43 572 193 160 210 200 21
is_linear=0
shrinkage=0.0039119


Tree=40
num_leaves=20
num_cat=0
split_feature=1 1 18 8 5 14 9 14 1 14 17 17 5 9 17 9 5 13 5
split_gain=162.784 41.3982 25.9245 24.2896 20.0823 15.1715 13.8041 14.7776 12.2141 13.1546 10.1952 9.3324 8.68441 7.41965 7.18578 9.63458 8.91075 7.48443 8.07665
threshold=0.61083333333333367 0.29250000000000004 0.028000000000000004 6.9344444444444457 351.50000000000006 113.74166666666652 0.38944444444444454 119.63666666666651 1.0014285714285702 115.56500000000001 1.0780714285714301 1.1177222222222203 493.50000000000006 0.21583333333333352 1.1132500000000001 -0.22708333333333347 2764.5000000000005 16.810000000000006 886.50000000000011
decision_type=2 2 2 2 2 2 2 2 2 2 2 2 2 2 2 2 2 2 2
left_child=1 10 8 6 -4 13 7 -3 9 -2 -1 -7 -8 -6 15 -10 17 18 -17
right_child=2 3 4 -5 5 11 12 -9 14 -11 -12 -13 -14 -15 -16 16 -18 -19 -20
leaf_value=-0.0067431395901005843 -0.0012012865989728344 -0.0047089800115040171 -0.0040090301445813012 0.0018049179477513731 -0.0037104319243910348 0.0008090695985531614 -0.0030217836995768722 -0.00034625533544630318 0.0041206751174381866 0.0023933085300497205 -0.0030925255887336868 0.0043770501820165515 0.003132193919967015 0.0011983933550498446 0.0049925245152307477 0.0049121652071312163 0.0062496098109789183 -0.0006223515149841695 -0.0018202956086006573
leaf_weight=44.639302775263786 22.130548492074013 44.906756907701492 15.770049795508383 23.415199086070061 13.291640445590021 34.74552883207798 5.6816647946834555 16.435923174023628 39.754675194621086 51.243983298540115 16.84894560277462 16.778246775269508 8.7445161491632444 7.0557255595922461 30.918258175253868 9.6428785622119886 5.0100132822990409 23.126154705882072 3.6250052750110617
leaf_count=179 90 181 64 96 54 143 23 67 165 212 68 70 36 29 129 40 21 95 15
internal_value=0 -0.00323356 0.00172749 -0.00166176 -2.14852e-05 0.000852386 -0.00273921 -0.00354888 0.0025557 0.00130366 -0.0057558 0.00198476 0.00067744 -0.00199156 0.00337001 0.0027417 0.00140149 0.000708083 0.00304363
internal_weight=0 160.672 273.093 99.1841 87.6412 71.8711 75.7689 61.3427 185.452 73.3745 61.4882 51.5238 14.4262 20.3474 112.077 81.1587 41.4041 36.394 13.2679
internal_count=1777 650 1127 403 360 296 307 248 767 302 247 213 59 83 465 336 171 150 55
is_linear=0
shrinkage=0.0039119


Tree=41
num_leaves=20
num_cat=0
split_feature=2 0 4 13 17 18 14 3 0 17 11 11 17 3 14 11 13 9 3
split_gain=264.137 136.36 81.3352 38.7806 50.1038 17.6232 17.2303 12.3207 11.4074 15.6765 8.74227 6.59495 6.52887 5.63566 7.91561 6.15646 6.05982 6.22622 4.69832
threshold=1.0000000180025095e-35 1.0000000180025095e-35 1.0000000180025095e-35 7.0479166666666666 1.1393125000000002 0.011500000000000002 106.17777777777802 42.560000000000009 1.0000000180025095e-35 1.1177222222222203 79.675000000000026 46.300000000000004 0.86083333333333367 59.372500000000009 109.53750000000001 72.71250000000002 16.634285714285706 -0.43416666666666642 78.652500000000018
decision_type=2 2 2 2 2 2 2 2 2 2 2 2 2 2 2 2 2 2 2
left_child=1 3 11 6 5 10 7 -1 -2 -10 13 -3 -7 14 15 -5 -15 -18 -4
right_child=8 2 18 4 -6 12 -8 -9 9 -11 -12 -13 -14 16 -16 -17 17 -19 -20
leaf_value=0.0035552357873994945 -0.0066356114077388284 -0.00011104356018010585 -0.006786111514058185 0.0025632219226859898 0.0021714584425179253 6.3799180551924516e-05 0.0028440988732003577 -0.0064263949039457856 -0.0050239615598491605 0.0033488430653784772 -0.0031106439866841035 0.00530131282922249 -0.005880312341539534 -0.0067859389371649637 0.0047640971463690325 -0.0051312637821688042 0.0047517621656655304 -0.0028302948641973366 -0.0010912243863154274
